{"learner":{"attributes":{"best_iteration":"52","best_score":"-0.858824"},"feature_names":[],"feature_types":[],"gradient_booster":{"model":{"gbtree_model_param":{"num_parallel_tree":"1","num_trees":"103"},"iteration_indptr":[0,1,2,3,4,5,6,7,8,9,10,11,12,13,14,15,16,17,18,19,20,21,22,23,24,25,26,27,28,29,30,31,32,33,34,35,36,37,38,39,40,41,42,43,44,45,46,47,48,49,50,51,52,53,54,55,56,57,58,59,60,61,62,63,64,65,66,67,68,69,70,71,72,73,74,75,76,77,78,79,80,81,82,83,84,85,86,87,88,89,90,91,92,93,94,95,96,97,98,99,100,101,102,103],"tree_info":[0,0,0,0,0,0,0,0,0,0,0,0,0,0,0,0,0,0,0,0,0,0,0,0,0,0,0,0,0,0,0,0,0,0,0,0,0,0,0,0,0,0,0,0,0,0,0,0,0,0,0,0,0,0,0,0,0,0,0,0,0,0,0,0,0,0,0,0,0,0,0,0,0,0,0,0,0,0,0,0,0,0,0,0,0,0,0,0,0,0,0,0,0,0,0,0,0,0,0,0,0,0,0],"trees":[{"base_weights":[1.3103964E-2,-7.6816237E-1,7.626556E-1,1.6911225E-1,-1.24675E0,4.550314E-1,1.2531109E0,4.060804E-1,-2.861435E-1,-1.0733485E0,-1.7704912E0,-2.4635242E-1,6.5551114E-1,1.3180864E0,3.7442946E-1,-7.840715E-2,4.9255425E-1,-5.763329E-1,9.0860814E-1,-1.2360425E0,-4.0971708E-1,-1.6618837E-1,-1.4789333E0,-7.851071E-1,3.710514E-1,9.256229E-1,2.984255E-1,7.562356E-1,1.3899527E0,-5.219197E-2,7.844931E-2,1.9402686E-1,7.148342E-1,6.0671072E-2,-8.2907933E-1,2.6180375E-2,9.3259E-2,-1.4190079E0,-7.197478E-1,-8.7093633E-1,-1.2517795E-1,-1.6272407E0,-1.0005069E0,5.316404E-2,-1.0259608E0,-2.0385796E-1,7.065221E-1,7.7300763E-1,1.1455851E0,-6.067587E-2,7.120712E-1,-2.3079323E-2,1.2118454E0,1.4075093E0,5.065832E-2,-3.4374043E-1,5.0637835E-1,9.9153894E-1,1.6482258E-1,-6.474093E-2,4.778068E-2,1.3540689E-2,-1.0537211E0,-1.035622E0,-1.7381471E0,2.064708E-1,-1.0771575E0,-1.3293511E0,-6.8283123E-3,-3.7393072E-1,3.339592E-2,-6.961839E-2,-1.7123661E0,-2.8751072E-2,-1.1860664E-1,-1.2513123E0,-1.6800104E-2,-4.997169E-2,3.2745156E-2,9.180469E-1,6.5747923E-3,4.4956845E-1,9.505508E-1,1.2736716E0,4.9161348E-1,2.6821557E-1,-5.1853484E-1,-1.1944421E-2,8.641533E-1,5.316404E-2,1.0311969E-1,1.153125E0,1.0907685E-1,-6.349535E-2,5.6415383E-2,-3.0221138E-2,7.242237E-1,1.2251085E0,2.8339767E-1,-6.722904E-2,7.6009727E-1,-6.855164E-1,-1.3395525E0,-1.9276673E0,-7.694798E-1,-1.1814064E0,-1.856044E0,5.2398887E-2,-4.1247208E-2,-3.789008E-1,-1.4917454E0,-1.282721E-1,-4.7253456E-2,1.851618E-2,-7.0695645E-1,-8.757435E-2,-1.3714097E-1,-7.67992E-1,-1.3336425E-1,2.6375225E-2,9.355457E-2,2.576878E-1,8.3294205E-2,1.1078048E0,5.6601965E-1,8.211156E-1,1.408663E0,1.7024317E-3,6.4954534E-2,9.525626E-1,-4.8968174E-2,-1.1056454E0,7.6134615E-2,2.3441955E-1,1.1346573E0,5.2398887E-2,9.95604E-2,3.8419347E-2,-2.9369442E-2,1.0616957E-2,7.6949336E-2,1.0371122E-1,5.803198E-2,-1.053654E-2,4.6676774E-2,9.997704E-3,8.32929E-2,-9.266347E-2,-1.1944421E-2,-1.282721E-1,-6.593679E-2,-9.290902E-2,-1.7315228E-1,-7.1176834E-2,-2.9755135E-3,-1.355807E-1,9.997704E-3,-1.5085928E-1,-1.0098684E-1,8.516833E-3,-8.5148215E-2,-5.0948437E-2,-1.3047208E-1,-8.2272984E-2,6.0020504E-3,-1.3961635E-2,-9.050513E-2,4.8854124E-2,-1.1044481E-2,8.935777E-2,4.3435056E-2,1.8536792E-3,8.889549E-2,9.155674E-2,2.6375225E-2,1.1279434E-1,5.766219E-2,9.061843E-2,3.8419347E-2,1.9627009E-2,-7.41628E-2,-1.2351323E-1,-3.096396E-2,-5.153046E-2,5.7228345E-2,-2.2775512E-2,4.0347934E-2,1.0752422E-1,5.6842234E-2],"categories":[],"categories_nodes":[],"categories_segments":[],"categories_sizes":[],"default_left":[0,0,0,0,0,0,0,0,0,0,0,0,0,0,0,0,0,0,0,0,0,0,0,0,0,0,0,0,0,0,0,0,0,0,0,0,0,0,0,0,0,0,0,0,0,0,0,0,0,0,0,0,0,0,0,0,0,0,0,0,0,0,0,0,0,0,0,0,0,0,0,0,0,0,0,0,0,0,0,0,0,0,0,0,0,0,0,0,0,0,0,0,0,0,0,0,0,0,0,0,0,0,0,0,0,0,0,0,0,0,0,0,0,0,0,0,0,0,0,0,0,0,0,0,0,0,0,0,0,0,0,0,0,0,0,0,0,0,0,0,0,0,0,0,0,0,0,0,0,0,0,0,0,0,0,0,0,0,0,0,0,0,0,0,0,0,0,0,0,0,0,0,0,0,0,0,0,0,0,0,0,0,0,0,0,0,0,0,0],"id":0,"left_children":[1,3,5,7,9,11,13,15,17,19,21,23,25,27,29,-1,31,33,35,37,39,-1,41,43,45,47,49,51,53,-1,-1,55,57,59,61,-1,-1,63,65,67,69,71,73,-1,75,77,79,81,83,85,87,-1,89,91,-1,93,95,97,99,-1,-1,-1,101,103,105,107,109,111,-1,113,-1,-1,115,-1,-1,117,-1,-1,-1,119,-1,121,123,125,127,129,131,-1,133,-1,-1,135,-1,-1,137,-1,139,141,143,-1,145,147,149,151,153,155,157,-1,-1,159,161,-1,-1,-1,163,-1,-1,165,-1,-1,-1,167,-1,169,171,173,175,-1,-1,177,179,181,183,185,187,-1,-1,-1,-1,-1,-1,-1,-1,-1,-1,-1,-1,-1,-1,-1,-1,-1,-1,-1,-1,-1,-1,-1,-1,-1,-1,-1,-1,-1,-1,-1,-1,-1,-1,-1,-1,-1,-1,-1,-1,-1,-1,-1,-1,-1,-1,-1,-1,-1,-1,-1,-1,-1,-1],"loss_changes":[6.39568E2,2.4009366E2,8.3525635E1,1.9712181E1,3.0260864E1,4.8547554E1,1.1740082E1,1.556142E1,2.2285831E1,2.8492523E1,7.9602966E0,2.5977013E1,2.556231E1,6.9892273E0,1.2336889E1,0E0,7.413706E0,8.2797165E0,1.936862E0,1.9308197E1,7.0271997E0,0E0,2.296402E0,1.5680748E1,7.214984E0,4.218445E0,1.739951E1,1.2382664E1,1.2490234E0,0E0,0E0,8.564077E0,9.7086525E0,8.778351E0,8.505451E0,0E0,0E0,1.7515808E1,1.9535242E1,7.236435E0,5.1044283E0,8.277893E-1,5.0169725E0,0E0,6.2612305E0,4.5219975E0,2.9796047E0,4.9037857E0,4.416893E0,9.696457E0,7.3433857E0,0E0,4.6494484E-1,3.5153198E-1,0E0,3.8605313E0,6.6309643E0,6.7577553E0,1.5154099E1,0E0,0E0,0E0,2.2533836E0,1.6130226E1,3.365387E0,6.7443337E0,1.1667648E1,2.3556252E0,0E0,5.296709E0,0E0,0E0,8.180237E-2,0E0,0E0,5.774353E0,0E0,0E0,0E0,2.7914152E0,0E0,4.1274867E0,2.9430084E0,1.8805084E0,1.9976246E0,8.207162E0,9.4665E0,0E0,7.6469727E0,0E0,0E0,1.5527763E0,0E0,0E0,2.5468967E0,0E0,4.45685E0,1.2078934E0,1.8051529E0,0E0,3.1950798E0,4.208059E0,1.2133446E0,1.440525E0,7.667881E0,1.4691988E1,2.6868744E0,0E0,0E0,6.492401E0,4.089302E0,0E0,0E0,0E0,5.1166077E0,0E0,0E0,3.9577885E0,0E0,0E0,0E0,4.6031857E0,0E0,1.116497E0,6.4002485E0,2.1634483E0,1.0925903E0,0E0,0E0,7.2696495E-1,8.037104E0,4.4143085E0,8.013819E0,2.6491456E0,2.5446281E0,0E0,0E0,0E0,0E0,0E0,0E0,0E0,0E0,0E0,0E0,0E0,0E0,0E0,0E0,0E0,0E0,0E0,0E0,0E0,0E0,0E0,0E0,0E0,0E0,0E0,0E0,0E0,0E0,0E0,0E0,0E0,0E0,0E0,0E0,0E0,0E0,0E0,0E0,0E0,0E0,0E0,0E0,0E0,0E0,0E0,0E0,0E0,0E0,0E0,0E0,0E0,0E0,0E0,0E0],"parents":[2147483647,0,0,1,1,2,2,3,3,4,4,5,5,6,6,7,7,8,8,9,9,10,10,11,11,12,12,13,13,14,14,16,16,17,17,18,18,19,19,20,20,22,22,23,23,24,24,25,25,26,26,27,27,28,28,31,31,32,32,33,33,34,34,37,37,38,38,39,39,40,40,41,41,42,42,44,44,45,45,46,46,47,47,48,48,49,49,50,50,52,52,53,53,55,55,56,56,57,57,58,58,62,62,63,63,64,64,65,65,66,66,67,67,69,69,72,72,75,75,79,79,81,81,82,82,83,83,84,84,85,85,86,86,88,88,91,91,94,94,96,96,97,97,98,98,100,100,101,101,102,102,103,103,104,104,105,105,106,106,109,109,110,110,114,114,117,117,121,121,123,123,124,124,125,125,126,126,129,129,130,130,131,131,132,132,133,133,134,134],"right_children":[2,4,6,8,10,12,14,16,18,20,22,24,26,28,30,-1,32,34,36,38,40,-1,42,44,46,48,50,52,54,-1,-1,56,58,60,62,-1,-1,64,66,68,70,72,74,-1,76,78,80,82,84,86,88,-1,90,92,-1,94,96,98,100,-1,-1,-1,102,104,106,108,110,112,-1,114,-1,-1,116,-1,-1,118,-1,-1,-1,120,-1,122,124,126,128,130,132,-1,134,-1,-1,136,-1,-1,138,-1,140,142,144,-1,146,148,150,152,154,156,158,-1,-1,160,162,-1,-1,-1,164,-1,-1,166,-1,-1,-1,168,-1,170,172,174,176,-1,-1,178,180,182,184,186,188,-1,-1,-1,-1,-1,-1,-1,-1,-1,-1,-1,-1,-1,-1,-1,-1,-1,-1,-1,-1,-1,-1,-1,-1,-1,-1,-1,-1,-1,-1,-1,-1,-1,-1,-1,-1,-1,-1,-1,-1,-1,-1,-1,-1,-1,-1,-1,-1,-1,-1,-1,-1,-1,-1],"split_conditions":[1.03E1,2.55E-1,1.155E1,2.3E-1,5.55E-1,1.5E1,5.45E-1,1.4E1,9.9E0,9.9E0,5.4E-1,5.9E-1,2.7E-1,1.1E1,5.5E-1,-7.840715E-2,6.5E0,3.08E0,1.0033334E1,5.8E-1,4.9E-1,-1.6618837E-1,9.9E0,2.05E-1,1.065E1,5.3E-1,1.0933333E1,3.9E-2,7.8E-2,-5.219197E-2,7.844931E-2,2.7E1,2.05E-1,1.12E1,4.1E-2,2.6180375E-2,9.3259E-2,5E-2,1.5E1,6.4E0,8E0,7E-2,6.75E-1,5.316404E-2,8.1E-2,8.9E0,8.6E-2,1.075E1,2.45E-1,3.1E-1,3.06E0,-2.3079323E-2,6.6E-2,1.6E0,5.065832E-2,1.65E-1,9.4E0,5.05E1,2.15E-1,-6.474093E-2,4.778068E-2,1.3540689E-2,5E-2,2.4E-1,2.85E-1,9.533334E0,5.2E-2,2.7E-1,-6.8283123E-3,4.5E-2,3.339592E-2,-6.961839E-2,9.3E0,-2.8751072E-2,-1.1860664E-1,3.6E-1,-1.6800104E-2,-4.997169E-2,3.2745156E-2,6.3E-2,6.5747923E-3,4.2E-1,3.7E-1,2.5E1,2.55E-1,3.2E-1,3.8E-1,-1.1944421E-2,2.6E-1,5.316404E-2,1.0311969E-1,2.5E1,1.0907685E-1,-6.349535E-2,7E0,-3.0221138E-2,4.5E-1,3.21E0,9.4E0,-6.722904E-2,4.6E-1,4.7E-1,3.55E1,4.5E-1,3.24E0,6.5E-2,3.25E0,5.2398887E-2,-4.1247208E-2,7.4E0,2E0,-1.282721E-1,-4.7253456E-2,1.851618E-2,6.2E-1,-8.757435E-2,-1.3714097E-1,3.4E-1,-1.3336425E-1,2.6375225E-2,9.355457E-2,3.55E1,8.3294205E-2,5.15E1,4.2E-1,2E-1,3.42E0,1.7024317E-3,6.4954534E-2,6.8E0,3.4E1,2.7E1,6E-1,1.12E1,7E0,5.2398887E-2,9.95604E-2,3.8419347E-2,-2.9369442E-2,1.0616957E-2,7.6949336E-2,1.0371122E-1,5.803198E-2,-1.053654E-2,4.6676774E-2,9.997704E-3,8.32929E-2,-9.266347E-2,-1.1944421E-2,-1.282721E-1,-6.593679E-2,-9.290902E-2,-1.7315228E-1,-7.1176834E-2,-2.9755135E-3,-1.355807E-1,9.997704E-3,-1.5085928E-1,-1.0098684E-1,8.516833E-3,-8.5148215E-2,-5.0948437E-2,-1.3047208E-1,-8.2272984E-2,6.0020504E-3,-1.3961635E-2,-9.050513E-2,4.8854124E-2,-1.1044481E-2,8.935777E-2,4.3435056E-2,1.8536792E-3,8.889549E-2,9.155674E-2,2.6375225E-2,1.1279434E-1,5.766219E-2,9.061843E-2,3.8419347E-2,1.9627009E-2,-7.41628E-2,-1.2351323E-1,-3.096396E-2,-5.153046E-2,5.7228345E-2,-2.2775512E-2,4.0347934E-2,1.0752422E-1,5.6842234E-2],"split_indices":[8,1,8,1,1,5,1,5,8,8,7,7,1,5,7,0,3,6,8,7,7,0,8,1,8,7,8,4,4,0,0,5,1,3,4,0,0,4,5,3,0,4,1,0,4,0,4,8,1,2,6,0,4,3,0,1,8,5,1,0,0,0,4,2,1,8,4,2,0,4,0,0,8,0,0,1,0,0,0,4,0,2,2,5,1,1,2,0,2,0,0,5,0,0,0,0,7,6,8,0,7,7,5,7,6,4,6,0,0,0,3,0,0,0,7,0,0,2,0,0,0,5,0,5,2,1,6,0,0,0,5,5,7,8,0,0,0,0,0,0,0,0,0,0,0,0,0,0,0,0,0,0,0,0,0,0,0,0,0,0,0,0,0,0,0,0,0,0,0,0,0,0,0,0,0,0,0,0,0,0,0,0,0,0,0,0,0,0,0],"split_type":[0,0,0,0,0,0,0,0,0,0,0,0,0,0,0,0,0,0,0,0,0,0,0,0,0,0,0,0,0,0,0,0,0,0,0,0,0,0,0,0,0,0,0,0,0,0,0,0,0,0,0,0,0,0,0,0,0,0,0,0,0,0,0,0,0,0,0,0,0,0,0,0,0,0,0,0,0,0,0,0,0,0,0,0,0,0,0,0,0,0,0,0,0,0,0,0,0,0,0,0,0,0,0,0,0,0,0,0,0,0,0,0,0,0,0,0,0,0,0,0,0,0,0,0,0,0,0,0,0,0,0,0,0,0,0,0,0,0,0,0,0,0,0,0,0,0,0,0,0,0,0,0,0,0,0,0,0,0,0,0,0,0,0,0,0,0,0,0,0,0,0,0,0,0,0,0,0,0,0,0,0,0,0,0,0,0,0,0,0],"sum_hessian":[1.0901589E3,5.3377466E2,5.563843E2,1.8064426E2,3.5313037E2,3.4310754E2,2.1327676E2,1.1887557E2,6.176868E1,2.6758658E2,8.554379E1,7.622022E1,2.6688733E2,1.9812596E2,1.5150808E1,6.060323E0,1.1281525E2,5.0114212E1,1.1654468E1,2.1420912E2,5.3377464E1,3.1233974E1,5.4309822E1,4.055755E1,3.566267E1,1.510419E2,1.1584541E2,2.3775114E1,1.7435085E2,5.827234E0,9.323574E0,4.8948765E1,6.3866486E1,1.445154E1,3.566267E1,5.127966E0,6.526502E0,1.5686914E2,5.733998E1,1.9579506E1,3.379796E1,3.962519E1,1.4684629E1,5.3610554E0,3.519649E1,1.3286094E1,2.237658E1,9.1837204E1,5.9204697E1,6.246795E1,5.3377464E1,7.22577E0,1.6549345E1,1.6922287E2,5.127966E0,1.794788E1,3.1000885E1,4.1956085E1,2.19104E1,5.3610554E0,9.090485E0,6.526502E0,2.913617E1,7.3190056E1,8.367908E1,1.6083166E1,4.1256817E1,1.1887557E1,7.691949E0,2.3775114E1,1.0022842E1,5.594145E0,3.4031048E1,7.9250383E0,6.7595916E0,2.7038366E1,8.158128E0,7.691949E0,5.594145E0,1.6316256E1,6.060323E0,3.379796E1,5.803925E1,4.8715675E1,1.0489021E1,3.6595028E1,2.587292E1,7.9250383E0,4.5452423E1,5.3610554E0,1.118829E1,3.0301617E1,1.3892126E2,7.4588594E0,1.0489021E1,5.827234E0,2.517365E1,3.1000885E1,1.09552E1,7.691949E0,1.4218451E1,1.4218451E1,1.4917719E1,1.5383898E1,5.780616E1,1.6549345E1,6.712974E1,9.789753E0,6.2934127E0,1.6083166E1,2.517365E1,6.7595916E0,5.127966E0,8.391217E0,1.5383898E1,7.9250383E0,2.6106009E1,1.5383898E1,1.1654468E1,6.7595916E0,9.5566635E0,2.7271456E1,6.526502E0,3.985828E1,1.818097E1,1.2819915E1,3.589576E1,5.127966E0,5.3610554E0,1.09552E1,2.563983E1,1.2586825E1,1.3286094E1,1.4218451E1,3.1233974E1,9.789753E0,2.0511864E1,5.127966E0,5.3610554E0,9.090485E0,1.6083166E1,2.1444221E1,9.5566635E0,5.127966E0,5.827234E0,5.594145E0,8.624307E0,6.2934127E0,7.9250383E0,6.7595916E0,8.158128E0,6.9926805E0,8.391217E0,4.615169E1,1.1654468E1,1.09552E1,5.594145E0,4.9181854E1,1.794788E1,1.0255932E1,5.827234E0,6.7595916E0,1.8414059E1,1.0022842E1,5.3610554E0,7.22577E0,8.158128E0,1.3519183E1,1.3752272E1,3.333178E1,6.526502E0,1.0255932E1,7.9250383E0,6.060323E0,6.7595916E0,3.0068527E1,5.827234E0,5.827234E0,5.127966E0,1.9812595E1,5.827234E0,6.2934127E0,6.2934127E0,6.2934127E0,6.9926805E0,5.127966E0,9.090485E0,1.5850077E1,1.5383898E1],"tree_param":{"num_deleted":"0","num_feature":"9","num_nodes":"189","size_leaf_vector":"1"}},{"base_weights":[1.2612073E-2,-7.0423514E-1,7.197947E-1,1.5753385E-1,-1.1335696E0,4.276448E-1,1.1934004E0,3.8071305E-1,-2.6595956E-1,-9.786557E-1,-1.5963645E0,-2.2762965E-1,6.180603E-1,1.2568971E0,3.5130584E-1,-2.538019E-1,5.5889505E-1,-5.337741E-1,8.6453956E-1,-1.12335E0,-3.7995964E-1,-1.4849457E-1,-1.3420252E0,-7.2113127E-1,3.4908584E-1,8.7739694E-1,2.792088E-1,7.1597725E-1,1.3270679E0,-4.829218E-2,7.464747E-2,-9.395505E-1,7.454127E-1,6.3814574E-1,-2.7474452E-2,5.549725E-2,-7.6406664E-1,2.4686385E-2,8.927772E-2,-1.2850085E0,-6.61542E-1,-6.295186E-1,7.864144E-2,-1.1761059E0,-1.3252151E-1,5.043862E-2,-9.3953365E-1,-4.208589E-2,5.4019016E-1,6.4389706E-1,1.0191101E0,-5.6813676E-2,6.7180234E-1,-2.3318287E-2,1.0061117E-1,1.3441987E0,4.805034E-2,-1.0664519E-1,-1.45940855E-2,2.9251248E-2,7.338483E-2,7.09532E-1,2.0083536E-3,-5.980979E-2,4.509581E-2,1.2700803E-2,-9.677346E-1,-9.4512355E-1,-1.5647058E0,1.9275528E-1,-9.841012E-1,-9.445363E-1,1.30293E-1,3.3456177E-2,-2.4620974E-2,-1.3109859E0,-8.5260505E-3,-1.1417406E0,-1.5615249E-2,8.149677E-1,-2.2935688E-2,1.2123225E0,4.0612558E-1,1.08977E0,4.9851575E-1,2.517267E-1,-4.8087472E-1,-1.1117347E-2,8.177894E-1,-4.152443E-2,4.1207366E-2,1.0973407E0,1.3899577E0,5.034286E-1,9.298737E-1,-6.3366073E-1,-1.2243971E0,-1.3747463E-1,-7.2298443E-1,-1.078323E0,-1.6662077E0,-4.7349073E-2,6.0112995E-1,-4.0766114E-1,-1.4065611E0,-1.02521636E-1,-5.6732416E-1,4.0014666E-2,-2.2187814E-2,-1.4921641E0,-7.772064E-1,-7.0743495E-1,-1.2056568E-1,4.0920448E-1,9.217504E-2,1.0503632E-1,5.3697783E-2,7.835244E-1,7.0113964E-2,1.218313E0,8.4117305E-1,8.004324E-2,-1.5423319E-2,9.076693E-1,-4.7149185E-2,-1.015859E0,7.132356E-2,2.1912985E-1,1.0795991E0,4.9494192E-2,9.505604E-2,6.3428015E-2,1.055324E-1,-2.7191272E-2,5.149572E-2,8.903244E-2,1.4337299E-2,1.5382575E-3,-7.621226E-2,-1.1671859E-1,-6.0617004E-2,-1.22270614E-1,-4.353659E-2,-1.22581676E-1,9.383271E-3,-1.3501233E-1,-9.162692E-2,7.723591E-2,2.4324325E-3,7.951617E-3,-7.3540814E-2,-6.69741E-2,-1.3437273E-1,7.4527003E-3,-7.123515E-2,-1.3190863E-1,-6.970608E-2,-9.416103E-2,-1.3320026E-2,-1.2999146E-2,-8.277939E-2,-3.579275E-3,5.4605808E-2,2.7938489E-2,8.410283E-2,3.4527417E-2,-2.893047E-2,1.01286896E-1,7.498015E-2,8.386469E-2,3.9621968E-2,8.675082E-2,3.6332987E-2,4.5369864E-2,-3.4602746E-2,-1.1258807E-1,-2.8757116E-2,-4.0432088E-2,6.544918E-2,4.3554746E-2,-1.6952612E-2,1.0297245E-1,5.3646084E-2],"categories":[],"categories_nodes":[],"categories_segments":[],"categories_sizes":[],"default_left":[0,0,0,0,0,0,0,0,0,0,0,0,0,0,0,0,0,0,0,0,0,0,0,0,0,0,0,0,0,0,0,0,0,0,0,0,0,0,0,0,0,0,0,0,0,0,0,0,0,0,0,0,0,0,0,0,0,0,0,0,0,0,0,0,0,0,0,0,0,0,0,0,0,0,0,0,0,0,0,0,0,0,0,0,0,0,0,0,0,0,0,0,0,0,0,0,0,0,0,0,0,0,0,0,0,0,0,0,0,0,0,0,0,0,0,0,0,0,0,0,0,0,0,0,0,0,0,0,0,0,0,0,0,0,0,0,0,0,0,0,0,0,0,0,0,0,0,0,0,0,0,0,0,0,0,0,0,0,0,0,0,0,0,0,0,0,0,0,0,0,0,0,0,0,0,0,0,0,0,0,0,0,0],"id":1,"left_children":[1,3,5,7,9,11,13,15,17,19,21,23,25,27,29,31,33,35,37,39,41,-1,43,45,47,49,51,53,55,-1,-1,57,59,61,-1,63,65,-1,-1,67,69,71,73,75,-1,-1,77,-1,79,81,83,85,87,89,-1,91,-1,-1,-1,-1,-1,93,-1,-1,-1,-1,95,97,99,101,103,105,107,-1,-1,109,-1,111,-1,113,-1,115,117,119,121,123,125,-1,127,-1,-1,129,131,133,135,137,139,-1,141,143,145,-1,147,149,151,-1,153,-1,-1,155,157,159,-1,161,-1,-1,-1,163,165,167,169,-1,-1,171,173,175,177,179,181,-1,-1,-1,-1,-1,-1,-1,-1,-1,-1,-1,-1,-1,-1,-1,-1,-1,-1,-1,-1,-1,-1,-1,-1,-1,-1,-1,-1,-1,-1,-1,-1,-1,-1,-1,-1,-1,-1,-1,-1,-1,-1,-1,-1,-1,-1,-1,-1,-1,-1,-1,-1,-1,-1],"loss_changes":[5.525201E2,2.0043951E2,7.54021E1,1.7195818E1,2.4347534E1,4.2674335E1,1.0720856E1,1.3579731E1,1.953838E1,2.3252747E1,6.0301666E0,2.2304564E1,2.2989624E1,6.403351E0,1.0911588E1,1.902757E1,7.0610237E0,7.039275E0,1.7799759E0,1.5546631E1,6.311634E0,0E0,1.9158096E0,1.3440205E1,6.635504E0,4.2843323E0,1.5353317E1,1.1322901E1,1.1414795E0,0E0,0E0,5.58222E0,5.66164E-1,3.7399368E0,0E0,7.658049E0,7.2242756E0,0E0,0E0,1.3885834E1,1.645043E1,8.630864E0,3.1624107E0,6.1176643E0,0E0,0E0,5.2037888E0,0E0,7.361705E0,7.49629E0,2.811493E0,8.426231E0,6.5400734E0,4.0020547E0,0E0,3.414917E-1,0E0,0E0,0E0,0E0,0E0,3.0325127E0,0E0,0E0,0E0,0E0,1.8510094E0,1.3563072E1,2.5050964E0,6.103863E0,9.897995E0,3.2475986E0,2.0989232E0,0E0,0E0,2.5838776E0,0E0,4.6492577E0,0E0,3.4228954E0,0E0,5.7834053E-1,5.4205356E0,1.514267E0,5.322402E0,7.3746905E0,8.071453E0,0E0,6.921303E0,0E0,0E0,1.4395065E0,7.562256E-2,6.9129314E0,6.6278095E0,3.8700986E0,9.867935E-1,0E0,7.07341E0,1.2169495E1,1.9842682E0,0E0,2.8642592E0,5.870006E0,3.2267036E0,0E0,3.931387E0,0E0,0E0,2.538437E0,3.1886773E0,3.3198023E0,0E0,1.9727311E0,0E0,0E0,0E0,2.392562E0,4.4364386E0,9.8609924E-2,2.0365715E0,0E0,0E0,6.785917E-1,7.4755173E0,3.665676E0,7.444957E0,2.5699837E0,2.3866272E0,0E0,0E0,0E0,0E0,0E0,0E0,0E0,0E0,0E0,0E0,0E0,0E0,0E0,0E0,0E0,0E0,0E0,0E0,0E0,0E0,0E0,0E0,0E0,0E0,0E0,0E0,0E0,0E0,0E0,0E0,0E0,0E0,0E0,0E0,0E0,0E0,0E0,0E0,0E0,0E0,0E0,0E0,0E0,0E0,0E0,0E0,0E0,0E0,0E0,0E0,0E0,0E0,0E0,0E0],"parents":[2147483647,0,0,1,1,2,2,3,3,4,4,5,5,6,6,7,7,8,8,9,9,10,10,11,11,12,12,13,13,14,14,15,15,16,16,17,17,18,18,19,19,20,20,22,22,23,23,24,24,25,25,26,26,27,27,28,28,31,31,32,32,33,33,35,35,36,36,39,39,40,40,41,41,42,42,43,43,46,46,48,48,49,49,50,50,51,51,52,52,53,53,55,55,61,61,66,66,67,67,68,68,69,69,70,70,71,71,72,72,75,75,77,77,79,79,81,81,82,82,83,83,84,84,85,85,86,86,88,88,91,91,92,92,93,93,94,94,95,95,96,96,98,98,99,99,100,100,102,102,103,103,104,104,106,106,109,109,110,110,111,111,113,113,117,117,118,118,119,119,120,120,123,123,124,124,125,125,126,126,127,127,128,128],"right_children":[2,4,6,8,10,12,14,16,18,20,22,24,26,28,30,32,34,36,38,40,42,-1,44,46,48,50,52,54,56,-1,-1,58,60,62,-1,64,66,-1,-1,68,70,72,74,76,-1,-1,78,-1,80,82,84,86,88,90,-1,92,-1,-1,-1,-1,-1,94,-1,-1,-1,-1,96,98,100,102,104,106,108,-1,-1,110,-1,112,-1,114,-1,116,118,120,122,124,126,-1,128,-1,-1,130,132,134,136,138,140,-1,142,144,146,-1,148,150,152,-1,154,-1,-1,156,158,160,-1,162,-1,-1,-1,164,166,168,170,-1,-1,172,174,176,178,180,182,-1,-1,-1,-1,-1,-1,-1,-1,-1,-1,-1,-1,-1,-1,-1,-1,-1,-1,-1,-1,-1,-1,-1,-1,-1,-1,-1,-1,-1,-1,-1,-1,-1,-1,-1,-1,-1,-1,-1,-1,-1,-1,-1,-1,-1,-1,-1,-1,-1,-1,-1,-1,-1,-1],"split_conditions":[1.03E1,2.55E-1,1.155E1,2.3E-1,5.55E-1,1.5E1,5.45E-1,2.35E1,9.9E0,9.9E0,5.4E-1,5.9E-1,2.7E-1,1.1E1,5.5E-1,3.2E0,5.5E-1,3.08E0,1.0033334E1,5.8E-1,6.4E0,-1.4849457E-1,9.8E-2,2.05E-1,1.8E0,1.7E0,1.0933333E1,5.7E-2,7.8E-2,-4.829218E-2,7.464747E-2,4.5E-2,6.5E0,6.05E1,-2.7474452E-2,1.12E1,4.1E-2,2.4686385E-2,8.927772E-2,5E-2,1.5E1,7.2E-2,4.7E-2,9.1E-2,-1.3252151E-1,5.043862E-2,8.1E-2,-4.208589E-2,9.1E-2,1.65E-1,5.5E1,3.1E-1,3.06E0,1.215E1,1.0061117E-1,1.6E0,4.805034E-2,-1.0664519E-1,-1.45940855E-2,2.9251248E-2,7.338483E-2,8.9E0,2.0083536E-3,-5.980979E-2,4.509581E-2,1.2700803E-2,5E-2,2.1E-1,2.85E-1,7.8E0,7.4E0,2.7E-1,9.2E-2,3.3456177E-2,-2.4620974E-2,9.9E0,-8.5260505E-3,3.6E-1,-1.5615249E-2,8.7E0,-2.2935688E-2,4E1,6.9E0,4.3E-2,2.15E-1,3.2E-1,3.8E-1,-1.1117347E-2,2.6E-1,-4.152443E-2,4.1207366E-2,2.5E1,1.7E-1,9.4E0,3.25E0,5E1,3.55E1,-1.3747463E-1,2E0,6.5E-2,3.25E0,-4.7349073E-2,9.5E0,5.2E-2,3.75E-1,-1.02521636E-1,3.4E-1,4.0014666E-2,-2.2187814E-2,2.1E-1,7.4E0,3.4E-1,-1.2056568E-1,1.075E1,9.217504E-2,1.0503632E-1,5.3697783E-2,5E-1,3.7E-1,3.5E1,5.3E0,8.004324E-2,-1.5423319E-2,6.8E0,1.3E-1,2.7E1,7.2E-2,6.6E0,7E0,4.9494192E-2,9.505604E-2,6.3428015E-2,1.055324E-1,-2.7191272E-2,5.149572E-2,8.903244E-2,1.4337299E-2,1.5382575E-3,-7.621226E-2,-1.1671859E-1,-6.0617004E-2,-1.22270614E-1,-4.353659E-2,-1.22581676E-1,9.383271E-3,-1.3501233E-1,-9.162692E-2,7.723591E-2,2.4324325E-3,7.951617E-3,-7.3540814E-2,-6.69741E-2,-1.3437273E-1,7.4527003E-3,-7.123515E-2,-1.3190863E-1,-6.970608E-2,-9.416103E-2,-1.3320026E-2,-1.2999146E-2,-8.277939E-2,-3.579275E-3,5.4605808E-2,2.7938489E-2,8.410283E-2,3.4527417E-2,-2.893047E-2,1.01286896E-1,7.498015E-2,8.386469E-2,3.9621968E-2,8.675082E-2,3.6332987E-2,4.5369864E-2,-3.4602746E-2,-1.1258807E-1,-2.8757116E-2,-4.0432088E-2,6.544918E-2,4.3554746E-2,-1.6952612E-2,1.0297245E-1,5.3646084E-2],"split_indices":[8,1,8,1,1,5,1,5,8,8,7,7,1,5,7,3,2,6,8,7,3,0,4,1,3,3,8,4,4,0,0,4,3,5,0,3,4,0,0,4,5,4,4,4,0,0,4,0,4,1,5,2,6,8,0,3,0,0,0,0,0,3,0,0,0,0,4,2,1,0,0,2,4,0,0,8,0,1,0,0,0,5,0,4,1,1,2,0,2,0,0,5,2,8,6,5,5,0,3,4,6,0,8,4,1,0,2,0,0,2,0,2,0,8,0,0,0,7,2,5,3,0,0,0,2,5,4,0,0,0,0,0,0,0,0,0,0,0,0,0,0,0,0,0,0,0,0,0,0,0,0,0,0,0,0,0,0,0,0,0,0,0,0,0,0,0,0,0,0,0,0,0,0,0,0,0,0,0,0,0,0,0,0],"split_type":[0,0,0,0,0,0,0,0,0,0,0,0,0,0,0,0,0,0,0,0,0,0,0,0,0,0,0,0,0,0,0,0,0,0,0,0,0,0,0,0,0,0,0,0,0,0,0,0,0,0,0,0,0,0,0,0,0,0,0,0,0,0,0,0,0,0,0,0,0,0,0,0,0,0,0,0,0,0,0,0,0,0,0,0,0,0,0,0,0,0,0,0,0,0,0,0,0,0,0,0,0,0,0,0,0,0,0,0,0,0,0,0,0,0,0,0,0,0,0,0,0,0,0,0,0,0,0,0,0,0,0,0,0,0,0,0,0,0,0,0,0,0,0,0,0,0,0,0,0,0,0,0,0,0,0,0,0,0,0,0,0,0,0,0,0,0,0,0,0,0,0,0,0,0,0,0,0,0,0,0,0,0,0],"sum_hessian":[1.0879082E3,5.4026447E2,5.4764374E2,1.7986627E2,3.603982E2,3.398845E2,2.0775926E2,1.178571E2,6.2009167E1,2.723482E2,8.8049995E1,7.648437E1,2.6340015E2,1.9273389E2,1.5025373E1,2.5746862E1,9.2110245E1,5.0559498E1,1.1449669E1,2.186323E2,5.3715908E1,3.24015E1,5.5648495E1,4.1080734E1,3.5403633E1,1.4830614E2,1.15094E2,2.3417837E1,1.6931606E2,5.9031067E0,9.122267E0,1.5303779E1,1.0443084E1,8.512874E1,6.9815044E0,1.4420197E1,3.61393E1,5.0923557E0,6.357313E0,1.606228E2,5.800949E1,3.454481E1,1.9171097E1,4.2731247E1,1.2917247E1,5.2839713E0,3.579676E1,5.8072653E0,2.9596367E1,5.81071E1,9.0199036E1,6.24759E1,5.2618103E1,1.1173913E1,1.2243924E1,1.6425821E2,5.0578337E0,8.737352E0,6.5664268E0,5.1947627E0,5.2483206E0,7.608421E1,9.044525E0,5.4467354E0,8.973461E0,6.50328E0,2.963602E1,7.448661E1,8.6136185E1,1.6009851E1,4.199964E1,2.4248339E1,1.0296473E1,1.0023687E1,9.147409E0,3.770984E1,5.021406E0,2.7603449E1,8.193312E0,2.2368002E1,7.2283654E0,1.5928691E1,4.217841E1,7.845685E1,1.1742189E1,3.639896E1,2.6076939E1,7.9494314E0,4.466867E1,5.8190575E0,5.354856E0,2.9592928E1,1.3466528E2,4.1009487E1,3.5074726E1,1.43833685E1,1.5252653E1,1.345531E1,6.10313E1,1.6878822E1,6.925736E1,5.1239944E0,1.0885858E1,1.8593739E1,2.3405901E1,1.0200988E1,1.4047351E1,5.160859E0,5.1356134E0,2.681327E1,1.0896569E1,1.558811E1,1.2015339E1,1.2301014E1,1.0066987E1,1.0229314E1,5.699377E0,1.9238466E1,2.2939943E1,4.9144646E1,2.93122E1,6.2105236E0,5.5316663E0,1.0755947E1,2.5643013E1,1.2818436E1,1.3258503E1,1.4149996E1,3.0518675E1,9.6510935E0,1.9941833E1,5.6487117E0,1.2901657E2,6.9892015E0,3.4020287E1,2.556557E1,9.509156E0,5.6562347E0,8.727134E0,6.961869E0,8.290784E0,6.8670826E0,5.4164215E1,1.12993355E1,5.579488E0,5.0875957E1,1.8381409E1,5.7446985E0,5.141159E0,1.0233066E1,8.360673E0,1.145175E1,1.1954151E1,5.3908343E0,8.656517E0,1.6751482E1,1.0061789E1,5.4530883E0,5.443481E0,7.251725E0,8.336385E0,5.405522E0,6.895492E0,9.62801E0,9.610456E0,1.2353953E1,1.0585991E1,2.7397942E1,2.1746704E1,1.4181811E1,1.5130389E1,5.6807065E0,5.07524E0,9.78256E0,1.5860453E1,6.4755583E0,6.3428774E0,7.711493E0,5.5470095E0,7.6397896E0,6.5102057E0,1.537189E1,1.5146786E1],"tree_param":{"num_deleted":"0","num_feature":"9","num_nodes":"183","size_leaf_vector":"1"}},{"base_weights":[1.2171156E-2,-6.488886E-1,6.808204E-1,1.4671776E-1,-1.0376805E0,4.026091E-1,1.1401329E0,3.5666665E-1,-2.4731594E-1,-8.9714956E-1,-1.4549408E0,-2.1115245E-1,5.8364123E-1,1.2152718E0,4.543536E-1,-6.823056E-2,4.356525E-1,-4.9511284E-1,8.2378983E-1,-1.0278072E0,-3.5179684E-1,-1.7962915E0,-1.2275772E0,-6.6510266E-1,3.2811472E-1,8.324573E-1,2.6233628E-1,6.6498387E-1,1.28461E0,-3.0660428E-2,8.247203E-1,1.6875066E-1,6.383131E-1,5.0845537E-2,-7.056664E-1,2.2856798E-2,8.709177E-2,-1.1726449E0,-6.105138E-1,-6.6576797E-1,-2.8400682E-3,-1.4167564E-1,-8.045633E-2,-1.0782183E0,-1.2055688E-1,4.7878098E-2,-8.6447775E-1,-1.96736E-1,6.4239055E-1,9.9111384E-1,6.3444376E-1,-5.190674E-2,6.3475156E-1,-1.7131919E-2,9.3056776E-2,1.0464958E0,9.9656075E-2,2.2293586E-2,8.471449E-2,3.0597523E-1,-5.7762805E-2,9.0528697E-1,1.2001469E-1,-5.6371868E-2,4.4235203E-2,1.191185E-2,-8.9134836E-1,-8.196378E-1,-1.393065E0,1.81378E-1,-9.0453357E-1,-1.9631875E-1,-9.111443E-2,-4.646919E-2,2.176977E-1,-1.1997322E0,-7.980624E-3,-1.2160451E0,-4.7924775E-1,-4.4937495E-2,2.9941035E-2,8.399862E-1,6.0353023E-3,4.862434E-1,1.1087153E0,1.0911076E0,4.8582715E-1,2.3797852E-1,-4.4623125E-1,-1.03498995E-2,7.751905E-1,6.7706716E-1,9.3709715E-2,4.427686E-2,9.045679E-1,1.1301734E0,2.4570547E-1,-6.3949555E-2,6.875706E-1,-1.0285926E0,-2.8634667E-2,-1.3173929E-1,-6.132651E-1,-1.4537009E0,-3.2135084E-2,4.7612075E-2,-3.6793478E-2,-3.7831643E-1,-1.2852033E0,5.2823503E-2,-6.780398E-1,5.8961697E-2,-6.01522E-2,-1.3608202E0,-7.201254E-1,-8.0518115E-1,-1.428079E-1,-8.335784E-1,3.0568922E-2,2.882887E-2,9.0970226E-2,8.0038905E-2,-2.1552134E-3,8.797112E-2,2.4480741E-2,1.0152361E-1,3.4222715E-2,6.472888E-2,7.309235E-1,8.6608607E-1,-4.298848E-2,-9.3762255E-1,6.8203636E-2,2.054728E-1,1.029391E0,2.1080628E-2,6.7956716E-2,3.241863E-2,-2.861557E-2,8.817779E-2,3.9634436E-2,9.601196E-2,5.3325955E-2,-1.1224745E-2,4.2706914E-2,7.8083226E-3,7.6859415E-2,-3.743371E-2,-1.0795582E-1,-6.385496E-2,-4.1707954E-3,-1.492261E-1,-9.599722E-2,7.4231992E-3,-6.771645E-2,-1.1107584E-1,-4.1695938E-2,1.0007796E-2,-1.0741392E-1,3.4764912E-2,-6.1315093E-2,-1.1982644E-1,-6.415301E-2,-1.3767412E-2,-9.106803E-2,-1.21551245E-1,-6.479727E-3,-2.7932443E-2,-9.8707266E-2,3.2122288E-2,-3.7323114E-2,3.4509677E-2,7.9701744E-2,3.4985267E-2,8.38276E-2,1.8514E-2,-6.762396E-2,-1.0342055E-1,-2.6728455E-2,-4.6390805E-2,5.3091217E-2,4.1127015E-2,-1.5787559E-2,9.072122E-2,3.5980258E-2],"categories":[],"categories_nodes":[],"categories_segments":[],"categories_sizes":[],"default_left":[0,0,0,0,0,0,0,0,0,0,0,0,0,0,0,0,0,0,0,0,0,0,0,0,0,0,0,0,0,0,0,0,0,0,0,0,0,0,0,0,0,0,0,0,0,0,0,0,0,0,0,0,0,0,0,0,0,0,0,0,0,0,0,0,0,0,0,0,0,0,0,0,0,0,0,0,0,0,0,0,0,0,0,0,0,0,0,0,0,0,0,0,0,0,0,0,0,0,0,0,0,0,0,0,0,0,0,0,0,0,0,0,0,0,0,0,0,0,0,0,0,0,0,0,0,0,0,0,0,0,0,0,0,0,0,0,0,0,0,0,0,0,0,0,0,0,0,0,0,0,0,0,0,0,0,0,0,0,0,0,0,0,0,0,0,0,0,0,0,0,0,0,0,0,0,0,0,0,0,0,0,0,0,0,0],"id":2,"left_children":[1,3,5,7,9,11,13,15,17,19,21,23,25,27,29,-1,31,33,35,37,39,41,43,45,47,49,51,53,55,-1,57,59,61,63,65,-1,-1,67,69,71,73,-1,-1,75,-1,-1,77,79,81,83,85,87,89,-1,-1,91,-1,-1,-1,93,-1,95,97,-1,-1,-1,99,101,103,105,107,109,-1,-1,111,113,-1,115,117,-1,-1,119,-1,121,123,125,127,129,131,-1,133,135,-1,137,139,141,143,-1,145,147,-1,-1,149,151,-1,-1,-1,153,155,-1,157,-1,159,161,163,165,-1,167,-1,-1,-1,-1,-1,-1,-1,-1,-1,169,171,173,175,177,179,181,183,-1,-1,-1,-1,-1,-1,-1,-1,-1,-1,-1,-1,-1,-1,-1,-1,-1,-1,-1,-1,-1,-1,-1,-1,-1,-1,-1,-1,-1,-1,-1,-1,-1,-1,-1,-1,-1,-1,-1,-1,-1,-1,-1,-1,-1,-1,-1,-1,-1,-1],"loss_changes":[4.7932736E2,1.6883002E2,6.843048E1,1.4969111E1,2.0181366E1,3.759919E1,9.898682E0,1.2175829E1,1.7160463E1,1.935585E1,4.8350067E0,1.9204618E1,2.0625626E1,6.097412E0,7.250255E0,0E0,5.9246864E0,6.000124E0,1.7887764E0,1.2744919E1,6.0244627E0,2.6155853E-1,1.5349503E0,1.1581415E1,6.0839415E0,3.972992E0,1.352032E1,1.1837377E1,2.9867554E-1,0E0,2.1503897E0,6.612439E0,8.613169E0,7.0921865E0,6.1628113E0,0E0,0E0,1.1638016E1,1.4010643E1,7.223707E0,3.8147843E0,0E0,0E0,5.1135597E0,0E0,0E0,4.4601345E0,3.6669822E0,2.466752E0,4.1835785E0,4.0806065E0,7.35684E0,5.838997E0,0E0,0E0,1.3916435E0,0E0,0E0,0E0,6.836489E0,0E0,5.8705635E0,1.30526495E1,0E0,0E0,0E0,1.7772923E0,1.1599308E1,5.2074127E0,5.471531E0,8.23455E0,7.7658844E0,0E0,0E0,3.3118277E0,2.0604591E0,0E0,3.7866116E0,6.4413433E0,0E0,0E0,2.3851376E0,0E0,5.059396E0,2.8197174E0,2.0285854E0,5.4288187E0,6.603678E0,6.945341E0,0E0,6.28323E0,9.029584E-1,0E0,5.3846292E0,7.351799E-1,1.0156136E0,1.597645E0,0E0,2.8081284E0,4.47052E0,0E0,0E0,7.29163E0,6.14769E0,0E0,0E0,0E0,5.0195293E0,2.7242203E0,0E0,7.2009077E0,0E0,6.253793E0,2.025753E0,2.9634948E0,7.782013E0,0E0,2.6700592E0,0E0,0E0,0E0,0E0,0E0,0E0,0E0,0E0,0E0,4.4286127E0,2.5153618E0,6.396971E-1,6.8579173E0,3.0973425E0,6.6896477E0,2.267124E0,2.4668922E0,0E0,0E0,0E0,0E0,0E0,0E0,0E0,0E0,0E0,0E0,0E0,0E0,0E0,0E0,0E0,0E0,0E0,0E0,0E0,0E0,0E0,0E0,0E0,0E0,0E0,0E0,0E0,0E0,0E0,0E0,0E0,0E0,0E0,0E0,0E0,0E0,0E0,0E0,0E0,0E0,0E0,0E0,0E0,0E0,0E0,0E0,0E0,0E0,0E0,0E0],"parents":[2147483647,0,0,1,1,2,2,3,3,4,4,5,5,6,6,7,7,8,8,9,9,10,10,11,11,12,12,13,13,14,14,16,16,17,17,18,18,19,19,20,20,21,21,22,22,23,23,24,24,25,25,26,26,27,27,28,28,30,30,31,31,32,32,33,33,34,34,37,37,38,38,39,39,40,40,43,43,46,46,47,47,48,48,49,49,50,50,51,51,52,52,55,55,59,59,61,61,62,62,66,66,67,67,68,68,69,69,70,70,71,71,74,74,75,75,77,77,78,78,81,81,83,83,84,84,85,85,86,86,87,87,88,88,90,90,91,91,93,93,94,94,95,95,96,96,98,98,99,99,102,102,103,103,107,107,108,108,110,110,112,112,113,113,114,114,115,115,117,117,127,127,128,128,129,129,130,130,131,131,132,132,133,133,134,134],"right_children":[2,4,6,8,10,12,14,16,18,20,22,24,26,28,30,-1,32,34,36,38,40,42,44,46,48,50,52,54,56,-1,58,60,62,64,66,-1,-1,68,70,72,74,-1,-1,76,-1,-1,78,80,82,84,86,88,90,-1,-1,92,-1,-1,-1,94,-1,96,98,-1,-1,-1,100,102,104,106,108,110,-1,-1,112,114,-1,116,118,-1,-1,120,-1,122,124,126,128,130,132,-1,134,136,-1,138,140,142,144,-1,146,148,-1,-1,150,152,-1,-1,-1,154,156,-1,158,-1,160,162,164,166,-1,168,-1,-1,-1,-1,-1,-1,-1,-1,-1,170,172,174,176,178,180,182,184,-1,-1,-1,-1,-1,-1,-1,-1,-1,-1,-1,-1,-1,-1,-1,-1,-1,-1,-1,-1,-1,-1,-1,-1,-1,-1,-1,-1,-1,-1,-1,-1,-1,-1,-1,-1,-1,-1,-1,-1,-1,-1,-1,-1,-1,-1,-1,-1,-1,-1],"split_conditions":[1.03E1,2.55E-1,1.155E1,2.3E-1,5.55E-1,1.5E1,4.95E-1,1.4E1,9.9E0,9.9E0,5.4E-1,5.9E-1,2.7E-1,1.1E1,5.3E-1,-6.823056E-2,6.5E0,3.08E0,3E1,5.8E-1,7E0,9.95E0,9.8E-2,2.05E-1,1.065E1,4.2E-2,1.0933333E1,5.1E-2,1.6E0,-3.0660428E-2,5.8E-2,8.2E0,2.05E-1,4.6E-1,4.1E-2,2.2856798E-2,8.709177E-2,3.05E-1,1.5E1,4.8E-2,4.9E-1,-1.4167564E-1,-8.045633E-2,9.1E-2,-1.2055688E-1,4.7878098E-2,9E0,4.75E-1,8.6E-2,1.3E0,1.65E-1,3.1E-1,3.06E0,-1.7131919E-2,9.3056776E-2,1.2066667E1,9.9656075E-2,2.2293586E-2,8.471449E-2,5.4E-1,-5.7762805E-2,5.05E1,2.15E-1,-5.6371868E-2,4.4235203E-2,1.191185E-2,5.5E1,2.4E-1,9.733334E0,9.533334E0,7.4E0,6.15E0,-9.111443E-2,-4.646919E-2,5.7E-1,9.9E0,-7.980624E-3,5.85E-1,5.9E-2,-4.4937495E-2,2.9941035E-2,6.5E-2,6.0353023E-3,1.9E-1,5.6E1,4.05E1,1.7E0,3.2E-1,3.8E-1,-1.03498995E-2,2.6E-1,4.6E-1,9.3709715E-2,1.8E0,9.95E0,3.21E0,9.4E0,-6.3949555E-2,4.6E-1,5E-2,-2.8634667E-2,-1.3173929E-1,7E0,3.09E0,-3.2135084E-2,4.7612075E-2,-3.6793478E-2,5.2E-2,3.32E0,5.2823503E-2,3.05E-1,5.8961697E-2,2.6E1,2.1E-1,6.5E-1,5.1E-2,-1.428079E-1,4.5E-1,3.0568922E-2,2.882887E-2,9.0970226E-2,8.0038905E-2,-2.1552134E-3,8.797112E-2,2.4480741E-2,1.0152361E-1,3.4222715E-2,1.5E0,3.23E0,6.6E0,3.4E1,2.7E1,6E-1,6.6E0,1.1366667E1,2.1080628E-2,6.7956716E-2,3.241863E-2,-2.861557E-2,8.817779E-2,3.9634436E-2,9.601196E-2,5.3325955E-2,-1.1224745E-2,4.2706914E-2,7.8083226E-3,7.6859415E-2,-3.743371E-2,-1.0795582E-1,-6.385496E-2,-4.1707954E-3,-1.492261E-1,-9.599722E-2,7.4231992E-3,-6.771645E-2,-1.1107584E-1,-4.1695938E-2,1.0007796E-2,-1.0741392E-1,3.4764912E-2,-6.1315093E-2,-1.1982644E-1,-6.415301E-2,-1.3767412E-2,-9.106803E-2,-1.21551245E-1,-6.479727E-3,-2.7932443E-2,-9.8707266E-2,3.2122288E-2,-3.7323114E-2,3.4509677E-2,7.9701744E-2,3.4985267E-2,8.38276E-2,1.8514E-2,-6.762396E-2,-1.0342055E-1,-2.6728455E-2,-4.6390805E-2,5.3091217E-2,4.1127015E-2,-1.5787559E-2,9.072122E-2,3.5980258E-2],"split_indices":[8,1,8,1,1,5,1,5,8,8,7,7,1,5,7,0,3,6,5,7,0,8,4,1,8,4,8,4,3,0,4,0,1,7,4,0,0,1,5,4,7,0,0,4,0,0,5,1,4,3,1,2,6,0,0,8,0,0,0,7,0,5,1,0,0,0,5,2,8,8,0,0,0,0,7,8,0,1,4,0,0,4,0,1,5,5,3,1,2,0,2,7,0,3,8,6,8,0,7,4,0,0,0,6,0,0,0,4,6,0,1,0,5,2,1,4,0,7,0,0,0,0,0,0,0,0,0,3,6,3,5,5,7,0,8,0,0,0,0,0,0,0,0,0,0,0,0,0,0,0,0,0,0,0,0,0,0,0,0,0,0,0,0,0,0,0,0,0,0,0,0,0,0,0,0,0,0,0,0,0,0,0,0,0,0],"split_type":[0,0,0,0,0,0,0,0,0,0,0,0,0,0,0,0,0,0,0,0,0,0,0,0,0,0,0,0,0,0,0,0,0,0,0,0,0,0,0,0,0,0,0,0,0,0,0,0,0,0,0,0,0,0,0,0,0,0,0,0,0,0,0,0,0,0,0,0,0,0,0,0,0,0,0,0,0,0,0,0,0,0,0,0,0,0,0,0,0,0,0,0,0,0,0,0,0,0,0,0,0,0,0,0,0,0,0,0,0,0,0,0,0,0,0,0,0,0,0,0,0,0,0,0,0,0,0,0,0,0,0,0,0,0,0,0,0,0,0,0,0,0,0,0,0,0,0,0,0,0,0,0,0,0,0,0,0,0,0,0,0,0,0,0,0,0,0,0,0,0,0,0,0,0,0,0,0,0,0,0,0,0,0,0,0],"sum_hessian":[1.0824097E3,5.4430865E2,5.3810095E2,1.7887978E2,3.654289E2,3.3628528E2,2.0181566E2,1.1676168E2,6.2118088E1,2.757185E2,8.971039E1,7.655864E1,2.5972665E2,1.8119095E2,2.0624704E1,6.237407E0,1.1052428E2,5.088399E1,1.1234093E1,2.2171465E2,5.4003872E1,3.310616E1,5.6604225E1,4.1440804E1,3.5117836E1,1.4547842E2,1.1424822E2,2.146098E1,1.5972998E2,6.1614146E0,1.446329E1,4.8492657E1,6.203162E1,1.4373224E1,3.651077E1,5.1758637E0,6.0582294E0,1.6324432E2,5.847032E1,2.794905E1,2.6054821E1,2.7917881E1,5.1882787E0,4.3383915E1,1.3220309E1,5.2056108E0,3.623519E1,1.3292663E1,2.1825174E1,7.854205E1,6.693636E1,6.243031E1,5.1817913E1,8.646988E0,1.2813992E1,2.8842054E1,1.3088792E2,6.0202827E0,8.4430065E0,4.289728E1,5.5953727E0,4.0449543E1,2.1582079E1,5.616318E0,8.756906E0,6.481072E0,3.0029697E1,6.456336E1,9.8680954E1,1.5935065E1,4.253526E1,1.5799064E1,1.2149986E1,6.386128E0,1.9668694E1,3.8353687E1,5.030229E0,1.7817745E1,1.8417448E1,7.9313884E0,5.3612742E0,1.5781022E1,6.0441513E0,1.580875E1,6.2733307E1,1.4878001E1,5.205836E1,3.620841E1,2.6221899E1,7.9717245E0,4.3846188E1,1.1764627E1,1.7077427E1,3.0595306E1,1.2301975E1,2.9632702E1,1.0816839E1,7.7676196E0,1.3814459E1,2.28552E1,7.1744976E0,1.0298601E1,5.4264763E1,9.2367546E1,6.313404E0,9.547494E0,6.3875713E0,1.8691277E1,2.384398E1,5.344618E0,1.0454446E1,5.856777E0,1.3811916E1,2.7335133E1,1.1018556E1,1.2514896E1,5.3028483E0,1.3202496E1,5.2149525E0,8.017448E0,7.763573E0,6.9247446E0,8.884006E0,5.7511818E1,5.2214894E0,9.723997E0,5.1540046E0,1.96176E1,3.2440765E1,1.0547264E1,2.5661146E1,1.2990586E1,1.3231314E1,1.4085621E1,2.9760567E1,5.1270156E0,6.6376114E0,1.6001186E1,1.4594121E1,5.913197E0,6.388778E0,2.0310879E1,9.321823E0,5.1115866E0,5.705253E0,5.5392313E0,8.275228E0,1.0953233E1,1.1901966E1,3.765728E1,1.6607485E1,2.005275E1,7.23148E1,1.0211453E1,8.479822E0,1.7984297E1,5.859684E0,5.432269E0,5.0221767E0,8.395154E0,5.4167624E0,1.7141321E1,1.019381E1,5.939908E0,5.0786476E0,5.2751665E0,7.23973E0,7.656747E0,5.545749E0,1.2059578E1,7.55802E0,1.9175909E1,1.3264855E1,5.17779E0,5.3694735E0,1.9717894E1,5.9432526E0,6.603998E0,6.3865886E0,6.3968334E0,6.83448E0,7.5466523E0,6.5389686E0,2.1507748E1,8.252817E0],"tree_param":{"num_deleted":"0","num_feature":"9","num_nodes":"185","size_leaf_vector":"1"}},{"base_weights":[1.1565117E-2,-5.996689E-1,6.442648E-1,1.3786535E-1,-9.5467883E-1,3.8861793E-1,1.1098559E0,3.354805E-1,-2.2925122E-1,-7.7107674E-1,-1.2289668E0,-3.1556225E-1,5.306554E-1,1.1873965E0,3.9657953E-1,-2.329309E-1,4.9913272E-1,-4.5879066E-1,7.853235E-1,-1.0207906E0,-4.9079064E-1,-1.6170543E0,-9.8115563E-1,-9.458549E-1,3.0382302E-1,7.641269E-1,2.547262E-1,7.213449E-1,1.2451946E0,1.8047199E-2,8.319161E-2,-8.5103244E-1,7.0044E-1,5.7427096E-1,-2.6346715E-2,-8.3418705E-2,-2.849161E-1,2.155659E-2,8.3645165E-2,-1.4157152E0,-8.528652E-1,-9.236007E-1,-2.4176142E-1,-7.898157E-2,-1.2892091E-1,-1.133514E0,-4.757457E-1,-1.3476033E0,-5.900088E-1,-1.6239618E-1,5.8989584E-1,6.1386263E-1,1.0130845E0,-4.187778E-2,5.960094E-1,-1.8624702E-3,8.867964E-2,1.0546142E0,9.755559E-2,-2.969731E-2,4.7519997E-2,-9.616118E-2,-1.3069292E-2,2.9756384E-2,6.7315154E-2,7.709418E-1,3.5990196E-1,3.3263958E-1,-5.9520805E-1,-7.413126E-1,-1.2864223E-1,-2.0163806E-1,-9.93108E-1,-1.0581301E0,-7.095216E-3,1.2511468E-1,-6.250989E-1,-4.4915402E-1,-1.2689294E0,-3.8105298E-2,-9.557306E-2,-1.3360181E-1,-4.225372E-2,1.5517746E-2,-9.8545897E-1,-4.5544434E-2,1.8521566E-2,7.955285E-1,4.0631695E-3,3.5743493E-1,8.2441974E-1,1.2502884E0,6.2783855E-1,-9.200229E-2,6.614544E-2,7.129049E-1,-3.738258E-2,6.2554276E-1,9.0690896E-2,9.519844E-1,-8.008938E-3,1.7016292E-1,9.009786E-2,6.131687E-2,-2.38566E-2,-6.671007E-2,-1.2443993E0,-1.035966E-1,-4.2319798E-4,-6.391992E-2,3.1734552E-2,-1.0889287E0,4.0152785E-3,-1.2674679E0,-1.0373233E-2,5.4042274E-1,-4.161661E-1,-8.5848707E-1,4.278351E-2,-6.377962E-2,6.3218516E-3,-1.0820701E0,-1.2069384E-1,3.6168445E-2,-4.204286E-2,-2.89986E-2,-1.0981881E-1,2.816245E-2,8.347163E-2,-1.4681502E-1,5.973638E-1,3.2361585E-1,9.491781E-1,6.404876E-2,1.0225985E-1,-3.0942966E-4,9.0610003E-1,7.986161E-1,-1.0077321E-1,3.9160705E-1,1.1023402E0,7.9747364E-2,1.201179E-2,2.6615428E-2,8.6768284E-2,-3.4629237E-2,4.370307E-2,3.964278E-2,-4.9392954E-2,-1.1757514E-1,-5.081412E-2,-6.421579E-3,-8.801595E-2,-5.416048E-2,-1.2027932E-1,7.381441E-2,1.5478478E-2,-6.830359E-2,4.5904326E-3,-1.00924335E-1,-6.314388E-3,-6.6115685E-2,-1.3077351E-1,3.314884E-2,-4.8280682E-2,7.317649E-2,1.9145897E-2,5.351712E-2,-1.2673759E-2,7.8915685E-2,2.0563936E-2,8.648472E-2,2.7061302E-2,8.801061E-2,2.4956094E-2,2.5866082E-2,-3.1259906E-2,1.0438841E-2,7.130089E-2,9.30973E-2,3.9784625E-2],"categories":[],"categories_nodes":[],"categories_segments":[],"categories_sizes":[],"default_left":[0,0,0,0,0,0,0,0,0,0,0,0,0,0,0,0,0,0,0,0,0,0,0,0,0,0,0,0,0,0,0,0,0,0,0,0,0,0,0,0,0,0,0,0,0,0,0,0,0,0,0,0,0,0,0,0,0,0,0,0,0,0,0,0,0,0,0,0,0,0,0,0,0,0,0,0,0,0,0,0,0,0,0,0,0,0,0,0,0,0,0,0,0,0,0,0,0,0,0,0,0,0,0,0,0,0,0,0,0,0,0,0,0,0,0,0,0,0,0,0,0,0,0,0,0,0,0,0,0,0,0,0,0,0,0,0,0,0,0,0,0,0,0,0,0,0,0,0,0,0,0,0,0,0,0,0,0,0,0,0,0,0,0,0,0,0,0,0,0,0,0,0,0,0,0,0,0,0,0,0,0],"id":3,"left_children":[1,3,5,7,9,11,13,15,17,19,21,23,25,27,29,31,33,35,37,39,41,43,45,47,49,51,53,55,57,59,-1,61,63,65,-1,-1,67,-1,-1,69,71,73,75,-1,-1,77,79,81,83,85,87,89,91,93,95,-1,-1,97,-1,-1,-1,-1,-1,-1,-1,99,101,103,105,107,-1,109,111,113,-1,115,117,119,121,123,-1,-1,-1,-1,125,-1,-1,127,-1,129,131,133,135,-1,137,139,-1,141,-1,143,-1,145,-1,-1,-1,147,149,-1,-1,-1,-1,151,-1,153,-1,155,157,159,-1,-1,-1,161,-1,-1,-1,-1,-1,-1,-1,163,165,167,169,-1,-1,-1,171,173,175,177,179,-1,-1,-1,-1,-1,-1,-1,-1,-1,-1,-1,-1,-1,-1,-1,-1,-1,-1,-1,-1,-1,-1,-1,-1,-1,-1,-1,-1,-1,-1,-1,-1,-1,-1,-1,-1,-1,-1,-1,-1],"loss_changes":[4.1629047E2,1.4348969E2,6.2525055E1,1.3047298E1,1.767221E1,3.4472652E1,9.868469E0,1.0965257E1,1.5068262E1,1.5188599E1,1.250943E1,2.3007055E1,1.821621E1,3.6301727E0,5.329653E0,1.6030975E1,6.008547E0,5.606618E0,1.6542611E0,6.5930023E0,1.13679695E1,1.3833771E0,6.544632E0,3.3632774E0,4.111548E0,5.1504974E0,1.343573E1,7.2281523E0,1.9689941E-1,3.8106532E0,0E0,4.604413E0,3.1471682E-1,3.258791E0,0E0,0E0,8.346198E0,0E0,0E0,5.510811E0,7.5668907E0,4.240841E0,9.869326E0,0E0,0E0,5.9136734E0,8.000688E0,3.3789463E0,5.625473E0,2.3777857E0,2.0362582E0,5.0377617E0,4.381836E0,9.272707E0,8.244823E0,0E0,0E0,1.8125305E0,0E0,0E0,0E0,0E0,0E0,0E0,0E0,6.9137287E0,6.502067E0,4.9496984E0,9.750248E0,5.6830344E0,0E0,6.9961863E0,7.050598E0,6.254204E0,0E0,8.4091E0,1.003598E1,2.8766193E0,1.9379959E0,4.595434E0,0E0,0E0,0E0,0E0,2.7801704E0,0E0,0E0,1.390935E0,0E0,5.68878E0,3.0333748E0,3.5995483E-1,4.145978E0,0E0,8.243263E0,6.5913353E0,0E0,2.3415613E0,0E0,3.9503822E0,0E0,9.508468E0,0E0,0E0,0E0,6.2866774E0,1.2844276E0,0E0,0E0,0E0,0E0,5.326149E0,0E0,3.8071709E0,0E0,2.9151697E0,3.9207036E0,1.0834965E1,0E0,0E0,0E0,3.8229027E0,0E0,0E0,0E0,0E0,0E0,0E0,0E0,4.8866496E0,3.8362951E0,2.4602594E0,2.6522865E0,0E0,0E0,0E0,1.7874861E0,1.7929635E0,7.926637E0,4.426711E0,1.3141041E0,0E0,0E0,0E0,0E0,0E0,0E0,0E0,0E0,0E0,0E0,0E0,0E0,0E0,0E0,0E0,0E0,0E0,0E0,0E0,0E0,0E0,0E0,0E0,0E0,0E0,0E0,0E0,0E0,0E0,0E0,0E0,0E0,0E0,0E0,0E0,0E0,0E0,0E0,0E0,0E0],"parents":[2147483647,0,0,1,1,2,2,3,3,4,4,5,5,6,6,7,7,8,8,9,9,10,10,11,11,12,12,13,13,14,14,15,15,16,16,17,17,18,18,19,19,20,20,21,21,22,22,23,23,24,24,25,25,26,26,27,27,28,28,29,29,31,31,32,32,33,33,36,36,39,39,40,40,41,41,42,42,45,45,46,46,47,47,48,48,49,49,50,50,51,51,52,52,53,53,54,54,57,57,65,65,66,66,67,67,68,68,69,69,71,71,72,72,73,73,75,75,76,76,77,77,78,78,79,79,84,84,87,87,89,89,90,90,91,91,92,92,94,94,95,95,97,97,99,99,101,101,105,105,106,106,111,111,113,113,115,115,116,116,117,117,121,121,129,129,130,130,131,131,132,132,136,136,137,137,138,138,139,139,140,140],"right_children":[2,4,6,8,10,12,14,16,18,20,22,24,26,28,30,32,34,36,38,40,42,44,46,48,50,52,54,56,58,60,-1,62,64,66,-1,-1,68,-1,-1,70,72,74,76,-1,-1,78,80,82,84,86,88,90,92,94,96,-1,-1,98,-1,-1,-1,-1,-1,-1,-1,100,102,104,106,108,-1,110,112,114,-1,116,118,120,122,124,-1,-1,-1,-1,126,-1,-1,128,-1,130,132,134,136,-1,138,140,-1,142,-1,144,-1,146,-1,-1,-1,148,150,-1,-1,-1,-1,152,-1,154,-1,156,158,160,-1,-1,-1,162,-1,-1,-1,-1,-1,-1,-1,164,166,168,170,-1,-1,-1,172,174,176,178,180,-1,-1,-1,-1,-1,-1,-1,-1,-1,-1,-1,-1,-1,-1,-1,-1,-1,-1,-1,-1,-1,-1,-1,-1,-1,-1,-1,-1,-1,-1,-1,-1,-1,-1,-1,-1,-1,-1,-1,-1],"split_conditions":[1.03E1,2.55E-1,1.1633333E1,2.3E-1,4.25E-1,1.2E1,4.95E-1,2.35E1,9.9E0,9.5E0,5.4E-1,5.9E-1,2.7E-1,1.1E1,6.4E-1,3.2E0,5.5E-1,4.2E-1,3E1,2.5E-1,4.9E-1,4.9E-2,9.9E0,4.9E-2,1.065E1,5.4E-1,1.0933333E1,5.1E-2,1.8E0,1.8E1,8.319161E-2,4.5E-2,6.5E0,3.21E0,-2.6346715E-2,-8.3418705E-2,3.1E0,2.155659E-2,8.3645165E-2,4.6E-1,3E-1,5.8E1,5.1E-2,-7.898157E-2,-1.2892091E-1,9E0,6.75E-1,1.7E0,3.85E-1,8E0,8.5E-2,1.09E1,2.15E-1,1.35E0,6.25E-1,-1.8624702E-3,8.867964E-2,2.35E1,9.755559E-2,-2.969731E-2,4.7519997E-2,-9.616118E-2,-1.3069292E-2,2.9756384E-2,6.7315154E-2,4.1E-1,4E-1,4.6E1,5E-2,1.9E-1,-1.2864223E-1,2.7E-1,6.6E-1,3.6E-1,-7.095216E-3,5.9E-1,1.03E1,7.7E0,3.2E-1,3.29E0,-9.557306E-2,-1.3360181E-1,-4.225372E-2,1.5517746E-2,3.36E0,-4.5544434E-2,1.8521566E-2,6.5E-2,4.0631695E-3,1.7E0,1.3E0,2.5E1,1.7E0,-9.200229E-2,1.3E-1,3.25E0,-3.738258E-2,3.3E-2,9.0690896E-2,5.8E0,-8.008938E-3,9.5E0,9.009786E-2,6.131687E-2,-2.38566E-2,5E1,3.21E0,-1.035966E-1,-4.2319798E-4,-6.391992E-2,3.1734552E-2,3.9E-2,4.0152785E-3,2.95E-1,-1.0373233E-2,3.9E1,6E0,3.29E0,4.278351E-2,-6.377962E-2,6.3218516E-3,9.8E-2,-1.2069384E-1,3.6168445E-2,-4.204286E-2,-2.89986E-2,-1.0981881E-1,2.816245E-2,8.347163E-2,3.15E0,6.5E0,3.4E-1,7.8E0,6.404876E-2,1.0225985E-1,-3.0942966E-4,4.5E-2,3.38E0,7.1E0,3.8E-1,7.3E-2,7.9747364E-2,1.201179E-2,2.6615428E-2,8.6768284E-2,-3.4629237E-2,4.370307E-2,3.964278E-2,-4.9392954E-2,-1.1757514E-1,-5.081412E-2,-6.421579E-3,-8.801595E-2,-5.416048E-2,-1.2027932E-1,7.381441E-2,1.5478478E-2,-6.830359E-2,4.5904326E-3,-1.00924335E-1,-6.314388E-3,-6.6115685E-2,-1.3077351E-1,3.314884E-2,-4.8280682E-2,7.317649E-2,1.9145897E-2,5.351712E-2,-1.2673759E-2,7.8915685E-2,2.0563936E-2,8.648472E-2,2.7061302E-2,8.801061E-2,2.4956094E-2,2.5866082E-2,-3.1259906E-2,1.0438841E-2,7.130089E-2,9.30973E-2,3.9784625E-2],"split_indices":[8,1,8,1,1,5,1,5,8,8,7,7,1,5,7,3,2,7,5,2,7,4,8,4,8,7,8,4,3,5,0,4,3,6,0,0,6,0,0,7,2,5,4,0,0,5,1,3,1,5,4,8,1,3,1,0,0,5,0,0,0,0,0,0,0,2,2,5,4,2,0,2,7,1,0,7,0,0,2,6,0,0,0,0,6,0,0,4,0,3,3,5,3,0,2,6,0,4,0,3,0,8,0,0,0,5,6,0,0,0,0,4,0,1,0,5,3,6,0,0,0,4,0,0,0,0,0,0,0,6,3,2,0,0,0,0,4,6,0,2,4,0,0,0,0,0,0,0,0,0,0,0,0,0,0,0,0,0,0,0,0,0,0,0,0,0,0,0,0,0,0,0,0,0,0,0,0,0,0,0,0],"split_type":[0,0,0,0,0,0,0,0,0,0,0,0,0,0,0,0,0,0,0,0,0,0,0,0,0,0,0,0,0,0,0,0,0,0,0,0,0,0,0,0,0,0,0,0,0,0,0,0,0,0,0,0,0,0,0,0,0,0,0,0,0,0,0,0,0,0,0,0,0,0,0,0,0,0,0,0,0,0,0,0,0,0,0,0,0,0,0,0,0,0,0,0,0,0,0,0,0,0,0,0,0,0,0,0,0,0,0,0,0,0,0,0,0,0,0,0,0,0,0,0,0,0,0,0,0,0,0,0,0,0,0,0,0,0,0,0,0,0,0,0,0,0,0,0,0,0,0,0,0,0,0,0,0,0,0,0,0,0,0,0,0,0,0,0,0,0,0,0,0,0,0,0,0,0,0,0,0,0,0,0,0],"sum_hessian":[1.0744447E3,5.4651935E2,5.2792535E2,1.7778404E2,3.687353E2,3.4198358E2,1.8594176E2,1.1562853E2,6.2155502E1,2.23165E2,1.455703E2,5.7196804E1,2.8478677E2,1.671104E2,1.8831366E1,2.5754025E1,8.9874504E1,5.1134525E1,1.1020978E1,1.1662178E2,1.06543205E2,5.457585E1,9.099445E1,2.8087547E1,2.9109255E1,1.5330324E2,1.3148352E2,1.992516E1,1.4718523E2,1.2968332E1,5.8630333E0,1.5546777E1,1.0207248E1,8.287673E1,6.997773E0,9.61235E0,4.1522175E1,5.138249E0,5.8827295E0,3.2577007E1,8.404478E1,3.7923603E1,6.8619606E1,1.0085895E1,4.4489956E1,6.896258E1,2.2031874E1,1.188378E1,1.6203768E1,1.1233727E1,1.7875528E1,9.776226E1,5.5540985E1,7.081585E1,6.0667675E1,7.97092E0,1.1954239E1,3.7727707E1,1.0945753E2,7.966751E0,5.0015807E0,8.9506035E0,6.596174E0,5.2031426E0,5.0041056E0,4.186852E1,4.1008217E1,1.3861811E1,2.7660362E1,1.1087299E1,2.1489708E1,1.5324085E1,6.872069E1,3.239083E1,5.53277E0,3.5406837E1,3.321277E1,1.2104732E1,5.685785E1,1.4908951E1,7.1229224E0,6.832956E0,5.0508237E0,5.5321527E0,1.0671616E1,5.1516666E0,6.0820613E0,1.2566855E1,5.308672E0,4.529597E1,5.2466286E1,3.298563E1,2.2555355E1,5.051723E0,6.576413E1,5.5128155E1,5.539521E0,1.132964E1,2.6398066E1,3.463915E1,7.2293696E0,3.4443363E1,6.564852E0,7.7959423E0,6.065869E0,1.5855428E1,1.1804935E1,5.4599657E0,5.627334E0,7.328297E0,7.995788E0,6.291995E1,5.800739E0,2.6077927E1,6.312906E0,2.003567E1,1.5371167E1,2.8023998E1,5.1887693E0,6.5693307E0,5.5354013E0,3.94027E1,1.745515E1,7.508163E0,7.400788E0,5.544642E0,5.1269736E0,6.3488297E0,6.218026E0,1.4728888E1,3.0567083E1,1.1180312E1,4.1285976E1,9.225753E0,2.3759876E1,7.196481E0,1.5358874E1,1.1502873E1,5.4261253E1,3.1305552E1,2.3822603E1,5.17609E0,6.1535506E0,9.548499E0,2.5090649E1,1.3557861E1,2.0885502E1,7.9582043E0,7.8972235E0,6.393512E0,5.411424E0,5.050305E0,5.7869644E1,1.1147276E1,1.4930651E1,7.768747E0,1.2266922E1,7.1038957E0,8.267272E0,1.6748362E1,1.1275638E1,3.2027477E1,7.375224E0,6.791883E0,7.9370046E0,1.3635258E1,1.6931826E1,5.9900084E0,5.1903043E0,3.533377E1,5.952203E0,9.803057E0,5.555818E0,5.532376E0,5.970498E0,2.2475435E1,3.1785818E1,2.2428135E1,8.877417E0,1.8223927E1,5.5986767E0],"tree_param":{"num_deleted":"0","num_feature":"9","num_nodes":"181","size_leaf_vector":"1"}},{"base_weights":[1.1209363E-2,-5.3602505E-1,6.32383E-1,1.4490972E-1,-8.64773E-1,3.9823148E-1,1.0907464E0,3.3282816E-1,-2.1588777E-1,-4.6641096E-1,-9.81544E-1,-2.7601704E-1,5.386626E-1,1.1735923E0,3.3960432E-1,-5.714769E-2,4.0878028E-1,-4.2727807E-1,6.572848E-1,-8.1330204E-1,-1.3160756E-1,-1.1563569E0,-6.7360157E-1,-8.804281E-1,3.6705068E-1,2.7627066E-1,7.3915404E-1,8.7876546E-1,1.2126688E0,-1.02497265E-2,5.4219432E-2,2.381857E-1,6.559786E-1,-6.994023E-1,-5.5107236E-2,8.2474165E-2,1.045599E-2,-1.1268867E0,-7.160472E-2,3.220257E-1,-8.7836254E-1,-1.0238702E0,-1.15924746E-1,-7.786279E-1,2.0814759E-1,-1.3449738E0,-4.5278937E-1,-9.854013E-3,6.053693E-1,5.985979E-1,2.7285423E-2,7.9303133E-1,-2.4961023E-2,2.6635926E-2,7.910571E-2,9.347688E-2,9.062541E-1,5.2219665E-1,-2.0785278E-1,8.203131E-1,1.534245E-1,-1.1999507E0,-1.806405E-1,4.4576266E-1,-6.4827986E-2,-4.967749E-1,-1.3198362E-1,-4.5890607E-2,2.8992018E-2,-2.326994E-2,5.868229E-1,-1.1611365E-1,-4.4495788E-1,-1.1506094E0,-6.463602E-1,-6.57575E-1,-1.352229E0,5.0508823E-2,-2.748295E-2,-1.2702775E-1,-4.8701286E-2,-2.1787966E-2,-9.15293E-2,1.1132519E-2,8.2967275E-1,3.1009284E-1,1.0345069E0,-5.6026056E-2,1.7048283E-1,8.2460093E-1,-6.8851225E-3,2.8783703E-2,8.839209E-2,9.1452694E-1,-5.0646264E-2,-9.7844996E-2,1.5816708E-1,9.334837E-2,6.1972797E-1,4.9918085E-2,-2.5334295E-2,-5.499318E-2,-1.1576203E-1,4.247968E-2,-5.6278165E-2,6.5130934E-2,-1.1380293E-2,-6.4330027E-3,-7.32292E-2,4.116587E-3,9.009693E-1,-7.0561886E-2,3.8420293E-3,-2.6394429E-2,-1.2094003E0,-8.856272E-1,4.6734758E-2,2.0793301E-1,-7.9493904E-1,-1.1839945E-1,-6.883699E-2,-3.6692858E-2,3.6157012E-2,8.266865E-2,3.6361054E-2,-8.229916E-2,5.2573425E-1,2.7723208E-2,9.9725865E-2,7.9913855E-2,3.8804736E-2,1.0997008E0,6.577092E-1,1.35296425E-2,9.708011E-2,-3.8689334E-2,4.0052596E-2,-4.182876E-2,3.864434E-2,6.638657E-2,3.945708E-3,8.940048E-2,4.257282E-2,-1.2824276E-1,-8.195472E-2,-1.6454943E-2,-7.612628E-2,3.68506E-2,-7.339003E-3,2.8423811E-3,-6.4844556E-2,4.2118125E-2,-5.3782124E-2,7.8016825E-2,1.7892322E-4,2.1996483E-2,-4.4639885E-2,6.9205455E-2,9.6674226E-2,1.5816867E-2,5.731365E-2],"categories":[],"categories_nodes":[],"categories_segments":[],"categories_sizes":[],"default_left":[0,0,0,0,0,0,0,0,0,0,0,0,0,0,0,0,0,0,0,0,0,0,0,0,0,0,0,0,0,0,0,0,0,0,0,0,0,0,0,0,0,0,0,0,0,0,0,0,0,0,0,0,0,0,0,0,0,0,0,0,0,0,0,0,0,0,0,0,0,0,0,0,0,0,0,0,0,0,0,0,0,0,0,0,0,0,0,0,0,0,0,0,0,0,0,0,0,0,0,0,0,0,0,0,0,0,0,0,0,0,0,0,0,0,0,0,0,0,0,0,0,0,0,0,0,0,0,0,0,0,0,0,0,0,0,0,0,0,0,0,0,0,0,0,0,0,0,0,0,0,0,0,0,0,0,0,0,0,0,0,0],"id":4,"left_children":[1,3,5,7,9,11,13,15,17,19,21,23,25,27,29,-1,31,33,35,37,39,41,43,45,47,49,51,53,55,-1,-1,57,59,61,63,-1,-1,65,67,69,71,73,-1,75,77,79,81,-1,83,85,87,89,-1,-1,-1,-1,91,93,95,97,99,101,103,105,-1,107,-1,-1,-1,-1,109,-1,111,113,115,117,119,-1,-1,-1,-1,121,-1,-1,123,125,127,-1,129,131,-1,-1,-1,133,135,-1,137,-1,139,-1,-1,-1,-1,-1,-1,-1,-1,-1,-1,-1,141,-1,-1,-1,143,145,-1,147,149,-1,-1,-1,-1,-1,-1,151,153,-1,-1,-1,155,157,159,-1,-1,-1,-1,-1,-1,-1,-1,-1,-1,-1,-1,-1,-1,-1,-1,-1,-1,-1,-1,-1,-1,-1,-1,-1,-1,-1,-1],"loss_changes":[3.6273102E2,1.2712239E2,5.3204147E1,1.2653728E1,1.7346405E1,3.1618713E1,1.0081192E1,1.0490359E1,1.2123381E1,1.0190706E1,1.5105804E1,2.284806E1,1.4284439E1,6.7707825E-1,3.4097977E0,0E0,4.698534E0,5.2541933E0,2.8017735E0,1.0002806E1,1.5971307E1,8.053757E0,1.0279129E1,5.384218E0,3.4987264E0,9.685444E0,9.246162E0,1.5913143E0,2.2212219E-1,0E0,0E0,8.93624E0,3.7092266E0,7.599699E0,9.772141E0,0E0,0E0,1.1250427E1,3.6898124E0,5.1283283E0,4.469795E0,6.0673065E0,0E0,5.9037857E0,3.5664685E0,2.284914E0,5.6690226E0,0E0,1.8909955E0,6.298872E0,7.805723E0,4.2204285E0,0E0,0E0,0E0,0E0,1.9143372E0,9.678887E0,1.1376122E1,2.1875725E0,3.4130511E0,1.2961464E0,7.2174926E0,3.9107869E0,0E0,3.194086E0,0E0,0E0,0E0,0E0,3.4878573E0,0E0,3.0480142E0,4.5184937E0,1.2112995E1,1.0000923E1,1.3485718E-1,0E0,0E0,0E0,0E0,3.0725486E0,0E0,0E0,6.841707E-1,2.8441849E0,3.5384483E0,0E0,6.942449E0,5.858902E0,0E0,0E0,0E0,6.8752594E0,5.2720385E0,0E0,5.848538E0,0E0,3.8065186E0,0E0,0E0,0E0,0E0,0E0,0E0,0E0,0E0,0E0,0E0,0E0,6.0815907E-1,0E0,0E0,0E0,3.8345184E0,2.5736237E0,0E0,1.0987843E0,4.1866684E0,0E0,0E0,0E0,0E0,0E0,0E0,5.5544133E0,5.7858295E0,0E0,0E0,0E0,8.676452E0,5.740471E-1,4.202324E0,0E0,0E0,0E0,0E0,0E0,0E0,0E0,0E0,0E0,0E0,0E0,0E0,0E0,0E0,0E0,0E0,0E0,0E0,0E0,0E0,0E0,0E0,0E0,0E0,0E0,0E0,0E0,0E0],"parents":[2147483647,0,0,1,1,2,2,3,3,4,4,5,5,6,6,7,7,8,8,9,9,10,10,11,11,12,12,13,13,14,14,16,16,17,17,18,18,19,19,20,20,21,21,22,22,23,23,24,24,25,25,26,26,27,27,28,28,31,31,32,32,33,33,34,34,37,37,38,38,39,39,40,40,41,41,43,43,44,44,45,45,46,46,48,48,49,49,50,50,51,51,56,56,57,57,58,58,59,59,60,60,61,61,62,62,63,63,65,65,70,70,72,72,73,73,74,74,75,75,76,76,81,81,84,84,85,85,86,86,88,88,89,89,93,93,94,94,96,96,98,98,110,110,114,114,115,115,117,117,118,118,125,125,126,126,130,130,131,131,132,132],"right_children":[2,4,6,8,10,12,14,16,18,20,22,24,26,28,30,-1,32,34,36,38,40,42,44,46,48,50,52,54,56,-1,-1,58,60,62,64,-1,-1,66,68,70,72,74,-1,76,78,80,82,-1,84,86,88,90,-1,-1,-1,-1,92,94,96,98,100,102,104,106,-1,108,-1,-1,-1,-1,110,-1,112,114,116,118,120,-1,-1,-1,-1,122,-1,-1,124,126,128,-1,130,132,-1,-1,-1,134,136,-1,138,-1,140,-1,-1,-1,-1,-1,-1,-1,-1,-1,-1,-1,142,-1,-1,-1,144,146,-1,148,150,-1,-1,-1,-1,-1,-1,152,154,-1,-1,-1,156,158,160,-1,-1,-1,-1,-1,-1,-1,-1,-1,-1,-1,-1,-1,-1,-1,-1,-1,-1,-1,-1,-1,-1,-1,-1,-1,-1,-1,-1],"split_conditions":[1.04E1,2.55E-1,1.1733334E1,2.3E-1,2.95E-1,1.2E1,4.95E-1,1.4E1,9.9E0,9.5E0,5.8E-1,5.9E-1,1.09E1,3.6E-1,5.7E-1,-5.714769E-2,4.9E-1,1.24E1,4.6E-2,7E0,5.1E-2,8E-2,1.01E1,4.9E-2,1.065E1,2.45E-1,6.25E-1,2E0,3.39E0,-1.02497265E-2,5.4219432E-2,3.3E-1,2.05E-1,4.8E-1,3.17E0,8.2474165E-2,1.045599E-2,4.7E-1,9.05E0,5.4E0,3E-1,9.733334E0,-1.15924746E-1,6.6E-1,9.1E-2,2.1E0,5.95E-1,-9.854013E-3,6.6E-1,5.3E-1,1.6E0,3.5E0,-2.4961023E-2,2.6635926E-2,7.910571E-2,9.347688E-2,5.2E-1,3.24E0,3.03E0,4.3E-2,7.1E0,8.1E0,4.7E-2,4.8E-1,-6.4827986E-2,7.9E0,-1.3198362E-1,-4.5890607E-2,2.8992018E-2,-2.326994E-2,4.9E-1,-1.1611365E-1,5.2E-1,3.05E-1,1.06E1,9E-2,3.32E0,5.0508823E-2,-2.748295E-2,-1.2702775E-1,-4.8701286E-2,3.28E0,-9.15293E-2,1.1132519E-2,3.85E-1,1.7E0,2.8E1,-5.6026056E-2,1.1E-1,6.6E0,-6.8851225E-3,2.8783703E-2,8.839209E-2,8.4E0,9.533334E0,-9.7844996E-2,3.7E-1,9.334837E-2,9.95E0,4.9918085E-2,-2.5334295E-2,-5.499318E-2,-1.1576203E-1,4.247968E-2,-5.6278165E-2,6.5130934E-2,-1.1380293E-2,-6.4330027E-3,-7.32292E-2,4.116587E-3,6.7E0,-7.0561886E-2,3.8420293E-3,-2.6394429E-2,3.09E0,4.1E-2,4.6734758E-2,5.75E-1,9E0,-1.1839945E-1,-6.883699E-2,-3.6692858E-2,3.6157012E-2,8.266865E-2,3.6361054E-2,3.15E0,6.5E0,2.7723208E-2,9.9725865E-2,7.9913855E-2,4.05E-1,2.7E0,1.5E0,1.35296425E-2,9.708011E-2,-3.8689334E-2,4.0052596E-2,-4.182876E-2,3.864434E-2,6.638657E-2,3.945708E-3,8.940048E-2,4.257282E-2,-1.2824276E-1,-8.195472E-2,-1.6454943E-2,-7.612628E-2,3.68506E-2,-7.339003E-3,2.8423811E-3,-6.4844556E-2,4.2118125E-2,-5.3782124E-2,7.8016825E-2,1.7892322E-4,2.1996483E-2,-4.4639885E-2,6.9205455E-2,9.6674226E-2,1.5816867E-2,5.731365E-2],"split_indices":[8,1,8,1,1,5,1,5,8,8,7,7,8,7,7,0,7,3,4,0,4,4,0,4,8,1,1,3,6,0,0,2,1,7,6,0,0,7,8,3,2,8,0,1,4,3,1,0,7,7,3,6,0,0,0,0,7,6,6,4,0,3,4,7,0,3,0,0,0,0,7,0,7,1,3,2,6,0,0,0,0,6,0,0,1,3,5,0,2,0,0,0,0,3,8,0,2,0,8,0,0,0,0,0,0,0,0,0,0,0,0,0,0,0,6,4,0,1,5,0,0,0,0,0,0,6,3,0,0,0,1,3,3,0,0,0,0,0,0,0,0,0,0,0,0,0,0,0,0,0,0,0,0,0,0,0,0,0,0,0,0],"split_type":[0,0,0,0,0,0,0,0,0,0,0,0,0,0,0,0,0,0,0,0,0,0,0,0,0,0,0,0,0,0,0,0,0,0,0,0,0,0,0,0,0,0,0,0,0,0,0,0,0,0,0,0,0,0,0,0,0,0,0,0,0,0,0,0,0,0,0,0,0,0,0,0,0,0,0,0,0,0,0,0,0,0,0,0,0,0,0,0,0,0,0,0,0,0,0,0,0,0,0,0,0,0,0,0,0,0,0,0,0,0,0,0,0,0,0,0,0,0,0,0,0,0,0,0,0,0,0,0,0,0,0,0,0,0,0,0,0,0,0,0,0,0,0,0,0,0,0,0,0,0,0,0,0,0,0,0,0,0,0,0,0],"sum_hessian":[1.065086E3,5.6631635E2,4.9876974E2,1.84572E2,3.8174432E2,3.3136383E2,1.6740591E2,1.21412704E2,6.3159298E1,8.766641E1,2.940779E2,5.6952713E1,2.7441113E2,1.5026976E2,1.713616E1,7.2906585E0,1.1412205E2,5.1260155E1,1.1899144E1,4.2354042E1,4.5312374E1,1.8583046E2,1.0824744E2,2.9168507E1,2.7784206E1,1.1988728E2,1.5452383E2,2.0334782E1,1.2993498E2,7.928577E0,9.207583E0,6.868514E1,4.5436905E1,2.9102045E1,2.2158108E1,5.8114963E0,6.0876474E0,2.9403217E1,1.2950823E1,2.8542408E1,1.6769966E1,1.413552E2,4.4475273E1,9.683075E1,1.1416682E1,1.2952755E1,1.6215752E1,9.132502E0,1.8651705E1,5.1636456E1,6.8250824E1,1.4737686E2,7.146985E0,5.8742156E0,1.4460566E1,1.1430038E2,1.5634604E1,4.186026E1,2.6824883E1,3.3763878E1,1.1673026E1,1.414274E1,1.4959305E1,1.3964434E1,8.193675E0,1.5628431E1,1.3774786E1,5.7889633E0,7.1618595E0,8.374291E0,2.0168118E1,5.5776563E0,1.119231E1,1.0429349E2,3.7061703E1,8.172904E1,1.510171E1,6.213167E0,5.203515E0,7.67189E0,5.280865E0,1.1043377E1,5.1723742E0,6.688367E0,1.1963339E1,3.210153E1,1.953493E1,9.994066E0,5.825676E1,1.4236552E2,5.011324E0,6.182228E0,9.452376E0,2.4490599E1,1.7369661E1,6.070591E0,2.0754292E1,9.166773E0,2.4597107E1,5.5409617E0,6.1320643E0,7.325412E0,6.817329E0,6.475065E0,8.48424E0,7.9133835E0,6.05105E0,9.05105E0,6.5773816E0,7.924503E0,1.2243614E1,5.149745E0,6.042565E0,7.629651E0,9.666383E1,3.1438679E1,5.623026E0,1.1124114E1,7.060493E1,8.195665E0,6.906045E0,5.7438636E0,5.2995133E0,5.45527E0,6.5080686E0,1.1604232E1,2.0497295E1,6.6986732E0,1.2836256E1,6.5620065E0,5.169475E1,5.164537E1,9.072016E1,8.854192E0,1.5636407E1,9.738647E0,7.6310134E0,6.7201395E0,1.4034152E1,1.6373219E1,8.223887E0,5.1612306E0,7.0823836E0,1.5691872E1,8.097196E1,5.5512013E0,2.5887476E1,5.4583783E0,5.6657357E0,5.484525E0,6.51204E1,5.8181853E0,5.786047E0,9.838095E0,1.0659201E1,3.7271713E1,1.4423038E1,2.9728096E1,2.1917274E1,1.8031387E1,7.2688774E1],"tree_param":{"num_deleted":"0","num_feature":"9","num_nodes":"161","size_leaf_vector":"1"}},{"base_weights":[1.0837026E-2,-4.115641E-1,7.194992E-1,3.05416E-1,-6.635332E-1,4.8662046E-1,1.048706E0,-1.4872283E-1,4.4070676E-1,-8.688187E-1,-2.4852748E-1,-2.2086439E-1,6.4026266E-1,1.1313987E0,3.1988615E-1,-8.569177E-2,7.303535E-2,5.0736356E-1,-3.301617E-2,-4.9554938E-1,-1.006681E0,1.6856577E-1,-4.463834E-1,-8.562016E-1,5.749515E-1,6.7938924E-1,-3.6433417E-2,8.276594E-1,1.1714214E0,-9.545153E-3,5.1558744E-2,-2.2902359E-1,6.751302E-2,-1.5568325E-2,5.901508E-1,-1.0269384E-1,-3.9318573E-1,-1.0349284E0,1.5854036E-2,-5.58431E-1,4.681923E-1,-9.040637E-1,-2.614578E-1,-1.1631128E0,-1.5967676E-2,1.0440167E-2,7.9237413E-1,8.913091E-1,4.802636E-1,1.9957967E-2,1.0732105E0,1.1869978E0,5.189948E-2,-6.7135775E-1,3.9644817E-1,4.4668343E-2,-6.0623974E-2,6.6644424E-1,-8.369208E-2,2.4802077E-1,-6.338215E-1,-9.42306E-1,-1.3391076E0,1.1662882E-2,-9.834554E-2,8.1816894E-1,1.5229376E-1,-1.0406802E-1,-4.8949578E-1,-6.053206E-1,1.352012E-1,-1.1892894E-1,-5.1555622E-2,7.950456E-2,3.4402065E-2,9.572338E-1,-2.3409089E-3,3.130976E-1,8.413636E-1,9.2765115E-2,5.014285E-2,9.030885E-2,5.44736E-2,-1.526262E-2,-8.983735E-2,5.1146936E-2,2.4769842E-3,5.163183E-1,8.948878E-1,5.5963416E-2,-6.2329266E-2,5.2014524E-1,-3.550243E-2,-8.8251156E-1,6.1612106E-3,-1.0163653E0,-2.2917056E-1,-4.3342255E-2,-1.0755344E-1,3.5145845E-2,8.9380324E-2,-2.5321512E-2,4.8350066E-1,-7.687223E-2,3.4911328E-3,5.19407E-2,-8.423005E-1,5.269344E-1,-2.8692102E-1,7.233993E-1,8.576853E-2,6.002534E-1,-2.1335988E-1,5.7611763E-1,9.769205E-2,7.269575E-3,5.5434853E-2,8.1823416E-2,3.5754558E-2,6.1650958E-2,-2.1906456E-3,-8.621675E-2,-4.2295296E-2,3.774375E-2,-6.351899E-2,-9.06675E-2,-6.498958E-2,2.5194807E-2,-3.8801298E-2,1.0088224E-2,6.464578E-2,-4.3138657E-2,-1.0222924E-1,-5.387534E-3,8.138376E-2,-5.079701E-2,1.9693097E-2,2.445578E-2,7.7790454E-2,6.490237E-2,3.2654244E-2,-4.7747627E-2,4.3834504E-2,6.424419E-5,6.0136855E-2],"categories":[],"categories_nodes":[],"categories_segments":[],"categories_sizes":[],"default_left":[0,0,0,0,0,0,0,0,0,0,0,0,0,0,0,0,0,0,0,0,0,0,0,0,0,0,0,0,0,0,0,0,0,0,0,0,0,0,0,0,0,0,0,0,0,0,0,0,0,0,0,0,0,0,0,0,0,0,0,0,0,0,0,0,0,0,0,0,0,0,0,0,0,0,0,0,0,0,0,0,0,0,0,0,0,0,0,0,0,0,0,0,0,0,0,0,0,0,0,0,0,0,0,0,0,0,0,0,0,0,0,0,0,0,0,0,0,0,0,0,0,0,0,0,0,0,0,0,0,0,0,0,0,0,0,0,0,0,0,0,0,0,0,0,0],"id":5,"left_children":[1,3,5,7,9,11,13,15,17,19,21,23,25,27,29,-1,31,33,-1,35,37,39,41,43,45,47,-1,49,51,-1,-1,53,-1,55,57,-1,59,61,-1,63,65,67,69,71,-1,-1,73,75,77,-1,79,81,-1,83,85,-1,-1,87,89,91,93,95,97,-1,-1,99,101,-1,103,105,107,-1,-1,-1,-1,109,-1,111,113,-1,-1,-1,-1,-1,-1,-1,-1,115,117,-1,-1,119,-1,121,123,125,127,-1,-1,-1,-1,-1,129,-1,-1,-1,131,133,135,137,-1,139,141,143,-1,-1,-1,-1,-1,-1,-1,-1,-1,-1,-1,-1,-1,-1,-1,-1,-1,-1,-1,-1,-1,-1,-1,-1,-1,-1,-1,-1,-1,-1,-1],"loss_changes":[3.162687E2,1.1979661E2,2.9739487E1,1.0684504E1,4.1543335E1,2.5464115E1,9.438187E0,8.991119E0,8.057402E0,1.63564E1,1.357789E1,2.1883854E1,8.77388E0,8.0101013E-1,3.040011E0,0E0,8.696933E0,5.3988075E0,0E0,7.53891E0,8.415588E0,1.1886822E1,9.179514E0,4.4766064E0,1.7258286E0,7.4054184E0,0E0,2.5224705E0,1.2162781E-1,0E0,0E0,7.373932E0,0E0,9.197184E0,5.5825768E0,0E0,1.28474455E1,5.3026276E0,0E0,8.82098E0,4.113858E0,5.656576E0,1.1081154E1,2.1215801E0,0E0,0E0,6.495762E-1,5.427948E0,5.6446133E0,0E0,8.952522E-2,7.9055786E-2,0E0,3.5543227E0,1.146964E0,0E0,0E0,2.8537064E0,7.952518E0,4.7930336E0,9.568199E0,9.378555E0,2.9300995E0,0E0,0E0,1.7866812E0,3.6321557E0,0E0,5.375742E0,1.39251375E1,6.4784727E0,0E0,0E0,0E0,0E0,2.783783E0,0E0,1.0482864E1,2.9658394E0,0E0,0E0,0E0,0E0,0E0,0E0,0E0,0E0,5.601053E0,2.5118885E0,0E0,0E0,2.8919373E0,0E0,3.0334167E0,7.97746E0,3.7002563E0,3.1722713E0,0E0,0E0,0E0,0E0,0E0,1.6229856E0,0E0,0E0,0E0,4.3811893E0,6.8288436E0,4.2674346E0,4.5835323E0,0E0,1.5718193E0,8.784943E0,2.7363129E0,0E0,0E0,0E0,0E0,0E0,0E0,0E0,0E0,0E0,0E0,0E0,0E0,0E0,0E0,0E0,0E0,0E0,0E0,0E0,0E0,0E0,0E0,0E0,0E0,0E0,0E0,0E0,0E0,0E0,0E0,0E0],"parents":[2147483647,0,0,1,1,2,2,3,3,4,4,5,5,6,6,7,7,8,8,9,9,10,10,11,11,12,12,13,13,14,14,16,16,17,17,19,19,20,20,21,21,22,22,23,23,24,24,25,25,27,27,28,28,31,31,33,33,34,34,36,36,37,37,39,39,40,40,41,41,42,42,43,43,46,46,47,47,48,48,50,50,51,51,53,53,54,54,57,57,58,58,59,59,60,60,61,61,62,62,65,65,66,66,68,68,69,69,70,70,75,75,77,77,78,78,87,87,88,88,91,91,93,93,94,94,95,95,96,96,102,102,106,106,107,107,108,108,109,109,111,111,112,112,113,113],"right_children":[2,4,6,8,10,12,14,16,18,20,22,24,26,28,30,-1,32,34,-1,36,38,40,42,44,46,48,-1,50,52,-1,-1,54,-1,56,58,-1,60,62,-1,64,66,68,70,72,-1,-1,74,76,78,-1,80,82,-1,84,86,-1,-1,88,90,92,94,96,98,-1,-1,100,102,-1,104,106,108,-1,-1,-1,-1,110,-1,112,114,-1,-1,-1,-1,-1,-1,-1,-1,116,118,-1,-1,120,-1,122,124,126,128,-1,-1,-1,-1,-1,130,-1,-1,-1,132,134,136,138,-1,140,142,144,-1,-1,-1,-1,-1,-1,-1,-1,-1,-1,-1,-1,-1,-1,-1,-1,-1,-1,-1,-1,-1,-1,-1,-1,-1,-1,-1,-1,-1,-1,-1],"split_conditions":[1.065E1,2.4E-1,1.1733334E1,2.35E1,9.9E0,1.2E1,4.95E-1,3E0,5.5E-1,2.9E-1,2.95E-1,5.9E-1,6.75E-1,1.2E1,5.7E-1,-8.569177E-2,1.03E1,6.15E0,-3.301617E-2,8.9E0,1.08E1,2.35E1,5E-1,9E0,6.6E-1,6.9E0,-3.6433417E-2,3.9E-2,6.8E-2,-9.545153E-3,5.1558744E-2,3.2E0,6.751302E-2,4.25E1,1.56E1,-1.0269384E-1,3.11E0,5.95E-1,1.5854036E-2,4.5E-2,4.5E-2,2.1E1,7.5E0,2.7E-1,-1.5967676E-2,1.0440167E-2,3.85E-1,3.5E0,5.8E-1,1.9957967E-2,2.5E0,8.2E0,5.189948E-2,1.7E0,5.1E-2,4.4668343E-2,-6.0623974E-2,9.7E0,3.21E0,7.4E0,9.6E0,3.4E0,9.2E0,1.1662882E-2,-9.834554E-2,8.6E0,4.9E-2,-1.0406802E-1,2.3E0,4E-2,3.2E-1,-1.1892894E-1,-5.1555622E-2,7.950456E-2,3.4402065E-2,4.7E-1,-2.3409089E-3,2.75E-1,1.1266666E1,9.2765115E-2,5.014285E-2,9.030885E-2,5.44736E-2,-1.526262E-2,-8.983735E-2,5.1146936E-2,2.4769842E-3,3.18E0,2.15E-1,5.5963416E-2,-6.2329266E-2,4.45E1,-3.550243E-2,3.6E-1,5.1E-2,2.7E-1,7.1E-2,-4.3342255E-2,-1.0755344E-1,3.5145845E-2,8.9380324E-2,-2.5321512E-2,7.15E0,-7.687223E-2,3.4911328E-3,5.19407E-2,2.9E0,1.0133333E1,6.7E-1,2.8E0,8.576853E-2,3.09E0,3.4E1,2E0,9.769205E-2,7.269575E-3,5.5434853E-2,8.1823416E-2,3.5754558E-2,6.1650958E-2,-2.1906456E-3,-8.621675E-2,-4.2295296E-2,3.774375E-2,-6.351899E-2,-9.06675E-2,-6.498958E-2,2.5194807E-2,-3.8801298E-2,1.0088224E-2,6.464578E-2,-4.3138657E-2,-1.0222924E-1,-5.387534E-3,8.138376E-2,-5.079701E-2,1.9693097E-2,2.445578E-2,7.7790454E-2,6.490237E-2,3.2654244E-2,-4.7747627E-2,4.3834504E-2,6.424419E-5,6.0136855E-2],"split_indices":[8,1,8,5,8,5,1,6,2,1,1,7,1,5,7,0,8,0,0,8,0,5,7,5,7,0,0,4,4,0,0,3,0,5,3,0,6,1,0,4,4,5,0,2,0,0,1,6,7,0,3,0,0,3,4,0,0,3,6,0,8,6,8,0,0,3,4,0,3,4,2,0,0,0,0,7,0,1,8,0,0,0,0,0,0,0,0,6,1,0,0,5,0,2,4,2,4,0,0,0,0,0,0,0,0,0,3,8,7,3,0,6,5,3,0,0,0,0,0,0,0,0,0,0,0,0,0,0,0,0,0,0,0,0,0,0,0,0,0,0,0,0,0,0,0],"split_type":[0,0,0,0,0,0,0,0,0,0,0,0,0,0,0,0,0,0,0,0,0,0,0,0,0,0,0,0,0,0,0,0,0,0,0,0,0,0,0,0,0,0,0,0,0,0,0,0,0,0,0,0,0,0,0,0,0,0,0,0,0,0,0,0,0,0,0,0,0,0,0,0,0,0,0,0,0,0,0,0,0,0,0,0,0,0,0,0,0,0,0,0,0,0,0,0,0,0,0,0,0,0,0,0,0,0,0,0,0,0,0,0,0,0,0,0,0,0,0,0,0,0,0,0,0,0,0,0,0,0,0,0,0,0,0,0,0,0,0,0,0,0,0,0,0],"sum_hessian":[1.0545652E3,6.609953E2,3.9356985E2,1.7183247E2,4.891628E2,2.3196062E2,1.6160922E2,3.941762E1,1.3241486E2,3.265427E2,1.6262013E2,4.130833E1,1.906523E2,1.4464526E2,1.696397E1,6.4333925E0,3.298423E1,1.2349444E2,8.920409E0,8.9314224E1,2.3722845E2,5.2369602E1,1.1025053E2,2.2927973E1,1.8380356E1,1.8463348E2,6.0188003E0,1.936448E1,1.2528078E2,7.9483085E0,9.01566E0,2.4690668E1,8.293563E0,1.6989683E1,1.0650476E2,8.068764E0,8.124546E1,2.3199867E2,5.229792E0,1.5032308E1,3.7337296E1,3.060819E1,7.9642334E1,1.497535E1,7.952623E0,6.6642942E0,1.1716063E1,8.775932E1,9.687417E1,6.5253353E0,1.2839145E1,1.1990915E2,5.3716283E0,1.4419689E1,1.0270979E1,9.734162E0,7.25552E0,9.5682434E1,1.0822328E1,2.2161762E1,5.9083702E1,1.8098627E2,5.1012394E1,8.122766E0,6.9095416E0,1.6958923E1,2.037837E1,1.304583E1,1.756236E1,4.237848E1,3.7263855E1,6.694596E0,8.280755E0,5.293002E0,6.4230604E0,8.187107E1,5.888254E0,6.749528E1,2.9378891E1,7.677311E0,5.161834E0,1.14056725E2,5.852426E0,8.369015E0,6.0506744E0,5.2611923E0,5.009787E0,5.9705803E1,3.5976627E1,5.1288543E0,5.6934733E0,1.629417E1,5.867592E0,4.227655E1,1.6807152E1,1.6357387E2,1.7412407E1,6.442638E0,4.456976E1,9.925656E0,7.0332675E0,8.211999E0,1.2166371E1,8.329619E0,9.23274E0,6.2464275E0,3.6132053E1,1.919885E1,1.8065002E1,3.847422E1,4.339685E1,4.3582863E1,2.391241E1,2.0079718E1,9.299172E0,2.121285E1,3.8492954E1,2.3396252E1,1.2580375E1,1.0195476E1,6.098694E0,2.1579271E1,2.0697279E1,1.0878406E1,5.928747E0,6.849402E1,9.507984E1,5.8247585E0,1.1587648E1,7.0346327E0,5.131738E0,2.5272964E1,1.0859089E1,9.683048E0,9.515802E0,1.0425764E1,7.6392393E0,1.7877708E1,2.0596512E1,1.5081624E1,2.850124E1,1.5755515E1,8.156896E0,5.9411836E0,1.41385355E1],"tree_param":{"num_deleted":"0","num_feature":"9","num_nodes":"145","size_leaf_vector":"1"}},{"base_weights":[1.079449E-2,-3.8231146E-1,6.851059E-1,2.8630596E-1,-6.14744E-1,4.597424E-1,1.0100963E0,-1.3906658E-1,4.1449994E-1,-8.0456007E-1,-2.3051924E-1,-1.3599545E-1,6.251063E-1,1.0929472E0,3.0137357E-1,-7.877995E-2,6.875872E-2,4.7803846E-1,-3.0582638E-2,-4.597414E-1,-9.3214613E-1,1.5880649E-1,-4.1387084E-1,-7.0686316E-1,5.733943E-1,6.6125053E-1,-2.8969383E-2,7.93423E-1,1.1335257E0,-7.834251E-3,5.0955076E-2,-2.135017E-1,6.442813E-2,2.8071856E-1,6.977916E-1,-9.502895E-2,-3.64543E-1,-1.0587548E0,-6.6054094E-1,-5.1846987E-1,4.424082E-1,-8.389154E-1,-2.4181737E-1,-1.0815198E0,-2.071337E-1,1.904206E-3,7.4589235E-1,5.183153E-1,9.5319253E-1,2.0841517E-2,9.750146E-1,1.1687564E0,8.209983E-1,-6.2370425E-1,3.743026E-1,-2.1528573E-1,5.131523E-1,1.1306169E0,4.8402035E-1,2.3151714E-1,-5.866411E-1,-9.1803813E-1,-1.0360572E-1,-7.58952E-1,3.297008E-2,1.0910856E-2,-9.050088E-2,7.78843E-1,1.4366908E-1,-1.2846407E0,-4.556789E-1,-5.587623E-1,1.2694275E-1,-1.0739474E-1,-4.226132E-2,-5.2892655E-2,2.859914E-2,1.719499E-2,7.68295E-2,7.03775E-1,2.1762794E-1,1.0433353E0,1.7450059E-2,8.723073E-2,4.9373966E-2,1.1882539E0,5.2799214E-2,2.2709295E-2,8.2737826E-2,-1.4201985E-2,-8.3171025E-2,4.8543863E-2,2.3233364E-3,3.7878547E-2,-7.1533346E-1,-1.231085E-2,6.911049E-1,4.3919045E-2,9.8639295E-2,2.9397333E-1,8.0624335E-2,4.8844802E-1,-3.3011574E-2,-8.1386864E-1,4.4061625E-3,-9.600173E-1,-1.4467542E-3,-1.886194E-1,-9.803265E-1,3.3110704E-2,8.5946225E-2,-2.3476915E-2,4.5676714E-1,-6.5516554E-2,-1.1527247E-1,-7.1362E-2,3.2570467E-3,4.918629E-2,-7.7608526E-1,5.7087727E-2,-1.1769808E-1,7.815443E-1,-8.5569965E-3,5.1975876E-1,-3.2689294E-1,7.239442E-1,9.55542E-2,9.069894E-2,5.5578593E-2,-8.35326E-2,-4.422466E-3,7.589281E-2,1.5273341E-3,4.0160783E-2,-1.3074624E-2,5.8146585E-2,-2.0489541E-3,-7.94173E-2,-3.9068304E-2,3.543599E-2,-5.925588E-2,-7.746603E-2,-3.554651E-2,4.5432504E-2,-4.2239927E-2,-7.2489455E-3,-8.253407E-2,9.45016E-3,6.1473165E-2,-9.123783E-2,-3.641595E-2,-6.3194886E-2,6.1535942E-3,-1.5385405E-2,6.601416E-2,6.320667E-2,1.0799672E-2,-7.9797365E-2,4.066885E-2,9.102329E-3,7.537694E-2],"categories":[],"categories_nodes":[],"categories_segments":[],"categories_sizes":[],"default_left":[0,0,0,0,0,0,0,0,0,0,0,0,0,0,0,0,0,0,0,0,0,0,0,0,0,0,0,0,0,0,0,0,0,0,0,0,0,0,0,0,0,0,0,0,0,0,0,0,0,0,0,0,0,0,0,0,0,0,0,0,0,0,0,0,0,0,0,0,0,0,0,0,0,0,0,0,0,0,0,0,0,0,0,0,0,0,0,0,0,0,0,0,0,0,0,0,0,0,0,0,0,0,0,0,0,0,0,0,0,0,0,0,0,0,0,0,0,0,0,0,0,0,0,0,0,0,0,0,0,0,0,0,0,0,0,0,0,0,0,0,0,0,0,0,0,0,0,0,0,0,0,0,0,0,0,0,0,0,0,0,0],"id":6,"left_children":[1,3,5,7,9,11,13,15,17,19,21,23,25,27,29,-1,31,33,-1,35,37,39,41,43,45,47,-1,49,51,-1,-1,53,-1,55,57,-1,59,61,63,65,67,69,71,73,75,-1,77,79,81,-1,83,85,87,89,91,93,95,97,99,101,103,105,-1,107,-1,-1,-1,109,111,113,115,117,119,-1,-1,-1,-1,-1,-1,121,123,125,-1,-1,-1,127,-1,-1,-1,-1,-1,-1,-1,-1,129,-1,131,-1,-1,133,-1,135,-1,137,139,141,-1,143,145,-1,-1,-1,147,-1,-1,-1,-1,-1,149,-1,151,153,-1,155,157,159,-1,-1,-1,-1,-1,-1,-1,-1,-1,-1,-1,-1,-1,-1,-1,-1,-1,-1,-1,-1,-1,-1,-1,-1,-1,-1,-1,-1,-1,-1,-1,-1,-1,-1,-1],"loss_changes":[2.7709827E2,1.0280646E2,2.7731567E1,9.384227E0,3.557724E1,2.2661121E1,8.878082E0,7.715724E0,7.07456E0,1.3993164E1,1.17402115E1,2.0901674E1,6.8190613E0,8.023987E-1,2.8007042E0,0E0,7.7232933E0,5.1243134E0,0E0,6.4940434E0,7.4953003E0,1.04256735E1,7.9483585E0,5.1104774E0,2.1666102E0,6.755417E0,0E0,1.6049862E0,3.7246704E-1,0E0,0E0,6.431824E0,0E0,7.7563252E0,4.761322E0,0E0,1.1039551E1,6.0361176E0,8.824421E0,7.5450907E0,3.7029471E0,4.8317013E0,9.508593E0,2.1060486E0,4.2098503E0,0E0,2.290204E0,6.472845E0,3.3885612E0,0E0,9.315586E-2,1.2728882E-1,1.949502E0,3.0601459E0,1.0286561E0,8.237438E0,5.5918007E0,1.0627232E0,4.1937857E0,4.197255E0,8.100498E0,4.3204193E0,0E0,8.950115E0,0E0,0E0,0E0,1.677021E0,3.19305E0,1.21110916E-1,4.6444674E0,1.2020218E1,6.007065E0,0E0,0E0,0E0,0E0,0E0,0E0,4.7351E0,7.865314E0,2.7183304E0,0E0,0E0,0E0,5.177307E-2,0E0,0E0,0E0,0E0,0E0,0E0,0E0,0E0,3.4178472E0,0E0,7.7660427E0,0E0,0E0,3.6852674E0,0E0,2.5606222E0,0E0,2.5747452E0,6.9690084E0,3.4009628E0,0E0,6.729566E0,5.4012527E0,0E0,0E0,0E0,1.4644408E0,0E0,0E0,0E0,0E0,0E0,4.2013474E0,0E0,4.1796503E0,6.685028E0,0E0,3.5767803E0,1.1663571E1,3.7798777E0,0E0,0E0,0E0,0E0,0E0,0E0,0E0,0E0,0E0,0E0,0E0,0E0,0E0,0E0,0E0,0E0,0E0,0E0,0E0,0E0,0E0,0E0,0E0,0E0,0E0,0E0,0E0,0E0,0E0,0E0,0E0,0E0,0E0,0E0,0E0],"parents":[2147483647,0,0,1,1,2,2,3,3,4,4,5,5,6,6,7,7,8,8,9,9,10,10,11,11,12,12,13,13,14,14,16,16,17,17,19,19,20,20,21,21,22,22,23,23,24,24,25,25,27,27,28,28,31,31,33,33,34,34,36,36,37,37,38,38,39,39,40,40,41,41,42,42,43,43,44,44,46,46,47,47,48,48,50,50,51,51,52,52,53,53,54,54,55,55,56,56,57,57,58,58,59,59,60,60,61,61,63,63,67,67,68,68,69,69,70,70,71,71,72,72,79,79,80,80,81,81,85,85,94,94,96,96,99,99,101,101,103,103,104,104,105,105,107,107,108,108,112,112,118,118,120,120,121,121,123,123,124,124,125,125],"right_children":[2,4,6,8,10,12,14,16,18,20,22,24,26,28,30,-1,32,34,-1,36,38,40,42,44,46,48,-1,50,52,-1,-1,54,-1,56,58,-1,60,62,64,66,68,70,72,74,76,-1,78,80,82,-1,84,86,88,90,92,94,96,98,100,102,104,106,-1,108,-1,-1,-1,110,112,114,116,118,120,-1,-1,-1,-1,-1,-1,122,124,126,-1,-1,-1,128,-1,-1,-1,-1,-1,-1,-1,-1,130,-1,132,-1,-1,134,-1,136,-1,138,140,142,-1,144,146,-1,-1,-1,148,-1,-1,-1,-1,-1,150,-1,152,154,-1,156,158,160,-1,-1,-1,-1,-1,-1,-1,-1,-1,-1,-1,-1,-1,-1,-1,-1,-1,-1,-1,-1,-1,-1,-1,-1,-1,-1,-1,-1,-1,-1,-1,-1,-1,-1,-1],"split_conditions":[1.065E1,2.4E-1,1.1733334E1,2.35E1,9.9E0,1.4E1,4.95E-1,3E0,5.5E-1,2.9E-1,2.95E-1,5.9E-1,6.75E-1,3.6E-1,1.3E-1,-7.877995E-2,1.03E1,4.8E-1,-3.0582638E-2,8.9E0,5.8E-1,2.35E1,5E-1,9E0,3.18E0,5.6E-1,-2.8969383E-2,2E0,3.39E0,-7.834251E-3,5.0955076E-2,3.2E0,6.442813E-2,6.6E0,4.3E-2,-9.502895E-2,3.11E0,7.6E-2,1.01E1,4.5E-2,4.5E-2,2.1E1,7.5E0,5.2E-1,3.2E0,1.904206E-3,6.6E-1,7.1E0,8.5E-2,2.0841517E-2,3.3E-1,5.3E-1,5.2E-1,1.7E0,5.1E-2,4.15E1,2.5E0,1.6E0,4E-1,7.4E0,9.6E0,3.39E0,-1.0360572E-1,6.1E-1,3.297008E-2,1.0910856E-2,-9.050088E-2,8.6E0,4.9E-2,2E0,2.3E0,4E-2,2.3E-1,-1.0739474E-1,-4.226132E-2,-5.2892655E-2,2.859914E-2,1.719499E-2,7.68295E-2,3.44E0,2.75E-1,2.85E1,1.7450059E-2,8.723073E-2,4.9373966E-2,7.9E-1,5.2799214E-2,2.2709295E-2,8.2737826E-2,-1.4201985E-2,-8.3171025E-2,4.8543863E-2,2.3233364E-3,3.7878547E-2,9.533334E0,-1.231085E-2,3.21E0,4.3919045E-2,9.8639295E-2,3.3E-1,8.0624335E-2,4.45E1,-3.3011574E-2,3.6E-1,5.1E-2,7.7E0,-1.4467542E-3,3.85E-1,9E0,3.3110704E-2,8.5946225E-2,-2.3476915E-2,7.15E0,-6.5516554E-2,-1.1527247E-1,-7.1362E-2,3.2570467E-3,4.918629E-2,3.35E0,5.7087727E-2,8E0,1.95E1,-8.5569965E-3,3.5E-1,7E0,1.9E0,9.55542E-2,9.069894E-2,5.5578593E-2,-8.35326E-2,-4.422466E-3,7.589281E-2,1.5273341E-3,4.0160783E-2,-1.3074624E-2,5.8146585E-2,-2.0489541E-3,-7.94173E-2,-3.9068304E-2,3.543599E-2,-5.925588E-2,-7.746603E-2,-3.554651E-2,4.5432504E-2,-4.2239927E-2,-7.2489455E-3,-8.253407E-2,9.45016E-3,6.1473165E-2,-9.123783E-2,-3.641595E-2,-6.3194886E-2,6.1535942E-3,-1.5385405E-2,6.601416E-2,6.320667E-2,1.0799672E-2,-7.9797365E-2,4.066885E-2,9.102329E-3,7.537694E-2],"split_indices":[8,1,8,5,8,5,1,6,2,1,1,7,1,7,2,0,8,7,0,8,7,5,7,5,6,7,0,3,6,0,0,3,0,0,4,0,6,4,0,4,4,5,0,7,6,0,7,0,4,0,7,2,7,3,4,5,3,3,2,0,8,6,0,7,0,0,0,3,4,3,3,4,2,0,0,0,0,0,0,6,1,5,0,0,0,7,0,0,0,0,0,0,0,0,8,0,6,0,0,2,0,5,0,2,4,0,0,1,5,0,0,0,0,0,0,0,0,0,6,0,5,5,0,2,3,3,0,0,0,0,0,0,0,0,0,0,0,0,0,0,0,0,0,0,0,0,0,0,0,0,0,0,0,0,0,0,0,0,0,0,0],"split_type":[0,0,0,0,0,0,0,0,0,0,0,0,0,0,0,0,0,0,0,0,0,0,0,0,0,0,0,0,0,0,0,0,0,0,0,0,0,0,0,0,0,0,0,0,0,0,0,0,0,0,0,0,0,0,0,0,0,0,0,0,0,0,0,0,0,0,0,0,0,0,0,0,0,0,0,0,0,0,0,0,0,0,0,0,0,0,0,0,0,0,0,0,0,0,0,0,0,0,0,0,0,0,0,0,0,0,0,0,0,0,0,0,0,0,0,0,0,0,0,0,0,0,0,0,0,0,0,0,0,0,0,0,0,0,0,0,0,0,0,0,0,0,0,0,0,0,0,0,0,0,0,0,0,0,0,0,0,0,0,0,0],"sum_hessian":[1.0433667E3,6.5939166E2,3.8397504E2,1.700352E2,4.8935645E2,2.2816757E2,1.5580748E2,3.935682E1,1.3067839E2,3.2681042E2,1.62546E2,4.9612343E1,1.7855522E2,1.3901433E2,1.6793158E1,6.555615E0,3.2801205E1,1.216935E2,8.984895E0,8.950753E1,2.3730289E2,5.2084507E1,1.104615E2,2.7492136E1,2.2120207E1,1.7272841E2,5.8268094E0,1.9038347E1,1.19975975E2,8.447763E0,8.345394E0,2.4706705E1,8.094498E0,6.531949E1,5.6374004E1,8.142984E0,8.136454E1,1.5987776E2,7.742513E1,1.5128232E1,3.6956276E1,3.0712582E1,7.974892E1,1.5046946E1,1.2445189E1,5.5705256E0,1.654968E1,1.1781932E2,5.4909096E1,5.6183143E0,1.34200325E1,1.0535932E2,1.4616656E1,1.451574E1,1.0190966E1,2.086602E1,4.4453472E1,1.7219847E1,3.9154156E1,2.2075792E1,5.928875E1,1.1400359E2,4.5874172E1,7.135256E1,6.0725703E0,8.1012125E0,7.0270195E0,1.6625652E1,2.0330622E1,1.3111315E1,1.7601267E1,4.2610477E1,3.7138443E1,7.9233046E0,7.1236415E0,6.6325645E0,5.812625E0,6.4352884E0,1.0114391E1,7.204342E1,4.5775898E1,4.840523E1,6.5038624E0,6.743202E0,6.67683E0,9.962333E1,5.735989E0,5.883932E0,8.732723E0,8.393179E0,6.1225615E0,5.1841974E0,5.0067677E0,8.545699E0,1.2320321E1,9.265618E0,3.518785E1,5.4118333E0,1.1808014E1,3.075974E1,8.394414E0,1.616505E1,5.910743E0,4.255249E1,1.673626E1,1.0885114E2,5.152444E0,2.0469223E1,5.088334E1,9.811539E0,6.8141146E0,8.269175E0,1.2061446E1,6.6839294E0,6.4273853E0,8.375053E0,9.226213E0,6.1608534E0,3.6449623E1,9.750103E0,2.738834E1,6.582836E1,6.215063E0,2.9469847E1,1.6306053E1,2.2036882E1,2.636835E1,9.351424E1,6.109093E0,7.23288E0,5.087441E0,2.3459225E1,1.1728627E1,2.0199427E1,1.0560315E1,1.0064557E1,6.1004925E0,2.1748028E1,2.0804462E1,1.0786594E1,5.949664E0,9.368271E1,1.5168441E1,6.3613205E0,1.4107903E1,6.305313E0,4.4578026E1,7.0146976E0,5.0467486E0,1.3221112E1,2.3228512E1,5.221303E0,2.2167038E1,5.884964E0,5.9943394E1,1.5179304E1,1.4290543E1,8.702124E0,7.6039295E0,7.4650865E0,1.4571796E1],"tree_param":{"num_deleted":"0","num_feature":"9","num_nodes":"161","size_leaf_vector":"1"}},{"base_weights":[1.0725574E-2,-3.558143E-1,6.526653E-1,2.6931167E-1,-5.7119584E-1,4.3414342E-1,9.7388244E-1,-1.3016921E-1,3.909445E-1,-7.4732757E-1,-2.1483342E-1,-1.2780365E-1,5.9232086E-1,1.0572383E0,2.835826E-1,-7.270173E-2,6.484912E-2,1.803212E-1,6.301692E-1,-9.779787E-1,-5.6706846E-1,1.4982352E-1,-3.8539454E-1,-6.586288E-1,5.436777E-1,4.5365608E-1,8.682563E-1,7.455428E-1,1.0998335E0,-9.998549E-3,4.7794566E-2,-1.9923903E-1,6.153116E-2,3.4315988E-1,-4.1491333E-1,8.333621E-1,3.2977372E-1,-1.0445863E0,-4.8040152E-1,-4.1680145E-1,-1.0884633E0,-4.824695E-1,4.1832677E-1,-5.704934E-1,-3.800059E-2,-1.0072687E0,-1.9305652E-1,1.7842302E-3,7.10665E-1,5.323443E-1,-6.5329894E-2,9.4806516E-1,2.402149E-2,2.3367325E-2,8.19418E-2,4.6982873E-2,8.374883E-2,-5.805311E-1,3.5348177E-1,7.412007E-1,-1.2630934E-1,-7.158957E-2,2.096211E-2,2.825117E-2,9.99145E-1,6.906916E-1,-1.7687032E-2,-8.011205E-1,-1.1169959E0,-9.1167897E-1,3.8769618E-2,-1.6364637E-1,-7.325174E-1,-3.6066487E-2,-1.1952678E0,1.0206428E-2,-8.367998E-2,5.5100846E-1,-1.7495183E-2,-1.0218096E0,-4.1378018E-1,1.8324704E-1,-5.394912E-2,-1.0610956E-1,-4.241738E-2,-4.9094442E-2,2.692628E-2,1.6161656E-2,7.382617E-2,7.0348847E-1,2.5243545E-1,6.2071395E-1,9.0322256E-2,-6.640404E-2,9.424988E-4,4.6092466E-2,2.1791663E-3,1.33478325E-2,9.516598E-1,-4.6273524E-1,2.3747836E-1,8.425595E-2,3.8555376E-2,2.4261957E-2,8.079089E-2,-2.435304E-1,-1.1590534E0,-1.2885934E0,-7.2262883E-1,-2.8545536E-2,-9.8771304E-2,-8.4398784E-2,-8.510425E-2,-8.325697E-1,1.9764788E-2,-3.5021625E-2,-1.3179009E0,9.41025E-1,2.0015158E-1,-3.172999E-2,-1.0129262E-1,-5.39403E-1,4.032902E-2,4.3499613E-1,-3.1132005E-2,-7.491036E-3,7.8544486E-1,4.9088132E-1,-2.2668453E-1,1.2739879E-2,8.9765525E-1,4.3806233E-2,8.509447E-2,-8.595131E-2,1.1043832E-2,4.3103978E-2,-1.5737759E-2,-7.3604286E-2,2.6575701E-2,-4.2598482E-2,-1.0023641E-1,-8.630707E-2,-1.1573114E-1,-1.5531836E-2,-7.4651994E-2,-4.0487446E-2,9.844058E-3,-7.102152E-2,1.2534738E-2,-1.0822925E-1,-4.732707E-2,8.6637676E-2,3.785568E-2,-9.387892E-3,5.5540696E-2,2.0613374E-2,-5.2554097E-2,7.9056405E-2,1.256092E-2,6.575242E-2,9.033064E-3,6.029177E-2,1.0080179E-2,-6.816129E-2,3.5831887E-2,2.8515987E-2,8.660757E-2],"categories":[],"categories_nodes":[],"categories_segments":[],"categories_sizes":[],"default_left":[0,0,0,0,0,0,0,0,0,0,0,0,0,0,0,0,0,0,0,0,0,0,0,0,0,0,0,0,0,0,0,0,0,0,0,0,0,0,0,0,0,0,0,0,0,0,0,0,0,0,0,0,0,0,0,0,0,0,0,0,0,0,0,0,0,0,0,0,0,0,0,0,0,0,0,0,0,0,0,0,0,0,0,0,0,0,0,0,0,0,0,0,0,0,0,0,0,0,0,0,0,0,0,0,0,0,0,0,0,0,0,0,0,0,0,0,0,0,0,0,0,0,0,0,0,0,0,0,0,0,0,0,0,0,0,0,0,0,0,0,0,0,0,0,0,0,0,0,0,0,0,0,0,0,0,0,0,0,0,0,0,0,0,0,0,0,0],"id":7,"left_children":[1,3,5,7,9,11,13,15,17,19,21,23,25,27,29,-1,31,33,35,37,39,41,43,45,47,49,51,53,55,-1,-1,57,-1,59,61,63,65,67,69,71,73,75,77,79,81,83,85,-1,87,89,-1,91,-1,-1,-1,-1,-1,93,95,97,99,-1,-1,-1,101,103,-1,105,107,109,-1,111,113,-1,115,-1,-1,117,-1,119,121,123,-1,-1,-1,-1,-1,-1,-1,125,127,129,-1,-1,-1,-1,-1,-1,131,133,135,-1,-1,-1,-1,137,139,141,143,-1,-1,145,-1,147,-1,-1,149,151,153,-1,-1,155,-1,157,-1,-1,159,161,163,-1,165,-1,-1,-1,-1,-1,-1,-1,-1,-1,-1,-1,-1,-1,-1,-1,-1,-1,-1,-1,-1,-1,-1,-1,-1,-1,-1,-1,-1,-1,-1,-1,-1,-1,-1,-1,-1],"loss_changes":[2.430631E2,8.868969E1,2.593106E1,8.271518E0,3.0556747E1,2.0097298E1,8.400421E0,6.648291E0,6.433775E0,1.3045715E1,1.0212973E1,1.8286491E1,6.338337E0,9.663391E-1,2.6885037E0,0E0,6.865616E0,6.9761295E0,3.4143505E0,4.2082977E0,1.4118603E1,9.157778E0,7.149597E0,4.438671E0,1.9585557E0,1.2888674E1,2.222023E0,2.5631313E0,2.2610474E-1,0E0,0E0,5.6201468E0,0E0,1.0540766E1,6.1113024E0,2.303648E0,5.4789653E0,1.2997894E0,8.484474E0,1.15494E1,2.085167E0,6.493018E0,3.3761263E0,4.7180977E0,6.137052E0,2.0951176E0,3.6644692E0,0E0,2.1172762E0,5.242031E0,0E0,3.437992E0,0E0,0E0,0E0,0E0,0E0,2.8287392E0,9.2323804E-1,3.434208E0,3.3539069E0,0E0,0E0,0E0,9.514866E-1,1.943985E0,0E0,6.1188946E0,5.3904343E0,2.3758516E0,0E0,6.2389927E0,6.6657524E0,0E0,2.4382172E0,0E0,0E0,4.123002E0,0E0,2.9823322E0,6.9398384E0,4.8305025E0,0E0,0E0,0E0,0E0,0E0,0E0,0E0,4.6641006E0,5.19355E0,2.8407745E0,0E0,0E0,0E0,0E0,0E0,0E0,8.099632E-1,6.0497313E0,2.141428E0,0E0,0E0,0E0,0E0,6.437923E0,1.2616253E0,4.6271515E-1,4.096282E0,0E0,0E0,7.6517916E0,0E0,6.907318E0,0E0,0E0,1.5577507E0,7.856884E-1,3.2318242E0,0E0,0E0,6.7134314E0,0E0,3.5028167E0,0E0,0E0,3.7364922E0,3.2415452E0,7.866327E0,0E0,1.5056505E0,0E0,0E0,0E0,0E0,0E0,0E0,0E0,0E0,0E0,0E0,0E0,0E0,0E0,0E0,0E0,0E0,0E0,0E0,0E0,0E0,0E0,0E0,0E0,0E0,0E0,0E0,0E0,0E0,0E0,0E0,0E0,0E0,0E0,0E0,0E0,0E0],"parents":[2147483647,0,0,1,1,2,2,3,3,4,4,5,5,6,6,7,7,8,8,9,9,10,10,11,11,12,12,13,13,14,14,16,16,17,17,18,18,19,19,20,20,21,21,22,22,23,23,24,24,25,25,26,26,27,27,28,28,31,31,33,33,34,34,35,35,36,36,37,37,38,38,39,39,40,40,41,41,42,42,43,43,44,44,45,45,46,46,48,48,49,49,51,51,57,57,58,58,59,59,60,60,64,64,65,65,67,67,68,68,69,69,71,71,72,72,74,74,77,77,79,79,80,80,81,81,89,89,90,90,91,91,98,98,99,99,100,100,105,105,106,106,107,107,108,108,111,111,113,113,116,116,117,117,118,118,121,121,123,123,126,126,127,127,128,128,130,130],"right_children":[2,4,6,8,10,12,14,16,18,20,22,24,26,28,30,-1,32,34,36,38,40,42,44,46,48,50,52,54,56,-1,-1,58,-1,60,62,64,66,68,70,72,74,76,78,80,82,84,86,-1,88,90,-1,92,-1,-1,-1,-1,-1,94,96,98,100,-1,-1,-1,102,104,-1,106,108,110,-1,112,114,-1,116,-1,-1,118,-1,120,122,124,-1,-1,-1,-1,-1,-1,-1,126,128,130,-1,-1,-1,-1,-1,-1,132,134,136,-1,-1,-1,-1,138,140,142,144,-1,-1,146,-1,148,-1,-1,150,152,154,-1,-1,156,-1,158,-1,-1,160,162,164,-1,166,-1,-1,-1,-1,-1,-1,-1,-1,-1,-1,-1,-1,-1,-1,-1,-1,-1,-1,-1,-1,-1,-1,-1,-1,-1,-1,-1,-1,-1,-1,-1,-1,-1,-1,-1,-1],"split_conditions":[1.065E1,2.4E-1,1.1733334E1,2.35E1,9.9E0,1.4E1,4.95E-1,3E0,4.8E-1,2.7E-1,2.95E-1,5.9E-1,5.6E-1,1.2E1,5.7E-1,-7.270173E-2,1.03E1,4.1E-1,2.05E-1,3.43E0,4.15E-1,2.35E1,6.2E-1,9E0,3.18E0,4.55E-1,8.5E-2,5.7E-2,2.97E0,-9.998549E-3,4.7794566E-2,3.2E0,6.153116E-2,3.21E0,3.09E0,3.1E-1,7.1E0,4.6E-1,2.1E-1,4.3E-1,1.1E1,4.5E-2,5.7E1,3.16E0,3.42E0,2.7E-1,3.2E0,1.7842302E-3,6.6E-1,7.1E0,-6.5329894E-2,2.85E1,2.402149E-2,2.3367325E-2,8.19418E-2,4.6982873E-2,8.374883E-2,4.8E-2,5.1E-2,4.3E-2,3.36E0,-7.158957E-2,2.096211E-2,2.825117E-2,3.35E0,1.0033334E1,-1.7687032E-2,6.45E0,3.29E0,6.15E-1,3.8769618E-2,8.4E0,9.4E0,-3.6066487E-2,5E-2,1.0206428E-2,-8.367998E-2,4.5E-2,-1.7495183E-2,4.6E-1,8.5E0,3.4E0,-5.394912E-2,-1.0610956E-1,-4.241738E-2,-4.9094442E-2,2.692628E-2,1.6161656E-2,7.382617E-2,1.95E1,2.75E-1,2E0,9.0322256E-2,-6.640404E-2,9.424988E-4,4.6092466E-2,2.1791663E-3,1.33478325E-2,1.02E1,4.2E-1,6.3E0,8.425595E-2,3.8555376E-2,2.4261957E-2,8.079089E-2,2E-1,3.13E0,3.75E1,1E-1,-2.8545536E-2,-9.8771304E-2,4.7E-1,-8.510425E-2,3.23E0,1.9764788E-2,-3.5021625E-2,7E-1,3.3E-1,4.15E1,-3.172999E-2,-1.0129262E-1,4E-2,4.032902E-2,2.4E-1,-3.1132005E-2,-7.491036E-3,5.05E1,3.5E-1,7E0,1.2739879E-2,3.25E0,4.3806233E-2,8.509447E-2,-8.595131E-2,1.1043832E-2,4.3103978E-2,-1.5737759E-2,-7.3604286E-2,2.6575701E-2,-4.2598482E-2,-1.0023641E-1,-8.630707E-2,-1.1573114E-1,-1.5531836E-2,-7.4651994E-2,-4.0487446E-2,9.844058E-3,-7.102152E-2,1.2534738E-2,-1.0822925E-1,-4.732707E-2,8.6637676E-2,3.785568E-2,-9.387892E-3,5.5540696E-2,2.0613374E-2,-5.2554097E-2,7.9056405E-2,1.256092E-2,6.575242E-2,9.033064E-3,6.029177E-2,1.0080179E-2,-6.816129E-2,3.5831887E-2,2.8515987E-2,8.660757E-2],"split_indices":[8,1,8,5,8,5,1,6,7,2,1,7,7,5,7,0,8,2,1,6,1,5,7,5,6,1,4,4,6,0,0,3,0,6,6,2,0,7,2,2,5,4,5,6,6,2,6,0,7,0,0,5,0,0,0,0,0,4,4,4,6,0,0,0,6,8,0,0,6,1,0,0,0,0,4,0,0,4,0,7,0,3,0,0,0,0,0,0,0,5,1,3,0,0,0,0,0,0,3,7,3,0,0,0,0,2,6,5,2,0,0,7,0,6,0,0,7,2,5,0,0,4,0,2,0,0,5,2,3,0,6,0,0,0,0,0,0,0,0,0,0,0,0,0,0,0,0,0,0,0,0,0,0,0,0,0,0,0,0,0,0,0,0,0,0,0,0],"split_type":[0,0,0,0,0,0,0,0,0,0,0,0,0,0,0,0,0,0,0,0,0,0,0,0,0,0,0,0,0,0,0,0,0,0,0,0,0,0,0,0,0,0,0,0,0,0,0,0,0,0,0,0,0,0,0,0,0,0,0,0,0,0,0,0,0,0,0,0,0,0,0,0,0,0,0,0,0,0,0,0,0,0,0,0,0,0,0,0,0,0,0,0,0,0,0,0,0,0,0,0,0,0,0,0,0,0,0,0,0,0,0,0,0,0,0,0,0,0,0,0,0,0,0,0,0,0,0,0,0,0,0,0,0,0,0,0,0,0,0,0,0,0,0,0,0,0,0,0,0,0,0,0,0,0,0,0,0,0,0,0,0,0,0,0,0,0,0],"sum_hessian":[1.0310206E3,6.565718E2,3.7444888E2,1.6818352E2,4.8838824E2,2.2424684E2,1.5020206E2,3.9239243E1,1.2894427E2,3.261111E2,1.6227713E2,4.929865E1,1.749482E2,1.3354457E2,1.665749E1,6.6505485E0,3.258869E1,6.950392E1,5.944036E1,1.4111787E2,1.8499324E2,5.1752567E1,1.1052457E2,2.7543703E1,2.1754944E1,1.1819577E2,5.6752422E1,1.8280169E1,1.15264404E2,7.9314246E0,8.726065E0,2.46939E1,7.8947926E0,5.490658E1,1.459734E1,3.439843E1,2.5041931E1,1.23487976E2,1.7629902E1,1.4500261E2,3.9990635E1,1.5188524E1,3.656404E1,7.1686356E1,3.883821E1,1.5084385E1,1.2459319E1,5.566623E0,1.618832E1,1.1213322E2,6.0625486E0,4.8900223E1,7.8522E0,8.96559E0,9.314578E0,5.266527E0,1.0999787E2,1.4583334E1,1.0110566E1,2.940049E1,2.5506094E1,8.003414E0,6.5939255E0,1.0032948E1,2.436548E1,1.5152038E1,9.889894E0,3.107317E1,9.241481E1,1.2367624E1,5.2622786E0,8.13172E1,6.3685402E1,6.8015094E0,3.318913E1,8.080656E0,7.1078687E0,3.0506504E1,6.057539E0,1.7053617E1,5.4632736E1,2.98696E1,8.968613E0,6.699885E0,8.3845E0,6.6849623E0,5.7743564E0,6.3986354E0,9.789684E0,6.864714E1,4.3486076E1,2.2973139E1,2.5927086E1,9.306774E0,5.27656E0,5.1066403E0,5.0039253E0,8.499582E0,2.0900908E1,1.3110079E1,1.2396014E1,1.834885E1,6.0166316E0,8.712241E0,6.4397964E0,1.2805329E1,1.8267841E1,6.2815117E1,2.959969E1,6.192308E0,6.175317E0,7.6186676E1,5.130525E0,5.802133E1,5.664073E0,5.4758763E0,2.7713251E1,1.365044E1,1.6856064E1,6.85535E0,1.0198267E1,4.8643616E1,5.9891205E0,2.1216042E1,8.653559E0,6.33456E0,6.2312584E1,2.9019339E1,1.4466738E1,9.355741E0,1.3617398E1,8.338606E0,1.2562302E1,5.7690554E0,7.3410234E0,6.905202E0,5.490813E0,5.444534E0,7.3607955E0,5.187613E0,1.3080228E1,4.4328438E1,1.8486681E1,1.0849825E1,1.8749865E1,2.3999428E1,5.218725E1,5.211158E1,5.9097505E0,2.2510664E1,5.202588E0,8.050967E0,5.599473E0,1.1001415E1,5.8546486E0,7.927269E0,4.0716347E1,5.514384E0,1.5701657E1,5.45137E1,7.798885E0,1.4783498E1,1.4235842E1,7.202361E0,7.2643766E0,5.3431053E0,8.274293E0],"tree_param":{"num_deleted":"0","num_feature":"9","num_nodes":"167","size_leaf_vector":"1"}},{"base_weights":[1.0247576E-2,-3.317498E-1,6.2188894E-1,2.5395164E-1,-5.31878E-1,4.1031098E-1,9.3936116E-1,-1.2124811E-1,3.6927557E-1,-6.9673276E-1,-1.9901441E-1,-1.2047251E-1,5.616018E-1,1.0232116E0,2.6717073E-1,-6.7302845E-2,6.2008098E-2,1.6930977E-1,5.9886223E-1,-9.1458935E-1,-5.2733445E-1,1.4147916E-1,-3.5693237E-1,-6.157157E-1,5.156686E-1,4.2758444E-1,8.3139163E-1,7.136292E-1,1.0663435E0,-4.5230307E-2,5.4076795E-2,-1.8498006E-1,5.8798075E-2,5.521071E-1,-6.7229934E-2,7.9606885E-1,3.1179574E-1,-9.765659E-1,-4.515873E-1,-3.8653484E-1,-1.0191566E0,-4.498199E-1,3.9578754E-1,-7.441771E-1,-2.0049986E-1,-9.426254E-1,-1.8006118E-1,1.67176E-3,6.7742306E-1,5.030446E-1,-6.0334187E-2,9.4976485E-1,4.294949E-1,2.3980657E-2,8.225717E-2,1.0832008E0,4.438454E-2,-3.640586E-2,3.1140545E-2,-5.3907627E-1,3.3388117E-1,7.19578E-2,9.293817E-2,-3.3783123E-1,6.2643E-1,2.662499E-2,9.594159E-1,6.5827197E-1,-1.6403286E-2,-1.0790691E0,-7.9886174E-1,-8.571016E-1,3.6527775E-2,-1.5273575E-1,-6.7810947E-1,-3.366313E-2,-1.1204555E0,9.546644E-3,-7.767427E-2,5.2293575E-1,-1.6293064E-2,-1.1671147E0,-3.8510808E-1,-5.7223123E-2,-8.691573E-1,-9.560526E-2,-3.472042E-2,-4.5635905E-2,2.5351668E-2,1.51881E-2,7.101163E-2,6.6807115E-1,2.3694712E-1,6.856475E-1,1.1125318E0,6.389768E-2,-1.4635673E-2,8.6994773E-1,8.559964E-2,-1.0086713E-2,-7.48518E-2,4.377824E-2,2.0439003E-3,5.465956E-2,-4.2978864E-2,-7.4617994E-1,4.696981E-2,8.241502E-2,5.5124667E-3,8.121528E-2,3.658678E-2,2.2804683E-2,7.804105E-2,-7.5145674E-1,-1.2886184E0,-1.1158628E-1,-1.0024018E0,-2.669458E-2,-9.3274646E-2,-7.844427E-2,-7.965164E-2,-7.8307575E-1,1.1786796E-2,-3.2807317E-2,-1.2365394E0,9.025513E-1,1.8864875E-1,-5.8747426E-2,-1.05504416E-1,1.958802E-2,-7.133754E-1,2.9534423E-1,-3.032829E-1,-2.9119372E-2,-8.8931315E-2,-6.988241E-3,7.479979E-1,5.2018166E-1,-1.3001631E-1,3.429613E-1,8.88996E-2,9.020507E-2,4.7303848E-2,8.107242E-2,5.213014E-1,-8.989364E-2,-9.824125E-3,-2.2892805E-2,3.4773022E-2,-1.7213115E-2,-8.156735E-2,-7.451892E-2,-1.0662801E-1,-3.1885125E-2,2.0123798E-2,-8.629366E-2,-3.3601325E-2,-3.7484147E-2,9.129253E-3,-2.1375438E-2,-7.367407E-2,-1.0159079E-1,-4.447345E-2,8.366011E-2,3.5874747E-2,-8.721864E-3,5.2778997E-2,-3.1452419E-3,-8.913085E-2,-4.2350697E-3,5.476529E-2,-4.935436E-2,3.7039926E-3,6.2810205E-2,8.461793E-3,5.4179445E-2,-6.353163E-3,3.3878334E-2,-2.851409E-2,6.283979E-2,-9.74251E-3,1.3593066E-2,5.8750052E-2],"categories":[],"categories_nodes":[],"categories_segments":[],"categories_sizes":[],"default_left":[0,0,0,0,0,0,0,0,0,0,0,0,0,0,0,0,0,0,0,0,0,0,0,0,0,0,0,0,0,0,0,0,0,0,0,0,0,0,0,0,0,0,0,0,0,0,0,0,0,0,0,0,0,0,0,0,0,0,0,0,0,0,0,0,0,0,0,0,0,0,0,0,0,0,0,0,0,0,0,0,0,0,0,0,0,0,0,0,0,0,0,0,0,0,0,0,0,0,0,0,0,0,0,0,0,0,0,0,0,0,0,0,0,0,0,0,0,0,0,0,0,0,0,0,0,0,0,0,0,0,0,0,0,0,0,0,0,0,0,0,0,0,0,0,0,0,0,0,0,0,0,0,0,0,0,0,0,0,0,0,0,0,0,0,0,0,0,0,0,0,0,0,0,0,0,0,0,0,0,0,0,0,0],"id":8,"left_children":[1,3,5,7,9,11,13,15,17,19,21,23,25,27,29,-1,31,33,35,37,39,41,43,45,47,49,51,53,55,57,-1,59,-1,61,63,65,67,69,71,73,75,77,79,81,83,85,87,-1,89,91,-1,93,95,-1,-1,97,-1,-1,-1,99,101,-1,103,105,107,-1,109,111,-1,113,115,117,-1,119,121,-1,123,-1,-1,125,-1,127,129,131,133,-1,-1,-1,-1,-1,-1,135,137,139,141,-1,-1,143,-1,-1,-1,-1,-1,-1,-1,145,147,-1,-1,-1,-1,-1,-1,149,151,153,155,-1,-1,157,-1,159,-1,-1,161,163,165,-1,-1,-1,167,169,171,-1,-1,-1,173,175,177,179,-1,-1,-1,-1,181,-1,-1,-1,-1,-1,-1,-1,-1,-1,-1,-1,-1,-1,-1,-1,-1,-1,-1,-1,-1,-1,-1,-1,-1,-1,-1,-1,-1,-1,-1,-1,-1,-1,-1,-1,-1,-1,-1],"loss_changes":[2.1340134E2,7.683378E1,2.4189102E1,7.2845592E0,2.6641098E1,1.7840076E1,7.9296417E0,5.757619E0,5.785507E0,1.1547806E1,8.81732E0,1.6042603E1,5.878048E0,9.621277E-1,2.5130627E0,0E0,6.0950255E0,6.369009E0,3.10878E0,3.611702E0,1.24687E1,8.053788E0,6.615366E0,3.892187E0,1.7720103E0,1.1304909E1,2.263794E0,2.4869576E0,2.4884033E-1,2.4923947E0,0E0,4.896474E0,0E0,4.9263773E0,8.491908E0,2.1455631E0,4.884677E0,1.3911743E0,7.471738E0,9.850374E0,1.8501396E0,5.615449E0,3.0097208E0,4.373947E0,7.7013407E0,1.9680405E0,3.1938555E0,0E0,1.9615364E0,4.7201633E0,0E0,1.0666771E0,4.0198975E0,0E0,0E0,3.2377625E-1,0E0,0E0,0E0,2.7700086E0,8.290808E-1,0E0,6.22484E0,5.123538E0,3.2445912E0,0E0,9.036236E-1,1.829967E0,0E0,4.221489E0,6.7568626E0,2.134862E0,0E0,5.478117E0,5.794649E0,0E0,2.1484108E0,0E0,0E0,3.7720976E0,0E0,1.9403458E-1,4.1472573E0,5.96271E0,1.7025604E0,0E0,0E0,0E0,0E0,0E0,0E0,4.2082596E0,4.6485567E0,2.8182316E0,3.1593132E-1,0E0,0E0,1.419733E0,0E0,0E0,0E0,0E0,0E0,0E0,0E0,4.2320566E0,2.7263274E0,0E0,0E0,0E0,0E0,0E0,0E0,5.34486E0,3.4287262E-1,1.5845069E0,2.5862236E0,0E0,0E0,6.570936E0,0E0,5.439541E0,0E0,0E0,1.3568726E0,7.565117E-1,2.8750656E0,0E0,0E0,0E0,3.9847574E0,4.3760114E0,5.083009E0,0E0,0E0,0E0,3.4100418E0,3.1282353E0,3.0822673E0,3.0524197E0,0E0,0E0,0E0,0E0,9.358144E-1,0E0,0E0,0E0,0E0,0E0,0E0,0E0,0E0,0E0,0E0,0E0,0E0,0E0,0E0,0E0,0E0,0E0,0E0,0E0,0E0,0E0,0E0,0E0,0E0,0E0,0E0,0E0,0E0,0E0,0E0,0E0,0E0,0E0,0E0,0E0,0E0,0E0,0E0],"parents":[2147483647,0,0,1,1,2,2,3,3,4,4,5,5,6,6,7,7,8,8,9,9,10,10,11,11,12,12,13,13,14,14,16,16,17,17,18,18,19,19,20,20,21,21,22,22,23,23,24,24,25,25,26,26,27,27,28,28,29,29,31,31,33,33,34,34,35,35,36,36,37,37,38,38,39,39,40,40,41,41,42,42,43,43,44,44,45,45,46,46,48,48,49,49,51,51,52,52,55,55,59,59,60,60,62,62,63,63,64,64,66,66,67,67,69,69,70,70,71,71,73,73,74,74,76,76,79,79,81,81,82,82,83,83,84,84,91,91,92,92,93,93,94,94,97,97,105,105,106,106,113,113,114,114,115,115,116,116,119,119,121,121,124,124,125,125,126,126,130,130,131,131,132,132,136,136,137,137,138,138,139,139,144,144],"right_children":[2,4,6,8,10,12,14,16,18,20,22,24,26,28,30,-1,32,34,36,38,40,42,44,46,48,50,52,54,56,58,-1,60,-1,62,64,66,68,70,72,74,76,78,80,82,84,86,88,-1,90,92,-1,94,96,-1,-1,98,-1,-1,-1,100,102,-1,104,106,108,-1,110,112,-1,114,116,118,-1,120,122,-1,124,-1,-1,126,-1,128,130,132,134,-1,-1,-1,-1,-1,-1,136,138,140,142,-1,-1,144,-1,-1,-1,-1,-1,-1,-1,146,148,-1,-1,-1,-1,-1,-1,150,152,154,156,-1,-1,158,-1,160,-1,-1,162,164,166,-1,-1,-1,168,170,172,-1,-1,-1,174,176,178,180,-1,-1,-1,-1,182,-1,-1,-1,-1,-1,-1,-1,-1,-1,-1,-1,-1,-1,-1,-1,-1,-1,-1,-1,-1,-1,-1,-1,-1,-1,-1,-1,-1,-1,-1,-1,-1,-1,-1,-1,-1,-1,-1],"split_conditions":[1.065E1,2.4E-1,1.1733334E1,2.35E1,9.9E0,1.4E1,4.95E-1,3E0,4.8E-1,2.7E-1,2.95E-1,5.9E-1,5.6E-1,1.2E1,1.9E1,-6.7302845E-2,1.03E1,3E-1,2.05E-1,3.43E0,4.15E-1,2.35E1,5E-1,9E0,3.18E0,4.55E-1,4.35E-1,1.225E1,6.7E-2,5.6E-2,5.4076795E-2,3.2E0,5.8798075E-2,2E-1,5.6E-2,3.1E-1,7.1E0,5.4E-1,2.1E-1,4.3E-1,1.1E1,4.5E-2,5.7E1,2.1E1,3.43E0,5.2E-1,3.2E0,1.67176E-3,6.6E-1,7.1E0,-6.0334187E-2,2.85E1,7.7E0,2.3980657E-2,8.225717E-2,1.2066667E1,4.438454E-2,-3.640586E-2,3.1140545E-2,1.7E0,5.1E-2,7.19578E-2,3.2E0,9.633333E0,5.9E-2,2.662499E-2,3.35E0,1.0033334E1,-1.6403286E-2,4.6E-1,1E-1,6.15E-1,3.6527775E-2,8.4E0,9.633333E0,-3.366313E-2,5E-2,9.546644E-3,-7.767427E-2,4.5E-2,-1.6293064E-2,2E0,4.2E-1,2.5E-1,7.5E-2,-9.560526E-2,-3.472042E-2,-4.5635905E-2,2.5351668E-2,1.51881E-2,7.101163E-2,1.95E1,4.2E-2,3.05E-1,5.2E-2,6.389768E-2,-1.4635673E-2,1.2E1,8.559964E-2,-1.0086713E-2,-7.48518E-2,4.377824E-2,2.0439003E-3,5.465956E-2,-4.2978864E-2,1.19E1,3.6E-1,8.241502E-2,5.5124667E-3,8.121528E-2,3.658678E-2,2.2804683E-2,7.804105E-2,6.45E0,3.4E0,6E-2,6.1E0,-2.669458E-2,-9.3274646E-2,4.7E-1,-7.965164E-2,4.6E-2,1.1786796E-2,-3.2807317E-2,7E-1,3.3E-1,4.15E1,-5.8747426E-2,-1.05504416E-1,1.958802E-2,3.3E1,7.5E0,7.9E0,-2.9119372E-2,-8.8931315E-2,-6.988241E-3,5.05E1,8.2E0,3.09E0,2.25E-1,8.88996E-2,9.020507E-2,4.7303848E-2,8.107242E-2,3.3E-1,-8.989364E-2,-9.824125E-3,-2.2892805E-2,3.4773022E-2,-1.7213115E-2,-8.156735E-2,-7.451892E-2,-1.0662801E-1,-3.1885125E-2,2.0123798E-2,-8.629366E-2,-3.3601325E-2,-3.7484147E-2,9.129253E-3,-2.1375438E-2,-7.367407E-2,-1.0159079E-1,-4.447345E-2,8.366011E-2,3.5874747E-2,-8.721864E-3,5.2778997E-2,-3.1452419E-3,-8.913085E-2,-4.2350697E-3,5.476529E-2,-4.935436E-2,3.7039926E-3,6.2810205E-2,8.461793E-3,5.4179445E-2,-6.353163E-3,3.3878334E-2,-2.851409E-2,6.283979E-2,-9.74251E-3,1.3593066E-2,5.8750052E-2],"split_indices":[8,1,8,5,8,5,1,6,7,2,1,7,7,5,5,0,8,2,1,6,1,5,7,5,6,1,1,8,4,4,0,3,0,1,4,2,0,7,2,2,5,4,5,5,6,7,6,0,7,0,0,5,0,0,0,8,0,0,0,3,4,0,6,8,4,0,6,8,0,7,2,1,0,0,8,0,4,0,0,4,0,3,7,2,4,0,0,0,0,0,0,5,4,1,4,0,0,8,0,0,0,0,0,0,0,3,2,0,0,0,0,0,0,0,3,2,3,0,0,7,0,4,0,0,7,2,5,0,0,0,5,0,0,0,0,0,5,0,6,1,0,0,0,0,2,0,0,0,0,0,0,0,0,0,0,0,0,0,0,0,0,0,0,0,0,0,0,0,0,0,0,0,0,0,0,0,0,0,0,0,0,0,0],"split_type":[0,0,0,0,0,0,0,0,0,0,0,0,0,0,0,0,0,0,0,0,0,0,0,0,0,0,0,0,0,0,0,0,0,0,0,0,0,0,0,0,0,0,0,0,0,0,0,0,0,0,0,0,0,0,0,0,0,0,0,0,0,0,0,0,0,0,0,0,0,0,0,0,0,0,0,0,0,0,0,0,0,0,0,0,0,0,0,0,0,0,0,0,0,0,0,0,0,0,0,0,0,0,0,0,0,0,0,0,0,0,0,0,0,0,0,0,0,0,0,0,0,0,0,0,0,0,0,0,0,0,0,0,0,0,0,0,0,0,0,0,0,0,0,0,0,0,0,0,0,0,0,0,0,0,0,0,0,0,0,0,0,0,0,0,0,0,0,0,0,0,0,0,0,0,0,0,0,0,0,0,0,0,0],"sum_hessian":[1.0181954E3,6.5333997E2,3.648554E2,1.663184E2,4.8702158E2,2.2031795E2,1.4453748E2,3.9089993E1,1.2722841E2,3.2497873E2,1.6204283E2,4.8913887E1,1.7140407E2,1.2804292E2,1.6494547E1,6.722439E0,3.2367554E1,6.892951E1,5.8298893E1,1.4023232E2,1.8474641E2,5.137504E1,1.1066779E2,2.7520763E1,2.1393124E1,1.1624469E2,5.5159367E1,1.7803373E1,1.1023955E2,1.0303011E1,6.1915355E0,2.46712E1,7.6963553E0,2.5816313E1,4.31132E1,3.3507244E1,2.4791649E1,1.2269888E2,1.7533428E1,1.4501671E2,3.9729702E1,1.5219344E1,3.6155693E1,3.0761442E1,7.990636E1,1.5057844E1,1.246292E1,5.5629616E0,1.5830162E1,1.10093376E2,6.1513147E0,4.155632E1,1.3603049E1,9.683064E0,8.12031E0,1.05219315E2,5.0202327E0,5.2396417E0,5.0633693E0,1.4640707E1,1.0030492E1,1.3103049E1,1.27132635E1,3.138333E1,1.1729871E1,9.913133E0,2.359411E1,1.4851334E1,9.940316E0,7.459737E1,4.8101517E1,1.2304404E1,5.229025E0,8.1327835E1,6.3688877E1,6.8115296E0,3.2918175E1,8.061086E0,7.158258E0,3.0066553E1,6.0891395E0,1.3091237E1,1.7670204E1,6.6699814E1,1.320654E1,7.918221E0,7.139623E0,6.726287E0,5.7366333E0,6.3636217E0,9.46654E0,6.701921E1,4.3074165E1,1.7832489E1,2.372383E1,7.8975744E0,5.7054753E0,2.595701E1,7.926231E1,8.468402E0,6.172305E0,5.0292416E0,5.0012503E0,6.4555254E0,6.2577376E0,1.4770172E1,1.6613157E1,5.7929144E0,5.936956E0,1.7671757E1,5.922354E0,8.6405525E0,6.210781E0,3.088983E1,4.370754E1,1.1344336E1,3.6757183E1,6.1942887E0,6.110115E0,7.618921E1,5.1386237E0,5.663425E1,7.0546255E0,5.474581E0,2.7443592E1,1.3282755E1,1.6783798E1,6.672335E0,6.4189014E0,6.020882E0,1.16493225E1,2.7333971E1,3.9365845E1,6.126648E0,7.079892E0,6.352281E0,6.066693E1,2.407486E1,1.8999304E1,1.1578317E1,6.2541723E0,1.8722454E1,5.001375E0,1.4861588E1,1.1095424E1,7.964732E0,6.80544E0,9.147938E0,7.465219E0,1.2758986E1,1.8130842E1,1.6218855E1,2.7488682E1,6.1496987E0,5.1946373E0,2.8155998E1,8.601185E0,2.4055841E1,5.213337E1,1.687666E1,3.975759E1,2.2257624E1,5.185969E0,7.7590404E0,5.523715E0,1.1028664E1,5.7551346E0,5.2777596E0,6.371563E0,1.5590794E1,1.1743177E1,1.9192654E1,2.017319E1,5.289726E1,7.7696733E0,1.7897568E1,6.1772923E0,5.471273E0,1.3528031E1,5.2801485E0,6.298168E0,5.56498E0,5.530443E0],"tree_param":{"num_deleted":"0","num_feature":"9","num_nodes":"183","size_leaf_vector":"1"}},{"base_weights":[9.860702E-3,-3.1008932E-1,5.931593E-1,3.022323E-1,-4.7912866E-1,3.882949E-1,9.0683603E-1,-3.711273E-2,3.6087736E-1,-6.316551E-1,-1.6729665E-1,-1.1339652E-1,5.3295726E-1,9.9143004E-1,2.519348E-1,1.8810192E-1,6.1407614E-1,-8.5985744E-1,-4.63949E-1,1.5366453E-1,-3.334577E-1,-5.75836E-1,4.8920333E-1,4.029116E-1,7.97967E-1,6.751174E-1,1.0359035E0,-9.540073E-3,4.629427E-2,-2.6652074E-1,3.9921114E-1,7.549782E-1,2.0914938E-1,-8.9672756E-1,6.202675E-3,-3.366841E-1,-9.5700115E-1,-3.7933823E-1,3.9645118E-1,-6.971808E-1,-1.8678936E-1,-3.2092372E-1,-8.694074E-2,3.6890875E-3,6.6654986E-1,4.7515488E-1,-5.5855118E-2,9.161658E-1,4.0563095E-1,1.1496259E-2,8.7259805E-1,1.0751126E0,7.0167005E-1,-5.027492E-1,2.8726058E-2,7.2438467E-1,7.5412444E-3,8.296054E-2,5.6858945E-1,5.0285924E-2,-2.740321E-2,-1.0376028E0,-6.508338E-1,-3.6160115E-2,-6.0756403E-1,-3.143779E-2,-1.0538069E0,1.0423475E-3,-5.8724765E-2,5.207506E-1,-1.4787206E-2,-8.535631E-1,8.474725E-3,-5.280894E-2,-8.093369E-1,-7.4055386E-1,2.260112E-2,7.084227E-2,5.7185157E-3,6.344669E-1,2.2236095E-1,6.5612483E-1,1.0796728E0,6.1000805E-2,-1.3645042E-2,8.1007876E-2,4.090607E-2,1.0963457E0,4.4928335E-2,1.2687677E-2,7.5868495E-2,-1.5057379E-2,-8.113323E-2,9.625165E-1,2.6094434E-1,-5.9455756E-2,2.4758494E-1,1.693798E-3,7.105243E-1,-6.962497E-1,-1.1585914E0,-1.2069186E0,-4.0129325E-1,3.8261953E-1,-2.6898307E-1,-6.9387007E-1,4.488978E-2,-3.0747535E-2,-1.1646577E0,3.3422312E-1,8.362598E-2,-5.4058814E-1,-1.0545714E-1,-5.318241E-1,1.0564398E-1,-2.7176697E-2,-8.27347E-2,-8.3040714E-2,-2.13864E-2,-6.5202396E-3,7.1241033E-1,4.5066056E-1,-2.2667444E-1,1.09173665E-2,7.182417E-2,9.0421066E-2,5.743715E-2,8.396814E-2,4.7345757E-2,5.193482E-2,-5.7425343E-2,3.9153717E-2,8.58791E-2,-2.0380158E-2,5.7424802E-2,-2.1551639E-2,4.24531E-2,3.2814875E-2,7.757742E-2,1.5024055E-2,-7.477842E-2,-4.6885468E-2,-9.0088986E-2,-1.12844236E-1,-5.5048686E-2,-9.522612E-2,-1.4278336E-2,-8.975942E-3,7.867924E-2,-5.398293E-2,1.8120933E-4,-6.093652E-2,3.6204662E-3,-9.578851E-2,-4.182258E-2,5.777354E-2,-6.017601E-3,-1.4710724E-2,-7.3531054E-2,-7.9889186E-2,3.0167205E-3,2.097632E-2,-3.670491E-2,6.0013223E-2,7.92537E-3,6.930632E-2,1.6014984E-2,-6.2644266E-2,3.2019146E-2],"categories":[],"categories_nodes":[],"categories_segments":[],"categories_sizes":[],"default_left":[0,0,0,0,0,0,0,0,0,0,0,0,0,0,0,0,0,0,0,0,0,0,0,0,0,0,0,0,0,0,0,0,0,0,0,0,0,0,0,0,0,0,0,0,0,0,0,0,0,0,0,0,0,0,0,0,0,0,0,0,0,0,0,0,0,0,0,0,0,0,0,0,0,0,0,0,0,0,0,0,0,0,0,0,0,0,0,0,0,0,0,0,0,0,0,0,0,0,0,0,0,0,0,0,0,0,0,0,0,0,0,0,0,0,0,0,0,0,0,0,0,0,0,0,0,0,0,0,0,0,0,0,0,0,0,0,0,0,0,0,0,0,0,0,0,0,0,0,0,0,0,0,0,0,0,0,0,0,0,0,0,0,0,0,0,0,0,0,0],"id":9,"left_children":[1,3,5,7,9,11,13,-1,15,17,19,21,23,25,27,29,31,33,35,37,39,41,43,45,47,49,51,-1,-1,53,55,57,59,61,-1,63,65,67,69,71,73,75,-1,-1,77,79,-1,81,83,-1,85,87,89,91,-1,93,95,-1,97,-1,-1,99,101,103,105,-1,107,-1,-1,109,-1,111,-1,113,115,117,-1,-1,-1,119,121,123,125,-1,-1,-1,-1,127,-1,-1,-1,129,-1,131,133,-1,135,-1,137,139,141,143,145,147,149,151,-1,-1,153,155,-1,157,-1,159,161,-1,-1,-1,-1,-1,163,165,167,-1,-1,-1,-1,-1,-1,-1,-1,-1,-1,-1,-1,-1,-1,-1,-1,-1,-1,-1,-1,-1,-1,-1,-1,-1,-1,-1,-1,-1,-1,-1,-1,-1,-1,-1,-1,-1,-1,-1,-1,-1,-1,-1,-1,-1,-1],"loss_changes":[1.8793378E2,6.74574E1,2.2569656E1,6.7837E0,2.4152176E1,1.5847321E1,7.515999E0,0E0,5.667694E0,1.269487E1,9.058073E0,1.4078156E1,5.503273E0,1.0421829E0,2.4851856E0,7.786318E0,2.876171E0,5.069992E0,1.2188446E1,7.6937704E0,5.82285E0,3.8619566E0,1.6869087E0,9.921404E0,2.161148E0,1.7347536E0,6.4349365E-1,0E0,0E0,4.1780767E0,7.005145E0,1.9281197E0,4.2500076E0,4.1199036E0,0E0,1.30043335E1,1.659729E0,2.987745E0,3.0938406E0,4.1129694E0,6.70428E0,5.758086E0,0E0,0E0,2.492591E0,4.255682E0,0E0,1.0423927E0,3.6070297E0,0E0,2.894783E-1,2.8927612E-1,2.1521716E0,5.4845414E0,0E0,3.0668287E0,5.1871324E0,0E0,2.1212463E0,0E0,0E0,2.758545E0,6.8845997E0,7.6028147E0,9.169106E0,0E0,1.9166222E0,0E0,0E0,3.3733091E0,0E0,3.855259E0,0E0,5.1897545E0,1.4723473E0,1.8464046E0,0E0,0E0,0E0,3.797186E0,4.586545E0,2.7002325E0,1.4734268E-2,0E0,0E0,0E0,0E0,2.4812317E-1,0E0,0E0,0E0,6.6842794E0,0E0,9.6912766E-1,3.320541E0,0E0,3.6970978E0,0E0,1.4796467E0,6.9677486E0,6.6308594E-1,1.1411648E0,6.746221E0,9.464169E0,6.1218176E0,6.988632E0,0E0,0E0,1.2053871E0,4.9687567E0,0E0,2.6350565E0,0E0,5.222828E0,5.486583E0,0E0,0E0,0E0,0E0,0E0,3.1137486E0,3.0958138E0,6.4859776E0,0E0,0E0,0E0,0E0,0E0,0E0,0E0,0E0,0E0,0E0,0E0,0E0,0E0,0E0,0E0,0E0,0E0,0E0,0E0,0E0,0E0,0E0,0E0,0E0,0E0,0E0,0E0,0E0,0E0,0E0,0E0,0E0,0E0,0E0,0E0,0E0,0E0,0E0,0E0,0E0,0E0,0E0,0E0,0E0,0E0,0E0],"parents":[2147483647,0,0,1,1,2,2,3,3,4,4,5,5,6,6,8,8,9,9,10,10,11,11,12,12,13,13,14,14,15,15,16,16,17,17,18,18,19,19,20,20,21,21,22,22,23,23,24,24,25,25,26,26,29,29,30,30,31,31,32,32,33,33,35,35,36,36,37,37,38,38,39,39,40,40,41,41,44,44,45,45,47,47,48,48,50,50,51,51,52,52,53,53,55,55,56,56,58,58,61,61,62,62,63,63,64,64,66,66,69,69,71,71,73,73,74,74,75,75,79,79,80,80,81,81,82,82,87,87,91,91,93,93,94,94,96,96,98,98,99,99,100,100,101,101,102,102,103,103,104,104,105,105,108,108,109,109,111,111,113,113,114,114,120,120,121,121,122,122],"right_children":[2,4,6,8,10,12,14,-1,16,18,20,22,24,26,28,30,32,34,36,38,40,42,44,46,48,50,52,-1,-1,54,56,58,60,62,-1,64,66,68,70,72,74,76,-1,-1,78,80,-1,82,84,-1,86,88,90,92,-1,94,96,-1,98,-1,-1,100,102,104,106,-1,108,-1,-1,110,-1,112,-1,114,116,118,-1,-1,-1,120,122,124,126,-1,-1,-1,-1,128,-1,-1,-1,130,-1,132,134,-1,136,-1,138,140,142,144,146,148,150,152,-1,-1,154,156,-1,158,-1,160,162,-1,-1,-1,-1,-1,164,166,168,-1,-1,-1,-1,-1,-1,-1,-1,-1,-1,-1,-1,-1,-1,-1,-1,-1,-1,-1,-1,-1,-1,-1,-1,-1,-1,-1,-1,-1,-1,-1,-1,-1,-1,-1,-1,-1,-1,-1,-1,-1,-1,-1,-1,-1,-1],"split_conditions":[1.065E1,2.3E-1,1.1733334E1,1.4E1,9.9E0,1.4E1,4.95E-1,-3.711273E-2,4.9E-1,2.7E-1,2.95E-1,5.9E-1,5.6E-1,3.6E-1,1.3E-1,6.6E0,2.05E-1,1.73E1,4.15E-1,2.5E1,5E-1,3.37E0,6.3E-2,4.55E-1,4.35E-1,2E0,3.39E0,-9.540073E-3,4.629427E-2,2.2E-1,3.3E-1,4.3E-2,7.1E0,3.29E0,6.202675E-3,4E-1,1.1E1,4.5E-2,5.7E1,7.6E0,3.43E0,3.2E0,-8.694074E-2,3.6890875E-3,8.8E-2,7.1E0,-5.5855118E-2,2.85E1,7.7E0,1.1496259E-2,3.3E-1,5.3E-1,5.2E-1,4.4E-1,2.8726058E-2,3.21E0,3.01E0,8.296054E-2,3.1E0,5.0285924E-2,-2.740321E-2,4.6E-1,1.9E0,3.13E0,