tree
version=v4
num_class=1
num_tree_per_iteration=1
label_index=0
max_feature_idx=8
objective=binary sigmoid:1
feature_names=Column_0 Column_1 Column_2 Column_3 Column_4 Column_5 Column_6 Column_7 Column_8
feature_infos=[3.7999999999999998:15.6] [0.080000000000000002:1.5800000000000001] [0:1.23] [0.59999999999999998:65.799999999999997] [0.012:0.60999999999999999] [1:289] [2.7200000000000002:4.0099999999999998] [0.22:2] [8:14.199999999999999]
tree_sizes=9677 9906 9919 9904 9937 9943 9943 9917 9892

Tree=0
num_leaves=95
num_cat=0
split_feature=4 1 7 5 1 5 3 4 7 2 0 5 1 1 2 3 3 1 5 4 0 0 2 2 3 5 5 7 1 2 3 5 2 4 0 7 4 3 2 5 0 2 2 2 7 5 0 5 7 7 1 1 1 0 5 3 1 5 5 7 0 0 1 5 2 3 3 0 0 7 1 3 4 0 3 7 3 1 1 4 0 2 5 5 1 4 3 3 0 7 0 3 2 4
split_gain=275.224 207.129 108.332 81.2409 66.6212 34.0435 27.8039 32.7876 25.0523 21.937 22.9854 21.8978 21.7893 20.9936 19.2412 21.1678 18.1229 20.4889 17.4724 17.2624 15.5182 14.7711 14.2577 13.9936 13.7061 13.5922 12.6955 11.855 11.5791 10.8328 10.4814 11.4153 10.362 23.0681 10.1761 10.0673 17.1185 13.9231 10.3121 9.99898 9.73692 8.93018 8.86786 10.0727 8.53474 8.31323 16.7248 8.24311 8.19076 7.98771 7.66309 10.4259 7.59598 7.44417 14.1735 11.3312 9.58194 7.44029 7.41933 7.36792 7.20908 12.687 7.12565 7.06469 7.0576 7.04355 6.95739 6.66532 6.61458 11.0479 6.56072 6.41609 6.34838 7.24131 6.22599 6.13565 5.98859 5.95993 5.91224 5.90243 5.89822 9.68044 6.05804 7.92105 5.89078 5.73018 5.68166 5.45191 6.84049 5.41836 5.4161 5.39725 5.37937 8.18281
threshold=0.041500000000000009 0.22750000000000004 0.58500000000000008 11.500000000000002 0.30750000000000005 57.500000000000007 11.050000000000002 0.095500000000000015 0.67500000000000016 0.21500000000000002 8.0500000000000025 8.5000000000000018 0.59250000000000014 0.24750000000000003 0.18500000000000003 17.650000000000002 3.9250000000000003 0.62250000000000016 15.250000000000002 0.05050000000000001 8.1500000000000004 6.1250000000000009 0.24500000000000002 0.23500000000000001 2.0250000000000004 13.500000000000002 48.750000000000007 0.54500000000000015 0.25750000000000006 0.18500000000000003 2.0250000000000004 8.5000000000000018 0.52500000000000013 0.037500000000000006 7.7500000000000009 0.49500000000000005 0.045500000000000006 1.7250000000000003 0.025000000000000005 43.250000000000007 7.3500000000000005 0.42500000000000004 0.37500000000000006 0.30500000000000005 0.38500000000000006 16.500000000000004 6.7500000000000009 17.500000000000004 0.52500000000000013 0.48500000000000004 0.25750000000000006 0.31750000000000006 0.27250000000000008 6.8500000000000005 34.500000000000007 1.425 0.36750000000000005 15.250000000000002 7.5000000000000009 0.44500000000000006 7.7500000000000009 6.6500000000000012 0.33750000000000008 25.500000000000004 0.26500000000000007 7.4500000000000011 3.2500000000000004 10.450000000000001 9.5500000000000025 0.62500000000000011 0.31750000000000006 2.3250000000000006 0.062500000000000014 6.6500000000000012 5.8250000000000002 0.6150000000000001 15.65 0.36750000000000005 0.30750000000000005 0.10150000000000002 6.5500000000000007 0.30500000000000005 41.250000000000007 28.250000000000004 0.52500000000000013 0.082500000000000018 12.950000000000001 1.8250000000000004 8.2500000000000018 0.51500000000000012 7.2500000000000009 1.675 0.025000000000000005 0.072500000000000009
decision_type=2 2 2 2 2 2 2 2 2 2 2 2 2 2 2 2 2 2 2 2 2 2 2 2 2 2 2 2 2 2 2 2 2 2 2 2 2 2 2 2 2 2 2 2 2 2 2 2 2 2 2 2 2 2 2 2 2 2 2 2 2 2 2 2 2 2 2 2 2 2 2 2 2 2 2 2 2 2 2 2 2 2 2 2 2 2 2 2 2 2 2 2 2 2
left_child=3 49 4 23 14 9 7 8 28 21 32 84 35 89 -3 19 17 -10 -12 25 74 -5 -21 -1 -19 -16 44 -14 -4 77 -30 75 45 -34 85 36 37 -6 -37 47 -8 42 43 64 65 46 -11 -38 -28 80 -48 -52 -31 55 56 -40 -55 -57 70 -60 61 63 -39 -49 -24 -27 -65 -13 -36 -70 -25 87 -43 -74 -18 -32 -47 -23 -20 -58 82 -82 83 -2 -9 92 -66 -29 -89 -7 -61 -84 -33 -94
right_child=1 2 6 5 12 13 40 11 16 10 18 67 27 -15 15 -17 20 24 78 22 -22 29 41 58 -26 26 48 71 30 52 31 34 33 -35 68 38 39 62 53 -41 -42 72 -44 -45 -46 76 50 60 -50 -51 51 -53 -54 54 -56 57 79 -59 59 90 -62 -63 -64 66 86 -67 -68 -69 69 -71 -72 -73 73 -75 -76 -77 -78 -79 -80 -81 81 -83 91 -85 -86 -87 -88 88 -90 -91 -92 -93 93 -95
leaf_value=0.30693163585797079 0.52843328829480318 0.3221625591145757 0.66706571257030678 0.61550269112867495 0.30560720774870065 0.55321768035135421 0.49632485548358168 0.62222830262106177 0.65186659055361362 0.67945714222900722 0.33398781009020101 0.37748166002006078 0.32032307562947848 0.42834515753018837 0.38010628889513853 0.35858433211950091 0.48771607277332663 0.36311527038805613 0.61431581851237138 0.32414920127848068 0.65229574223408493 0.27249650501695033 0.43107934441638573 0.35527326184632602 0.61231687515859701 0.58554314902622495 0.47893160062000517 0.34423636093574272 0.46188972464256151 0.70293564052970281 0.52358600073272266 0.66982493779795238 0.6698249377979526 0.35320384292559159 0.42149466730982632 0.60728249930464673 0.35352034228993912 0.67218998799307772 0.30560720774870087 0.30665834116875623 0.32467094568516286 0.35580730543877348 0.6232246895088227 0.42394731195662261 0.60557440749705649 0.66190155951778673 0.59963024800664222 0.61684781342715223 0.63119578461091075 0.63497156650137354 0.3056072077487007 0.55945592869211869 0.47505609819942218 0.55945592869211869 0.32934695687712529 0.35075816601926935 0.40416024058555711 0.53173825708713085 0.62467397952738424 0.53554264338585467 0.56842341068196767 0.34845635246037732 0.49904341844471484 0.5738038998758771 0.53495939252472624 0.35075816601926912 0.35320384292559159 0.53738212687095188 0.40162824567077615 0.70293564052970281 0.54641231852506555 0.34845635246037732 0.38010628889513859 0.6036035323344523 0.30324215755357564 0.70293564052970281 0.54435280113026774 0.47116072140745158 0.49632485548358168 0.54152096471242073 0.65651573375871974 0.57321425722448982 0.62467397952738424 0.67325018290813365 0.47638872710193841 0.70293564052970281 0.67761569138189381 0.55945592869211869 0.35858433211950103 0.70293564052970281 0.35075816601926912 0.46012382049686817 0.55552497768286979 0.38728027448701774
leaf_weight=5.808022245764735 8.5958729237318057 6.0403431355953208 5.5757013559341422 14.868536949157717 3.0201715677976599 5.3433804661035555 5.8080222457647306 7.4342684745788556 54.827730000019073 12.777648940682413 3.2524924576282528 19.050312966108326 35.545096144080162 13.474611610174177 4.646417796611785 9.29283559322357 4.1817760169506055 4.4140969067811948 15.797820508480074 5.8080222457647315 3.949455127120018 3.0201715677976591 4.4140969067812028 6.0403431355953234 4.4140969067811966 2.5555297881364814 22.767447203397754 2.7878506779670742 23.232088983058929 2.3232088983058929 2.7878506779670698 3.020171567797667 6.0403431355953199 3.7171342372894287 12.080686271190645 4.1817760169506064 19.74727563560009 3.2524924576282492 3.0201715677976635 14.636216059327124 7.6665893644094467 7.2019475847482664 6.2726640254259101 12.54532805085182 39.029909491539001 238.82587474584579 5.8080222457647306 3.4848133474588447 4.1817760169506064 70.625550508499146 3.0201715677976608 3.4848133474588394 3.949455127120018 6.9696266949176815 12.313007161021231 2.5555297881364849 19.747275635600094 20.444238305091858 5.1110595762729627 4.1817760169506073 3.7171342372894278 11.848365381360052 8.8281938135623914 2.3232088983058929 9.5251564830541593 2.5555297881364822 3.7171342372894287 3.0201715677976599 2.3232088983058921 2.5555297881364822 2.5555297881364822 7.8989102542400351 2.7878506779670715 3.0201715677976608 3.2524924576282501 6.0403431355953217 4.4140969067811957 3.0201715677976608 5.8080222457647315 3.7171342372894278 23.696730762720108 33.918849915266037 2.5555297881364814 6.7373058050870887 4.4140969067811966 2.5555297881364814 3.9494551271200171 6.2726640254259092 2.3232088983058929 4.4140969067811966 2.5555297881364822 9.0605147033929807 16.959424957633022 3.4848133474588385
leaf_count=25 37 26 24 64 13 23 25 32 236 55 14 82 153 58 20 40 18 19 68 25 17 13 19 26 19 11 98 12 100 10 12 13 26 16 52 18 85 14 13 63 33 31 27 54 168 1028 25 15 18 304 13 15 17 30 53 11 85 88 22 18 16 51 38 10 41 11 16 13 10 11 11 34 12 13 14 26 19 13 25 16 102 146 11 29 19 11 17 27 10 19 11 39 73 15
internal_value=0.544948 0.508079 0.479383 0.613634 0.445589 0.626243 0.537458 0.547323 0.566737 0.634477 0.642199 0.458234 0.408399 0.509238 0.496925 0.504436 0.608319 0.629101 0.550069 0.514761 0.492108 0.548419 0.472408 0.44391 0.487716 0.545812 0.556643 0.354572 0.528031 0.467412 0.5177 0.542727 0.650434 0.549207 0.521453 0.428404 0.402567 0.497649 0.454816 0.378425 0.39866 0.489727 0.514959 0.492645 0.589662 0.654115 0.599311 0.401851 0.502559 0.610146 0.516141 0.441598 0.559456 0.445545 0.419875 0.487716 0.456501 0.511629 0.482825 0.534136 0.43989 0.417536 0.54566 0.503464 0.540822 0.468151 0.43805 0.399363 0.461182 0.559456 0.412098 0.417705 0.418538 0.496325 0.407009 0.646299 0.659768 0.371829 0.582598 0.42592 0.589413 0.607475 0.550798 0.592065 0.567896 0.560737 0.576772 0.465755 0.505166 0.620947 0.465452 0.496325 0.54525 0.526847
internal_weight=0 707.185 551.994 379.612 348.946 353.36 203.048 189.574 155.655 330.128 302.946 33.9188 202.351 23.2321 146.594 140.554 75.0396 63.6559 24.8583 131.261 11.3837 27.1815 55.5247 26.2523 8.82819 75.7366 71.0902 54.8277 80.6153 12.313 75.0396 51.8076 278.088 9.75748 42.9794 147.524 74.575 15.1009 72.9488 59.4741 13.4746 49.7167 36.7067 30.434 44.141 268.331 25.0907 44.8379 26.9492 155.19 12.313 6.50498 6.27266 68.767 42.747 26.0199 30.434 22.9998 20.4442 11.8484 25.0907 21.3735 12.0807 9.52516 17.8887 5.11106 6.04034 22.0705 16.9594 4.87874 8.59587 19.2826 13.01 5.80802 7.43427 8.82819 243.24 6.04034 21.6058 23.4644 84.5648 57.6156 26.9492 15.3332 11.8484 26.0199 13.4746 11.3837 8.59587 9.75748 6.73731 11.616 23.4644 20.4442
internal_count=4678 3044 2376 1634 1502 1521 874 816 670 1421 1304 146 871 100 631 605 323 274 107 565 49 117 239 113 38 326 306 236 347 53 323 223 1197 42 185 635 321 65 314 256 58 214 158 131 190 1155 108 193 116 668 53 28 27 296 184 112 131 99 88 51 108 92 52 41 77 22 26 95 73 21 37 83 56 25 32 38 1047 26 93 101 364 248 116 66 51 112 58 49 37 42 29 50 101 88
is_linear=0
shrinkage=1


Tree=1
num_leaves=95
num_cat=0
split_feature=8 1 8 5 8 1 8 1 2 1 8 3 4 1 1 5 0 2 5 0 1 1 8 4 2 4 2 0 5 5 4 1 2 2 5 8 5 0 2 3 3 4 5 3 3 0 3 4 2 4 5 5 5 3 8 1 3 3 1 8 3 5 5 2 1 1 3 3 2 1 1 5 5 1 3 5 4 2 5 0 4 1 5 5 1 1 5 5 4 5 2 3 2 3
split_gain=571.909 220.188 81.6272 47.0165 28.1998 19.7478 18.7566 16.4633 18.5496 15.8938 15.262 14.4427 14.3663 15.9273 13.8453 12.0193 11.9416 11.2541 10.928 10.8986 10.5102 16.2805 18.7193 9.64443 9.1418 8.97547 11.4565 9.56048 9.59841 11.0495 14.9173 11.2096 8.57367 8.12413 7.68499 7.40998 7.33821 9.55593 15.5986 7.28208 13.0743 8.52783 7.58271 7.94421 7.58707 7.04835 7.02317 9.29371 12.1817 9.27512 8.90644 7.74486 7.15518 6.91857 6.90904 9.71253 6.68976 6.5788 6.53248 6.41531 6.24839 7.19712 10.4366 6.44559 6.17966 6.0494 5.52953 5.41662 13.4338 5.86519 7.47418 9.40167 5.38419 5.3562 6.62837 6.26398 8.7613 5.05865 5.02695 6.01501 5.01178 4.96137 8.38933 4.95438 5.40689 8.10035 4.54878 4.53667 10.2475 4.68602 4.49449 4.78369 6.44323 4.44224
threshold=10.350000000000003 0.25250000000000006 11.525000000000002 13.500000000000002 9.8500000000000032 0.22750000000000004 9.8500000000000032 0.41250000000000003 0.23500000000000001 0.67250000000000021 10.916666666666652 6.4500000000000011 0.043500000000000004 0.83250000000000013 0.26750000000000007 23.500000000000004 10.850000000000003 0.29500000000000004 31.500000000000004 8.5500000000000025 0.20250000000000004 0.21250000000000002 9.5750000000000011 0.063500000000000015 0.095000000000000015 0.037500000000000006 0.55500000000000016 7.8500000000000005 17.500000000000004 26.500000000000004 0.048500000000000008 0.33750000000000008 0.36500000000000005 0.16500000000000004 10.500000000000002 9.3500000000000032 6.5000000000000009 7.0500000000000007 0.25500000000000006 13.050000000000002 17.775000000000002 0.044500000000000005 40.250000000000007 13.950000000000001 15.350000000000003 6.5500000000000007 6.3250000000000002 0.058500000000000003 0.22500000000000003 0.044500000000000005 27.500000000000004 60.250000000000007 10.500000000000002 6.2500000000000009 9.4500000000000011 0.28750000000000003 13.750000000000002 5.0500000000000007 0.56250000000000011 9.3500000000000032 3.1250000000000004 13.500000000000002 20.500000000000004 0.34500000000000003 0.33750000000000008 0.34250000000000008 1.5250000000000001 1.7250000000000003 0.31500000000000006 0.40250000000000008 0.42250000000000004 5.5000000000000009 53.500000000000007 0.16250000000000003 1.675 36.500000000000007 0.047500000000000007 0.59500000000000008 50.250000000000007 6.5500000000000007 0.041500000000000009 0.28750000000000003 43.250000000000007 19.250000000000004 0.53500000000000014 0.49250000000000005 44.250000000000007 34.500000000000007 0.068500000000000019 30.250000000000004 0.31500000000000006 10.525000000000002 0.41500000000000004 1.675
decision_type=2 2 2 2 2 2 2 2 2 2 2 2 2 2 2 2 2 2 2 2 2 2 2 2 2 2 2 2 2 2 2 2 2 2 2 2 2 2 2 2 2 2 2 2 2 2 2 2 2 2 2 2 2 2 2 2 2 2 2 2 2 2 2 2 2 2 2 2 2 2 2 2 2 2 2 2 2 2 2 2 2 2 2 2 2 2 2 2 2 2 2 2 2 2
left_child=1 5 3 12 7 11 39 8 -3 46 14 15 36 67 56 23 19 81 32 25 78 22 -22 60 -12 -10 27 28 -27 31 53 -30 -19 34 -4 66 -2 38 -38 41 42 72 -41 -44 -45 -26 47 48 -6 -50 52 80 -49 -31 59 -56 -5 -20 -54 -55 61 -1 63 -63 -57 -29 -17 68 -14 77 -71 -72 -7 -37 -75 -76 -77 -69 -13 -80 -48 -16 -83 84 85 -9 -59 88 89 -32 -89 -92 -93 -87
right_child=2 4 33 10 9 6 -8 83 16 -11 24 20 13 -15 17 35 -18 18 57 -21 21 -23 -24 -25 45 26 -28 65 29 30 87 -33 -34 -35 -36 73 37 -39 -40 40 -42 -43 43 44 -46 -47 51 50 49 -51 -52 -53 58 54 55 64 -58 86 -60 -61 -62 62 -64 -65 -66 -67 -68 69 -70 70 71 -73 -74 74 75 76 -78 -79 79 -81 -82 82 -84 -85 -86 93 -88 90 -90 -91 91 92 -94 -95
leaf_value=-0.22742088662678139 -0.2453287472796212 -0.17999606229642329 -0.066971536254690739 0.071943695454069284 -0.21919941731799095 0.07019553937037587 0.079118728640028155 -0.14941113203465903 0.00031484085589902991 -0.18040739178904849 -0.03827171109849286 0.11998661678567701 0.12406750932403868 -0.21452612282057915 0.15565822059001055 0.034796825607223379 0.094919718044167545 -0.15793028345161417 0.13120177179932269 -0.20915717974797654 -0.18233818908402907 0.085647640432379338 0.15337433509928419 0.097241088288961608 0.12453097184401636 -0.21147403550118413 -0.1888695390490277 0.081270273421527525 -0.10486480337385634 0.065270534545366674 -0.22773305727079493 0.11834237902785616 -0.016650637603915351 0.12908707186026197 0.092832763820627801 0.11453945095685898 -0.20466958066860175 -0.16641289382263263 0.11024579358418943 0.11174580761396646 -0.18596862943581677 -0.11749852219731183 -0.17502880324402237 0.12636285382294166 -0.093194987889270955 0.074052263445552977 0.047122620517273853 -0.082610246348538946 0.034316463027522059 -0.13144968806304508 -0.12874399021729319 0.16089256369190139 0.085698749995651233 -0.079047541444015199 0.086036617732126064 -0.16537703570295353 -0.10059190746814917 -0.11750057400047209 -0.045924176212530532 -0.22925962338413136 0.035999738360076285 0.079561964237884766 -0.21985492528024195 -0.11406263201381728 0.036261198483097848 -0.09622627419479568 -0.1703939288261801 0.10474288141442745 -0.15303400669844225 -0.17287958239469645 -0.1020274984157771 0.059900899653995511 -0.092672199844441347 0.096329882593023761 0.053536030495096469 0.024469973231539412 -0.19517579389784534 -0.057016808261112786 -0.10183478488980607 0.080788885008839739 -0.06072440975453474 0.045697560808556414 -0.14262548207690126 -0.18496852662217519 -0.16252875000456415 -0.13405987491850704 0.070072684925620771 -0.20136535099630165 0.053530367173274952 -0.048536626546848656 -0.16160461466987586 0.076174092523474707 -0.1366039631598939 0.030626608821322194
leaf_weight=4.0608081370592179 3.3775396496057537 32.008045107126236 3.8300928622484234 72.98979751765728 7.8199780434370068 4.7660108506679553 12.868039056658743 12.673026278615 9.6261693984270078 10.595127150416372 5.5678048431873313 33.080471187829971 2.5877036005258551 3.383429914712905 3.4335949867963818 2.5082827210426322 3.2207468301057807 9.3786875009536796 4.3273298144340497 8.5491020679473859 6.2053419202566147 13.008109465241432 2.2680068463087082 3.437591314315795 44.065643578767776 6.9032653272151938 12.928830191493033 5.1177943497896177 4.170446425676344 4.375288411974906 3.8131997585296613 4.8858602941036224 7.9251605570316306 191.28448064625263 14.042554974555967 10.408683806657789 2.4046455919742566 6.6415890604257584 4.5473044216632843 6.6669998466968563 3.3800830841064444 22.865522041916847 2.6338457465171796 3.6335650086402893 2.7765922546386719 74.303676813840866 6.5742614120245042 7.7643010765314164 5.7341405302286139 8.2057837545871717 7.54412817955017 2.5846355855464926 9.7013314813375455 14.102046906948095 5.5576569736003858 4.2508882433176041 2.3186458051204673 2.9508947730064392 6.1679526865482321 3.5611989796161643 3.4032794982194892 4.0754832029342634 3.2010827213525772 2.9737474173307419 2.3658165633678436 3.073148712515831 2.7567502707242966 11.686195924878119 5.4013075977563858 2.3727656900882748 4.9246395528316524 13.186585441231726 3.5355219691991806 8.8244687616825122 7.0233927369117719 3.8627678751945496 3.4273584932088852 2.3164988160133353 2.3127023279666892 8.1916516870260221 12.505551323294638 25.713973075151447 2.6051389575004569 48.857952788472176 43.756890088319778 2.3553179502487174 2.3009847849607468 14.115481480956076 3.5773181915283203 2.3639989793300629 12.464252531528475 2.3502600342035285 3.6077290028333664 5.3772456496953964
leaf_count=17 14 134 16 321 33 21 56 53 42 44 24 146 11 14 15 11 14 40 19 36 27 57 10 15 194 29 54 22 18 19 16 21 34 842 61 46 10 28 20 29 14 97 11 16 12 326 29 33 25 35 32 11 42 60 24 18 10 13 26 15 15 18 14 13 10 13 12 51 23 10 21 57 15 39 31 17 15 10 10 36 53 111 11 204 183 10 10 59 15 10 52 10 15 23
internal_value=0 -0.070896 0.0744607 0.0427642 -0.116174 0.0169865 -0.028607 -0.131501 -0.111553 -0.0657971 0.0616633 0.0400061 -0.0348058 -0.00571674 0.0382623 0.00460223 -0.095323 0.00182643 -0.0457865 -0.0999733 0.0726335 0.0153852 -0.0924802 -0.0560436 0.0869538 -0.0923974 -0.100255 -0.0888725 -0.0980452 -0.0888935 -0.101258 0.015555 -0.0932242 0.123063 0.0585868 0.0376536 -0.11341 -0.0806326 0.0013181 -0.056189 -0.00755305 -0.0859804 0.0308315 -0.0288164 0.0312603 0.0928441 -0.04952 -0.0691483 -0.119302 -0.0632623 -0.0341442 -0.00155772 -0.0039468 -0.0521629 -0.0693829 -0.0114215 0.0666316 0.0399049 0.0345406 -0.109333 -0.0857895 -0.114752 -0.0701163 -0.00211938 -0.0932809 0.0146756 -0.0726402 0.0109161 -0.0632786 0.0281037 -0.00599312 0.0158708 0.000832148 0.0549638 0.0281636 -0.0138618 -0.0787936 0.0779826 0.100849 0.0405813 -0.023564 0.0421373 0.0283733 -0.160975 -0.142705 -0.100196 -0.0353199 -0.140974 -0.0811559 -0.159155 -0.158906 -0.126373 -0.052669 -0.0195364
internal_weight=0 553.362 529.869 320.712 365.206 188.156 63.1262 280.009 166.989 85.1972 257.881 125.03 62.8302 45.8591 133.944 59.9637 134.98 58.6358 26.8831 131.76 65.0663 21.4815 8.47335 21.152 123.937 123.211 113.584 100.656 92.4647 85.5614 76.5051 9.05631 17.3038 209.157 17.8726 38.8117 16.9711 13.5935 6.95195 50.2581 19.0911 31.1671 15.711 9.044 6.41016 118.369 74.6021 52.9376 21.7599 13.9399 31.1777 21.6644 23.6336 34.2129 29.8376 12.1744 75.3084 9.57921 15.8693 17.6632 17.7144 14.3111 10.2503 7.04923 6.6167 8.19094 5.26503 42.4757 7.98901 34.4867 20.484 18.1112 8.30153 33.5467 23.138 14.3135 7.29013 14.0027 43.5848 10.5044 19.0798 31.7527 28.3191 113.02 64.1625 20.4056 5.25188 42.2922 9.75452 6.1772 32.5377 18.4222 5.95799 7.73256
internal_count=4678 2362 2316 1397 1542 820 271 1179 706 363 1128 549 269 197 584 263 572 253 116 558 286 94 37 92 544 522 480 426 391 362 323 39 74 919 77 171 72 58 30 215 82 133 68 39 28 520 319 226 93 60 133 93 101 146 127 52 331 42 68 75 77 62 45 31 28 35 23 183 34 149 88 78 36 148 102 63 32 61 192 46 82 137 122 473 269 86 23 177 41 26 136 77 25 33
is_linear=0
shrinkage=0.1


Tree=2
num_leaves=95
num_cat=0
split_feature=8 1 8 5 1 7 1 7 5 8 0 8 1 7 5 0 0 3 7 0 8 0 5 7 2 1 3 8 3 1 0 5 7 7 1 7 8 2 5 2 1 2 8 2 1 5 2 0 1 0 7 8 3 0 3 1 2 0 0 7 3 7 2 8 5 2 5 7 5 2 7 2 2 0 3 1 3 8 5 5 2 3 1 2 2 3 5 5 3 0 1 2 5 8
split_gain=467.772 149.494 86.4866 43.6413 27.1877 19.2845 18.7064 18.2043 15.9901 13.2154 11.7478 10.9423 10.3244 10.0401 13.5421 12.1929 15.7784 9.88112 9.81822 9.40244 9.16862 9.48257 9.00338 8.83824 8.67459 10.4272 8.11762 21.8536 7.97647 7.82763 7.63603 7.4074 8.84584 7.37042 7.3278 10.4622 7.31673 7.24302 7.01433 6.88989 6.84433 6.18909 6.78571 6.11188 6.10088 6.08361 5.99998 6.67113 8.448 7.51222 6.18916 5.98041 5.89921 5.87037 5.86405 7.67872 8.69048 5.58566 12.0409 7.97497 6.97236 11.0975 6.05033 8.05721 6.95194 7.74268 5.50567 5.4556 5.40853 5.34456 5.32752 5.28558 5.49938 5.2381 5.15879 4.89505 4.86461 4.87604 4.80911 4.78434 6.85591 4.75704 4.6878 4.67722 10.4129 4.63134 5.70073 5.38742 5.73818 4.59625 4.56578 4.55515 4.54491 11.0937
threshold=10.116666666666651 0.23750000000000002 11.525000000000002 15.250000000000002 0.28750000000000003 0.64500000000000013 0.26250000000000007 0.55500000000000016 8.5000000000000018 10.916666666666652 9.9500000000000011 9.5750000000000011 0.63750000000000007 0.45500000000000007 23.500000000000004 6.1250000000000009 7.4500000000000011 1.425 0.53500000000000014 6.8500000000000005 9.8500000000000032 8.2500000000000018 61.250000000000007 0.42500000000000004 0.025000000000000005 0.19500000000000003 10.525000000000002 9.7750000000000021 10.750000000000002 0.65750000000000008 6.8500000000000005 33.500000000000007 0.63500000000000012 0.52500000000000013 0.49250000000000005 0.38500000000000006 10.625000000000002 0.46500000000000002 57.500000000000007 0.27500000000000008 0.38250000000000006 0.23500000000000001 8.8500000000000032 0.43500000000000005 0.46500000000000002 22.500000000000004 0.30500000000000005 8.0500000000000025 0.40250000000000008 7.2500000000000009 0.53500000000000014 9.0250000000000021 13.850000000000003 7.2500000000000009 2.0250000000000004 0.33750000000000008 0.31500000000000006 6.9500000000000011 7.3500000000000005 0.46500000000000002 7.8500000000000005 0.43500000000000005 0.26500000000000007 9.4500000000000011 58.500000000000007 0.43500000000000005 21.500000000000004 0.51500000000000012 52.250000000000007 0.10500000000000002 0.70500000000000007 0.13500000000000004 0.42500000000000004 6.4250000000000016 3.4250000000000003 0.44250000000000006 6.0500000000000007 10.850000000000003 44.250000000000007 21.500000000000004 0.57500000000000007 13.050000000000002 0.27250000000000008 0.085000000000000006 0.17500000000000002 1.675 58.500000000000007 51.250000000000007 13.625000000000002 6.3500000000000005 0.25750000000000006 0.31500000000000006 10.500000000000002 11.775000000000002
decision_type=2 2 2 2 2 2 2 2 2 2 2 2 2 2 2 2 2 2 2 2 2 2 2 2 2 2 2 2 2 2 2 2 2 2 2 2 2 2 2 2 2 2 2 2 2 2 2 2 2 2 2 2 2 2 2 2 2 2 2 2 2 2 2 2 2 2 2 2 2 2 2 2 2 2 2 2 2 2 2 2 2 2 2 2 2 2 2 2 2 2 2 2 2 2
left_child=1 13 3 5 11 8 18 26 71 17 20 41 30 15 19 23 22 44 52 67 21 29 -17 -1 -10 -26 75 28 -28 83 -11 32 69 -13 92 -36 -7 78 39 -30 45 -3 -43 91 -8 -32 70 48 49 50 -48 -41 -5 -47 55 56 -27 59 -59 60 -44 -62 -61 64 65 -64 -49 -15 -16 -22 -19 -2 -73 -33 -52 -6 -56 -78 -18 80 -12 -53 -60 -9 -85 -86 87 88 -87 -65 -35 -21 93 -4
right_child=2 4 34 6 7 36 9 10 24 12 79 33 -14 14 68 16 37 46 -20 43 31 -23 -24 -25 25 54 27 -29 38 -31 40 73 -34 90 35 -37 -38 -39 -40 51 -42 42 57 -45 -46 53 47 66 -50 -51 74 81 -54 -55 76 -57 -58 58 82 62 61 -63 63 89 -66 -67 -68 -69 -70 -71 -72 72 -74 -75 -76 -77 77 -79 -80 -81 -82 -83 -84 84 85 86 -88 -89 -90 -91 -92 -93 -94 -95
leaf_value=-0.033515657551443603 -0.18654648898417003 -0.16514082439209912 -0.09372337764319949 0.061049126558159889 -0.1323195681677419 -0.018387093094739276 -0.051293750031579571 -0.010126155099975248 0.15659400080628558 0.1207268128163148 0.090485932750740933 -0.052392387605839398 -0.1217354606688808 -0.042358767497777297 0.093825861304437388 0.060448164931595987 -0.098071513662613505 0.048966501589433865 0.10849139339570042 -0.06806682981138451 0.051771484590325295 -0.16972172054755102 -0.12645152622136954 -0.23489953046422252 0.10996249850164522 0.079567396448391101 0.049139825872075181 0.15422594281678181 -0.17574606056521397 -0.1886796421815306 -0.096054998555971216 -0.039759544554344009 0.093877203339088916 0.11603206929892239 -0.14068023030501869 0.084533678868953702 0.088875032525037714 -0.22240208480701737 -0.21404747363804791 0.0053547446241924779 0.12470928945591345 -0.16591583530705711 0.046233254195355185 0.017495405309853745 -0.2390853276912305 0.11658355139877204 0.12889274588321384 -0.084678342726208916 -0.21082174282974459 -0.11755169928468921 0.066953213221998181 -0.032475084190414859 -0.085700964500050589 -0.01399996194422788 0.033240312776675864 -0.18489844237907563 -0.12484189895063594 0.088743363307503972 -0.042865547820671576 -0.22971641377933102 -0.24423690971067902 0.0034038753625524765 0.007414374394624188 0.11491799535780432 -0.2392525411421238 -0.18070768261566958 0.093255088705803443 0.12718355340884069 0.015893380207671611 -0.12188953142926717 -0.076896970691550284 -0.045948202749745676 -0.15999806595090033 -0.24580663934618069 -0.13907870703761668 -0.17184542171171438 -0.17243964401045864 0.023398708927856744 0.073822585217496337 -0.12234019697355868 -0.085277024948971353 -0.18833758851030188 -0.20319442749928873 -0.21918871265521736 -0.17130871151183874 -0.045683227992605234 -0.16538073901163677 0.073692023842402324 -0.1929294969611216 -0.068262388053734899 0.0016767735108447132 -0.25151328657394184 0.12769938476597578 0.10966087194443397
leaf_weight=5.7321721315383893 7.7257633358240154 7.5832302272319785 3.1941536366939571 94.254124313592911 70.681742429733276 10.771239176392557 6.0870058536529523 8.3849300891160947 2.7349655479192725 20.553963884711266 7.0017066895961744 19.775137051939964 2.8194844871759406 3.4537519067525855 40.556107431650162 33.8981594145298 4.7468504905700666 33.106882780790329 59.066337525844574 2.5643492490053159 2.6133596152067202 20.921952605247498 2.7895409166812888 3.5160569846630096 4.6928040683269492 3.6887532025575656 2.5760771781206122 3.1724308580160132 8.9030985236167961 7.3627343028783789 4.3531888872385087 2.5339171439409247 6.0327523201704016 5.1919772922992697 2.3185546249151257 18.691607683897018 15.526797249913214 3.0741918385028839 8.1138982474803907 6.7091983854770652 6.7899224907159796 6.5114567428827277 7.4017205089330655 2.7763513773679733 2.4168704599142075 5.7933145910501471 3.6360895782709175 2.3908116519451124 3.1360449641942969 5.7841588556766501 2.2687409818172455 3.3878691196441633 2.8212786465883246 8.4843465983867628 10.044030591845511 5.8240878731012335 4.7687664180994034 7.1273235827684429 7.5872782021760923 3.9273282736539867 2.8983592092990875 4.8172796666622162 4.4605734199285525 2.3103851079940787 4.373016044497489 4.2938840240240097 6.3783380389213562 4.2133214026689529 11.410683542490004 5.5057445019483566 3.7432283461093894 11.515038266777994 6.6808515340089789 2.4046257585287094 2.6172649264335632 56.281471163034439 2.8879868090152732 2.2712232619524002 2.4768269062042236 2.3899995833635321 3.2491126656532288 4.6402433961629868 2.4006961584091187 5.5967004299163809 4.3444351255893698 25.468236371874816 4.6577763855457297 3.3169142603874198 2.9535047709941855 3.3644653409719467 10.659718677401541 2.8668176233768463 159.97729264199734 16.722843512892723
leaf_count=25 32 31 14 425 292 47 26 35 12 93 30 84 12 15 183 152 21 144 268 11 11 85 12 15 21 16 11 14 36 30 19 11 26 23 10 83 69 13 33 28 30 27 31 12 10 26 16 10 13 25 10 14 12 38 43 24 20 31 32 16 12 20 19 10 18 18 28 19 50 23 16 48 28 10 11 228 12 10 11 10 14 19 10 23 18 106 19 14 12 14 46 12 737 75
internal_value=0 -0.069302 0.0628549 0.0338927 -0.100144 -0.0269568 0.053508 -0.116439 -0.0570487 0.0238825 -0.0858679 -0.056682 0.0640123 0.0261215 0.0520201 -0.00512307 0.0155356 -0.0034785 0.0763443 -0.0288164 -0.097127 -0.111498 0.0462373 -0.110079 -0.014775 -0.0284883 -0.137766 -0.0968891 -0.120094 -0.0918776 0.0754036 -0.0346393 0.00215822 -0.0116698 0.115564 0.0596804 0.0449422 -0.0938439 -0.133823 -0.106289 0.0387575 -0.079904 -0.0693894 -0.1032 -0.104666 0.00743279 0.0101666 -0.0264069 -0.0621779 -0.0295939 0.0301052 -0.0643284 0.0567842 0.0389857 -0.0505241 -0.0965369 -0.0356886 -0.0579538 -0.0105484 -0.0793917 -0.0231048 -0.0896217 -0.116828 -0.0932482 -0.136288 -0.0848557 0.0447435 0.0508106 0.0767137 -0.0659919 0.0361813 -0.117247 -0.0878231 -0.140086 -0.043411 -0.149841 -0.00730061 -0.0862263 -0.0391331 0.00506995 0.0347759 -0.122564 -0.081402 -0.0788532 -0.0912896 -0.0737197 -0.0620711 -0.04691 -0.0609846 0.0063153 0.0391321 -0.164898 0.122091 0.0770435
internal_weight=0 507.963 566.538 365.634 383.888 89.1323 276.501 279.204 62.8343 120.36 114.738 104.684 48.7942 124.075 67.8414 56.2338 46.9856 71.5654 156.142 15.8746 102.098 83.0072 36.6877 9.24823 36.9126 34.1777 164.466 37.5028 34.3304 62.0852 45.9747 19.0904 14.1519 35.6268 200.904 21.0102 26.298 10.2979 31.7543 23.6404 25.4208 69.057 61.4738 8.20752 8.50388 18.6309 63.0616 26.2114 17.4423 14.3063 8.5221 14.7373 97.0754 14.2777 29.4848 14.2816 8.45752 54.9623 17.1153 37.847 15.1174 7.71564 22.7297 18.8023 13.1275 8.75446 8.76915 7.66707 51.9668 8.1191 36.8501 25.9217 18.1959 4.93854 4.88601 126.963 15.2032 5.15921 7.22368 12.6408 10.2508 8.02811 9.98797 54.7225 46.3376 40.7409 36.3964 31.7387 28.4217 5.67485 15.8517 5.43117 179.894 19.917
internal_count=4678 2145 2533 1614 1594 382 1232 1152 266 527 477 442 218 551 302 249 209 309 705 69 423 342 164 40 158 146 675 155 141 257 206 81 60 153 919 93 116 45 130 97 113 289 258 35 36 83 273 113 75 62 37 61 437 64 125 60 36 231 73 158 63 32 95 79 55 37 38 34 233 34 160 108 76 21 21 520 65 22 32 54 44 33 42 227 192 169 151 132 118 24 69 23 826 89
is_linear=0
shrinkage=0.1


Tree=3
num_leaves=95
num_cat=0
split_feature=4 1 5 2 6 5 5 2 1 0 2 6 3 3 1 1 1 5 6 1 2 4 4 4 6 2 4 5 6 4 2 1 0 1 4 3 6 2 1 6 6 5 0 4 1 3 4 5 0 3 0 5 1 6 5 0 2 0 0 6 0 2 5 4 4 4 5 1 6 1 3 3 3 3 1 6 4 3 3 5 2 0 5 5 5 3 4 4 0 6 3 3 3 5
split_gain=158.202 111.049 53.3234 32.0682 23.245 21.9732 19.2118 16.4339 16.4018 16.1435 15.833 15.7897 14.4506 13.8798 13.4619 12.62 9.49834 8.79059 9.40909 8.2354 9.15459 17.7298 7.98749 13.8471 8.98925 7.81681 7.27148 7.49539 7.17922 7.61677 10.1835 7.0066 10.5062 6.98785 6.95844 9.70007 7.49145 10.6539 10.6833 9.46649 6.57702 6.49078 6.2276 6.92084 13.1885 6.13249 5.79483 5.79623 5.72689 5.66561 5.63309 7.88542 5.56044 5.50687 5.40529 11.3424 8.69688 5.2506 5.14601 5.04415 5.00014 4.95482 4.89608 4.86646 4.63225 4.60767 4.57297 4.559 5.57821 4.50266 4.43526 4.3991 8.53839 4.33774 7.35262 5.13466 6.38445 4.93462 7.28579 9.32468 6.36462 5.68778 4.32477 4.27214 4.12817 4.09254 9.18637 6.5392 4.14107 7.76599 4.60797 4.04841 4.02925 3.94858
threshold=0.041500000000000009 0.22750000000000004 11.500000000000002 0.26500000000000007 3.3150000000000004 57.500000000000007 6.5000000000000009 0.33500000000000008 0.63750000000000007 8.2500000000000018 0.21500000000000002 3.1950000000000007 6.0500000000000007 2.3250000000000006 0.41750000000000004 0.24750000000000003 0.53500000000000014 20.500000000000004 2.9950000000000006 0.49250000000000005 0.52500000000000013 0.036500000000000005 0.062500000000000014 0.08450000000000002 3.1550000000000007 0.23500000000000001 0.093500000000000014 45.500000000000007 3.3550000000000004 0.065500000000000017 0.055000000000000007 0.42250000000000004 9.7500000000000018 0.32250000000000006 0.045500000000000006 13.525000000000002 3.2350000000000008 0.41500000000000004 0.27250000000000008 3.2650000000000001 3.0950000000000002 9.5000000000000018 9.9500000000000011 0.047500000000000007 0.27250000000000008 1.7250000000000003 0.042500000000000003 43.250000000000007 8.2500000000000018 18.025000000000002 6.3500000000000005 27.500000000000004 0.49250000000000005 3.4550000000000005 16.500000000000004 6.7500000000000009 0.29500000000000004 11.65 6.9500000000000011 3.3750000000000004 6.1250000000000009 0.41500000000000004 7.5000000000000009 0.15250000000000002 0.049500000000000009 0.13350000000000004 37.250000000000007 0.33750000000000008 3.1550000000000007 0.27250000000000008 11.250000000000002 15.050000000000002 16.775000000000002 12.125000000000002 0.20250000000000004 3.2450000000000006 0.049500000000000009 1.425 2.0250000000000004 28.250000000000004 0.26500000000000007 6.3500000000000005 34.500000000000007 33.500000000000007 54.500000000000007 1.675 0.056500000000000009 0.077500000000000013 6.9500000000000011 3.3450000000000002 1.925 1.8250000000000004 13.950000000000001 16.500000000000004
decision_type=2 2 2 2 2 2 2 2 2 2 2 2 2 2 2 2 2 2 2 2 2 2 2 2 2 2 2 2 2 2 2 2 2 2 2 2 2 2 2 2 2 2 2 2 2 2 2 2 2 2 2 2 2 2 2 2 2 2 2 2 2 2 2 2 2 2 2 2 2 2 2 2 2 2 2 2 2 2 2 2 2 2 2 2 2 2 2 2 2 2 2 2 2 2
left_child=2 49 25 4 42 9 45 14 26 10 11 40 13 16 65 -7 22 -11 -19 20 54 -22 24 48 -9 -1 27 41 -10 30 -30 64 -33 -25 35 67 37 38 -36 -38 -4 52 43 44 -3 -5 -46 58 59 73 51 -45 -6 -54 55 -12 -57 -47 -48 -24 -26 92 -27 -35 -15 -8 -66 -14 -69 -52 -53 -56 -73 77 -75 76 -76 -2 79 81 -81 -79 -62 -20 -40 86 -43 88 89 -87 -90 -16 -41 -80
right_child=1 3 5 6 8 15 7 12 28 17 19 -13 34 31 91 -17 -18 18 83 -21 21 -23 23 33 60 62 -28 -29 29 -31 -32 32 -34 63 36 -37 39 -39 84 61 -42 85 -44 50 46 57 47 -49 -50 -51 69 70 53 -55 71 56 -58 -59 -60 -61 82 -63 -64 -65 66 -67 -68 68 -70 -71 -72 72 -74 74 75 -77 -78 78 93 80 -82 -83 -84 -85 -86 87 -88 -89 90 -91 -92 -93 -94 -95
leaf_value=-0.17962485792350097 0.083184255064012835 0.063767787044559196 0.00084077340152708595 -0.064898702422641147 -0.16933667269205721 0.063392314347971088 0.021399899189448009 -0.14612854298517816 0.0055489642778099695 -0.13290508894822189 0.1168312865358489 0.06108987772506707 0.033621970118147423 0.13311304454936534 -0.18706688942830199 -0.087412896851239819 -0.16497826847794692 -0.079031866806623108 0.15149570654388381 -0.041239460292560995 0.14406614823606415 -0.14112563651868962 -0.082292377206753614 0.04585228895452495 -0.1604179176701476 -0.10753124731978987 -0.1356515349908646 -0.14779356698293261 0.074688164753681327 -0.13716114330575471 -0.15938446381851182 -0.14097250517136226 0.057288791644118126 -0.16397639957276441 0.032143673667170428 -0.16990233514411798 0.10619693122972496 -0.14287845964845167 -0.17902636398804636 -0.073889863127562766 -0.17296942283432726 0.083020537308066633 0.049559356647571245 -0.16559779579285749 -0.20388951896594021 0.077554581350216145 0.033800104961762396 -0.1565697106699474 0.10941212211120843 -0.10519693670179567 -0.19133445740410068 -0.078966823969709277 0.057040665735450302 -0.10928034926561443 0.099465659046523658 0.12005300588212378 -0.076002827333091952 -0.033916929454796511 -0.12218461993837211 0.10244005104753272 -0.032507492249571973 0.022741076131593478 -0.0087685741047140598 -0.0061980379764922724 0.047865766602149529 -0.10135070508178777 -0.083743048796875663 0.019222456862296108 -0.17276193636362103 -0.12142453512740579 0.047399274391274407 -0.12923561268663347 0.12253104252662211 0.11602257861436774 0.14777424876578374 -0.076977835283355348 -0.062832910606502826 0.060747847868135009 0.13169039998625018 -0.090185187490801177 0.094788149383318365 -0.11864861251982065 0.11575667494005711 -0.010082340525814089 -0.041137198322272063 -0.11480762121447381 -0.16357346423248131 0.086798678949550859 0.052276552352468524 0.057607489727925815 -0.10511736470707296 -0.056138438945537085 -0.22927589417024327 0.041758287701549157
leaf_weight=6.1692332774400738 24.731728419661522 6.3446035683155086 3.6715687364339846 4.586086928844451 3.4039300531148902 9.1904383450746554 76.151478782296181 11.717428132891657 6.2900803089141837 4.9484612792730358 11.461802408099176 17.226498827338219 12.338471680879598 5.321868151426318 2.6966916918754604 14.00586451590061 6.9648346900939933 5.1502951830625516 4.8773871511220932 4.9546304792165747 4.0001162588596326 4.7903748899698257 3.9974269121885326 3.3202604800462714 2.3878816068172446 8.8039570003747958 4.3970928490161887 3.3691920191049567 4.438205584883689 25.550398916006088 3.1978563815355301 5.5861969739198667 5.1249334514141083 7.2894226461648923 8.4647702872753161 4.1875460147857657 3.6726337969303122 38.008873477578163 5.4509957730770093 5.2540066689252836 5.3486443161964417 2.7015907168388358 2.5685775876045218 5.4022152125835445 4.3715238571167019 25.528405442833904 5.7041130214929563 5.1884888261556616 9.2400635778903943 2.2898661345243445 10.582905530929564 5.7900390624999982 4.4770651608705503 3.5846175253391266 218.20729978382587 3.0883361995220175 8.4620824009180051 5.0636844933032981 3.3612846732139587 2.3452904969453812 9.5659354478120786 3.3306627720594406 11.67722003161907 2.6712449342012405 18.254101812839512 3.1859118789434424 3.0865655094385138 3.1763745397329322 2.8907940089702606 71.160841509699821 5.3383876979351044 2.4642358273267737 2.9711992293596268 23.164346069097519 3.9004680812358838 3.8571232855319977 2.2812216877937317 2.2143330127000835 5.3198348283767691 2.447556331753729 7.7511640787124634 8.7546506971120817 2.4767816364765158 2.462554082274437 3.6084847748279572 3.1165148913860383 3.427105724811554 14.575274199247358 2.7521242350339872 16.151809304952621 5.7387966513633728 19.008766070008278 2.4455403238534927 59.340313240885735
leaf_count=25 114 28 16 19 14 42 334 49 26 21 55 78 53 24 11 58 28 23 22 22 19 20 17 14 10 37 18 14 19 105 13 23 23 30 37 17 16 155 22 22 22 12 11 22 18 114 24 21 42 10 43 24 19 15 1037 14 37 22 14 11 41 14 51 11 81 13 13 13 12 289 22 11 13 108 18 17 10 10 24 11 36 39 11 11 15 13 14 63 12 72 24 80 10 271
internal_value=0 -0.0268152 0.0550758 -0.0470239 -0.0753994 0.066152 -0.0268927 -0.0352703 -0.041176 0.0733084 0.0789915 0.00496442 -0.0524364 -0.0259303 -0.00262111 -0.0276635 -0.0549555 -0.0201069 0.0245822 0.086453 0.0889297 -0.011349 -0.041026 -0.0047582 -0.0810604 -0.0809459 -0.0113017 -0.00266359 -0.0924049 -0.110971 -0.0233376 0.0222022 -0.0461108 -0.0797842 -0.0808046 -0.0325316 -0.0963329 -0.113137 -0.0486312 -0.0328614 -0.102222 0.0054956 -0.104552 -0.107764 -0.0607522 0.0429377 -0.103169 -0.0722791 0.0591851 0.0508613 -0.119709 -0.0664693 -0.0621653 -0.0169138 0.0925035 0.0463545 -0.0235817 0.0591035 -0.0240362 -0.0139855 -0.0282261 -0.0791624 -0.0512223 -0.121664 0.0496456 0.0164707 0.0288308 -0.00127775 -0.0722514 -0.130475 -0.0183481 0.0972521 0.00838886 0.053347 0.0850439 0.0135614 0.0700541 0.0438278 0.0324871 -0.018435 0.050397 -0.0824335 -0.00201454 0.0972862 -0.124104 0.0215031 -0.0548724 0.0325598 0.00408116 0.0297206 -0.054102 -0.072405 -0.123244 0.0491573
internal_weight=0 707.438 353.932 561.385 232.985 327.282 328.4 293.222 107.172 304.085 286.647 26.2467 192.179 99.3502 101.043 23.1963 61.9766 17.4387 12.4902 260.4 255.445 8.79049 55.0117 28.8637 26.148 26.6504 67.6951 63.298 39.4765 33.1865 7.63606 37.3737 10.7111 13.2809 92.8292 22.5932 70.236 55.5331 17.5243 14.7028 9.02021 59.9288 125.813 123.244 24.97 35.1782 18.6254 14.2539 15.5828 146.053 98.2744 16.5306 11.4656 8.06168 246.655 23.0122 11.5504 30.5921 9.0654 6.34272 14.4306 11.0302 20.4812 9.96067 26.6625 79.3374 21.3407 18.4056 6.06717 81.7437 11.1284 223.643 5.43544 143.763 33.2032 10.0388 6.18169 110.56 85.8279 21.1677 10.1987 10.969 12.0427 7.33994 9.05948 48.4632 6.1287 42.3345 27.7592 19.2683 8.49092 21.7055 7.69955 64.6601
internal_count=4678 3044 1634 2376 969 1521 1407 1252 453 1421 1344 116 814 428 438 100 264 77 56 1228 1206 39 236 125 111 113 290 272 163 137 32 164 46 55 386 95 291 229 74 62 38 258 516 505 105 155 77 59 70 668 400 68 48 34 1167 106 51 136 38 28 62 46 88 41 118 347 94 78 25 332 46 1061 24 658 153 45 28 505 391 96 47 49 52 33 37 210 26 184 121 85 36 91 32 295
is_linear=0
shrinkage=0.1


Tree=4
num_leaves=95
num_cat=0
split_feature=8 1 8 8 5 1 1 5 5 2 1 4 5 1 0 5 1 6 0 5 0 6 5 5 2 4 5 1 2 4 8 6 2 4 0 8 4 5 5 4 0 8 6 2 5 6 4 6 6 0 6 0 4 6 5 5 8 5 6 5 2 1 4 5 1 8 1 5 4 5 4 8 6 2 2 6 0 5 5 8 2 1 4 6 4 4 2 2 0 6 5 1 8 5
split_gain=354.964 128.519 43.2831 34.9113 22.4166 12.9831 11.7371 11.2664 9.10644 9.03751 8.27777 16.2744 6.59413 6.60304 6.48942 8.25587 6.31302 9.77337 6.31286 6.19645 6.43674 6.14074 8.08245 10.9275 6.08281 6.07146 6.38313 5.784 5.77934 5.76713 9.59139 5.73317 5.40658 5.91316 5.32573 7.84707 5.28965 5.03991 4.98524 6.10486 8.76458 5.80127 6.70162 6.94911 6.32846 5.00655 4.69706 5.36605 6.93725 5.35561 4.61972 4.61931 13.9203 12.8209 7.53981 6.8163 11.6048 6.32697 5.2397 4.75323 4.58676 5.21911 4.56905 4.53916 4.41539 4.31791 4.85186 4.44238 4.26039 4.18716 4.02123 4.5308 11.0481 14.2795 7.33348 7.27552 5.87134 5.64996 5.26694 4.00607 3.84582 3.83937 3.80016 6.6168 3.57554 4.71458 5.45923 8.61244 5.61577 5.43183 4.88651 4.80794 4.47771 3.97146
threshold=10.625000000000002 0.23750000000000002 9.8500000000000032 11.525000000000002 13.500000000000002 0.28750000000000003 0.29750000000000004 13.500000000000002 23.500000000000004 0.67500000000000016 0.59250000000000014 0.058500000000000003 45.500000000000007 0.83250000000000013 6.1250000000000009 42.250000000000007 0.59250000000000014 3.4150000000000005 5.8500000000000005 6.5000000000000009 7.6500000000000012 3.0750000000000006 24.500000000000004 44.250000000000007 0.16500000000000004 0.039500000000000007 13.500000000000002 0.81250000000000011 0.48500000000000004 0.045500000000000006 9.4500000000000011 3.0850000000000004 0.18500000000000003 0.044500000000000005 7.2500000000000009 11.15 0.032500000000000008 10.500000000000002 31.500000000000004 0.036500000000000005 8.1500000000000004 11.23333333333335 3.1050000000000004 0.32500000000000007 19.250000000000004 2.9850000000000008 0.063500000000000015 3.1850000000000005 3.2450000000000006 7.0500000000000007 3.5250000000000004 7.4500000000000011 0.039500000000000007 3.0550000000000002 18.500000000000004 23.500000000000004 10.175000000000002 40.250000000000007 3.2950000000000004 33.500000000000007 0.37500000000000006 0.25750000000000006 0.07350000000000001 22.500000000000004 0.39750000000000008 10.250000000000002 0.20250000000000004 17.500000000000004 0.083500000000000019 10.500000000000002 0.032500000000000008 9.4500000000000011 3.2050000000000005 0.39500000000000007 0.40500000000000008 3.3350000000000004 6.9500000000000011 52.750000000000007 40.250000000000007 9.4500000000000011 0.36500000000000005 0.24750000000000003 0.042500000000000003 3.1350000000000002 0.072500000000000009 0.056500000000000009 0.26500000000000007 0.29500000000000004 6.6500000000000012 3.3150000000000004 25.500000000000004 0.36750000000000005 9.4500000000000011 56.500000000000007
decision_type=2 2 2 2 2 2 2 2 2 2 2 2 2 2 2 2 2 2 2 2 2 2 2 2 2 2 2 2 2 2 2 2 2 2 2 2 2 2 2 2 2 2 2 2 2 2 2 2 2 2 2 2 2 2 2 2 2 2 2 2 2 2 2 2 2 2 2 2 2 2 2 2 2 2 2 2 2 2 2 2 2 2 2 2 2 2 2 2 2 2 2 2 2 2
left_child=1 8 5 4 10 21 7 31 25 14 11 34 13 51 15 -10 17 19 -17 20 -7 22 -3 -24 37 26 -1 38 -22 30 -23 -4 -9 -34 35 -2 -21 -5 39 40 -6 42 63 81 -45 -40 47 49 -49 -35 -19 52 54 -53 -8 -55 -57 58 -54 -56 61 -50 -31 -41 -58 66 79 -68 -64 -60 -16 72 74 75 -72 78 -77 -76 -74 -27 -25 -44 83 -43 85 86 -38 -88 91 90 92 93 -87 -89
right_child=3 2 6 24 27 16 12 32 9 -11 -12 -13 -14 -15 70 18 -18 50 -20 36 28 29 23 80 -26 65 -28 -29 -30 62 -32 -33 33 46 -36 -37 84 -39 45 41 -42 82 43 44 -46 -47 -48 48 60 -51 -52 53 57 55 59 56 64 -59 69 -61 -62 -63 68 -65 -66 -67 67 -69 -70 -71 71 -73 73 -75 77 76 -78 -79 -80 -81 -82 -83 -84 -85 -86 89 87 88 -90 -91 -92 -93 -94 -95
leaf_value=-0.16602765619450061 0.078881066835427435 -0.17565060252745951 -0.00091919045073205526 -0.050326148716416302 0.11303766279467525 -0.13386883767689584 -0.078743023135550788 -0.12700805539770554 0.055170619459149986 -0.10372283230378954 -0.10423739402437232 0.075726419967360792 -0.13496396500793398 -0.17187416374706235 -0.074782958150728204 0.045034736038196993 -0.13580892160471925 0.021701332756073957 -0.13592423386719832 0.024855978524185505 0.11587696919694507 -0.091359425495718641 0.10020572934484973 0.024762764804807144 0.11221810654037041 0.11647288071936734 -0.018884167536514718 -0.066551799289023314 -0.084013535183891 -0.104863728363752 0.037437633929968982 -0.18555644488946973 0.070760571089795776 0.1504084791723318 -0.12682990910244038 -0.09891043989586934 -0.1430435633592595 0.079176681135251281 -0.023551533904449962 -0.18718359586288902 -0.065014784578714055 0.14000599040694464 0.12763686585159681 0.082978073992046764 -0.05726958735781168 0.089973099961300484 0.11892623920140846 -0.17597929972224668 0.050850526513393682 -0.017280148667448168 -0.11651853763892568 -0.16778519398259009 -0.14412938700170372 0.036546032935441328 0.14867770975638375 -0.16459551575076853 -0.058667024360859993 0.052720040999410994 -0.15422241253060445 -0.024556287017504844 0.11214835310856344 -0.11842160794336432 0.06747233861691683 -0.0072397472143695034 0.1257519118805179 0.094600846649342485 -0.0031786440783885569 -0.1696775180309272 -0.10816355529360432 -0.046024734831370512 0.099092377370425561 0.076020784079986289 -0.061344292006809402 0.11018835301350148 -0.11172160154465188 0.10448239857162817 -0.11240032570329264 0.082269522541552495 -0.2561300939572097 -0.0056171021753090508 -0.12709748207521887 0.036690252186738402 0.11917156242774124 -0.10593482028955292 -0.13327545848190717 0.090030498203849382 0.020513312863464556 -0.12890496118510847 -0.12858242003727563 -0.15214450858879155 -0.083671224366958674 0.04513482329556049 -0.051320519725424063 -0.0041734803855431254
leaf_weight=4.4135101437568656 4.7030793875455874 2.4410748779773739 2.8366807848215094 3.8977300971746471 21.835645169019703 3.411185294389723 3.5024656355380994 2.2138813585042945 9.9229803681373614 4.1115396469831458 8.7556968033313733 16.571223497390747 8.1309102326631528 3.7167018353939048 2.2932773381471625 2.8416310697793943 51.145582467317581 9.78054431080818 5.9948183298110962 2.9806853979825965 3.7021151334047318 12.601848974823953 8.0487966239452344 2.6736596971750251 170.28747718036175 3.7361501604318681 8.8796598464250547 3.3423625230789176 2.3739060312509537 40.865963563323021 10.683718100190161 4.1305083334445953 21.815143927931786 3.1030760705471092 7.4307299107313147 5.2577122151851654 32.893262684345245 13.122633069753645 4.0943403244018546 2.5544119328260413 3.165390118956565 2.0390070229768744 6.870111137628558 4.3703093230724361 12.196305364370344 75.872742637991905 2.8798887282609931 3.5388213694095603 3.0551018416881544 4.9312935322523117 3.2122945040464392 4.6229182928800574 13.62870432436466 25.916749447584152 5.4466281533241272 5.225627198815344 2.2966851741075516 3.1549046337604514 4.3977847844362286 2.2333347648382187 2.2647353857755661 4.5109844654798508 3.1836858838796607 3.10690838098526 2.9863360673189163 5.4477166980504981 3.6258289366960517 2.8716420382261276 2.4392397701740265 19.157423689961433 21.657059878110889 63.634223341941833 2.382356792688368 4.7786005437374106 3.367136448621749 2.3710881918668747 2.6357357650995255 2.7094447612762451 3.3264785259962082 9.5758972167968732 4.4319691210985184 14.311216220259665 10.249941006302832 2.3601221442222595 45.419182047247887 4.3458009511232429 6.1014931797981253 7.5700970441102964 33.165197089314461 5.185188651084899 10.360088571906088 3.6398899108171454 4.6273626387119293 3.8514114618301392
leaf_count=18 21 10 12 16 107 14 15 9 47 18 36 75 34 15 11 13 206 41 26 13 16 53 35 11 842 18 41 14 10 168 47 17 101 14 31 22 133 61 19 11 14 10 33 20 55 362 13 15 14 21 13 19 56 111 25 21 10 13 18 10 10 19 14 14 13 25 16 12 10 82 103 300 11 22 15 11 12 12 14 42 18 64 47 11 184 18 26 31 135 21 42 15 19 16
internal_value=0 -0.0448506 -0.0713063 0.075166 0.0470772 -0.0924639 -0.0287604 0.00849878 0.0297244 0.0422097 -0.0175402 0.00481062 -0.048486 -0.0411834 0.0469004 -0.00743157 -0.104756 -0.0960595 -0.0777313 -0.102462 -0.0239377 -0.0595746 -0.0067816 0.0204198 0.106521 -0.0130348 -0.0677378 0.063669 0.0377796 -0.0728878 -0.0322657 -0.110382 0.0256425 0.0329734 -0.0627603 -0.0149645 -0.107114 0.04952 0.0663388 0.0491804 0.0904944 0.0313899 0.0130269 0.0282432 -0.0202719 0.0841606 -0.000972153 -0.0171044 -0.055919 0.0474854 -0.0124716 -0.0359361 -0.0558753 -0.0109096 0.0428489 0.00900024 -0.058934 -0.083243 -0.0947789 0.0983012 -0.0127007 -0.0500714 -0.0932348 -0.0884312 0.0455796 0.0157559 -0.00592679 -0.076765 -0.00871897 -0.0662254 0.0562379 0.0590496 0.0340669 -0.0335692 0.071854 -0.0976772 -0.00969089 -0.0252242 -0.174844 0.0286486 -0.0699565 0.0661886 0.0858045 0.00805934 -0.109617 -0.100001 -0.110891 -0.0914244 -0.105586 -0.0612585 -0.0368828 -0.0549492 0.0171373 -0.0868446
internal_weight=0 651.409 480.833 396.395 209.087 321.135 159.697 55.2801 170.577 132.026 42.7184 33.9627 104.417 96.2863 127.915 18.7594 233.765 182.62 8.83645 169.627 9.48721 87.37 17.5955 15.1544 187.308 38.5504 13.2932 166.369 6.07602 69.7745 23.2856 6.96719 48.3129 46.099 17.3915 9.96079 160.14 17.0204 163.026 83.0594 25.001 58.0583 43.4093 37.7479 16.5666 79.9671 24.2839 21.404 13.3696 8.03437 12.9928 92.5696 51.5212 41.0483 11.1824 36.4254 10.5086 40.3388 37.1839 7.67996 9.83082 7.56609 46.4889 5.66132 5.28302 25.2572 19.8095 6.49747 5.62293 23.5552 109.155 106.862 43.2279 15.4943 27.7336 10.7157 5.00682 6.07658 5.70884 13.312 7.10563 21.1813 14.6491 4.39913 157.159 111.74 87.2214 54.3281 48.2266 24.5184 19.3333 15.0614 8.97316 11.4215
internal_count=4678 2793 2006 1885 966 1319 687 245 787 615 185 149 442 408 597 86 953 747 39 693 40 366 74 64 919 172 59 781 26 292 100 29 216 207 74 43 653 77 767 386 121 265 197 172 75 381 106 93 58 35 54 393 219 174 50 155 44 169 156 35 43 33 192 25 23 113 88 28 24 100 511 500 200 70 130 48 23 27 25 60 29 97 68 21 640 456 356 223 197 100 79 62 37 47
is_linear=0
shrinkage=0.1


Tree=5
num_leaves=95
num_cat=0
split_feature=8 8 8 3 5 7 4 5 7 5 6 7 5 7 3 3 8 8 4 0 7 8 8 3 3 5 0 3 5 4 4 6 0 6 5 4 5 3 5 3 6 0 6 4 6 6 3 0 7 4 8 8 5 0 6 6 7 7 8 8 4 4 7 8 4 6 7 4 6 3 5 6 3 7 7 6 4 6 8 3 7 6 7 5 3 4 6 4 7 4 4 7 7 3
split_gain=295.468 47.344 31.4572 25.6928 19.3276 21.0971 13.4632 13.1598 16.4237 9.81456 12.5384 9.04018 8.42334 9.80026 8.31724 9.79912 8.0939 7.24878 7.10835 6.9611 9.83003 6.63216 9.0485 9.54646 9.05509 6.82044 6.34907 5.97569 5.91684 7.2027 6.86948 5.68499 5.61619 5.60441 5.55876 5.4925 5.45728 5.18021 5.15092 5.0303 4.91782 5.3707 4.91633 9.93113 10.5178 8.08774 9.31444 4.90566 5.86907 7.6507 4.58017 6.08348 4.5542 4.49841 4.40028 4.80362 9.13407 4.39465 4.37181 9.28778 4.27982 4.25021 4.13664 4.13579 4.08956 3.98514 6.67246 4.1817 3.91838 5.86787 6.0354 5.15797 3.91422 3.89049 5.12897 6.24525 3.82998 3.81762 5.04903 3.68488 3.68344 3.62579 5.9263 4.70434 3.60455 3.5996 3.41322 3.35233 3.72878 3.80822 3.35767 3.34933 4.07155 4.93302
threshold=10.625000000000002 9.8500000000000032 11.616666666666651 10.15 11.500000000000002 0.58500000000000008 0.049500000000000009 15.250000000000002 0.52500000000000013 57.500000000000007 2.9250000000000003 0.55500000000000016 13.500000000000002 0.49500000000000005 7.1500000000000012 14.525000000000002 9.0250000000000021 10.016666666666652 0.048500000000000008 10.850000000000003 0.6150000000000001 8.7500000000000018 9.0250000000000021 11.775000000000002 17.875000000000004 51.250000000000007 7.0500000000000007 6.9250000000000016 18.500000000000004 0.057500000000000009 0.047500000000000007 3.0750000000000006 7.4500000000000011 3.0850000000000004 60.250000000000007 0.049500000000000009 68.500000000000014 12.350000000000003 9.5000000000000018 6.7250000000000005 3.3350000000000004 6.8500000000000005 3.3550000000000004 0.065500000000000017 3.4150000000000005 3.3450000000000002 2.1250000000000004 8.5500000000000025 0.69500000000000006 0.088500000000000009 10.350000000000003 10.250000000000002 41.250000000000007 7.2500000000000009 2.9350000000000005 3.1250000000000004 0.37500000000000006 0.62500000000000011 9.4500000000000011 9.5750000000000011 0.17050000000000004 0.046500000000000007 0.51500000000000012 9.3500000000000032 0.079500000000000015 3.0650000000000004 0.84500000000000008 0.092500000000000013 3.0750000000000006 17.150000000000002 54.500000000000007 3.1350000000000002 11.250000000000002 0.43500000000000005 0.38500000000000006 3.1850000000000005 0.095500000000000015 3.0650000000000004 9.5750000000000011 5.1250000000000009 0.55500000000000016 3.1950000000000007 0.46500000000000002 23.500000000000004 3.4250000000000003 0.098500000000000018 3.1550000000000007 0.082500000000000018 0.63500000000000012 0.045500000000000006 0.085500000000000007 0.59500000000000008 0.51500000000000012 12.350000000000003
decision_type=2 2 2 2 2 2 2 2 2 2 2 2 2 2 2 2 2 2 2 2 2 2 2 2 2 2 2 2 2 2 2 2 2 2 2 2 2 2 2 2 2 2 2 2 2 2 2 2 2 2 2 2 2 2 2 2 2 2 2 2 2 2 2 2 2 2 2 2 2 2 2 2 2 2 2 2 2 2 2 2 2 2 2 2 2 2 2 2 2 2 2 2 2 2
left_child=1 3 4 6 5 80 12 8 -3 10 -5 18 -1 63 17 -16 -11 31 26 47 -21 25 23 -23 68 -12 34 36 29 30 38 -9 35 -7 -6 53 42 -34 84 52 41 58 45 -44 -45 46 -19 48 -8 -50 51 79 62 77 -28 -56 -57 -32 -15 -60 -49 -17 -20 73 -30 -10 67 87 -25 70 71 -70 -18 74 86 -76 -35 -24 -79 -48 -2 82 -58 -83 -4 -13 -14 88 89 -67 -89 92 93 -37
right_child=2 7 28 9 11 33 19 14 65 16 21 85 13 40 15 61 72 27 39 20 -22 22 32 24 -26 -27 54 -29 64 -31 57 -33 37 76 -36 91 -38 -39 -40 -41 -42 -43 43 44 -46 -47 50 60 49 -51 -52 -53 -54 -55 55 56 81 -59 59 -61 -62 -63 -64 -65 -66 66 -68 -69 69 -71 -72 -73 -74 -75 75 -77 -78 78 -80 -81 -82 83 -84 -85 -86 -87 -88 90 -90 -91 -92 -93 -94 -95
leaf_value=-0.14471385778165707 -0.067980192614937748 -0.11291238602717915 0.064371742350095976 0.12423576271681064 0.078840839529955284 -0.077091782056720487 -0.096862642332593965 0.086838052206026362 -0.093773925562945587 -0.14704361667105734 -0.13589767619482218 0.096677595134175232 -0.053197952216831712 -0.12704315449933035 0.060916886821257267 0.01961226559883144 0.068866873578845911 -0.027755645957202493 -0.026143882871427535 -0.12032897957348232 0.14830129763896488 -0.095577211420374772 0.11024497143372212 0.1311121034716182 -0.08593116133870897 0.031308162919176256 -0.11547023809658537 -0.11840287238224617 0.11743248170096135 0.12201274114125782 -0.13993021614805887 -0.055631821184860812 -1.0487040706687869e-05 0.10974761974037513 -0.08625279747701764 -0.18207822272592331 -0.13614954876839816 -0.1269968122073773 0.089639834548754599 0.092830740297985992 0.10937512583320913 0.047403837262397587 0.085522820498296404 0.091923738856825477 -0.14704752436941862 -0.18975523783253689 -0.010742459285987776 -0.15029526611938995 0.032507204621928763 -0.1056043001734063 0.098249650736208727 -0.10502686350385304 0.099269809118172736 0.13995140719001414 0.064844902481777988 -0.15175580249866633 0.10013183651671345 0.047035109499926848 0.15536564749211276 -0.090436572241210031 -0.030522277093897071 -0.14201803155161172 -0.1522016379298412 -0.032677430312508762 -0.0078016336433015393 0.050735046900675422 0.14930502597929976 -0.09678582341743551 -0.13108361994762929 0.16143521166058206 0.1527104441820899 0.025327469385984704 -0.057496893771301121 -0.13844155101871256 -0.086470896854311974 0.099235856747831447 -0.022262345762726801 -0.055452321296849898 0.058613290068727314 0.12433725013476911 -0.17163005641044632 -0.028209417451330335 -0.11260739933481306 0.13994663138911637 -0.084850809991731668 -0.0087251008002418654 -0.21805117116848349 0.15707363498074151 0.043411919155475813 -0.087894167616256624 0.0127063789795414 -0.13709644518705877 0.055281368703842086 -0.032602170744864899
leaf_weight=7.6349632441997519 15.576397746801378 22.474157378077507 3.1394632905721691 6.2530144155025473 58.905693233013153 2.5048462748527554 138.80600465834141 3.0678462982177725 4.3188917338848105 10.74927866458893 8.975265905261038 55.161653429269791 2.6092542111873644 4.6519181877374702 43.123985186219215 2.9330531209707251 2.8554820865392712 29.914184466004372 10.25371563434601 2.6556025296449652 2.79691082239151 5.2269835770130149 2.7495598942041459 8.1156465709209495 4.1222188621759406 3.3501415103673926 2.2383992969989768 3.4786219447851172 115.83834826946259 19.53037440776825 2.9706936329603186 32.176903188228607 4.6205213963985434 11.707363516092299 2.1126131713390341 2.6699138581752839 2.318735033273696 10.541275411844252 20.607697784900665 3.6690673679113379 4.5391843616962424 10.198967561125754 22.364363461732868 3.1679565757513037 4.3994740694761276 2.120894491672515 4.0390446484088915 24.563138648867611 8.4494896680116671 7.6353132277727118 12.368499368429182 3.2608956843614569 2.1215645223855963 2.6278927475213996 17.976314976811409 3.558860361576083 2.1238219588994962 2.1795977056026459 2.4230538308620453 4.2049234956502914 3.3958240002393714 3.6533825546503067 3.4889879673719397 23.531697541475296 2.6675910651683798 2.6814682185649996 3.046454742550849 4.3386992663145056 2.912075951695444 3.4986691176891318 2.582785338163375 7.6390584111213684 17.318997859954834 10.166155084967611 3.9482718408107758 3.3451983630657196 2.7057077735662451 11.397489860653879 5.8839474767446509 4.0389406085014343 4.3962832540273658 2.6611856669187546 3.4149330258369446 4.4385340213775635 3.3418880999088287 3.4422264993190756 2.4215223044157028 2.6606663167476645 6.8810839504003516 7.5920853763818741 4.0836264491081238 3.8763585686683646 3.9527989327907553 12.757541179656981
leaf_count=31 65 93 14 31 295 11 573 14 18 44 37 268 11 19 201 13 12 136 46 11 13 22 13 40 17 14 10 15 611 96 13 139 20 54 10 11 10 44 105 17 21 45 105 14 19 9 18 100 36 31 58 14 10 13 85 16 10 11 11 18 14 15 15 101 13 12 14 18 12 16 12 34 73 42 16 15 12 49 27 19 18 12 16 22 15 15 10 12 30 31 18 16 17 56
internal_value=0 -0.0405713 0.070269 -0.0609609 0.0446034 -0.0211952 -0.0792951 -0.00469185 -0.0459804 -0.0270014 -0.0134214 0.0584291 -0.0448371 -0.0342519 0.00889975 0.0435654 -0.0769555 -0.0046995 0.0423669 -0.0938751 0.0174671 -0.0214285 -0.0124901 0.0287773 0.0512916 -0.0904498 0.0534052 0.0101469 0.102293 0.0740893 0.0450577 -0.0432307 -0.0355283 0.0609719 0.0731249 -0.0181031 0.0152288 -0.088298 0.0651851 -0.0126907 0.0148024 -0.00518387 0.0193258 0.0520163 -0.0470069 0.00177212 0.0093476 -0.0971953 -0.0902363 -0.0330531 0.0561648 0.0102585 -0.0370956 0.0169365 0.0203594 0.0292564 -0.0102409 -0.0608067 -0.0527322 -0.000576275 -0.135748 -0.0700413 -0.0581473 -0.0619842 0.114613 -0.00372999 0.00870093 -0.00646834 0.0741483 0.0463535 0.0156976 -0.0178414 -0.0396115 -0.0926479 -0.0548731 -0.00129527 0.0849659 0.000798033 -0.0166155 0.0567965 -0.0907951 0.0296082 -0.0310331 0.0769168 -0.0125698 0.0904865 -0.132549 0.00992823 -0.0135552 -0.051711 0.0696602 -0.0522422 -0.0352699 -0.0584709
internal_weight=0 647.158 382.734 412.654 212.458 36.8906 267.977 234.504 58.0771 144.677 113.753 175.568 79.6751 72.0401 176.427 49.7104 30.9238 126.716 116.964 188.302 5.45251 107.5 95.1747 34.0974 28.8705 12.3254 97.4304 91.4716 170.276 51.7697 32.2393 35.2447 61.0773 16.9179 61.0183 45.9155 87.993 15.1618 27.089 19.5333 26.018 21.4789 85.6743 29.9318 7.56743 55.7425 53.6216 182.85 154.891 16.0848 23.7074 11.3389 15.8643 22.6589 36.412 34.1737 16.1973 5.15029 11.2799 6.62798 27.959 6.58644 13.7427 46.0221 118.506 35.603 31.2841 28.2376 24.7482 16.6326 13.1339 10.5511 20.1745 22.4904 12.3242 7.29347 14.4131 20.031 17.2814 8.07799 19.9727 12.6385 5.53875 7.09972 6.48135 58.6039 5.03078 23.8989 17.1546 10.2736 6.74429 23.2566 19.3803 15.4275
internal_count=4678 2793 1885 1748 1007 160 1118 1045 246 630 501 847 340 309 799 229 129 570 564 778 24 470 419 153 131 51 476 417 878 254 158 153 266 77 305 202 402 64 134 88 114 93 392 138 33 254 245 754 640 67 109 51 71 102 171 161 76 24 48 29 114 28 61 195 624 153 135 121 114 74 58 46 85 94 52 31 66 89 76 37 83 60 26 34 29 283 21 103 73 43 30 100 84 67
is_linear=0
shrinkage=0.1


Tree=6
num_leaves=95
num_cat=0
split_feature=8 1 8 8 5 7 7 1 0 1 7 5 0 2 6 7 7 1 8 0 5 1 7 6 5 6 5 6 2 8 5 0 0 5 6 2 5 6 6 5 0 5 6 6 5 5 6 7 0 1 0 0 0 7 0 2 2 7 6 6 0 5 5 1 8 1 6 7 6 6 5 2 6 6 5 1 2 8 6 5 0 8 6 5 7 7 8 5 6 2 0 1 5 7
split_gain=246.28 93.1684 28.4714 28.4005 16.1992 17.192 10.0216 9.68573 8.94617 8.76496 9.79226 8.46205 12.4637 8.34332 10.1452 8.17392 8.05783 9.15481 9.25044 8.72217 7.7224 7.22295 7.26115 7.12604 7.03099 6.96836 6.83764 6.25712 6.23347 6.20105 6.07469 7.29084 7.24436 6.01792 5.59147 7.08562 5.10524 5.10521 8.05729 4.95317 4.85729 4.96414 4.75473 4.69996 6.27366 8.64252 4.66451 4.57117 4.51594 6.70026 4.50849 5.61412 4.25677 4.72689 4.20903 4.20288 4.02817 4.08592 7.71481 6.41209 6.17275 5.18929 7.41379 4.02694 3.98195 3.98069 4.17055 4.28654 3.89619 4.93165 3.84886 3.84456 3.7791 5.97992 3.99007 6.44816 4.48169 3.69894 3.63601 4.38232 4.23605 3.56465 3.66226 7.74633 3.96785 3.89542 3.50314 5.5819 3.44622 3.43457 3.25905 3.25675 3.24643 3.24267
threshold=10.625000000000002 0.23750000000000002 11.616666666666651 9.8500000000000032 11.500000000000002 0.58500000000000008 0.48500000000000004 0.28750000000000003 6.1250000000000009 0.29750000000000004 0.6150000000000001 24.500000000000004 6.8500000000000005 0.32500000000000007 3.0050000000000003 0.52500000000000013 0.52500000000000013 0.45250000000000007 10.725000000000001 8.1500000000000004 13.500000000000002 0.49250000000000005 0.38500000000000006 3.1750000000000003 41.250000000000007 3.2050000000000005 40.250000000000007 3.4950000000000006 0.39500000000000007 9.4500000000000011 6.5000000000000009 7.6500000000000012 8.2500000000000018 16.500000000000004 3.3950000000000005 0.13500000000000004 10.500000000000002 3.3150000000000004 3.1750000000000003 20.500000000000004 6.4250000000000016 51.250000000000007 3.0850000000000004 3.0750000000000006 24.500000000000004 44.250000000000007 3.0850000000000004 0.44500000000000006 7.4500000000000011 0.26750000000000007 6.5500000000000007 5.5500000000000007 7.7500000000000009 0.44500000000000006 7.2500000000000009 0.45500000000000007 0.39500000000000007 0.49500000000000005 3.1550000000000007 3.4250000000000003 7.3500000000000005 22.500000000000004 46.500000000000007 0.40250000000000008 9.5750000000000011 0.58750000000000002 3.0750000000000006 0.51500000000000012 3.1950000000000007 3.3650000000000007 22.500000000000004 0.41500000000000004 3.1350000000000002 3.2450000000000006 31.500000000000004 0.19500000000000003 0.34500000000000003 9.6166666666666654 3.3350000000000004 30.250000000000004 7.4500000000000011 8.9500000000000011 3.4150000000000005 20.500000000000004 0.59500000000000008 0.66500000000000015 9.7750000000000021 23.500000000000004 3.0750000000000006 0.22500000000000003 6.8500000000000005 0.29750000000000004 67.500000000000014 0.70500000000000007
decision_type=2 2 2 2 2 2 2 2 2 2 2 2 2 2 2 2 2 2 2 2 2 2 2 2 2 2 2 2 2 2 2 2 2 2 2 2 2 2 2 2 2 2 2 2 2 2 2 2 2 2 2 2 2 2 2 2 2 2 2 2 2 2 2 2 2 2 2 2 2 2 2 2 2 2 2 2 2 2 2 2 2 2 2 2 2 2 2 2 2 2 2 2 2 2
left_child=1 6 4 7 5 63 8 43 -1 20 55 12 -8 25 26 65 17 18 24 40 42 -4 -23 36 -6 70 -15 90 52 -27 31 -17 81 -29 35 -12 -14 38 48 -36 41 -20 -5 44 -3 -46 -7 88 -22 -50 51 -24 53 64 -40 56 57 60 -59 68 61 -11 -63 71 -16 66 91 -68 -60 78 77 -2 -42 74 75 -74 -77 -10 79 80 -70 -32 86 85 -85 -84 -83 -88 -21 -45 -18 -9 -91 -48
right_child=2 3 21 9 16 46 11 15 13 10 34 -13 23 14 28 30 27 -19 19 47 37 22 50 -25 -26 29 -28 33 -30 -31 32 -33 -34 -35 39 -37 -38 -39 54 -41 72 -43 -44 89 45 -47 93 -49 49 -51 -52 -53 -54 -55 -56 -57 -58 58 59 -61 -62 62 -64 -65 -66 -67 67 -69 69 -71 -72 -73 73 -75 -76 76 -78 -79 -80 -81 -82 82 83 84 -86 -87 87 -89 -90 92 -92 -93 -94 -95
leaf_value=-0.058289398477594824 -0.0037944741360799029 -0.15008541989789084 0.10463591109052076 0.00956675311348054 -0.13486329136986344 -0.068076595046060923 0.10502690791753465 -0.047491010883076869 0.097436184303178908 -0.12531287143022526 0.15485986853842676 0.075649853829293262 -0.017339634267205764 -0.18714979104525264 0.056073693509252356 -0.11546061967795081 0.11224804923913555 -0.095968981913939946 0.11136885466851867 -0.025006239864669169 0.089178820446259799 -0.12763031029598521 0.10639942451390404 0.019650472472610515 0.088893143532070673 -0.098117301382820987 0.0023178520023998993 0.10758690276754784 0.063025914839277691 0.045123168090122012 0.059634648246960187 0.062902278917586804 -0.1189451774899883 -0.10423136583531252 0.0039979236539071632 0.0032547592046446197 -0.20313753260519612 0.077976646648759029 -0.073578051192808663 -0.14896552023398396 0.071990259631434933 -0.0084157928756383223 -0.15740541569572325 -0.12225314327334764 0.095220526897306645 -0.056983605201799938 0.040828853287144855 0.064272193581350709 0.11268296294817298 -0.08247236358509262 0.1082079971660084 -0.080841197439381687 0.061461516544220385 -0.14914461072545826 0.05461373961901668 -0.13803410679137496 0.062328563124106701 -0.17075379703183902 0.11794255132437213 -0.13223999156302596 -0.16232000788154122 0.036111605440888532 -0.15690228053897801 -0.12882837203188072 -0.08182530983001976 -0.15641212740332625 -0.083431809693046921 -0.19036000877792486 -0.051026197376962824 0.067152410703708296 0.10461653138891679 -0.14237790123372271 0.067828767901028195 0.081604322175753835 0.034770559261684771 -0.19736204146215461 -0.032755634213464821 -0.08649403624586971 -0.11247008466875529 -0.11680401588506495 0.088942021648078934 -0.0848630358627913 -0.1037975997759779 0.16511701895656028 -0.0030234964520218875 0.025696563387340578 0.077269489187555829 -0.095114191735588841 -0.18721646668778294 -0.056343536958272648 0.068232534063472919 -0.15775170989758541 0.061378460015045801 0.13975428753623043
leaf_weight=17.5401731133461 7.8766932189464587 2.4419651627540615 143.99993869662285 2.8771936297416678 4.8277924358844748 2.5502734035253551 6.844750419259074 3.1874170452356365 2.0889657586813 6.7769265919923845 3.5454477816820171 53.998026952147484 2.3166184425353986 4.8259375244379035 4.055088043212896 3.4176159948110563 29.703384965658188 5.0461116135120383 24.348007544875149 2.7316402941942206 10.958794742822649 2.3264000564813641 2.7891090512275687 5.4448135942220688 1.9803726077079771 4.5772250294685355 3.1467103064060211 2.1897484958171836 14.104295581579207 8.8965183198451978 2.3935885280370703 6.956781193614006 28.842602699995041 3.4616049528121948 4.3765367269515973 23.626722663640976 4.0896254777908325 12.337086424231527 13.030860781669618 4.1002193242311478 22.884753525257111 4.0327598154544821 4.1876789182424545 7.767295539379119 7.8393964618444425 7.118084654211998 8.5919885933399183 2.3812748491764069 2.771789386868476 4.815984234213829 8.9014353752136213 3.76021708548069 4.016578182578086 3.8364072740077964 3.1879148483276358 6.8548661768436423 2.7717151641845694 3.8530304431915274 2.4970180392265382 4.3430916368961325 8.2385039180517179 7.8155461251735669 2.6698660850524902 9.4676939100027067 4.3298588395118713 14.026347592473028 73.328745454549789 3.9510653465986243 3.9820463806390816 5.6237657368183127 20.035769507288933 2.6839144974946976 2.6866675764322334 9.1113399565219861 7.6210478544235221 3.3410764336585999 3.2757661789655685 2.2941638231277466 5.0017212331295005 2.9075728505849829 4.731303796172142 53.416686177253723 8.8322188556194323 2.5356458127498618 3.1433685272932053 3.1520778536796561 3.6282189190387717 3.894864097237587 2.51618392765522 59.581742003560066 38.790492758154869 16.78810903429985 2.4384314566850653 5.3935100883245459
leaf_count=78 33 10 793 12 22 11 34 13 10 28 16 266 10 21 19 14 156 21 128 12 51 10 14 26 10 20 14 10 64 42 10 30 119 16 19 103 17 58 58 17 113 20 17 32 35 29 39 11 13 21 44 17 18 17 15 28 12 16 11 18 34 34 11 39 20 58 301 16 17 24 101 11 13 47 38 15 15 10 22 12 20 219 36 11 13 13 15 16 11 250 189 69 10 27
internal_value=0 -0.0367021 0.065765 -0.0591976 0.0412468 -0.0191656 0.0277085 -0.0763803 0.00610088 -0.0245149 -0.0415425 0.0555741 -0.00240961 0.0209212 -0.011984 -0.0870793 0.0541698 0.0351661 0.0423792 0.0513698 0.00808838 0.0972117 0.0370738 -0.0644611 -0.0697766 0.054193 -0.112369 0.0789761 0.0143929 -0.00353769 -0.0690001 0.00414456 -0.0759086 -0.0221574 0.00091595 0.0230363 -0.13595 0.0227114 0.00309961 -0.0699907 0.0614374 0.0943481 -0.0894054 -0.0479728 -0.00147396 0.0227884 0.0562994 -0.0506389 0.0481189 -0.0111827 0.061873 -0.00110253 -0.0278498 -0.0572022 -0.048381 -0.0637794 -0.0554639 -0.0610506 -0.0377854 -0.0201713 -0.0911023 -0.0571135 -0.0130349 -0.081471 -0.0151353 -0.10661 -0.0994269 -0.0888987 -0.000500458 -0.0137949 0.0860474 -0.0390146 0.0423446 0.0162869 -0.0188767 -0.0628223 -0.115871 0.00116569 -0.041181 -0.0104977 0.0249758 -0.0605835 -0.0642443 -0.0241513 0.0720502 -0.0697384 -0.0758652 -0.0119773 -0.102781 -0.0595659 0.0873205 -0.140158 -0.0517151 0.0789795
internal_weight=0 643.007 369.271 476.565 207.494 36.5641 166.442 318.682 93.7477 157.883 103.716 72.6938 18.6958 76.2075 38.3149 231.495 170.93 96.7848 91.7387 84.9305 54.1673 161.777 17.7772 11.8511 6.80817 37.8926 7.97265 74.1452 30.3422 13.4737 120.214 10.3744 109.839 5.65135 35.6489 27.1722 6.40624 47.1024 34.7653 8.47676 77.3014 28.3808 7.06487 87.1869 17.3994 14.9575 16.5358 7.6291 18.5466 7.58777 15.4508 6.54933 16.2379 12.2214 16.2188 68.067 61.2121 58.4404 32.9396 29.0865 25.5008 17.2623 10.4854 20.0283 8.38495 111.282 97.2553 77.2798 24.7434 22.2464 24.4189 10.5606 48.9207 26.0359 16.9246 9.30351 6.61684 4.38313 16.6226 11.6209 8.71335 80.9967 78.6031 17.6633 5.67901 11.9843 60.9398 7.52308 5.24782 69.7875 68.4939 19.9755 62.0202 13.9855
internal_count=4678 2793 1885 2006 1007 160 787 1319 434 687 442 353 87 356 173 953 847 476 455 423 245 878 85 53 32 183 35 371 138 62 496 44 452 26 155 119 27 216 158 36 389 148 29 366 74 64 77 34 85 34 75 31 74 56 73 287 259 247 140 124 107 73 45 83 39 457 399 317 106 95 121 44 241 128 81 43 30 20 71 49 37 333 323 73 24 49 250 31 23 292 345 82 260 66
is_linear=0
shrinkage=0.1


Tree=7
num_leaves=95
num_cat=0
split_feature=8 8 8 3 4 2 7 2 0 3 6 2 7 2 3 0 0 6 4 3 0 0 3 2 3 0 2 7 3 4 0 3 3 4 2 6 7 0 0 4 6 6 8 2 2 7 2 8 2 4 8 6 4 6 6 8 3 4 3 6 4 7 4 0 7 2 3 8 6 0 4 0 6 2 2 4 8 4 8 2 2 0 3 2 6 7 0 0 4 2 8 8 6 7
split_gain=205.941 32.0948 25.645 17.7911 10.6022 9.46766 9.24328 13.1148 10.1954 9.1937 7.60996 11.0201 7.4222 11.9528 7.24895 7.23558 6.64505 6.57526 6.45811 6.14325 7.19373 5.9774 5.57836 5.47622 5.45475 6.28078 5.26686 5.95483 4.96941 5.86921 4.90102 5.68801 6.59921 4.87994 5.40893 4.92162 9.26546 4.77476 4.72438 4.60883 4.60058 7.62654 4.82181 5.06926 4.51818 4.46556 7.61849 4.90244 8.70326 4.41545 4.39611 4.39036 4.33617 5.17132 6.30868 4.87693 5.79403 9.20455 5.70448 4.31773 4.28714 4.22873 4.99354 4.20462 6.70098 4.18324 4.00268 5.79134 7.85965 6.78557 6.19496 5.76397 5.66731 4.99895 6.75803 4.446 4.05237 4.73274 4.68676 4.25888 3.95774 5.88366 5.50952 5.16367 3.78271 3.75787 6.56413 3.73808 3.69284 3.67133 3.58009 3.54133 3.50183 4.78306
threshold=10.625000000000002 9.8500000000000032 11.525000000000002 10.15 0.049500000000000009 0.54500000000000015 0.58500000000000008 0.14500000000000005 6.3500000000000005 7.1500000000000012 3.0050000000000003 0.39500000000000007 0.54500000000000015 0.18500000000000003 15.575000000000001 6.1250000000000009 7.5500000000000007 3.2950000000000004 0.085500000000000007 14.525000000000002 8.8500000000000032 6.5500000000000007 1.925 0.51500000000000012 2.6500000000000008 10.850000000000003 0.16500000000000004 0.65500000000000014 3.3500000000000001 0.045500000000000006 7.7500000000000009 6.9250000000000016 4.9500000000000011 0.092500000000000013 0.29500000000000004 3.1650000000000005 0.7350000000000001 8.3500000000000032 7.5500000000000007 0.082500000000000018 3.1150000000000007 3.1350000000000002 10.350000000000003 0.37500000000000006 0.19500000000000003 0.52500000000000013 0.47500000000000003 9.5166666666666675 0.34500000000000003 0.17050000000000004 12.846666666666652 3.3550000000000004 0.039500000000000007 3.1250000000000004 3.2450000000000006 11.35833333333335 3.4250000000000003 0.033500000000000009 8.6250000000000018 3.0850000000000004 0.053500000000000006 0.43500000000000005 0.045500000000000006 6.8500000000000005 0.70500000000000007 0.34500000000000003 17.875000000000004 9.1500000000000004 3.0550000000000002 6.5500000000000007 0.040500000000000008 6.0500000000000007 3.0850000000000004 0.27500000000000008 0.44500000000000006 0.052500000000000005 9.5750000000000011 0.047500000000000007 9.3500000000000032 0.25500000000000006 0.28500000000000009 7.4500000000000011 1.675 0.24500000000000002 3.1850000000000005 0.60500000000000009 6.8500000000000005 7.1250000000000009 0.046500000000000007 0.6150000000000001 9.7750000000000021 12.033333333333351 3.5550000000000002 0.57500000000000007
decision_type=2 2 2 2 2 2 2 2 2 2 2 2 2 2 2 2 2 2 2 2 2 2 2 2 2 2 2 2 2 2 2 2 2 2 2 2 2 2 2 2 2 2 2 2 2 2 2 2 2 2 2 2 2 2 2 2 2 2 2 2 2 2 2 2 2 2 2 2 2 2 2 2 2 2 2 2 2 2 2 2 2 2 2 2 2 2 2 2 2 2 2 2 2 2
left_child=1 3 6 4 15 10 7 -2 65 12 11 38 13 -3 59 -1 -16 45 22 20 -11 -19 63 -20 25 37 27 50 33 -30 52 32 61 35 -35 36 -14 92 -5 60 42 -42 43 -15 -12 46 47 -17 90 -39 -4 -43 55 -54 -55 58 57 -57 -10 -7 -31 -32 -63 -8 -65 -9 67 69 -69 71 -70 -46 -71 -74 75 -75 78 -78 79 -72 81 82 -37 -84 -64 86 -82 -79 -21 -61 -49 -28 93 -6
right_child=2 9 26 5 24 14 18 8 30 19 44 -13 28 40 16 17 -18 21 23 88 -22 -23 -24 -25 -26 -27 91 -29 29 39 31 -33 -34 34 -36 80 -38 49 -40 -41 41 51 -44 -45 66 -47 -48 48 -50 -51 -52 -53 53 54 -56 56 -58 -59 -60 89 -62 62 84 64 -66 -67 -68 68 70 72 76 -73 73 74 -76 -77 77 87 -80 -81 85 -83 83 -85 -86 -87 -88 -89 -90 -91 -92 -93 -94 -95
leaf_value=-0.094698280360988221 -0.080020295639281119 -0.11539212377944182 0.029034833330404436 0.11566751565569551 -0.074789787417346293 -0.16080798599858689 0.094450850112085594 0.10224997182721246 0.10756461714763457 0.057014764125712228 -0.11957733141635044 -0.078967184938413051 -0.0859061902014044 -0.20106073618145026 0.15750511977144921 -0.087877819808638166 -0.079199126850462209 0.14718395202952775 -0.040269845805491047 0.025448828955003638 -0.12396114403550036 -0.011669045685315616 0.11369383925000787 0.11530755617218864 -0.10031337886853237 0.052524036058956183 0.076093813728948162 0.13559893965199762 0.02930957507280298 -0.045994181653128109 -0.085158573645207514 0.060278848941292477 -0.20571518530434987 0.040872321658736388 -0.12104919200540978 0.082277108118380182 0.11510788353598678 -0.12783833402034703 -0.041451630862086017 0.030202410985217198 0.11685945114360528 -0.033710658379676392 -0.018100709863217306 -0.031108926765148814 0.069823874621154178 0.025953903656812344 0.048106929527244033 0.14353255555202096 -0.13952000551823404 -0.0075152299005758379 -0.12663930645218788 0.028683590200701381 0.061683361518411028 -0.055453448557991863 0.041620428882688784 -0.22114031869390255 0.073640393223677256 0.077689541967745357 -0.016132908335396486 -0.14922492261268391 -0.18622781368177796 0.1037190745732684 -0.1142142511420645 -0.091788754852245913 0.087603487516352246 0.00020727049915149521 -0.079284961005022261 -0.14995426162112779 0.055841864379041511 0.1054080718772275 0.119307916214519 -0.095793943899149248 -0.13381220639080077 0.0068689124167710339 -0.087643534275654508 0.13051075008385057 0.10033332714315646 0.015903164882782782 -0.098671196147341628 -0.042993415358901159 0.14091922402051829 0.084405249720203371 -0.018502571125512127 -0.17582406697404079 0.044265116216283186 0.09919552370038176 -0.056293087369694343 -0.12555787302324628 -0.12275013763213645 0.0072384539159621097 -0.0075114307228790591 0.10864817530470822 -0.15781732013448665 -0.025937345536520735
leaf_weight=16.119819834828377 11.298123776912687 15.114149585366247 9.0534456521272642 12.163623452186586 48.796067386865616 9.3310423642396945 7.5290644317865363 23.73900401592255 18.285142406821258 41.910672932863235 4.5345329940319052 5.1892248541116706 8.2608695030212385 4.0075353085994747 2.0783390998840323 26.687210038304329 2.7623284310102463 4.1359177529811841 8.0837667733430845 3.1070552170276633 2.3178782016038886 5.5439422279596329 29.525099754333496 3.1418406069278708 71.329322144389153 4.3683369755744925 51.912737652659416 4.3411667644977561 7.6259440630674389 4.1736591309308988 7.0604048073291876 6.5621372014284125 2.3190620094537726 3.5893807560205442 4.8513443320989609 4.1479354202747407 3.1741250753402701 20.058471590280536 2.2710750997066489 2.7016805261373511 4.7292349040508261 38.673855379223824 9.6120870560407621 3.1225631386041641 2.9111370444297773 10.250293985009192 6.9878881424665442 2.9758501201868039 3.1591930091381073 3.5967142134904853 2.2685278803110114 15.919677644968031 12.669274032115935 16.254517152905468 11.383087858557699 2.3530211299657804 4.4506557881832123 1.8342587500810621 4.6829656660556784 2.4562496095895758 4.5639163702726364 3.9311792552471143 3.2600776553153992 4.4868817031383497 3.8853039294481277 4.8358166813850394 9.4473511427640897 5.1671298295259467 8.7346403300762159 9.8949782401323336 2.060297757387163 7.5548219680786133 2.1060331016778973 5.8959034532308561 3.6783245503902426 5.7393939048051834 3.8644018173217765 5.301928758621214 14.140759512782095 7.5105244368314743 2.6056191176176098 8.3204389512538892 10.392681643366812 2.6103532761335364 2.7993948459625244 16.207069277763367 4.7911657840013504 2.8841391503810883 3.6644129008054733 3.8508209437131882 3.3198776096105576 93.781161352992058 3.4314366728067389 34.010506048798561
leaf_count=68 48 64 44 65 204 39 41 128 98 202 19 22 36 17 10 111 12 20 37 14 10 25 154 15 300 20 294 23 36 19 31 31 10 15 20 20 15 84 10 12 22 172 43 14 13 46 29 13 13 15 10 75 62 76 56 12 23 10 23 10 19 19 14 21 20 25 39 22 40 47 9 32 9 27 16 28 17 24 59 33 13 38 45 11 12 77 21 12 15 16 15 548 14 141
internal_value=0 -0.0333432 0.061656 -0.0502455 -0.0655446 -0.0216241 0.0371923 0.0232057 0.032431 -0.00351036 -0.0109859 0.0460162 -0.0141719 -0.0341676 -0.0845065 -0.0349086 0.0224298 -0.0196248 0.0711929 0.0339503 0.0475304 0.0562041 0.0879769 0.0032734 -0.0786151 -0.0650697 0.0911248 0.0360233 0.00654239 -0.0386454 0.0170843 -0.0201855 -0.0474449 0.019037 -0.0521928 0.028973 -0.0301087 -0.0697441 0.0909473 -0.0839473 -0.0180282 -0.00496322 -0.0643215 -0.126632 -0.0220147 -0.0333754 -0.0474756 -0.065956 -0.00408002 -0.109543 -0.00215682 -0.0155163 0.030524 0.00877973 -0.0154717 0.0582543 -0.00579966 -0.0902364 0.0823439 -0.117608 -0.119243 -0.0259191 0.0159456 0.0402262 -0.00853769 0.0849809 -0.0174487 -0.0107681 -0.033214 0.0187379 -0.0196577 -0.0497269 0.044971 0.0106407 0.0305068 0.0678583 -0.0380979 0.00912158 -0.0620953 -0.00805503 0.0427396 0.0154022 -0.0180733 -0.0500848 -0.0409989 0.0722399 0.0131777 -0.0339368 -0.0547498 -0.0536952 0.0638837 0.0970486 -0.0588271 -0.054725
internal_weight=0 636.495 355.727 406.3 264.771 141.529 194.37 137.718 126.42 230.195 121.05 19.6239 179.195 91.1791 20.4788 79.18 4.84067 63.0602 56.652 51 44.2286 9.67986 45.4263 11.2256 185.591 114.262 161.357 15.6631 88.0162 19.0652 97.8452 25.9323 19.3701 68.951 8.44073 60.5103 11.435 109.893 14.4347 11.4393 76.065 59.3228 16.7422 7.1301 101.426 53.3803 43.13 36.1421 9.45492 23.6552 11.322 54.5935 71.9129 40.3069 27.6376 31.606 8.63794 4.18728 22.9681 15.6381 8.73758 17.0511 9.99065 15.9013 8.37219 28.5748 96.8918 87.4444 49.6638 37.7806 44.4967 10.466 27.3146 17.4197 15.3136 11.6353 35.7621 12.0505 23.7116 9.57082 49.0753 25.4714 17.151 13.003 6.05947 23.6039 7.39678 8.18607 6.77147 6.30707 6.29573 145.694 86.238 82.8066
internal_count=4678 2793 1885 1748 1118 630 966 678 630 1045 543 97 804 407 87 340 22 272 288 241 212 45 236 52 778 478 919 77 397 86 477 117 86 311 35 276 51 458 75 50 343 269 74 31 446 227 181 152 41 99 54 247 360 194 132 166 45 22 121 65 38 76 45 82 41 153 427 388 216 172 194 45 127 80 71 55 154 53 101 42 225 114 76 56 26 111 34 36 29 26 28 842 359 345
is_linear=0
shrinkage=0.1


Tree=8
num_leaves=95
num_cat=0
split_feature=8 8 8 2 2 6 5 5 3 6 4 4 6 3 2 5 4 5 6 5 4 5 5 3 0 2 5 6 4 8 4 0 2 0 3 6 0 0 6 2 3 4 3 6 2 3 8 4 0 5 0 5 0 3 2 5 3 3 2 2 5 4 4 3 3 8 8 5 3 6 5 8 2 4 6 0 6 2 3 8 8 5 3 6 6 6 5 3 6 4 2 5 8 8
split_gain=172.144 26.3527 23.1922 15.4416 12.9966 20.61 12.901 8.58214 7.9341 7.1047 12.6662 6.89043 6.96208 6.79005 6.16637 7.77954 8.07694 7.61778 6.06037 6.01992 6.90685 5.59055 5.95447 5.49196 5.46846 6.35233 5.45684 7.38608 6.28429 5.37373 5.24734 5.11487 5.93488 5.18218 5.04396 4.92856 6.69954 4.72088 4.60119 6.96642 4.34173 4.29868 4.22014 4.5155 4.15428 4.15344 4.11367 4.43256 6.4619 4.54755 4.37546 3.87957 4.12344 5.09023 3.66925 3.60322 3.70491 5.47563 3.87203 3.74959 4.67712 3.64565 3.54874 3.53996 6.78334 3.80422 5.6608 13.7716 7.83783 3.80207 3.45964 5.51668 4.52435 4.96386 6.27171 3.6133 4.26934 3.70818 3.634 4.4025 3.35494 3.31876 3.19776 3.17513 3.50351 4.13689 4.63949 7.99306 4.90162 4.08691 5.82364 5.0538 4.25787 3.69147
threshold=10.625000000000002 9.8500000000000032 11.616666666666651 0.26500000000000007 0.32500000000000007 3.1550000000000007 13.500000000000002 15.250000000000002 11.15 3.2250000000000005 0.063500000000000015 0.045500000000000006 3.5150000000000001 17.250000000000004 0.22500000000000003 43.250000000000007 0.041500000000000009 43.250000000000007 3.0550000000000002 18.500000000000004 0.057500000000000009 66.500000000000014 35.250000000000007 0.92500000000000016 6.3500000000000005 0.095000000000000015 25.500000000000004 3.4850000000000008 0.058500000000000003 11.775000000000002 0.047500000000000007 6.4250000000000016 0.29500000000000004 6.0500000000000007 1.1250000000000002 3.0650000000000004 9.3500000000000032 5.7500000000000009 3.4250000000000003 0.20500000000000004 2.0250000000000004 0.079500000000000015 1.425 3.3350000000000004 0.37500000000000006 1.925 9.4500000000000011 0.068500000000000019 6.1250000000000009 37.250000000000007 7.2500000000000009 33.500000000000007 6.8500000000000005 1.2250000000000003 0.50500000000000012 39.500000000000007 9.1250000000000018 5.6500000000000012 0.31500000000000006 0.47500000000000003 19.250000000000004 0.054500000000000007 0.075500000000000012 18.025000000000002 15.525000000000002 8.8500000000000032 9.0250000000000021 57.500000000000007 10.525000000000002 3.0850000000000004 28.250000000000004 11.15 0.075000000000000025 0.036500000000000005 3.1050000000000004 7.0500000000000007 2.9850000000000008 0.34500000000000003 3.7250000000000005 11.15 10.350000000000003 10.500000000000002 4.6250000000000009 3.0050000000000003 3.1550000000000007 3.0850000000000004 25.500000000000004 12.825000000000001 3.0750000000000006 0.048500000000000008 0.24500000000000002 23.500000000000004 9.0250000000000021 9.7750000000000021
decision_type=2 2 2 2 2 2 2 2 2 2 2 2 2 2 2 2 2 2 2 2 2 2 2 2 2 2 2 2 2 2 2 2 2 2 2 2 2 2 2 2 2 2 2 2 2 2 2 2 2 2 2 2 2 2 2 2 2 2 2 2 2 2 2 2 2 2 2 2 2 2 2 2 2 2 2 2 2 2 2 2 2 2 2 2 2 2 2 2 2 2 2 2 2 2
left_child=1 3 6 13 5 8 11 35 18 37 21 81 -13 38 17 16 51 26 -5 20 29 22 -11 -8 25 -25 28 -28 -9 -4 -31 32 -17 -34 -18 -3 -37 -6 83 40 -40 -21 43 44 -36 -12 47 48 -7 50 -50 52 -16 -54 70 56 57 59 -59 60 -44 -57 -42 64 65 -39 67 68 -67 -66 71 72 -26 -74 -75 -72 -77 -78 79 -79 82 -2 -53 -1 85 86 -85 88 -88 90 -86 92 -91 -94
right_child=2 7 19 4 9 46 23 14 -10 10 45 12 -14 -15 15 31 34 -19 -20 41 -22 -23 -24 24 54 -27 27 -29 -30 30 -32 -33 33 -35 42 36 -38 63 39 -41 62 -43 55 -45 -46 -47 -48 -49 49 -51 -52 80 53 -55 -56 61 -58 58 -60 -61 -62 -63 -64 -65 69 66 -68 -69 -70 -71 75 -73 73 74 -76 76 77 78 -80 -81 -82 -83 -84 84 89 -87 87 -89 -90 91 -92 -93 93 -95
leaf_value=-0.0066464580292993061 -0.12053586171316762 -0.11024295168827117 -0.12023105017386233 -0.096104667048212231 -0.20217959176322281 -0.17873304692602399 -0.10022737995777818 -0.12268362776708273 0.10737898488877551 -0.031023563349246958 0.010650722412808053 0.028250271084709705 -0.13054506544831113 0.026195915997638725 0.12371863076272754 0.076431468534649799 -0.15600862167873983 -0.11506226587115582 0.04809948989466073 0.1050276921904415 0.10876388445411195 -0.10128643304082659 0.064307730397750298 -0.050741245858670597 0.094485870184668919 0.09787617927425421 0.074877021942740582 -0.11249052602512943 0.015026727264154306 0.061388315904774796 -0.054845815265816361 0.084288389674106443 0.031325265344165486 -0.16376692314031577 -0.10266071924762157 -0.043253405170693898 0.049971005257089404 -0.10863196624906268 -0.15367338196544611 0.076631243129809637 0.077160967223272481 -0.029347016153156172 0.045728579161730287 0.13851433334008253 0.072542041783971875 -0.12641290211796832 -0.0077965841058944708 -0.14444730035953351 -0.013264240754301335 -0.073256197804605183 0.15778997683125509 -0.13766098594435291 -0.093339928410542242 0.065527771748591937 0.13880033546763479 -0.12700222938822972 -0.083211779052802581 0.10996785270649341 -0.0064050033157101605 0.040896160853303748 -0.06091883206397785 0.018568610217718075 -0.066814424707381845 -0.14654921328620682 0.10106691741293755 -0.036441886226530884 -0.061212180312956499 -0.15002646481244844 0.13770086150615146 -0.035162563994325491 0.077431035161011463 0.055827311329655543 0.069955724611874687 -0.18456732293095213 -0.024411696581652011 -0.086810376891460095 0.069875019752317177 0.017850279711879212 0.068108643926000537 -0.1493093171626195 0.053772102713585263 -0.015019302023275775 0.022552188085289596 -0.13939632524850148 -0.063140022497570655 -0.13777555480049525 -0.035660090649493256 -0.15026139038520037 0.14153596421610934 0.063816770188065836 0.064854381025206825 -0.12257960556809074 -0.084819537445472437 0.010839495831762629
leaf_weight=5.3723844438791266 7.1493988931179029 7.8734048306941977 2.2476506382226971 4.0076669305562964 2.2107155323028556 2.9429631978273454 2.4326880872249594 6.2598621845245379 18.345110952854156 9.5859299153089541 2.8368129283189765 27.382208213210109 3.0705927014350882 6.8891290277242652 8.5800835937261635 5.3326260447502118 2.4506289213895789 8.0002129822969419 10.683007091283796 97.539396643638611 16.885518655180931 3.3896039277315131 20.701318725943565 3.1482675820589057 3.5775097310543087 33.259508535265923 11.267039507627485 2.5869681388139716 7.0411151647567749 21.910840585827831 4.7207309901714316 23.941253527998924 2.574280634522438 2.8901655673980713 2.4143408387899381 39.36843366920948 9.585779204964636 13.152686163783072 3.8837628960609463 4.725944757461547 2.3931767493486387 2.4402345865964881 5.162350311875346 3.6951669007539749 3.0796795189380646 10.019791960716246 18.74224691092968 6.0454574674367896 4.5934294164180738 6.7828747630119324 2.217209666967392 2.6774113029241544 2.5178261697292319 10.135503500699995 3.6833716332912436 5.5619576275348646 6.0769220888614646 6.5350499898195249 5.0829939991235733 7.5873801857233039 20.215637311339378 2.4908387959003448 6.0144839584827423 4.0687715113162986 4.292976960539816 4.4067177772521955 86.751297429203987 4.0971586257219306 6.2504536956548691 3.9188522696495056 30.900693729519844 21.925301641225815 4.4651766866445568 2.831731945276263 17.909709349274635 2.8862764090299633 17.041816696524624 3.7607878744602186 4.103962317109108 2.7115684896707535 4.8187759220600128 5.1122840940952301 2.3299151510000229 6.2112207412719753 16.471932604908947 22.538096979260445 3.8165235072374326 3.5332100987434387 2.6416278332471848 2.4336195141077033 4.5330481380224219 23.98689466714859 32.041975915431976 4.6151537597179404
leaf_count=25 30 33 11 17 9 12 12 27 99 41 13 129 13 31 45 25 11 34 46 611 96 14 95 14 17 191 52 11 31 124 23 119 12 12 10 170 43 56 16 21 10 13 23 19 14 42 83 25 20 28 10 12 12 50 19 25 27 33 24 35 89 11 25 17 20 18 370 17 30 17 171 113 24 12 84 13 88 19 21 13 25 24 11 26 70 96 17 15 11 10 20 102 135 19
internal_value=0 -0.0302827 0.0577434 -0.0456837 -0.0304004 0.00464266 0.0354007 -0.00313431 0.0635242 -0.0452328 -0.0117308 -0.013247 0.0122387 -0.070808 0.00803681 0.0176776 0.00368735 -0.0293006 0.00876009 0.0879978 0.0579585 0.020505 0.0341353 0.0488382 0.0512207 0.0850249 -0.00403406 0.0398898 -0.0497841 0.0282528 0.0407846 0.0585197 0.00138065 -0.0718597 -0.0150641 -0.0368095 -0.024999 -0.0573039 -0.07541 -0.0265535 -0.0662271 0.101748 -0.0099773 0.0530386 -0.00445061 -0.0961698 -0.042429 -0.0711727 -0.0443847 -0.0152987 0.0424226 0.0461612 0.0702035 0.0339154 0.0405924 -0.0198399 -0.0099631 2.10274e-05 0.0590537 -0.020784 -0.0392248 -0.0819752 -0.0258329 -0.0547808 -0.0517419 -0.05803 -0.0514732 0.00578959 0.0656932 0.0360554 0.0373659 0.0180355 -0.0107512 -0.0256872 -0.046277 0.0533294 0.0289146 0.0410086 -0.00550437 -0.0521806 -0.00579219 -0.0765427 -0.0631136 -0.0818955 -0.085187 -0.110069 -0.071528 -0.0293371 0.0368198 -0.0737228 -0.0355178 -0.0864452 -0.0642723 -0.072776
internal_weight=0 630.279 343.097 402.145 250.043 74.36 197.353 228.134 33.0358 175.683 46.5335 42.7145 30.4528 152.102 171.306 136.151 101.412 35.1552 14.6907 145.744 45.7647 33.6769 30.2872 154.638 152.206 36.4078 27.155 13.854 13.301 28.8792 26.6316 34.7383 10.7971 5.46445 70.3529 56.8276 48.9542 129.15 145.213 17.0174 12.2914 99.9796 67.9023 9.18919 5.49402 12.8566 41.3242 22.5819 16.5365 13.5935 6.81064 31.0595 21.2334 12.6533 115.798 58.7131 50.6603 44.5834 11.618 32.9654 25.378 8.0528 8.40766 126.939 122.87 114.658 101.506 14.7543 10.6572 8.21183 112.115 50.7094 28.7841 25.2066 20.7414 61.4051 30.5044 27.6181 10.5763 6.47236 9.8261 12.2617 5.00733 128.196 122.823 38.7407 16.2026 9.99136 6.45815 84.0826 21.005 63.0776 39.0907 36.6571
internal_count=4678 2793 1885 1748 1099 340 1007 1045 162 759 205 196 142 649 799 644 476 155 63 878 254 150 136 811 799 205 121 63 58 158 147 168 49 24 321 246 213 554 618 72 51 624 310 43 24 55 178 95 70 58 30 155 107 62 594 267 231 204 57 147 112 36 35 545 528 491 435 65 48 37 575 250 137 120 96 325 154 141 53 32 48 54 23 546 521 165 69 43 28 356 90 266 164 154
is_linear=0
shrinkage=0.1


end of trees

feature_importances:
Column_5=141
Column_2=102
Column_3=99
Column_0=98
Column_6=91
Column_4=90
Column_1=84
Column_8=78
Column_7=63

parameters:
[boosting: gbdt]
[objective: binary]
[metric: custom]
[tree_learner: serial]
[device_type: cpu]
[data_sample_strategy: bagging]
[data: ]
[valid: ]
[num_iterations: 10000]
[learning_rate: 0.1]
[num_leaves: 95]
[num_threads: 0]
[seed: 1236]
[deterministic: 0]
[force_col_wise: 0]
[force_row_wise: 0]
[histogram_pool_size: -1]
[max_depth: -1]
[min_data_in_leaf: 10]
[min_sum_hessian_in_leaf: 0.001]
[bagging_fraction: 1]
[pos_bagging_fraction: 1]
[neg_bagging_fraction: 1]
[bagging_freq: 0]
[bagging_seed: 21709]
[feature_fraction: 0.8]
[feature_fraction_bynode: 1]
[feature_fraction_seed: 24116]
[extra_trees: 0]
[extra_seed: 15571]
[early_stopping_round: 0]
[early_stopping_min_delta: 0]
[first_metric_only: 0]
[max_delta_step: 0]
[lambda_l1: 0]
[lambda_l2: 0]
[linear_lambda: 0]
[min_gain_to_split: 0]
[drop_rate: 0.1]
[max_drop: 50]
[skip_drop: 0.5]
[xgboost_dart_mode: 0]
[uniform_drop: 0]
[drop_seed: 15722]
[top_rate: 0.2]
[other_rate: 0.1]
[min_data_per_group: 100]
[max_cat_threshold: 32]
[cat_l2: 10]
[cat_smooth: 10]
[max_cat_to_onehot: 4]
[top_k: 20]
[monotone_constraints: ]
[monotone_constraints_method: basic]
[monotone_penalty: 0]
[feature_contri: ]
[forcedsplits_filename: ]
[refit_decay_rate: 0.9]
[cegb_tradeoff: 1]
[cegb_penalty_split: 0]
[cegb_penalty_feature_lazy: ]
[cegb_penalty_feature_coupled: ]
[path_smooth: 0]
[interaction_constraints: ]
[verbosity: -1]
[saved_feature_importance_type: 0]
[use_quantized_grad: 0]
[num_grad_quant_bins: 4]
[quant_train_renew_leaf: 0]
[stochastic_rounding: 1]
[linear_tree: 0]
[max_bin: 255]
[max_bin_by_feature: ]
[min_data_in_bin: 3]
[bin_construct_sample_cnt: 200000]
[data_random_seed: 4074]
[is_enable_sparse: 1]
[enable_bundle: 1]
[use_missing: 1]
[zero_as_missing: 0]
[feature_pre_filter: 1]
[pre_partition: 0]
[two_round: 0]
[header: 0]
[label_column: ]
[weight_column: ]
[group_column: ]
[ignore_column: ]
[categorical_feature: ]
[forcedbins_filename: ]
[precise_float_parser: 0]
[parser_config_file: ]
[objective_seed: 10917]
[num_class: 1]
[is_unbalance: 0]
[scale_pos_weight: 1]
[sigmoid: 1]
[boost_from_average: 1]
[reg_sqrt: 0]
[alpha: 0.9]
[fair_c: 1]
[poisson_max_delta_step: 0.7]
[tweedie_variance_power: 1.5]
[lambdarank_truncation_level: 30]
[lambdarank_norm: 1]
[label_gain: ]
[lambdarank_position_bias_regularization: 0]
[eval_at: ]
[multi_error_top_k: 1]
[auc_mu_weights: ]
[num_machines: 1]
[local_listen_port: 12400]
[time_out: 120]
[machine_list_filename: ]
[machines: ]
[gpu_platform_id: -1]
[gpu_device_id: -1]
[gpu_use_dp: 0]
[num_gpu: 1]

end of parameters

pandas_categorical:null
