{"learner":{"attributes":{"best_iteration":"107","best_score":"-0.845921"},"feature_names":[],"feature_types":[],"gradient_booster":{"model":{"gbtree_model_param":{"num_parallel_tree":"1","num_trees":"158"},"iteration_indptr":[0,1,2,3,4,5,6,7,8,9,10,11,12,13,14,15,16,17,18,19,20,21,22,23,24,25,26,27,28,29,30,31,32,33,34,35,36,37,38,39,40,41,42,43,44,45,46,47,48,49,50,51,52,53,54,55,56,57,58,59,60,61,62,63,64,65,66,67,68,69,70,71,72,73,74,75,76,77,78,79,80,81,82,83,84,85,86,87,88,89,90,91,92,93,94,95,96,97,98,99,100,101,102,103,104,105,106,107,108,109,110,111,112,113,114,115,116,117,118,119,120,121,122,123,124,125,126,127,128,129,130,131,132,133,134,135,136,137,138,139,140,141,142,143,144,145,146,147,148,149,150,151,152,153,154,155,156,157,158],"tree_info":[0,0,0,0,0,0,0,0,0,0,0,0,0,0,0,0,0,0,0,0,0,0,0,0,0,0,0,0,0,0,0,0,0,0,0,0,0,0,0,0,0,0,0,0,0,0,0,0,0,0,0,0,0,0,0,0,0,0,0,0,0,0,0,0,0,0,0,0,0,0,0,0,0,0,0,0,0,0,0,0,0,0,0,0,0,0,0,0,0,0,0,0,0,0,0,0,0,0,0,0,0,0,0,0,0,0,0,0,0,0,0,0,0,0,0,0,0,0,0,0,0,0,0,0,0,0,0,0,0,0,0,0,0,0,0,0,0,0,0,0,0,0,0,0,0,0,0,0,0,0,0,0,0,0,0,0,0,0],"trees":[{"base_weights":[1.3062901E-2,-8.2261175E-1,7.2092485E-1,3.469823E-1,-1.226753E0,4.0374786E-1,1.2735053E0,-2.3158641E-1,5.0035596E-1,-6.7687744E-1,-1.4344357E0,-3.7590882E-1,6.123827E-1,5.538965E-1,1.3361716E0,-8.245086E-1,4.0731683E-1,8.5409336E-2,8.537966E-1,-9.5134085E-1,-1.4664023E-1,-1.6935891E0,-1.0558834E0,-7.9125357E-1,5.2417064E-1,8.842122E-1,2.5614813E-1,-6.508807E-1,8.919052E-1,1.12648E0,1.426551E0,-1.1966386E0,1.2161541E-1,1.0463465E0,-1.0737177E0,3.0311128E-1,-8.785648E-1,1.024375E0,1.9786984E-1,-2.2751804E-1,-1.165483E0,2.8116563E-1,-1.0543001E0,-1.2907714E0,-1.9024514E0,-1.2503444E0,-3.105026E-1,-1.3382181E0,-2.8995577E-1,-1.5912786E-1,6.909911E-1,9.1138303E-1,-1.2923567E-1,-1.0573913E-1,7.5640416E-1,9.06545E-2,-2.2606923E-1,-7.962468E-2,1.0476656E0,-4.8743773E-2,1.1639956E0,1.4401833E0,-1.0360159E-2,-1.7348989E0,-6.1609596E-1,-7.962468E-2,1.3050141E0,7.632226E-2,-2.8364134E-1,-4.8078766E-1,6.8828464E-1,-1.4696963E0,1.12848245E-1,1.0865672E0,1.9902019E-2,4.4571415E-1,-1.3732159E-1,-2.3861283E-1,1.00883916E-1,-1.2279689E0,1.281689E-1,-1.1023242E0,4.8206195E-1,5.1057917E-1,-1.4863453E0,-1.375324E0,1.4764853E-1,-1.9486129E0,-2.9496735E-1,-1.3396608E0,6.176304E-1,2.3489445E-1,-1.0844275E0,-1.4865521E0,1.9902019E-2,8.389847E-1,-5.549917E-1,8.12065E-1,-1.1127679E-1,7.3995507E-1,1.1732264E0,-1.0707834E0,3.2610696E-2,8.248707E-1,-1.3732159E-1,5.7953274E-1,2.064928E-1,5.407615E-1,1.2471985E0,8.6641395E-1,2.186258E-1,-7.962468E-2,-2.879088E-1,5.8238497E-3,-2.2606923E-1,5.890437E-2,2.0833795E-1,3.9485E-1,-1.0824316E0,1.0339183E0,8.2877755E-2,-2.879088E-1,-3.8999134E-1,1.2080412E0,5.134236E-1,1.281689E-1,-1.1127679E-1,9.3783474E-1,-3.4425238E-1,9.083306E-1,-8.2361573E-1,-1.54552E0,-8.040818E-1,-2.3634282E-1,-1.0360159E-2,-6.9018155E-1,6.465048E-1,-1.0360159E-2,1.281689E-1,-1.791659E0,5.890437E-2,-3.025747E-1,-1.0626066E0,-2.0970185E0,-1.652685E0,1.3885528E-1,-1.9431561E-1,-1.0468943E0,-1.7699554E0,-7.962468E-2,1.7131925E-1,-4.8756647E-1,9.083306E-1,1.161361E-1,-1.5460294E0,-1.6476732E0,-2.9496735E-1,-7.962468E-2,7.632226E-2,1.8517298E-1,-2.3333542E-2,-1.0536056E0,6.3832515E-1,-3.8999134E-1,9.68939E-1,3.6414605E-1,8.8101286E-1,1.2263718E0,-8.032757E-2,1.9902019E-2,-1.4696963E0,5.462394E-1,-2.3588093E-1,3.439682E-2,9.72094E-1,-4.8743773E-2,8.389847E-1,-6.738644E-1,1.18079E0,2.10389E-1,1.289401E0,1.8778291E-1,-2.3333542E-2,1.12848245E-1,-1.0352724E-1,-1.738098E-1,1.5992446E-1,-2.057984E-1,5.890437E-2,1.9148806E-1,-3.909818E-2,-8.186105E-2,7.694645E-2,-1.0360159E-2,-7.962468E-2,-1.0360159E-2,1.8850662E-1,-4.832473E-2,1.6664016E-1,1.3789245E-2,1.6958329E-1,-2.114843E-1,1.12848245E-1,-2.058555E-3,1.771185E-1,6.4431466E-2,-2.1184137E-1,-1.421953E-1,-2.668958E-1,8.715227E-2,-1.4942656E-1,-1.0360159E-2,-1.4888921E-1,-8.118166E-2,1.264556E-1,-2.3333542E-2,-3.2398403E-1,-3.8150057E-2,-1.944264E-1,-3.2955152E-1,-2.2779335E-1,-2.773191E-1,-9.770576E-3,1.12848245E-1,-1.7037888E-1,-1.01079665E-1,-2.7739972E-1,-1.5410686E-1,5.6920443E-2,1.6191813E-1,-1.0360159E-2,9.06545E-2,-7.962468E-2,-2.6575327E-1,-4.8743773E-2,-2.8245956E-1,-1.4410637E-1,7.632226E-2,-1.3732159E-1,-2.0941272E-1,-6.315657E-2,1.7229366E-1,-8.0818884E-2,5.890437E-2,-1.4888921E-1,1.8916729E-1,4.0969703E-2,-5.2578915E-3,1.1843065E-1,-1.3470178E-2,1.3704702E-1,1.1015532E-1,2.0250283E-1,-1.4888921E-1,1.3885528E-1,-1.1867593E-1,-2.675376E-1,-1.2326515E-1,1.12791836E-1,2.9409552E-2,-1.595425E-1,7.1443446E-2,-1.2326515E-1,1.8634966E-1,1.0233398E-1,1.7904738E-1,1.6014682E-2,-2.5130963E-1,1.281689E-1,5.890437E-2,1.9230022E-1,1.281689E-1,-7.962468E-2,9.596511E-2,2.0145139E-1],"categories":[],"categories_nodes":[],"categories_segments":[],"categories_sizes":[],"default_left":[0,0,0,0,0,0,0,0,0,0,0,0,0,0,0,0,0,0,0,0,0,0,0,0,0,0,0,0,0,0,0,0,0,0,0,0,0,0,0,0,0,0,0,0,0,0,0,0,0,0,0,0,0,0,0,0,0,0,0,0,0,0,0,0,0,0,0,0,0,0,0,0,0,0,0,0,0,0,0,0,0,0,0,0,0,0,0,0,0,0,0,0,0,0,0,0,0,0,0,0,0,0,0,0,0,0,0,0,0,0,0,0,0,0,0,0,0,0,0,0,0,0,0,0,0,0,0,0,0,0,0,0,0,0,0,0,0,0,0,0,0,0,0,0,0,0,0,0,0,0,0,0,0,0,0,0,0,0,0,0,0,0,0,0,0,0,0,0,0,0,0,0,0,0,0,0,0,0,0,0,0,0,0,0,0,0,0,0,0,0,0,0,0,0,0,0,0,0,0,0,0,0,0,0,0,0,0,0,0,0,0,0,0,0,0,0,0,0,0,0,0,0,0,0,0,0,0,0,0,0,0,0,0,0,0,0,0,0,0,0,0,0,0,0,0,0,0,0,0,0,0,0,0,0,0,0,0,0,0,0,0,0,0,0,0,0,0,0,0,0,0,0,0,0,0],"id":0,"left_children":[1,3,5,7,9,11,13,15,17,19,21,23,25,27,29,31,33,35,37,39,41,43,45,47,49,51,53,55,57,59,61,63,-1,65,67,69,71,73,75,77,79,81,83,85,87,89,91,93,95,-1,97,99,-1,101,103,-1,-1,-1,105,-1,107,109,-1,111,113,-1,115,-1,-1,117,119,121,-1,123,125,127,-1,-1,129,131,-1,133,135,137,139,141,-1,143,145,147,149,151,153,155,157,159,161,163,-1,165,167,169,171,173,-1,175,-1,177,179,181,-1,-1,-1,183,-1,-1,-1,185,187,189,191,-1,193,195,197,-1,-1,199,201,203,205,207,209,-1,-1,211,213,-1,-1,215,-1,-1,217,219,221,-1,-1,223,225,-1,-1,227,229,231,233,235,237,-1,-1,-1,-1,239,241,243,245,247,249,251,-1,253,255,257,259,261,263,-1,265,267,269,271,273,-1,-1,-1,-1,-1,-1,-1,-1,-1,-1,-1,-1,-1,-1,-1,-1,-1,-1,-1,-1,-1,-1,-1,-1,-1,-1,-1,-1,-1,-1,-1,-1,-1,-1,-1,-1,-1,-1,-1,-1,-1,-1,-1,-1,-1,-1,-1,-1,-1,-1,-1,-1,-1,-1,-1,-1,-1,-1,-1,-1,-1,-1,-1,-1,-1,-1,-1,-1,-1,-1,-1,-1,-1,-1,-1,-1,-1,-1,-1,-1,-1,-1,-1,-1,-1,-1,-1,-1,-1,-1,-1,-1,-1,-1],"loss_changes":[6.462883E2,2.3726117E2,1.0315527E2,1.1602932E1,4.1579468E1,6.1596516E1,8.9661255E0,1.0870457E1,1.4980337E1,1.5001511E1,2.4656128E1,3.0419987E1,2.8630135E1,8.297606E0,2.132019E0,9.948662E0,1.4425337E1,1.0407489E1,5.9866104E0,1.0332607E1,1.4534577E1,1.0867554E1,1.58747635E1,1.4779587E1,7.59302E0,8.783356E0,2.3683998E1,5.9946055E0,3.929078E0,3.8727417E0,2.8338623E0,2.8131104E0,0E0,4.90493E0,7.0793176E0,1.2458075E1,9.93585E0,2.7059135E0,3.9003255E0,7.7050686E0,7.678215E0,7.6774387E0,8.8428335E0,1.2353683E1,7.0069885E0,1.56185E1,1.0615223E1,5.3031273E0,9.483894E0,0E0,4.779647E0,6.6063385E0,0E0,1.0252933E1,7.0338535E0,0E0,0E0,0E0,1.3665609E0,0E0,2.5808792E0,5.8532715E-2,0E0,2.907791E-1,4.180101E0,0E0,1.5570545E-1,0E0,0E0,7.708984E0,5.635765E0,2.6799278E0,0E0,2.2410278E0,2.899807E0,4.6086273E0,0E0,0E0,1.1587875E1,5.669876E0,0E0,1.6342626E0,4.908108E0,7.2302467E-1,6.225708E0,9.006363E0,0E0,8.8845825E-1,6.1215158E0,8.845398E0,3.455439E0,7.8480983E0,5.9014177E0,4.0474052E0,1.2298325E0,2.6027088E0,1.5554541E1,4.654746E0,0E0,5.1573524E0,6.484688E0,4.217202E0,9.493434E0,6.1600304E0,0E0,2.0391104E0,0E0,7.916067E0,2.1185913E0,2.7009187E0,0E0,0E0,0E0,3.3401318E0,0E0,0E0,0E0,7.870383E0,4.152293E0,5.773411E0,3.260554E0,0E0,1.1390406E-1,2.1485748E0,4.814493E0,0E0,0E0,1.0472074E0,6.8603296E0,2.0829563E0,5.9875236E0,2.2632904E0,6.985531E0,0E0,0E0,5.571569E-1,5.3150883E0,0E0,0E0,4.760849E0,0E0,0E0,7.12088E0,2.6730347E-1,1.165831E1,0E0,0E0,9.335876E0,1.6194916E0,0E0,0E0,4.13119E0,1.4505348E0,1.5203093E0,1.4984264E0,1.5191765E0,2.4760842E0,0E0,0E0,0E0,0E0,3.3155766E0,5.4205236E0,1.960958E0,3.7924995E0,5.1063795E0,2.4402122E0,2.8134537E0,0E0,4.187775E0,9.276676E-2,7.2627573E0,1.6402487E1,3.9448526E0,2.6638794E0,0E0,1.4641342E0,7.2442126E0,4.008293E-3,2.043892E0,9.617157E-1,0E0,0E0,0E0,0E0,0E0,0E0,0E0,0E0,0E0,0E0,0E0,0E0,0E0,0E0,0E0,0E0,0E0,0E0,0E0,0E0,0E0,0E0,0E0,0E0,0E0,0E0,0E0,0E0,0E0,0E0,0E0,0E0,0E0,0E0,0E0,0E0,0E0,0E0,0E0,0E0,0E0,0E0,0E0,0E0,0E0,0E0,0E0,0E0,0E0,0E0,0E0,0E0,0E0,0E0,0E0,0E0,0E0,0E0,0E0,0E0,0E0,0E0,0E0,0E0,0E0,0E0,0E0,0E0,0E0,0E0,0E0,0E0,0E0,0E0,0E0,0E0,0E0,0E0,0E0,0E0,0E0,0E0,0E0,0E0,0E0,0E0,0E0,0E0,0E0,0E0,0E0,0E0,0E0,0E0],"parents":[2147483647,0,0,1,1,2,2,3,3,4,4,5,5,6,6,7,7,8,8,9,9,10,10,11,11,12,12,13,13,14,14,15,15,16,16,17,17,18,18,19,19,20,20,21,21,22,22,23,23,24,24,25,25,26,26,27,27,28,28,29,29,30,30,31,31,33,33,34,34,35,35,36,36,37,37,38,38,39,39,40,40,41,41,42,42,43,43,44,44,45,45,46,46,47,47,48,48,50,50,51,51,53,53,54,54,58,58,60,60,61,61,63,63,64,64,66,66,69,69,70,70,71,71,73,73,74,74,75,75,78,78,79,79,81,81,82,82,83,83,84,84,85,85,87,87,88,88,89,89,90,90,91,91,92,92,93,93,94,94,95,95,96,96,97,97,99,99,100,100,101,101,102,102,103,103,105,105,107,107,108,108,109,109,113,113,117,117,118,118,119,119,120,120,122,122,123,123,124,124,127,127,128,128,129,129,130,130,131,131,132,132,135,135,136,136,139,139,142,142,143,143,144,144,147,147,148,148,151,151,152,152,153,153,154,154,155,155,156,156,161,161,162,162,163,163,164,164,165,165,166,166,167,167,169,169,170,170,171,171,172,172,173,173,174,174,176,176,177,177,178,178,179,179,180,180],"right_children":[2,4,6,8,10,12,14,16,18,20,22,24,26,28,30,32,34,36,38,40,42,44,46,48,50,52,54,56,58,60,62,64,-1,66,68,70,72,74,76,78,80,82,84,86,88,90,92,94,96,-1,98,100,-1,102,104,-1,-1,-1,106,-1,108,110,-1,112,114,-1,116,-1,-1,118,120,122,-1,124,126,128,-1,-1,130,132,-1,134,136,138,140,142,-1,144,146,148,150,152,154,156,158,160,162,164,-1,166,168,170,172,174,-1,176,-1,178,180,182,-1,-1,-1,184,-1,-1,-1,186,188,190,192,-1,194,196,198,-1,-1,200,202,204,206,208,210,-1,-1,212,214,-1,-1,216,-1,-1,218,220,222,-1,-1,224,226,-1,-1,228,230,232,234,236,238,-1,-1,-1,-1,240,242,244,246,248,250,252,-1,254,256,258,260,262,264,-1,266,268,270,272,274,-1,-1,-1,-1,-1,-1,-1,-1,-1,-1,-1,-1,-1,-1,-1,-1,-1,-1,-1,-1,-1,-1,-1,-1,-1,-1,-1,-1,-1,-1,-1,-1,-1,-1,-1,-1,-1,-1,-1,-1,-1,-1,-1,-1,-1,-1,-1,-1,-1,-1,-1,-1,-1,-1,-1,-1,-1,-1,-1,-1,-1,-1,-1,-1,-1,-1,-1,-1,-1,-1,-1,-1,-1,-1,-1,-1,-1,-1,-1,-1,-1,-1,-1,-1,-1,-1,-1,-1,-1,-1,-1,-1,-1,-1],"split_conditions":[1.0133333E1,2.4E-1,1.155E1,2.4E1,2.9E-1,1.5E1,1.7E-1,3.2E0,4.6E-1,9.6E0,5.6E-1,6.5E-1,2.65E-1,1.1E1,2.2E1,6.2E-2,2.05E-1,7.5E0,5.25E1,3.08E0,5.1E-2,5E-2,9.9E0,9E0,3E0,1.48E1,1.0933333E1,3E-2,3.6E-1,2.95E0,9.1E-2,1.55E1,1.2161541E-1,5.7E0,4.7E-2,6.6E0,5.7E1,6.2E-2,5.1E-1,2.5E1,7.6E-1,1.9E-1,2E0,3.39E0,1.63E1,1.08E1,2.4E1,1.1433333E1,2.05E-1,-1.5912786E-1,3.52E0,5.4E-1,-1.2923567E-1,1.5E0,8.6E-1,9.06545E-2,-2.2606923E-1,-7.962468E-2,1.8E1,-4.8743773E-2,1.1733334E1,1.1633333E1,-1.0360159E-2,9.533334E0,2.1E1,-7.962468E-2,1.35E-1,7.632226E-2,-2.8364134E-1,4.05E1,3.21E0,4.2E-1,1.12848245E-1,1E1,2.5E-1,3.23E0,-1.3732159E-1,-2.3861283E-1,3.7E-1,5.15E1,1.281689E-1,3.19E0,6.15E0,6.7E0,5.2E-1,2.1E-1,1.4764853E-1,5.1E-1,3.55E1,5.5E-1,6.2E-1,6.4E-1,6.3E0,5.2E0,6E0,7.4E0,7.2E-2,2.35E-1,-1.1127679E-1,1.0533334E1,5.2E-1,6E0,4.4E-2,3.06E0,-1.3732159E-1,5.7E-1,2.064928E-1,3.9E-2,2.2E-2,7E0,2.186258E-1,-7.962468E-2,-2.879088E-1,4.6E-2,-2.2606923E-1,5.890437E-2,2.0833795E-1,2.85E1,9.733334E0,4.1E-1,3.34E0,-2.879088E-1,2.05E-1,1.4E0,3.1E-1,1.281689E-1,-1.1127679E-1,3E-1,3.26E0,4.6E-1,4.45E1,6.3E0,6.7E0,-2.3634282E-1,-1.0360159E-2,2.25E0,4E-1,-1.0360159E-2,1.281689E-1,2.55E-1,5.890437E-2,-3.025747E-1,3.05E-1,9.733334E0,8.6E0,1.3885528E-1,-1.9431561E-1,8E-2,9.2E0,-7.962468E-2,1.7131925E-1,7.7E-2,1.01E1,4.6E1,6.3E0,8E-2,2.85E-1,-7.962468E-2,7.632226E-2,1.8517298E-1,-2.3333542E-2,2.2E0,6.15E-1,3.7E-1,1E1,2.5E0,1E0,2.5E1,-8.032757E-2,1.5E-1,2.9E-1,2E1,3.4E0,3.05E-1,6.8E0,-4.8743773E-2,3.57E0,1.55E1,4.7E-1,2.2E0,1.5E0,1.8778291E-1,-2.3333542E-2,1.12848245E-1,-1.0352724E-1,-1.738098E-1,1.5992446E-1,-2.057984E-1,5.890437E-2,1.9148806E-1,-3.909818E-2,-8.186105E-2,7.694645E-2,-1.0360159E-2,-7.962468E-2,-1.0360159E-2,1.8850662E-1,-4.832473E-2,1.6664016E-1,1.3789245E-2,1.6958329E-1,-2.114843E-1,1.12848245E-1,-2.058555E-3,1.771185E-1,6.4431466E-2,-2.1184137E-1,-1.421953E-1,-2.668958E-1,8.715227E-2,-1.4942656E-1,-1.0360159E-2,-1.4888921E-1,-8.118166E-2,1.264556E-1,-2.3333542E-2,-3.2398403E-1,-3.8150057E-2,-1.944264E-1,-3.2955152E-1,-2.2779335E-1,-2.773191E-1,-9.770576E-3,1.12848245E-1,-1.7037888E-1,-1.01079665E-1,-2.7739972E-1,-1.5410686E-1,5.6920443E-2,1.6191813E-1,-1.0360159E-2,9.06545E-2,-7.962468E-2,-2.6575327E-1,-4.8743773E-2,-2.8245956E-1,-1.4410637E-1,7.632226E-2,-1.3732159E-1,-2.0941272E-1,-6.315657E-2,1.7229366E-1,-8.0818884E-2,5.890437E-2,-1.4888921E-1,1.8916729E-1,4.0969703E-2,-5.2578915E-3,1.1843065E-1,-1.3470178E-2,1.3704702E-1,1.1015532E-1,2.0250283E-1,-1.4888921E-1,1.3885528E-1,-1.1867593E-1,-2.675376E-1,-1.2326515E-1,1.12791836E-1,2.9409552E-2,-1.595425E-1,7.1443446E-2,-1.2326515E-1,1.8634966E-1,1.0233398E-1,1.7904738E-1,1.6014682E-2,-2.5130963E-1,1.281689E-1,5.890437E-2,1.9230022E-1,1.281689E-1,-7.962468E-2,9.596511E-2,2.0145139E-1],"split_indices":[8,1,8,5,1,5,2,3,7,8,7,7,1,5,5,4,1,0,5,6,4,4,8,5,6,3,8,2,7,6,4,5,0,0,4,0,5,4,2,5,7,2,3,6,3,0,5,8,1,0,6,7,0,3,1,0,0,0,5,0,8,8,0,8,5,0,1,0,0,5,6,7,0,8,2,6,0,0,2,5,0,6,0,0,2,2,0,7,5,1,7,7,0,3,5,0,4,1,0,8,2,0,4,6,0,7,0,4,4,0,0,0,0,4,0,0,0,5,8,2,6,0,1,3,2,0,0,2,6,7,5,0,3,0,0,3,7,0,0,1,0,0,1,8,3,0,0,2,8,0,0,4,8,5,3,4,1,0,0,0,0,3,1,2,5,3,3,5,0,2,2,5,3,1,0,0,6,5,7,3,3,0,0,0,0,0,0,0,0,0,0,0,0,0,0,0,0,0,0,0,0,0,0,0,0,0,0,0,0,0,0,0,0,0,0,0,0,0,0,0,0,0,0,0,0,0,0,0,0,0,0,0,0,0,0,0,0,0,0,0,0,0,0,0,0,0,0,0,0,0,0,0,0,0,0,0,0,0,0,0,0,0,0,0,0,0,0,0,0,0,0,0,0,0,0],"split_type":[0,0,0,0,0,0,0,0,0,0,0,0,0,0,0,0,0,0,0,0,0,0,0,0,0,0,0,0,0,0,0,0,0,0,0,0,0,0,0,0,0,0,0,0,0,0,0,0,0,0,0,0,0,0,0,0,0,0,0,0,0,0,0,0,0,0,0,0,0,0,0,0,0,0,0,0,0,0,0,0,0,0,0,0,0,0,0,0,0,0,0,0,0,0,0,0,0,0,0,0,0,0,0,0,0,0,0,0,0,0,0,0,0,0,0,0,0,0,0,0,0,0,0,0,0,0,0,0,0,0,0,0,0,0,0,0,0,0,0,0,0,0,0,0,0,0,0,0,0,0,0,0,0,0,0,0,0,0,0,0,0,0,0,0,0,0,0,0,0,0,0,0,0,0,0,0,0,0,0,0,0,0,0,0,0,0,0,0,0,0,0,0,0,0,0,0,0,0,0,0,0,0,0,0,0,0,0,0,0,0,0,0,0,0,0,0,0,0,0,0,0,0,0,0,0,0,0,0,0,0,0,0,0,0,0,0,0,0,0,0,0,0,0,0,0,0,0,0,0,0,0,0,0,0,0,0,0,0,0,0,0,0,0,0,0,0,0,0,0,0,0,0,0,0,0],"sum_hessian":[1.0905454E3,5.0004703E2,5.904984E2,1.284503E2,3.715967E2,3.7625916E2,2.1423926E2,2.6809048E1,1.0164126E2,1.0303999E2,2.6855673E2,7.9261536E1,2.9699762E2,1.7950405E1,1.9628885E2,1.3754208E1,1.3054841E1,4.73238E1,5.4317463E1,6.73723E1,3.566769E1,1.5735745E2,1.11199265E2,5.4317463E1,2.494407E1,1.6761482E2,1.293828E2,3.7299545E0,1.4220451E1,6.3176105E1,1.3311275E2,1.1422986E1,2.3312216E0,9.324886E0,3.7299545E0,3.916452E1,8.159275E0,4.2661354E1,1.1656108E1,1.5852306E1,5.1519997E1,2.4710949E1,1.0956741E1,5.6182438E1,1.0117502E2,8.765393E1,2.3545338E1,2.5177193E1,2.914027E1,1.8649772E0,2.3079094E1,1.6551672E2,2.0980995E0,7.553158E1,5.385122E1,1.6318551E0,2.0980995E0,1.1656108E0,1.3054841E1,1.3987329E0,6.177737E1,1.3194714E2,1.1656108E0,4.895565E0,6.5274205E0,1.1656108E0,8.159275E0,1.3987329E0,2.3312216E0,1.2821718E1,2.6342804E1,6.061176E0,2.0980995E0,4.009701E1,2.5643437E0,1.0024253E1,1.6318551E0,2.3312216E0,1.3521085E1,5.0354385E1,1.1656108E0,2.5643437E0,2.2146605E1,2.3312216E0,8.62552E0,5.4550583E1,1.6318551E0,9.8144424E1,3.030588E0,8.392397E1,3.7299545E0,1.4220451E1,9.324886E0,2.2612848E1,2.5643437E0,5.1286874E0,2.4011581E1,2.168036E1,1.3987329E0,1.0234063E2,6.3176105E1,8.62552E0,6.690606E1,5.2219364E1,1.6318551E0,6.5274205E0,6.5274205E0,8.159275E0,5.3618095E1,5.3618097E0,1.2658533E2,1.1656108E0,3.7299545E0,4.429321E0,2.0980995E0,1.1656108E0,6.9936647E0,5.3618097E0,7.459909E0,1.631855E1,1.0024253E1,3.7299545E0,2.3312216E0,3.2170856E1,7.926153E0,1.1656108E0,1.3987329E0,6.061176E0,3.9630766E0,7.2267866E0,6.294298E0,2.7275291E1,2.3079094E1,1.3987329E0,1.1656108E0,2.3312216E0,1.9815384E1,1.1656108E0,1.1656108E0,7.459909E0,1.1656108E0,1.6085428E1,3.8465157E1,6.1311127E1,3.68333E1,1.3987329E0,1.6318551E0,5.198624E1,3.1937735E1,1.1656108E0,2.5643437E0,6.9936647E0,7.2267866E0,2.7974658E0,6.5274205E0,1.958226E1,3.030588E0,1.1656108E0,1.3987329E0,3.4968324E0,1.6318551E0,1.7017918E1,6.9936647E0,2.3312216E0,1.9349138E1,2.8907146E1,7.343348E1,6.154425E1,1.6318551E0,2.5643437E0,6.061176E0,2.2612848E1,4.429321E1,8.392398E0,4.3826965E1,1.3987329E0,5.1286874E0,2.7974658E0,5.3618097E0,2.3312216E0,5.1286873E1,3.7299545E0,1.6318551E0,2.0980995E0,2.3312216E0,1.3987329E0,3.9630766E0,6.294298E0,1.1656108E0,1.3754208E1,2.5643437E0,3.9630766E0,6.061176E0,1.1656108E0,1.1656108E0,1.1656108E0,3.1005247E1,3.4968324E0,4.429321E0,1.3987329E0,4.662443E0,1.8649772E0,2.0980995E0,1.8649772E0,5.3618097E0,2.0980995E0,4.196199E0,9.091764E0,1.8183529E1,2.5643437E0,2.051475E1,1.1656108E0,1.1656108E0,2.5643437E0,1.725104E1,1.6318551E0,5.828054E0,9.091764E0,2.9373392E1,4.988814E1,1.1422986E1,3.26371E1,4.196199E0,2.0980995E0,4.988814E1,2.7974658E0,2.914027E1,4.196199E0,2.7974658E0,6.061176E0,1.1656108E0,1.6318551E0,1.1656108E0,5.1286874E0,1.3987329E0,1.3287963E1,6.294298E0,1.3987329E0,1.6318551E0,1.0257375E1,6.7605424E0,4.895565E0,2.0980995E0,1.1656108E0,1.1656108E0,1.3054841E1,6.294298E0,1.5386063E1,1.3521085E1,2.3312216E0,7.110226E1,1.3754208E1,4.7790043E1,1.1656108E0,1.3987329E0,3.030588E0,3.030588E0,2.5643437E0,2.0048506E1,2.9606514E1,1.4686696E1,5.828054E0,2.5643437E0,2.0980993E1,2.2845972E1,3.030588E0,2.0980995E0,1.6318551E0,1.1656108E0,1.1656108E0,4.196199E0,1.1656108E0,1.1656108E0,4.895565E0,4.6391308E1],"tree_param":{"num_deleted":"0","num_feature":"9","num_nodes":"275","size_leaf_vector":"1"}},{"base_weights":[1.2831315E-2,-6.267652E-1,7.0120627E-1,3.5414088E-1,-9.7167563E-1,4.0866596E-1,1.1576674E0,-2.0712695E-1,5.1125497E-1,-5.29742E-1,-1.1369274E0,-4.0638995E-1,5.652496E-1,1.2241787E0,5.5216926E-1,-6.319669E-1,3.9562526E-1,1.614318E-1,7.985051E-1,-6.2309235E-2,-7.8126067E-1,-1.3315407E0,-7.8103167E-1,-8.459305E-1,7.95629E-1,3.4867778E-1,7.968899E-1,7.1420634E-1,1.281791E0,-2.3378845E-1,8.0444413E-1,-9.184396E-1,1.2675887E-1,9.515331E-1,-7.1994436E-1,3.4082484E-1,-6.011263E-1,8.4494567E-1,-1.0831903E-1,-8.395539E-1,5.0216585E-1,-8.525919E-1,1.576796E-1,-1.1441767E0,-1.6614926E0,-5.9500223E-1,-1.3494987E0,-1.3868042E0,-4.948686E-1,9.781213E-1,-1.1997363E-1,6.697133E-1,7.825017E-2,-4.5300236E-1,8.5862786E-1,-1.5159953E-1,1.2842622E0,1.29181E0,9.467312E-3,9.997716E-1,-1.0672266E-1,-1.1420343E0,6.721392E-2,1.9382717E-1,-3.2155875E-2,9.626786E-2,-2.4339436E-1,5.1413614E-1,-8.5052043E-1,-1.0633267E0,1.1240671E-1,8.786208E-1,-5.4564614E-2,2.5234193E-2,-1.1172079E0,-7.6716745E-1,7.3985994E-1,-2.7196446E-2,-1.0406067E0,-1.3163929E0,-6.108939E-1,-1.6926968E0,-2.300373E-2,-7.27474E-1,5.4838794E-1,-8.95196E-2,-1.6092002E0,-1.7762662E0,-5.965445E-1,-9.188293E-1,1.1872096E-1,1.1623645E0,6.083045E-3,-8.595964E-2,5.7851486E-2,3.9210078E-1,1.0793977E0,4.463143E-1,-3.6764547E-1,-9.811896E-1,9.456163E-2,-8.0196035E-1,9.0077406E-1,-2.3624295E-1,4.5235968E-1,6.1345577E-2,2.0248565E-1,1.1185219E0,1.364255E0,5.2124728E-3,1.0825093E0,1.3620123E-1,-1.2804064E-1,-2.46174E-1,-7.090549E-1,8.705307E-1,-7.557437E-3,-2.4044265E-1,2.1767862E-1,-1.32879E0,1.9113136E-2,9.282065E-1,-4.2860124E-2,-5.482586E-1,1.4123856E-1,-1.4953015E0,-3.5413745E-1,-1.759015E-1,-1.1018105E-2,-4.7018547E-2,9.772853E-1,2.908616E-1,-2.2877572E-1,-1.1003717E0,6.1006952E-2,-1.4484375E0,-7.2421724E-1,-1.0338898E0,5.305479E-1,-9.127673E-1,-1.739884E0,-5.153665E-1,-1.257554E0,7.670958E-1,-7.254373E-2,-1.3849147E-1,3.5264906E-1,-1.6997213E0,-3.411984E-3,-9.288138E-2,-2.865695E-1,1.6767752E-1,-2.2824013E-1,1.9126626E-2,-1.388389E0,6.96004E-1,-7.336951E-1,5.724892E-1,1.9485699E-1,5.1502347E-1,-5.523575E-1,1.2231371E0,3.9725494E-1,5.521591E-1,-2.3575737E-1,-8.286773E-1,3.5535446E-1,-3.614824E-2,-2.151437E-1,-5.624919E-3,-1.744884E-1,1.1985778E0,7.1929747E-1,9.030821E-1,-1.3302745E-1,-8.600515E-3,1.1614648E0,2.0585626E-1,4.4058487E-2,1.9915725E-1,6.617424E-1,-1.316785E-2,-1.90429E-1,-1.662384E-1,1.5784088E-1,-1.8238519E-1,4.1553963E-2,-7.988828E-2,1.2959626E-1,-2.646855E-1,-5.332208E-2,1.1324091E-1,1.8013084E-1,9.993872E-2,-1.4187185E-1,-1.7352957E-1,6.74586E-2,-4.187204E-2,-2.6940635E-1,4.2431585E-2,-1.7942214E-1,-1.3212538E-1,7.303917E-2,1.8853165E-1,7.912243E-2,9.935576E-2,-1.435404E-1,-1.3820699E-1,-2.2571395E-1,-1.3945375E-1,-2.3378374E-1,-2.0253256E-1,1.6280942E-2,5.7300616E-2,-1.8351051E-1,2.0051745E-1,-7.890737E-2,-3.1268004E-2,-2.3124903E-1,-1.2534705E-1,-2.6511505E-1,1.0417162E-1,-8.902359E-2,-2.2925316E-1,-1.7939275E-2,7.3378384E-3,1.582948E-1,-7.9575725E-2,6.2431194E-2,-1.356126E-1,1.6823703E-1,-6.297424E-2,-2.8010073E-1,1.1968404E-1,-9.959146E-2,1.6725585E-1,-1.3149923E-1,-2.4631934E-1,1.4008974E-2,1.7168888E-1,-7.3603295E-2,-2.1064685E-1,-2.2834197E-2,1.4000395E-1,-2.0214662E-2,1.1771212E-1,1.6277715E-3,-2.3914902E-1,1.022181E-1,8.768137E-2,2.0027363E-1,1.3921915E-1,-9.946834E-2,1.6922432E-1,5.0772447E-2,-1.8090954E-1,-1.0883863E-3,-7.620359E-2,1.6642609E-1,1.8797955E-1,2.7913831E-2,6.6090755E-2,1.3123724E-1,1.7002699E-1,3.534713E-2,1.111178E-1,1.9001462E-1,1.2995714E-1,1.0146629E-2],"categories":[],"categories_nodes":[],"categories_segments":[],"categories_sizes":[],"default_left":[0,0,0,0,0,0,0,0,0,0,0,0,0,0,0,0,0,0,0,0,0,0,0,0,0,0,0,0,0,0,0,0,0,0,0,0,0,0,0,0,0,0,0,0,0,0,0,0,0,0,0,0,0,0,0,0,0,0,0,0,0,0,0,0,0,0,0,0,0,0,0,0,0,0,0,0,0,0,0,0,0,0,0,0,0,0,0,0,0,0,0,0,0,0,0,0,0,0,0,0,0,0,0,0,0,0,0,0,0,0,0,0,0,0,0,0,0,0,0,0,0,0,0,0,0,0,0,0,0,0,0,0,0,0,0,0,0,0,0,0,0,0,0,0,0,0,0,0,0,0,0,0,0,0,0,0,0,0,0,0,0,0,0,0,0,0,0,0,0,0,0,0,0,0,0,0,0,0,0,0,0,0,0,0,0,0,0,0,0,0,0,0,0,0,0,0,0,0,0,0,0,0,0,0,0,0,0,0,0,0,0,0,0,0,0,0,0,0,0,0,0,0,0,0,0,0,0,0,0,0,0,0,0,0,0,0,0,0,0,0,0,0,0,0,0,0,0,0,0,0,0,0,0,0,0,0,0,0,0,0,0,0,0,0,0,0,0,0,0],"id":1,"left_children":[1,3,5,7,9,11,13,15,17,19,21,23,25,27,29,31,33,35,37,39,41,43,45,47,49,51,53,55,57,-1,59,61,-1,63,65,67,69,71,-1,73,75,77,-1,79,81,83,85,87,89,91,93,95,97,99,101,103,105,107,-1,109,111,113,-1,-1,-1,-1,-1,115,117,119,-1,121,-1,123,125,127,129,131,133,135,137,139,-1,141,143,145,147,149,151,153,155,157,-1,-1,-1,159,161,163,165,167,-1,169,171,-1,173,-1,-1,175,177,-1,179,-1,-1,-1,181,183,185,-1,187,189,-1,191,193,195,-1,197,199,-1,-1,201,203,205,-1,207,-1,209,211,213,215,217,219,221,223,225,227,-1,229,231,-1,-1,-1,233,-1,235,237,239,241,243,-1,245,247,249,251,253,-1,255,257,-1,-1,-1,-1,259,261,263,-1,-1,265,-1,-1,-1,267,-1,-1,-1,-1,-1,-1,-1,-1,-1,-1,-1,-1,-1,-1,-1,-1,-1,-1,-1,-1,-1,-1,-1,-1,-1,-1,-1,-1,-1,-1,-1,-1,-1,-1,-1,-1,-1,-1,-1,-1,-1,-1,-1,-1,-1,-1,-1,-1,-1,-1,-1,-1,-1,-1,-1,-1,-1,-1,-1,-1,-1,-1,-1,-1,-1,-1,-1,-1,-1,-1,-1,-1,-1,-1,-1,-1,-1,-1,-1,-1,-1,-1,-1,-1,-1,-1,-1,-1],"loss_changes":[4.7679755E2,1.9026868E2,6.917389E1,1.3048737E1,2.9748749E1,4.0993515E1,7.5060425E0,8.652197E0,1.1423132E1,1.3469414E1,1.9850494E1,2.8175606E1,1.3184357E1,4.438751E0,1.2931206E1,9.082648E0,9.47907E0,7.467202E0,5.0501595E0,1.8546507E1,1.0656372E1,1.0065643E1,1.072863E1,6.6433926E0,2.5323858E0,1.2142183E1,1.0334541E1,1.04390335E1,1.9023743E0,0E0,3.7103748E0,5.682064E0,0E0,4.206909E0,7.5383277E0,9.442778E0,7.333723E0,2.821663E0,0E0,4.2912645E0,7.976822E0,1.1210884E1,0E0,1.0829559E1,2.9356232E0,1.3114071E1,8.395493E0,3.4457836E0,6.602904E0,2.0535069E0,9.754076E-1,6.8659554E0,1.2862449E1,4.46475E0,9.342369E0,8.565209E0,1.7309189E-1,4.96521E-1,0E0,1.3013802E0,4.168818E0,2.039919E0,0E0,0E0,0E0,0E0,0E0,7.2019825E0,5.1038437E0,2.7662468E0,0E0,2.7857437E0,0E0,3.2977762E0,3.3543015E0,1.1415417E0,4.005332E0,7.33459E0,5.5475464E0,6.3704987E0,1.6379242E1,8.5635376E-1,0E0,7.8586884E0,1.3167512E0,2.3601398E0,3.0601883E0,2.611103E-1,4.7359943E0,6.57883E0,5.965853E0,7.282925E-2,0E0,0E0,0E0,4.901979E0,1.9964333E0,1.0017847E1,1.213945E1,1.300962E0,0E0,9.4449687E-1,5.654915E0,0E0,5.1410794E0,0E0,0E0,2.7451859E0,5.449066E-1,0E0,7.1159935E-1,0E0,0E0,0E0,3.2656407E0,9.438023E0,6.079101E0,0E0,2.072604E0,2.259221E0,0E0,1.7897377E0,3.2071035E0,2.8814397E0,0E0,2.6774101E0,3.4334893E0,0E0,0E0,3.0407336E0,1.3902645E0,6.5536823E0,0E0,2.7315216E0,0E0,2.925949E0,1.0207882E1,6.9774914E0,8.818144E0,2.2888045E0,5.5770874E-2,5.679841E0,6.266487E0,1.3876815E0,9.667067E-1,0E0,5.1981173E0,3.5925522E0,0E0,0E0,0E0,2.8209274E0,0E0,6.818216E0,3.8859978E0,4.3533735E0,1.7215323E0,1.0683696E0,0E0,4.847643E0,7.595326E0,6.809807E-1,3.9295275E0,4.718831E0,0E0,6.810832E0,1.00287E1,0E0,0E0,0E0,0E0,2.2088203E0,2.9725266E0,6.364851E-1,0E0,0E0,1.3307266E0,0E0,0E0,0E0,8.7369514E-1,0E0,0E0,0E0,0E0,0E0,0E0,0E0,0E0,0E0,0E0,0E0,0E0,0E0,0E0,0E0,0E0,0E0,0E0,0E0,0E0,0E0,0E0,0E0,0E0,0E0,0E0,0E0,0E0,0E0,0E0,0E0,0E0,0E0,0E0,0E0,0E0,0E0,0E0,0E0,0E0,0E0,0E0,0E0,0E0,0E0,0E0,0E0,0E0,0E0,0E0,0E0,0E0,0E0,0E0,0E0,0E0,0E0,0E0,0E0,0E0,0E0,0E0,0E0,0E0,0E0,0E0,0E0,0E0,0E0,0E0,0E0,0E0,0E0,0E0,0E0,0E0,0E0,0E0,0E0,0E0,0E0,0E0,0E0,0E0,0E0,0E0,0E0,0E0],"parents":[2147483647,0,0,1,1,2,2,3,3,4,4,5,5,6,6,7,7,8,8,9,9,10,10,11,11,12,12,13,13,14,14,15,15,16,16,17,17,18,18,19,19,20,20,21,21,22,22,23,23,24,24,25,25,26,26,27,27,28,28,30,30,31,31,33,33,34,34,35,35,36,36,37,37,39,39,40,40,41,41,43,43,44,44,45,45,46,46,47,47,48,48,49,49,50,50,51,51,52,52,53,53,54,54,55,55,56,56,57,57,59,59,60,60,61,61,67,67,68,68,69,69,71,71,73,73,74,74,75,75,76,76,77,77,78,78,79,79,80,80,81,81,83,83,84,84,85,85,86,86,87,87,88,88,89,89,90,90,91,91,95,95,96,96,97,97,98,98,99,99,101,101,102,102,104,104,107,107,108,108,110,110,114,114,115,115,116,116,118,118,119,119,121,121,122,122,123,123,125,125,126,126,129,129,130,130,131,131,133,133,135,135,136,136,137,137,138,138,139,139,140,140,141,141,142,142,143,143,144,144,146,146,147,147,151,151,153,153,154,154,155,155,156,156,157,157,159,159,160,160,161,161,162,162,163,163,165,165,166,166,171,171,172,172,173,173,176,176,180,180],"right_children":[2,4,6,8,10,12,14,16,18,20,22,24,26,28,30,32,34,36,38,40,42,44,46,48,50,52,54,56,58,-1,60,62,-1,64,66,68,70,72,-1,74,76,78,-1,80,82,84,86,88,90,92,94,96,98,100,102,104,106,108,-1,110,112,114,-1,-1,-1,-1,-1,116,118,120,-1,122,-1,124,126,128,130,132,134,136,138,140,-1,142,144,146,148,150,152,154,156,158,-1,-1,-1,160,162,164,166,168,-1,170,172,-1,174,-1,-1,176,178,-1,180,-1,-1,-1,182,184,186,-1,188,190,-1,192,194,196,-1,198,200,-1,-1,202,204,206,-1,208,-1,210,212,214,216,218,220,222,224,226,228,-1,230,232,-1,-1,-1,234,-1,236,238,240,242,244,-1,246,248,250,252,254,-1,256,258,-1,-1,-1,-1,260,262,264,-1,-1,266,-1,-1,-1,268,-1,-1,-1,-1,-1,-1,-1,-1,-1,-1,-1,-1,-1,-1,-1,-1,-1,-1,-1,-1,-1,-1,-1,-1,-1,-1,-1,-1,-1,-1,-1,-1,-1,-1,-1,-1,-1,-1,-1,-1,-1,-1,-1,-1,-1,-1,-1,-1,-1,-1,-1,-1,-1,-1,-1,-1,-1,-1,-1,-1,-1,-1,-1,-1,-1,-1,-1,-1,-1,-1,-1,-1,-1,-1,-1,-1,-1,-1,-1,-1,-1,-1,-1,-1,-1,-1,-1,-1],"split_conditions":[1.04E1,2.4E-1,1.155E1,2.4E1,2.9E-1,1.2E1,4.95E-1,3.2E0,4.6E-1,4.6E-2,5.8E-1,6.8E-1,1.0933333E1,1.1E1,3.8E-1,6.2E-2,2.05E-1,7.5E0,6.5E-1,9.5E0,7.3E-1,7E-2,9.6E-2,1.85E0,5.45E-1,2.45E-1,1E-1,5.1E-2,9.6E-2,-2.3378845E-1,3.57E0,3.47E0,1.2675887E-1,3.32E0,4.7E-2,6.15E1,5.7E1,3.55E0,-1.0831903E-1,4.3E-1,2.1E-1,3.08E0,1.576796E-1,9.733334E0,3.52E0,1E1,7E0,4.9E-2,8E0,9.6E-2,6.45E-1,5.3E-1,3.1E-1,7E0,1E0,1.1733334E1,2.75E-1,1.2066667E1,9.467312E-3,1E-2,3E-2,1.5E1,6.721392E-2,1.9382717E-1,-3.2155875E-2,9.626786E-2,-2.4339436E-1,2E-1,7E1,1.0033334E1,1.1240671E-1,6.2E-2,-5.4564614E-2,3.15E0,5.2E-1,5.4E1,4.6E-1,1.81E1,6.8E1,3.25E0,7.6E0,9.05E0,-2.300373E-2,7.9E0,3.18E0,3.19E0,1.59E0,2.05E-1,4E-1,3.85E-1,3.4E-1,6.3E-2,6.083045E-3,-8.595964E-2,5.7851486E-2,5.1E-1,2.25E-1,6.7E1,3.2E1,1.7E1,9.456163E-2,3.7E-1,6.6E0,-2.3624295E-1,3.21E0,6.1345577E-2,2.0248565E-1,2.2E-2,7.9E-2,5.2124728E-3,1.2333333E1,1.3620123E-1,-1.2804064E-1,-2.46174E-1,1.9E1,3.5E-1,6.15E0,-2.4044265E-1,4.9E-2,4.2E-1,1.9113136E-2,7.3E0,5.8E0,6.7E0,1.4123856E-1,7.6E0,5.8E1,-1.759015E-1,-1.1018105E-2,3.05E1,4.25E1,7.6E0,-2.2877572E-1,4.4E-1,6.1006952E-2,3.05E-1,2.7E-1,3.8E-2,6.6E0,4.7E-1,6.1E0,3.5E-2,9.9E0,3.04E0,7.9E-2,-1.3849147E-1,1.3E-1,9.2E0,-3.411984E-3,-9.288138E-2,-2.865695E-1,1.7E0,-2.2824013E-1,2.7E0,1.1433333E1,6.55E-1,2.25E0,6E-2,1.9485699E-1,6.5E0,3.7E0,2.3E1,6.5E-1,2.85E-1,-2.3575737E-1,8.5E0,3.2E0,-3.614824E-2,-2.151437E-1,-5.624919E-3,-1.744884E-1,6.15E1,4.7E-1,4.6E0,-1.3302745E-1,-8.600515E-3,1.6E0,2.0585626E-1,4.4058487E-2,1.9915725E-1,6.3E-1,-1.316785E-2,-1.90429E-1,-1.662384E-1,1.5784088E-1,-1.8238519E-1,4.1553963E-2,-7.988828E-2,1.2959626E-1,-2.646855E-1,-5.332208E-2,1.1324091E-1,1.8013084E-1,9.993872E-2,-1.4187185E-1,-1.7352957E-1,6.74586E-2,-4.187204E-2,-2.6940635E-1,4.2431585E-2,-1.7942214E-1,-1.3212538E-1,7.303917E-2,1.8853165E-1,7.912243E-2,9.935576E-2,-1.435404E-1,-1.3820699E-1,-2.2571395E-1,-1.3945375E-1,-2.3378374E-1,-2.0253256E-1,1.6280942E-2,5.7300616E-2,-1.8351051E-1,2.0051745E-1,-7.890737E-2,-3.1268004E-2,-2.3124903E-1,-1.2534705E-1,-2.6511505E-1,1.0417162E-1,-8.902359E-2,-2.2925316E-1,-1.7939275E-2,7.3378384E-3,1.582948E-1,-7.9575725E-2,6.2431194E-2,-1.356126E-1,1.6823703E-1,-6.297424E-2,-2.8010073E-1,1.1968404E-1,-9.959146E-2,1.6725585E-1,-1.3149923E-1,-2.4631934E-1,1.4008974E-2,1.7168888E-1,-7.3603295E-2,-2.1064685E-1,-2.2834197E-2,1.4000395E-1,-2.0214662E-2,1.1771212E-1,1.6277715E-3,-2.3914902E-1,1.022181E-1,8.768137E-2,2.0027363E-1,1.3921915E-1,-9.946834E-2,1.6922432E-1,5.0772447E-2,-1.8090954E-1,-1.0883863E-3,-7.620359E-2,1.6642609E-1,1.8797955E-1,2.7913831E-2,6.6090755E-2,1.3123724E-1,1.7002699E-1,3.534713E-2,1.111178E-1,1.9001462E-1,1.2995714E-1,1.0146629E-2],"split_indices":[8,1,8,5,1,5,1,3,7,4,7,7,8,5,7,4,1,0,2,8,7,4,4,3,1,1,2,4,4,0,6,6,0,6,4,5,5,6,0,7,2,6,0,8,6,0,5,4,5,4,1,7,2,0,3,8,1,8,0,2,2,5,0,0,0,0,0,1,5,8,0,4,0,6,7,5,7,3,5,6,3,8,0,0,6,6,7,1,2,1,2,4,0,0,0,7,1,5,5,5,0,7,0,0,6,0,0,4,4,0,8,0,0,0,5,7,0,0,4,7,0,0,3,0,0,3,5,0,0,5,5,0,0,2,0,1,2,4,0,1,0,4,8,6,4,0,2,8,0,0,0,3,0,3,8,1,3,4,0,3,3,5,7,1,0,0,6,0,0,0,0,5,7,3,0,0,3,0,0,0,1,0,0,0,0,0,0,0,0,0,0,0,0,0,0,0,0,0,0,0,0,0,0,0,0,0,0,0,0,0,0,0,0,0,0,0,0,0,0,0,0,0,0,0,0,0,0,0,0,0,0,0,0,0,0,0,0,0,0,0,0,0,0,0,0,0,0,0,0,0,0,0,0,0,0,0,0,0,0,0,0,0,0,0,0,0,0,0,0],"split_type":[0,0,0,0,0,0,0,0,0,0,0,0,0,0,0,0,0,0,0,0,0,0,0,0,0,0,0,0,0,0,0,0,0,0,0,0,0,0,0,0,0,0,0,0,0,0,0,0,0,0,0,0,0,0,0,0,0,0,0,0,0,0,0,0,0,0,0,0,0,0,0,0,0,0,0,0,0,0,0,0,0,0,0,0,0,0,0,0,0,0,0,0,0,0,0,0,0,0,0,0,0,0,0,0,0,0,0,0,0,0,0,0,0,0,0,0,0,0,0,0,0,0,0,0,0,0,0,0,0,0,0,0,0,0,0,0,0,0,0,0,0,0,0,0,0,0,0,0,0,0,0,0,0,0,0,0,0,0,0,0,0,0,0,0,0,0,0,0,0,0,0,0,0,0,0,0,0,0,0,0,0,0,0,0,0,0,0,0,0,0,0,0,0,0,0,0,0,0,0,0,0,0,0,0,0,0,0,0,0,0,0,0,0,0,0,0,0,0,0,0,0,0,0,0,0,0,0,0,0,0,0,0,0,0,0,0,0,0,0,0,0,0,0,0,0,0,0,0,0,0,0,0,0,0,0,0,0,0,0,0,0,0,0,0,0,0,0,0,0],"sum_hessian":[1.080938E3,5.603677E2,5.205704E2,1.4577238E2,4.1459528E2,3.184043E2,2.0216606E2,3.1811607E1,1.1396077E2,1.1398098E2,3.0061432E2,5.1055054E1,2.6734924E2,1.8123631E2,2.092975E1,1.8631226E1,1.3180381E1,5.208809E1,6.187268E1,4.031173E1,7.366925E1,1.9257028E2,1.0804402E2,3.760158E1,1.3453474E1,1.3946335E2,1.27885895E2,1.975611E1,1.614802E2,1.6816248E0,1.9248125E1,1.5921413E1,2.7098126E0,8.894926E0,4.2854543E0,4.2615723E1,9.472366E0,6.047025E1,1.4024336E0,1.6754532E1,2.3557196E1,7.14237E1,2.245549E0,1.25673805E2,6.6896484E1,8.2946625E1,2.5097395E1,1.3638584E1,2.3962996E1,1.1160708E1,2.2927651E0,6.309008E1,7.6373276E1,5.7212424E0,1.2216466E2,8.134866E0,1.16212435E1,1.6010393E2,1.3762763E0,1.5770211E1,3.477914E0,1.3823817E1,2.0975962E0,6.7998705E0,2.0950558E0,1.8235675E0,2.461887E0,3.769978E1,4.915945E0,7.2155433E0,2.256823E0,5.9096878E1,1.3733692E0,4.292894E0,1.2461638E1,3.3641942E0,2.0193E1,1.3463381E1,5.796032E1,9.388612E1,3.1787678E1,6.542052E1,1.47597E0,7.466033E1,8.286295E0,4.5187464E0,2.0578648E1,8.300278E0,5.338307E0,1.3877116E1,1.008588E1,9.127317E0,2.0333915E0,1.1389136E0,1.1538515E0,3.877335E1,2.431673E1,4.183756E1,3.4535713E1,3.9095876E0,1.8116548E0,2.577593E0,1.1958706E2,1.9445118E0,6.190354E0,1.3151362E0,1.03061075E1,5.204703E1,1.0805689E2,1.3574473E0,1.4412765E1,1.3830869E0,2.094827E0,5.1252236E0,8.698593E0,2.2001085E1,1.5698691E1,2.5905633E0,2.325382E0,5.805374E0,1.4101689E0,5.607228E1,3.0245965E0,2.8874857E0,1.4054084E0,7.6911616E0,4.770477E0,1.6873955E0,1.6767987E0,4.866465E0,1.5326537E1,1.1770117E1,1.6932641E0,5.5892056E1,2.068264E0,7.558587E1,1.8300257E1,2.3261608E1,8.526069E0,4.8928533E0,6.052766E1,5.4731987E1,1.9928343E1,5.9538155E0,2.3324792E0,1.1888943E0,3.3298523E0,1.9400295E1,1.1783539E0,1.4460968E0,6.854181E0,3.3716252E0,1.9666818E0,4.949549E0,8.927567E0,6.122812E0,3.9630685E0,2.6931288E0,6.4341884E0,3.4710423E1,4.062927E0,1.9429508E1,4.8872213E0,4.0442745E1,1.3948159E0,2.0999134E1,1.3536579E1,2.0661392E0,1.8434484E0,1.1814883E0,1.3961048E0,4.3158768E1,7.642829E1,4.875218E0,1.3151362E0,1.8219973E0,5.0225033E1,1.0696361E2,1.0932835E0,7.744262E0,6.6685023E0,4.674098E0,4.024495E0,1.4218745E0,2.0579212E1,2.368686E0,1.3330006E1,1.1575513E0,1.1678306E0,3.4484427E0,2.3569314E0,3.65898E1,1.948248E1,1.8409618E0,1.1836346E0,1.6947592E0,1.1927264E0,1.9071407E0,5.784021E0,3.0938783E0,1.6765985E0,1.6461482E0,3.2203166E0,8.345055E0,6.981482E0,9.431283E0,2.3388338E0,4.101589E1,1.4876169E1,1.4889299E1,6.0696568E1,1.0092297E1,8.20796E0,2.6260624E0,2.0635546E1,4.685571E0,3.840497E0,2.936099E0,1.9567544E0,2.7159743E0,5.7811687E1,2.8413246E0,5.1890663E1,1.5820477E1,4.1078672E0,2.0400136E0,3.913802E0,1.1600666E0,1.1724126E0,1.1972735E0,2.1325788E0,2.6523209E0,1.6747972E1,1.941147E0,1.4304783E0,2.1160293E0,2.83352E0,7.529932E0,1.3976347E0,4.4689536E0,1.6538584E0,1.1832662E0,2.7798023E0,1.571558E0,1.1215707E0,2.2250336E1,1.2460088E1,2.0442963E0,2.0186303E0,3.8276136E0,1.5601895E1,3.3398573E0,1.5473638E0,9.78519E0,3.0657555E1,1.4067723E1,6.9314113E0,6.4634166E0,7.073163E0,4.0724136E1,2.4346325E0,2.8757797E1,4.7670494E1,3.1049302E0,1.7702878E0,1.166348E1,3.8561554E1,4.6191225E0,2.0493798E0],"tree_param":{"num_deleted":"0","num_feature":"9","num_nodes":"269","size_leaf_vector":"1"}},{"base_weights":[1.1829254E-2,-4.420403E-1,7.567241E-1,3.4860528E-1,-7.259287E-1,4.7963724E-1,1.0638937E0,1.3112892E-1,6.200354E-1,-9.508876E-1,-2.7275786E-1,-2.1568856E-1,6.558586E-1,4.3059242E-1,1.1229502E0,-5.2353704E-1,2.8350094E-1,5.7742603E-2,8.1168514E-1,-7.917769E-1,-1.2212274E0,1.3134168E-1,-4.8774418E-1,-8.812285E-1,6.5013105E-1,6.935695E-1,-4.7931412E-1,-5.565907E-1,7.3391956E-1,9.271388E-1,1.209989E0,-5.1780213E-2,-9.395308E-1,6.315329E-1,-7.958046E-2,1.0172318E0,-5.6358373E-1,8.591159E-1,-4.0989354E-2,-1.1988666E0,-6.0399723E-1,-1.4937282E0,-1.0325264E0,-1.0064788E0,3.0707744E-1,-7.288633E-1,-1.940426E-2,-4.263348E-1,-1.4040536E0,-1.0142034E-1,8.2697E-1,-5.8641213E-1,7.234571E-1,5.784267E-2,-1.0161544E0,7.636188E-2,-1.837101E-1,-6.716021E-2,8.7802535E-1,-5.0777297E-2,9.6434504E-1,1.2238957E0,-1.5329593E-2,-9.789943E-1,7.5511014E-1,2.8464E-2,-1.1738433E0,9.28046E-1,4.6693556E-2,-9.675164E-1,1.7796311E-1,-6.0939092E-2,1.9548729E-1,-1.2295445E0,2.616893E-1,-3.2436375E-2,8.845459E-1,9.337319E-2,-1.2839662E-1,-1.2807204E0,1.1883267E-1,3.8613155E-1,-6.841125E-1,-1.5482919E0,-4.5991823E-1,-3.4036675E-1,-1.1726687E0,-1.4103808E0,1.1760671E-1,-1.5826213E-1,3.8974494E-1,-6.457068E-2,-8.5814625E-1,2.1008787E-1,-7.062984E-1,1.44502E-1,-6.652753E-1,-2.3424546E-1,-4.9782597E-2,9.9000204E-1,-9.1906935E-2,2.2806786E-2,-2.0554042E-1,9.256445E-1,5.33884E-1,-9.607665E-3,-2.069899E-1,4.5917264E-1,1.7905778E-1,9.907212E-1,-3.081645E-2,6.8057877E-1,1.2415912E0,-1.7394265E-2,-2.3397788E-1,1.4279883E-1,9.039324E-3,2.1744594E-2,-1.4604578E0,-2.5691667E-1,1.151025E0,5.1898414E-1,-1.0917859E0,-1.4715103E0,4.3164662E-1,-2.2210318E-1,6.252564E-1,-2.3725446E-1,-2.4656096E-1,-8.4764816E-2,7.457221E-1,9.3406636E-1,2.3667198E-1,-1.4780246E0,-5.005657E-1,1.3305601E-1,-1.380127E-1,-4.413894E-1,1.0540406E0,-9.1799265E-1,-3.6508185E-1,-9.556205E-1,-2.4819718E-1,8.848683E-2,-1.8253729E-1,5.767E-1,-6.8866646E-1,-9.712306E-1,-1.486326E0,-2.4406682E-1,-4.8996277E-2,7.3352176E-1,6.2785566E-2,-1.0815281E0,5.6913424E-1,-1.0672675E0,-3.5253555E-1,1.864769E-1,6.9067692E-3,9.793737E-2,-1.0744151E0,-9.206841E-1,2.0376936E-1,1.2199218E0,3.8508274E-2,-2.917886E-1,9.792407E-1,3.2832325E-1,7.827876E-1,1.3317871E-1,-8.49903E-2,1.0552871E0,3.900675E-1,1.6214195E-1,-3.866745E-2,1.8828736E-1,6.346178E-1,-3.2019507E-2,-2.6781046E-1,1.15892455E-1,-1.0890253E-1,1.8779476E-1,1.0271617E-2,1.5018569E-1,-3.8047627E-2,-2.527285E-1,-3.4620207E-2,-2.548491E-1,-6.843658E-2,-1.4312722E-2,1.1451098E-1,2.678698E-2,-1.209397E-1,1.2000854E-1,-8.0187336E-2,-1.7298773E-1,1.2565362E-1,1.5470038E-1,8.579055E-4,4.8737697E-2,1.4859864E-1,1.4616445E-1,-8.897901E-2,-1.7062101E-1,-2.4804932E-1,-1.9002041E-1,1.4243312E-1,6.669063E-2,-1.9762741E-1,2.6281197E-2,1.8387423E-1,-7.473125E-2,-1.7802988E-1,-1.0846361E-1,1.2022504E-2,-2.4632278E-1,-1.12502E-2,-8.379755E-3,1.5005836E-1,8.303241E-2,-1.5662174E-1,8.014534E-2,-1.5498781E-1,-2.3668842E-1,-2.0244561E-2,-3.147512E-2,1.2908985E-1,3.062699E-2,-1.5169168E-1,-2.5351435E-1,7.32936E-2,1.7054892E-1,-7.847355E-2,-1.6724163E-1,2.4325611E-2,-1.1803911E-2,-1.7938876E-1,2.1303993E-2,-1.4498632E-1,-4.3213524E-2,-2.4615636E-1,5.703924E-2,-1.7154029E-1,-5.265216E-2,1.2214653E-1,1.9240914E-1,3.8944345E-2,1.2767874E-1,-9.357278E-2,-1.5056884E-1,1.2157659E-1,2.2941267E-2,1.5600938E-1,-1.216751E-2,8.063449E-2,-6.5959506E-2,1.315055E-1,-1.3525854E-1,8.592546E-2,7.9648465E-2,1.6840647E-1,-7.439122E-2,1.3622904E-1,-4.4198215E-2,1.4894556E-1],"categories":[],"categories_nodes":[],"categories_segments":[],"categories_sizes":[],"default_left":[0,0,0,0,0,0,0,0,0,0,0,0,0,0,0,0,0,0,0,0,0,0,0,0,0,0,0,0,0,0,0,0,0,0,0,0,0,0,0,0,0,0,0,0,0,0,0,0,0,0,0,0,0,0,0,0,0,0,0,0,0,0,0,0,0,0,0,0,0,0,0,0,0,0,0,0,0,0,0,0,0,0,0,0,0,0,0,0,0,0,0,0,0,0,0,0,0,0,0,0,0,0,0,0,0,0,0,0,0,0,0,0,0,0,0,0,0,0,0,0,0,0,0,0,0,0,0,0,0,0,0,0,0,0,0,0,0,0,0,0,0,0,0,0,0,0,0,0,0,0,0,0,0,0,0,0,0,0,0,0,0,0,0,0,0,0,0,0,0,0,0,0,0,0,0,0,0,0,0,0,0,0,0,0,0,0,0,0,0,0,0,0,0,0,0,0,0,0,0,0,0,0,0,0,0,0,0,0,0,0,0,0,0,0,0,0,0,0,0,0,0,0,0,0,0,0,0,0,0,0,0,0,0,0,0,0,0,0,0,0,0,0,0,0,0,0,0,0,0,0,0,0,0,0,0,0,0,0,0,0,0,0,0,0,0],"id":2,"left_children":[1,3,5,7,9,11,13,15,17,19,21,23,25,27,29,31,33,35,37,39,41,43,45,47,49,51,53,55,57,59,61,63,65,67,69,71,73,75,77,79,81,83,85,87,89,91,93,95,97,-1,99,101,103,-1,105,-1,-1,-1,107,-1,109,111,-1,113,115,-1,117,119,121,123,125,-1,-1,127,129,-1,131,-1,-1,133,135,137,139,141,143,145,147,149,-1,-1,151,153,155,157,159,-1,161,-1,-1,163,-1,-1,-1,165,167,-1,-1,169,-1,171,-1,173,175,-1,-1,-1,-1,-1,177,179,181,183,185,187,189,191,193,195,-1,-1,197,199,201,203,205,-1,-1,207,209,211,213,215,-1,-1,-1,217,219,221,223,-1,-1,225,227,229,231,233,235,-1,237,-1,239,241,243,245,247,249,251,253,255,-1,257,259,261,-1,-1,-1,263,-1,-1,-1,-1,-1,-1,-1,-1,-1,-1,-1,-1,-1,-1,-1,-1,-1,-1,-1,-1,-1,-1,-1,-1,-1,-1,-1,-1,-1,-1,-1,-1,-1,-1,-1,-1,-1,-1,-1,-1,-1,-1,-1,-1,-1,-1,-1,-1,-1,-1,-1,-1,-1,-1,-1,-1,-1,-1,-1,-1,-1,-1,-1,-1,-1,-1,-1,-1,-1,-1,-1,-1,-1,-1,-1,-1,-1,-1,-1,-1,-1,-1,-1,-1,-1,-1,-1,-1],"loss_changes":[3.5905518E2,1.4838092E2,3.371289E1,1.0250692E1,4.9276978E1,2.6267445E1,6.6178284E0,9.9682255E0,8.314407E0,1.2983215E1,1.4189759E1,2.5849022E1,7.625046E0,5.7438135E0,1.827591E0,3.6677794E0,1.0223059E1,1.2973058E1,2.3724022E0,1.5099762E1,4.5415955E0,1.1756879E1,1.19949E1,5.400652E0,5.165207E0,6.747368E0,3.2096968E0,4.01032E0,2.7874827E0,3.0355835E0,2.25148E0,8.1701765E0,2.870181E0,7.1039963E0,9.385382E0,4.0030346E0,7.61381E0,1.6895943E0,2.6955624E0,7.090515E0,1.1661011E1,1.8923035E0,6.695999E0,6.8141837E0,6.081887E0,5.9713097E0,6.0077424E0,5.596701E0,1.390934E0,0E0,4.7794333E0,2.7110906E0,5.71373E0,0E0,1.303822E0,0E0,0E0,0E0,1.1537123E0,0E0,1.9359512E0,2.6428223E-1,0E0,2.3541875E0,7.463863E-1,0E0,3.396307E0,7.50807E0,8.588564E0,7.13229E0,5.878536E0,0E0,0E0,2.699998E0,3.1226096E0,0E0,1.5024529E0,0E0,0E0,8.59597E0,4.54917E0,6.7629194E0,9.609505E0,1.1565247E0,3.6879184E0,4.7811365E0,2.3739395E0,1.0651703E0,0E0,0E0,5.372505E0,8.679971E0,5.8261986E0,6.0014434E0,5.4737353E0,0E0,3.1456175E0,0E0,0E0,3.5303535E0,0E0,0E0,0E0,5.3106766E0,4.140684E0,0E0,0E0,1.7448987E0,0E0,1.7245178E0,0E0,2.477357E0,1.19644165E-1,0E0,0E0,0E0,0E0,0E0,2.4598808E0,3.043581E0,2.444584E0,4.435562E0,2.0093431E0,8.4163666E-1,6.3468677E-1,4.2796645E0,3.5510364E0,4.2968426E0,0E0,0E0,9.850285E-1,1.3868103E0,3.7334838E0,9.838333E-1,1.6486223E1,0E0,0E0,5.083225E0,7.816949E-1,8.014084E0,9.308928E0,5.3030577E0,0E0,0E0,0E0,1.2142706E0,5.1717176E0,4.256939E0,2.478382E0,0E0,0E0,2.9864407E0,4.124889E0,5.745822E0,5.783204E0,2.5843048E0,4.2147636E0,0E0,3.416765E0,0E0,3.0395994E0,3.4743605E0,1.5884802E0,4.592991E-1,2.7997465E0,3.9669166E0,3.5596008E0,4.224093E0,4.7661896E0,0E0,2.7011642E0,1.1412315E0,3.6328917E0,0E0,0E0,0E0,1.7760786E0,0E0,0E0,0E0,0E0,0E0,0E0,0E0,0E0,0E0,0E0,0E0,0E0,0E0,0E0,0E0,0E0,0E0,0E0,0E0,0E0,0E0,0E0,0E0,0E0,0E0,0E0,0E0,0E0,0E0,0E0,0E0,0E0,0E0,0E0,0E0,0E0,0E0,0E0,0E0,0E0,0E0,0E0,0E0,0E0,0E0,0E0,0E0,0E0,0E0,0E0,0E0,0E0,0E0,0E0,0E0,0E0,0E0,0E0,0E0,0E0,0E0,0E0,0E0,0E0,0E0,0E0,0E0,0E0,0E0,0E0,0E0,0E0,0E0,0E0,0E0,0E0,0E0,0E0,0E0,0E0,0E0,0E0,0E0,0E0,0E0,0E0,0E0,0E0],"parents":[2147483647,0,0,1,1,2,2,3,3,4,4,5,5,6,6,7,7,8,8,9,9,10,10,11,11,12,12,13,13,14,14,15,15,16,16,17,17,18,18,19,19,20,20,21,21,22,22,23,23,24,24,25,25,26,26,27,27,28,28,29,29,30,30,31,31,32,32,33,33,34,34,35,35,36,36,37,37,38,38,39,39,40,40,41,41,42,42,43,43,44,44,45,45,46,46,47,47,48,48,50,50,51,51,52,52,54,54,58,58,60,60,61,61,63,63,64,64,66,66,67,67,68,68,69,69,70,70,73,73,74,74,76,76,79,79,80,80,81,81,82,82,83,83,84,84,85,85,86,86,87,87,90,90,91,91,92,92,93,93,94,94,96,96,99,99,103,103,104,104,107,107,109,109,111,111,112,112,118,118,119,119,120,120,121,121,122,122,123,123,124,124,125,125,126,126,127,127,130,130,131,131,132,132,133,133,134,134,137,137,138,138,139,139,140,140,141,141,145,145,146,146,147,147,148,148,151,151,152,152,153,153,154,154,155,155,156,156,158,158,160,160,161,161,162,162,163,163,164,164,165,165,166,166,167,167,168,168,170,170,171,171,172,172,176,176],"right_children":[2,4,6,8,10,12,14,16,18,20,22,24,26,28,30,32,34,36,38,40,42,44,46,48,50,52,54,56,58,60,62,64,66,68,70,72,74,76,78,80,82,84,86,88,90,92,94,96,98,-1,100,102,104,-1,106,-1,-1,-1,108,-1,110,112,-1,114,116,-1,118,120,122,124,126,-1,-1,128,130,-1,132,-1,-1,134,136,138,140,142,144,146,148,150,-1,-1,152,154,156,158,160,-1,162,-1,-1,164,-1,-1,-1,166,168,-1,-1,170,-1,172,-1,174,176,-1,-1,-1,-1,-1,178,180,182,184,186,188,190,192,194,196,-1,-1,198,200,202,204,206,-1,-1,208,210,212,214,216,-1,-1,-1,218,220,222,224,-1,-1,226,228,230,232,234,236,-1,238,-1,240,242,244,246,248,250,252,254,256,-1,258,260,262,-1,-1,-1,264,-1,-1,-1,-1,-1,-1,-1,-1,-1,-1,-1,-1,-1,-1,-1,-1,-1,-1,-1,-1,-1,-1,-1,-1,-1,-1,-1,-1,-1,-1,-1,-1,-1,-1,-1,-1,-1,-1,-1,-1,-1,-1,-1,-1,-1,-1,-1,-1,-1,-1,-1,-1,-1,-1,-1,-1,-1,-1,-1,-1,-1,-1,-1,-1,-1,-1,-1,-1,-1,-1,-1,-1,-1,-1,-1,-1,-1,-1,-1,-1,-1,-1,-1,-1,-1,-1,-1,-1],"split_conditions":[1.065E1,2.4E-1,1.155E1,4.9E-1,9.9E0,1.4E1,1.7E-1,6.15E0,2.5E1,4.15E-1,3E-1,5.9E-1,6.75E-1,1.1E1,2.2E1,5.9E0,3.3E-1,6.9E0,6.2E-2,2.7E-1,5.4E-1,1.4E1,6.2E-1,4.05E-1,2.35E-1,1E0,1.55E1,3E-2,3.6E-1,2.95E0,9.1E-2,2.7E1,1.55E-1,3.21E0,3.01E0,2.4E-1,3.18E0,2E-1,4.25E1,1.78E1,2.9E-1,3.42E0,9E0,9.2E0,1.9E-1,3.8E-2,3.4E0,5.9E0,3.5E0,-1.0142034E-1,3.51E0,2.25E-1,6.9E0,5.784267E-2,2.1E0,7.636188E-2,-1.837101E-1,-6.716021E-2,1.8E1,-5.0777297E-2,1.195E1,1.1633333E1,-1.5329593E-2,2.1E1,4.5E-2,2.8464E-2,3.7E-1,1.85E0,9.1E0,5.6E-2,4E-1,-6.0939092E-2,1.9548729E-1,1.1E1,7.15E0,-3.2436375E-2,6.6E1,9.337319E-2,-1.2839662E-1,9.6E0,6.3E0,6.9E0,5.1E-1,4.9E-2,6.1E-1,5.45E-1,2.9E-1,3.1E0,1.1760671E-1,-1.5826213E-1,4.5E-2,1.9E1,1.04E1,1.3E-1,6.6E-2,1.44502E-1,5.9E-2,-2.3424546E-1,-4.9782597E-2,9.4E-2,-9.1906935E-2,2.2806786E-2,-2.0554042E-1,1E-1,3.2E1,-9.607665E-3,-2.069899E-1,9E-2,1.7905778E-1,3.39E0,-3.081645E-2,7E0,3.5E0,-1.7394265E-2,-2.3397788E-1,1.4279883E-1,9.039324E-3,2.1744594E-2,1.6E0,1E1,6.5E-2,7E0,2.9E-1,3.85E1,7.15E0,3.25E0,2.25E-1,4E-2,-2.4656096E-1,-8.4764816E-2,9.2E0,1.3E0,2.05E-1,4.7E-1,3.2E0,1.3305601E-1,-1.380127E-1,4.45E1,2.5E0,2.75E-1,9.5E0,4.4E-2,-2.4819718E-1,8.848683E-2,-1.8253729E-1,2.1E0,9.233334E0,9.05E0,6.7E-1,-2.4406682E-1,-4.8996277E-2,3.8E-1,1.37E1,3.6E-2,3.05E1,5.9E1,3.2E1,1.864769E-1,1.11E-1,9.793737E-2,1.9E1,1.85E-1,3.28E0,1.2E1,3.65E-1,6.8E-1,1.075E1,1.0933333E1,2.98E0,1.3317871E-1,1.1E-1,1.1733334E1,4.8E-1,1.6214195E-1,-3.866745E-2,1.8828736E-1,5E-1,-3.2019507E-2,-2.6781046E-1,1.15892455E-1,-1.0890253E-1,1.8779476E-1,1.0271617E-2,1.5018569E-1,-3.8047627E-2,-2.527285E-1,-3.4620207E-2,-2.548491E-1,-6.843658E-2,-1.4312722E-2,1.1451098E-1,2.678698E-2,-1.209397E-1,1.2000854E-1,-8.0187336E-2,-1.7298773E-1,1.2565362E-1,1.5470038E-1,8.579055E-4,4.8737697E-2,1.4859864E-1,1.4616445E-1,-8.897901E-2,-1.7062101E-1,-2.4804932E-1,-1.9002041E-1,1.4243312E-1,6.669063E-2,-1.9762741E-1,2.6281197E-2,1.8387423E-1,-7.473125E-2,-1.7802988E-1,-1.0846361E-1,1.2022504E-2,-2.4632278E-1,-1.12502E-2,-8.379755E-3,1.5005836E-1,8.303241E-2,-1.5662174E-1,8.014534E-2,-1.5498781E-1,-2.3668842E-1,-2.0244561E-2,-3.147512E-2,1.2908985E-1,3.062699E-2,-1.5169168E-1,-2.5351435E-1,7.32936E-2,1.7054892E-1,-7.847355E-2,-1.6724163E-1,2.4325611E-2,-1.1803911E-2,-1.7938876E-1,2.1303993E-2,-1.4498632E-1,-4.3213524E-2,-2.4615636E-1,5.703924E-2,-1.7154029E-1,-5.265216E-2,1.2214653E-1,1.9240914E-1,3.8944345E-2,1.2767874E-1,-9.357278E-2,-1.5056884E-1,1.2157659E-1,2.2941267E-2,1.5600938E-1,-1.216751E-2,8.063449E-2,-6.5959506E-2,1.315055E-1,-1.3525854E-1,8.592546E-2,7.9648465E-2,1.6840647E-1,-7.439122E-2,1.3622904E-1,-4.4198215E-2,1.4894556E-1],"split_indices":[8,1,8,7,8,5,2,0,5,1,1,7,1,5,5,0,2,0,4,2,7,5,7,1,1,3,5,2,7,6,4,5,1,6,6,2,6,2,5,3,2,6,5,0,2,4,6,0,3,0,6,1,0,0,3,0,0,0,5,0,3,8,0,5,4,0,7,3,3,4,2,0,0,5,0,0,5,0,0,8,0,0,7,4,1,1,2,3,0,0,4,5,8,2,4,0,4,0,0,4,0,0,0,2,5,0,0,2,0,6,0,0,6,0,0,0,0,0,3,8,4,0,2,5,0,6,1,4,0,0,0,3,1,7,6,0,0,5,3,1,8,4,0,0,0,3,8,8,2,0,0,7,3,4,5,5,5,0,4,0,5,1,6,0,1,7,8,8,6,0,2,8,7,0,0,0,7,0,0,0,0,0,0,0,0,0,0,0,0,0,0,0,0,0,0,0,0,0,0,0,0,0,0,0,0,0,0,0,0,0,0,0,0,0,0,0,0,0,0,0,0,0,0,0,0,0,0,0,0,0,0,0,0,0,0,0,0,0,0,0,0,0,0,0,0,0,0,0,0,0,0,0,0,0,0,0,0,0,0,0,0,0,0,0,0],"split_type":[0,0,0,0,0,0,0,0,0,0,0,0,0,0,0,0,0,0,0,0,0,0,0,0,0,0,0,0,0,0,0,0,0,0,0,0,0,0,0,0,0,0,0,0,0,0,0,0,0,0,0,0,0,0,0,0,0,0,0,0,0,0,0,0,0,0,0,0,0,0,0,0,0,0,0,0,0,0,0,0,0,0,0,0,0,0,0,0,0,0,0,0,0,0,0,0,0,0,0,0,0,0,0,0,0,0,0,0,0,0,0,0,0,0,0,0,0,0,0,0,0,0,0,0,0,0,0,0,0,0,0,0,0,0,0,0,0,0,0,0,0,0,0,0,0,0,0,0,0,0,0,0,0,0,0,0,0,0,0,0,0,0,0,0,0,0,0,0,0,0,0,0,0,0,0,0,0,0,0,0,0,0,0,0,0,0,0,0,0,0,0,0,0,0,0,0,0,0,0,0,0,0,0,0,0,0,0,0,0,0,0,0,0,0,0,0,0,0,0,0,0,0,0,0,0,0,0,0,0,0,0,0,0,0,0,0,0,0,0,0,0,0,0,0,0,0,0,0,0,0,0,0,0,0,0,0,0,0,0,0,0,0,0,0,0],"sum_hessian":[1.0600366E3,6.589441E2,4.010926E2,1.7403069E2,4.849134E2,2.1221887E2,1.888737E2,9.744141E1,7.658929E1,3.2331705E2,1.6159634E2,4.286404E1,1.6935483E2,1.6817698E1,1.7205602E2,1.7937418E1,7.950399E1,1.979953E1,5.6789753E1,2.0600185E2,1.1731521E2,5.6251724E1,1.0534462E2,2.4224957E1,1.8639084E1,1.642862E2,5.068632E0,3.7566543E0,1.3061043E1,5.6530754E1,1.1552526E2,8.93227E0,9.005148E0,4.0215763E1,3.9288223E1,7.531596E0,1.2267934E1,5.379008E1,2.9996727E0,6.332798E1,1.4267387E2,4.516999E1,7.214522E1,6.893269E0,4.9358456E1,6.917463E1,3.6169987E1,1.3924837E1,1.0300119E1,1.8606937E0,1.677839E1,3.3236918E0,1.6096251E2,2.0490265E0,3.0196056E0,1.5394089E0,2.2172453E0,1.1906704E0,1.1870373E1,1.383103E0,5.514765E1,1.14380325E2,1.1449313E0,4.0569983E0,4.8752723E0,1.5800569E0,7.425091E0,2.629658E1,1.3919186E1,8.213552E0,3.107467E1,1.1897675E0,6.341829E0,6.518175E0,5.7497587E0,1.0692984E0,5.2720783E1,1.7837399E0,1.2159328E0,5.9650623E1,3.6773582E0,1.0394208E1,1.3227966E2,4.243276E1,2.7372293E0,1.2725077E1,5.9420143E1,5.797737E0,1.095532E0,2.151073E0,4.7207382E1,1.1513655E1,5.7660976E1,2.763219E1,8.537798E0,1.5981619E0,1.2326675E1,8.582223E0,1.7178965E0,1.5352226E1,1.4261638E0,2.126441E0,1.1972511E0,7.601096E1,8.495154E1,1.159904E0,1.8597016E0,6.156539E0,5.713834E0,5.408131E1,1.0663403E0,4.852456E0,1.0952787E2,2.1146758E0,1.9423225E0,3.5105124E0,1.3647598E0,1.4138274E0,6.0112634E0,4.1405473E0,2.2156033E1,1.0222566E1,3.6966202E0,6.000426E0,2.2131267E0,1.6669052E1,1.4405617E1,2.3827097E0,4.1354656E0,2.0613081E0,3.6884503E0,4.8566822E1,4.1539607E0,4.689593E1,1.2754692E1,2.1981597E0,1.4791985E0,4.793875E0,5.6003327E0,7.524235E1,5.7037315E1,7.9752994E0,3.4457462E1,1.2392768E0,1.4979526E0,3.3221526E0,9.402924E0,3.8677204E1,2.0742937E1,4.4136815E0,1.3840556E0,2.240573E1,2.4801653E1,4.148902E0,7.3647523E0,4.00043E1,1.7656681E1,3.7001066E0,2.3932083E1,1.6546378E0,6.8831606E0,9.4808655E0,2.8458102E0,1.2137258E1,3.2149696E0,3.0177968E0,7.299317E1,4.7796875E1,3.7154663E1,3.0903742E0,3.066165E0,4.8148773E1,5.9325376E0,3.2947474E0,1.5577091E0,1.0607303E2,3.454845E0,1.5851375E0,4.426126E0,1.09354E0,3.0470073E0,2.0123186E1,2.032846E0,6.111863E0,4.110702E0,1.6222636E0,2.0743566E0,4.3518834E0,1.6485428E0,1.1301124E0,1.0830142E0,1.0299088E1,6.369965E0,1.2788455E1,1.6171619E0,1.2471362E0,1.1355735E0,2.377234E0,1.3112164E0,4.701484E0,4.3865337E1,2.1067975E0,2.0471632E0,1.8500591E1,2.839534E1,8.427861E0,4.32683E0,2.6284041E0,2.165471E0,1.2459912E0,4.3543415E0,3.0490814E1,4.475153E1,3.1269543E1,2.576777E1,3.9955764E0,3.979723E0,1.6808301E0,1.6413226E0,1.9681269E0,7.434797E0,1.2290063E0,3.74482E1,1.92692E1,1.4737387E0,2.5826013E0,1.9823128E1,2.2632156E1,2.1694956E0,2.9349637E0,1.2139384E0,4.8186936E0,2.5460587E0,3.8600525E1,1.4037727E0,1.415421E1,3.5024705E0,2.1765171E1,2.1669126E0,3.5144653E0,3.3686953E0,1.2836516E0,8.197214E0,1.713694E0,1.1321162E0,1.1077023E1,1.0602345E0,1.3155814E0,1.8993881E0,1.8877894E0,1.1300074E0,5.245429E0,6.774774E1,1.637218E1,3.1424692E1,2.3879611E0,3.47667E1,1.2024659E0,1.863699E0,6.4975452E0,4.165123E1,2.2049067E0,3.7276309E0,1.0109696E0,2.4438753E0],"tree_param":{"num_deleted":"0","num_feature":"9","num_nodes":"265","size_leaf_vector":"1"}},{"base_weights":[1.0561585E-2,-3.8245958E-1,6.848884E-1,3.05869E-1,-6.2255436E-1,4.2483202E-1,9.841759E-1,1.10444054E-1,5.5584437E-1,-8.126574E-1,-2.3747273E-1,-1.8628182E-1,5.834702E-1,5.187245E-1,1.0652845E0,-4.5951504E-1,2.4688329E-1,4.9313687E-2,7.3246604E-1,-7.319364E-1,-1.27922E0,1.0855452E-1,-4.1821122E-1,-7.5295895E-1,5.8397025E-1,6.188309E-1,-4.2936674E-1,-1.3166559E-1,1.0836238E0,1.080412E0,-3.1750422E-2,-5.290623E-2,-8.051798E-1,5.6485146E-1,-7.36575E-2,9.3349135E-1,-4.9756628E-1,9.7134554E-1,5.2104735E-1,-7.7835727E-1,-1.6742486E-1,-2.4337089E-1,-1.0553038E0,-8.764107E-1,2.6376602E-1,-6.089152E-1,7.868681E-3,-4.663875E-1,-2.2768109E-1,-9.0199865E-2,7.522483E-1,4.7733068E-1,9.132768E-1,5.268296E-2,-8.9899266E-1,3.9954033E-1,-8.02137E-1,1.1884489E-2,1.185853E0,1.1139084E0,4.74583E-1,-8.725438E-1,6.9114983E-1,-2.6240125E-1,-1.2972966E0,8.4747106E-1,3.0863132E-2,-8.413311E-1,1.5248452E-1,-5.570497E-2,1.8216273E-1,-1.0819987E0,2.3828845E-1,2.0569491E-1,1.083718E0,1.0438509E0,2.6447663E-1,-5.0174284E-1,-8.7120533E-1,4.6643808E-1,-9.6156526E-1,-1.6099015E-1,-1.1786404E0,-1.2324119E0,1.11002155E-1,6.494783E-2,7.7430016E-1,-3.9163288E-2,-7.4469024E-1,1.9175065E-1,-7.898069E-1,-6.210398E-1,1.3965794E-1,9.0961343E-1,-8.315751E-2,5.285713E-1,-7.162729E-1,1.0377606E0,-2.391796E-2,-8.821399E-3,-1.818288E-1,-1.1528372E-1,8.622496E-1,5.885426E-2,-2.175435E-1,1.8766321E-1,3.7500042E-2,1.1452231E0,8.1599545E-1,-1.2825146E-1,7.698579E-1,-1.5587253E-2,-2.0764154E-1,1.4914314E-1,1.9387586E-1,1.6937317E-1,-1.4679024E-1,-2.2661315E-1,-5.0605286E-2,3.5648726E-2,1.1543857E0,4.6581897E-1,-9.65484E-1,-1.2800629E0,4.0428194E-1,2.629821E-1,-1.5880212E-1,-2.1768916E-1,-2.1447568E-1,-7.503468E-2,6.903286E-1,1.4790124E-1,-1.6527173E-1,1.1879674E0,4.243028E-1,3.3269674E-2,1.1133577E0,-1.1981403E-1,8.9208704E-1,-1.3081219E0,-3.197202E-1,5.0039893E-1,-9.000236E-1,8.551469E-1,-1.7523584E-1,-1.2838139E-1,-1.347133E0,9.385488E-2,-6.714212E-1,-4.6414867E-1,-1.2558337E0,-5.3908866E-2,-2.2580594E-1,4.9491602E-1,-4.301325E-1,1.1765293E0,2.6856354E-1,-1.027466E0,4.7387102E-1,-9.482902E-1,-3.5575727E-1,4.7417948E-1,-4.4031003E-1,9.4525345E-2,-2.4319515E-1,-2.0615251E-1,-1.1067119E0,1.1304392E0,4.2369563E-2,8.821102E-1,4.0554494E-1,-1.0968691E0,4.7101807E-2,6.525298E-1,1.1844053E0,-4.0699783E-1,1.2545758E-1,3.548771E-1,1.5655416E-1,-1.0771299E-1,1.2032854E-1,1.1513172E0,3.0403847E-2,2.2009218E-1,1.0161843E0,-2.2790499E-2,1.0335017E0,-7.55389E-2,1.1777913E-1,-7.560098E-2,1.052691E-1,-1.3514465E-1,7.0559196E-2,1.7916735E-1,4.796232E-2,1.3787061E-1,-3.3193976E-2,-2.2148143E-1,-3.0913705E-2,-2.2320251E-1,-4.0099356E-2,1.1076916E-1,-1.6627626E-2,-1.2453696E-2,1.0105499E-1,-1.5867686E-1,1.1818963E-1,1.4494658E-1,7.850419E-4,4.99325E-2,1.8463746E-1,-1.0436251E-1,1.4699146E-1,1.8059114E-1,4.1595217E-2,-8.989069E-2,8.933109E-2,1.7697191E-1,-4.193637E-2,-3.9724402E-2,-2.401393E-1,3.480031E-2,-7.3293604E-2,1.7113288E-1,-7.781088E-2,-1.4271723E-1,-1.9010324E-2,1.6844039E-1,-8.273539E-2,-1.6906227E-1,1.1755848E-1,-2.3526023E-1,-2.7995938E-2,-1.707583E-1,1.48260575E-2,4.3228887E-2,-1.6576691E-1,-2.0897335E-1,-8.154222E-2,1.2751001E-1,-9.029427E-3,-1.01452E-1,7.225375E-2,5.1176853E-2,1.9036698E-1,1.2079636E-1,-8.420222E-2,5.4457765E-2,-2.1849987E-1,1.0597907E-1,-1.094195E-1,-1.5258232E-1,7.733644E-2,-1.6721772E-1,2.5811078E-2,1.0122966E-1,-1.05108984E-1,-1.5966317E-1,1.2957887E-1,1.4290948E-1,-1.058149E-1,9.7251594E-2,-1.222117E-1,-2.3327865E-1,-4.163479E-2,3.5678763E-2,1.7872402E-1,1.20161325E-1,-8.339101E-2,1.467494E-1,-1.1030505E-1,1.611937E-1,4.6018526E-2,-2.1778119E-1,-1.8756341E-2,1.3774543E-2,1.4573571E-1,1.8975559E-1,5.8736395E-2,-1.6600442E-1,4.2755492E-2,1.11097045E-1,-3.3889633E-2,3.433101E-2,1.7358057E-1,-1.22238174E-1,1.4540125E-1,3.7481323E-2,1.8098974E-1,3.0167757E-2,1.7221108E-1],"categories":[],"categories_nodes":[],"categories_segments":[],"categories_sizes":[],"default_left":[0,0,0,0,0,0,0,0,0,0,0,0,0,0,0,0,0,0,0,0,0,0,0,0,0,0,0,0,0,0,0,0,0,0,0,0,0,0,0,0,0,0,0,0,0,0,0,0,0,0,0,0,0,0,0,0,0,0,0,0,0,0,0,0,0,0,0,0,0,0,0,0,0,0,0,0,0,0,0,0,0,0,0,0,0,0,0,0,0,0,0,0,0,0,0,0,0,0,0,0,0,0,0,0,0,0,0,0,0,0,0,0,0,0,0,0,0,0,0,0,0,0,0,0,0,0,0,0,0,0,0,0,0,0,0,0,0,0,0,0,0,0,0,0,0,0,0,0,0,0,0,0,0,0,0,0,0,0,0,0,0,0,0,0,0,0,0,0,0,0,0,0,0,0,0,0,0,0,0,0,0,0,0,0,0,0,0,0,0,0,0,0,0,0,0,0,0,0,0,0,0,0,0,0,0,0,0,0,0,0,0,0,0,0,0,0,0,0,0,0,0,0,0,0,0,0,0,0,0,0,0,0,0,0,0,0,0,0,0,0,0,0,0,0,0,0,0,0,0,0,0,0,0,0,0,0,0,0,0,0,0,0,0,0,0,0,0,0,0,0,0,0,0,0,0,0,0,0,0,0,0,0,0,0,0,0,0,0,0,0,0],"id":3,"left_children":[1,3,5,7,9,11,13,15,17,19,21,23,25,27,29,31,33,35,37,39,41,43,45,47,49,51,53,55,57,59,-1,61,63,65,67,69,71,73,75,77,79,-1,81,83,85,87,89,91,-1,-1,93,95,97,-1,99,101,103,-1,105,107,109,111,113,115,117,119,121,123,125,-1,-1,127,129,131,133,135,137,139,141,143,145,147,149,151,-1,153,155,157,159,161,163,165,-1,167,-1,169,171,173,175,-1,-1,-1,177,179,-1,-1,-1,181,183,-1,185,-1,-1,-1,187,189,-1,-1,-1,191,193,195,197,199,201,203,-1,205,-1,-1,207,-1,-1,209,211,-1,213,215,217,219,221,223,225,227,-1,229,231,-1,233,235,237,-1,-1,239,241,243,245,247,249,251,253,255,257,259,-1,261,263,265,267,269,271,273,-1,275,277,279,-1,281,-1,-1,-1,283,-1,285,287,-1,289,-1,-1,-1,-1,-1,-1,-1,-1,-1,-1,-1,-1,-1,-1,-1,-1,-1,-1,-1,-1,-1,-1,-1,-1,-1,-1,-1,-1,-1,-1,-1,-1,-1,-1,-1,-1,-1,-1,-1,-1,-1,-1,-1,-1,-1,-1,-1,-1,-1,-1,-1,-1,-1,-1,-1,-1,-1,-1,-1,-1,-1,-1,-1,-1,-1,-1,-1,-1,-1,-1,-1,-1,-1,-1,-1,-1,-1,-1,-1,-1,-1,-1,-1,-1,-1,-1,-1,-1,-1,-1,-1,-1,-1,-1,-1,-1,-1,-1,-1,-1,-1,-1,-1,-1],"loss_changes":[2.7430212E2,1.08258446E2,2.924405E1,8.232367E0,3.5321487E1,2.0048328E1,6.1079407E0,7.620247E0,6.605976E0,1.128035E1,1.0161571E1,1.9272308E1,6.1225166E0,1.0478068E1,3.1127167E0,2.6270785E0,8.046305E0,1.0264317E1,2.2703705E0,7.1776123E0,1.8623123E0,8.837176E0,8.655277E0,4.836773E0,4.212443E0,6.1646843E0,2.5544958E0,5.2951674E0,1.4629745E0,2.468933E0,0E0,6.578526E0,2.3831253E0,5.94141E0,7.0715976E0,3.4175363E0,5.9234915E0,1.8983212E0,3.9252653E0,6.174011E0,1.1756339E1,0E0,3.2303543E0,5.4548903E0,4.9638634E0,5.661049E0,5.124415E0,4.866967E0,0E0,0E0,3.9899063E0,7.0511265E0,5.896229E0,0E0,1.0060153E0,5.2356076E0,3.716568E0,0E0,5.2305794E-1,3.644104E-1,4.380644E0,1.8638339E0,6.655412E-1,2.052754E0,5.341339E-1,6.3920135E0,6.83021E0,5.5749016E0,4.5263295E0,0E0,0E0,1.9504738E0,2.5657477E0,5.5650034E0,9.577713E-1,3.2282734E-1,5.497308E0,9.422859E0,8.014465E0,9.364878E0,3.1352615E0,2.3941884E0,9.1127014E-1,1.0901031E0,0E0,8.013417E0,2.4818945E0,8.199438E0,4.362034E0,5.2708783E0,4.9672375E0,3.4929457E0,0E0,2.9221287E0,0E0,4.2171307E0,2.2718372E0,1.738121E0,2.6072757E0,0E0,0E0,0E0,2.3089886E-1,2.7450168E0,0E0,0E0,0E0,4.7605896E-1,1.7711315E0,0E0,2.1704273E0,0E0,0E0,0E0,1.7971082E0,2.024227E0,0E0,0E0,0E0,3.7282124E0,2.435131E-1,3.6058314E0,1.5583944E0,1.0940752E0,6.276513E-1,4.3033876E0,0E0,3.6540592E0,0E0,0E0,8.5446477E-1,0E0,0E0,2.441864E-1,3.4565501E0,0E0,3.4361458E-1,5.4136667E0,3.2311444E0,3.249092E0,5.3340416E0,3.5817993E0,7.346817E0,4.8437586E0,0E0,4.8578706E0,1.487977E0,0E0,1.3584617E0,2.3572114E0,1.5765266E0,0E0,0E0,4.0093355E0,4.269821E0,1.3663006E-1,3.7434163E0,3.8193893E0,3.5103133E0,4.394211E0,9.002718E0,5.207679E0,8.469896E0,3.4988732E0,0E0,6.3465495E0,2.646865E0,3.8809395E-1,2.3457346E0,4.812889E0,4.948391E0,1.1335869E0,0E0,2.5013833E0,1.4842529E0,2.9456358E0,0E0,8.923131E-1,0E0,0E0,0E0,4.0034485E-1,0E0,5.040656E0,1.4845581E0,0E0,3.957019E-1,0E0,0E0,0E0,0E0,0E0,0E0,0E0,0E0,0E0,0E0,0E0,0E0,0E0,0E0,0E0,0E0,0E0,0E0,0E0,0E0,0E0,0E0,0E0,0E0,0E0,0E0,0E0,0E0,0E0,0E0,0E0,0E0,0E0,0E0,0E0,0E0,0E0,0E0,0E0,0E0,0E0,0E0,0E0,0E0,0E0,0E0,0E0,0E0,0E0,0E0,0E0,0E0,0E0,0E0,0E0,0E0,0E0,0E0,0E0,0E0,0E0,0E0,0E0,0E0,0E0,0E0,0E0,0E0,0E0,0E0,0E0,0E0,0E0,0E0,0E0,0E0,0E0,0E0,0E0,0E0,0E0,0E0,0E0,0E0,0E0,0E0,0E0,0E0,0E0,0E0,0E0,0E0,0E0,0E0,0E0,0E0,0E0,0E0,0E0,0E0,0E0,0E0,0E0,0E0],"parents":[2147483647,0,0,1,1,2,2,3,3,4,4,5,5,6,6,7,7,8,8,9,9,10,10,11,11,12,12,13,13,14,14,15,15,16,16,17,17,18,18,19,19,20,20,21,21,22,22,23,23,24,24,25,25,26,26,27,27,28,28,29,29,31,31,32,32,33,33,34,34,35,35,36,36,37,37,38,38,39,39,40,40,42,42,43,43,44,44,45,45,46,46,47,47,50,50,51,51,52,52,54,54,55,55,56,56,58,58,59,59,60,60,61,61,62,62,63,63,64,64,65,65,66,66,67,67,68,68,71,71,72,72,73,73,74,74,75,75,76,76,77,77,78,78,79,79,80,80,81,81,82,82,83,83,85,85,86,86,87,87,88,88,89,89,90,90,91,91,93,93,95,95,96,96,97,97,98,98,102,102,103,103,107,107,108,108,110,110,114,114,115,115,119,119,120,120,121,121,122,122,123,123,124,124,125,125,127,127,130,130,133,133,134,134,136,136,137,137,138,138,139,139,140,140,141,141,142,142,143,143,145,145,146,146,148,148,149,149,150,150,153,153,154,154,155,155,156,156,157,157,158,158,159,159,160,160,161,161,162,162,163,163,165,165,166,166,167,167,168,168,169,169,170,170,171,171,173,173,174,174,175,175,177,177,181,181,183,183,184,184,186,186],"right_children":[2,4,6,8,10,12,14,16,18,20,22,24,26,28,30,32,34,36,38,40,42,44,46,48,50,52,54,56,58,60,-1,62,64,66,68,70,72,74,76,78,80,-1,82,84,86,88,90,92,-1,-1,94,96,98,-1,100,102,104,-1,106,108,110,112,114,116,118,120,122,124,126,-1,-1,128,130,132,134,136,138,140,142,144,146,148,150,152,-1,154,156,158,160,162,164,166,-1,168,-1,170,172,174,176,-1,-1,-1,178,180,-1,-1,-1,182,184,-1,186,-1,-1,-1,188,190,-1,-1,-1,192,194,196,198,200,202,204,-1,206,-1,-1,208,-1,-1,210,212,-1,214,216,218,220,222,224,226,228,-1,230,232,-1,234,236,238,-1,-1,240,242,244,246,248,250,252,254,256,258,260,-1,262,264,266,268,270,272,274,-1,276,278,280,-1,282,-1,-1,-1,284,-1,286,288,-1,290,-1,-1,-1,-1,-1,-1,-1,-1,-1,-1,-1,-1,-1,-1,-1,-1,-1,-1,-1,-1,-1,-1,-1,-1,-1,-1,-1,-1,-1,-1,-1,-1,-1,-1,-1,-1,-1,-1,-1,-1,-1,-1,-1,-1,-1,-1,-1,-1,-1,-1,-1,-1,-1,-1,-1,-1,-1,-1,-1,-1,-1,-1,-1,-1,-1,-1,-1,-1,-1,-1,-1,-1,-1,-1,-1,-1,-1,-1,-1,-1,-1,-1,-1,-1,-1,-1,-1,-1,-1,-1,-1,-1,-1,-1,-1,-1,-1,-1,-1,-1,-1,-1,-1,-1],"split_conditions":[1.065E1,2.4E-1,1.155E1,4.9E-1,9.9E0,1.4E1,1.2E1,6.15E0,2.5E1,6.1E-1,3E-1,5.9E-1,6.75E-1,5.8E-2,1.01E-1,5.9E0,3.3E-1,6.9E0,4E1,6.9E-1,5.4E-1,1.4E1,6.3E-1,5.95E-1,2.35E-1,5.6E-1,1.55E1,2.9E0,6.8E0,5.4E-1,-3.1750422E-2,2.7E1,2E-1,3.21E0,3.01E0,2.4E-1,3.18E0,1.3E0,4.5E-2,2.75E-1,9.1E-2,-2.4337089E-1,9.2E0,9.2E0,3.32E0,4E-2,3.45E0,8.1E-2,-2.2768109E-1,-9.0199865E-2,3.51E0,4.55E-1,8.5E-2,5.268296E-2,2.1E0,1.6E-1,3.14E0,1.1884489E-2,6.7E-1,3.39E0,3.9E-1,2.1E1,2.05E-1,5.4E1,5.5E1,5.2E0,9.1E0,5.6E-2,1.78E1,-5.570497E-2,1.8216273E-1,1.1E1,7.15E0,1.2E0,5.4E-2,1.2E0,7.3E0,2.5E-1,3.3E-2,5E1,1.85E0,8E0,5.5E-1,3.09E0,1.11002155E-1,3.18E0,2.8E0,3.12E0,7.7E-2,3.4E0,7.9E-2,3.5E-1,1.3965794E-1,9.4E-2,-8.315751E-2,6.4E0,2.5E0,2.4E1,1.12E1,-8.821399E-3,-1.818288E-1,-1.1528372E-1,3.7E-2,4.8E0,-2.175435E-1,1.8766321E-1,3.7500042E-2,7.9E-2,2.85E-1,-1.2825146E-1,1.55E1,-1.5587253E-2,-2.0764154E-1,1.4914314E-1,6.3E0,4.4E-2,-1.4679024E-1,-2.2661315E-1,-5.0605286E-2,2.2E1,6.9E1,7E0,2.9E-1,1.0033334E1,5.9E-2,4E-1,-1.5880212E-1,4E-2,-2.1447568E-1,-7.503468E-2,9.2E0,1.4790124E-1,-1.6527173E-1,3.3E-2,3.09E0,3.3269674E-2,7.7E0,1.0033334E1,1.55E1,4.2E-2,3.08E0,3.25E-1,3.42E0,5.2E-1,-1.7523584E-1,2.9E-1,5.4E-1,9.385488E-2,1.4E1,3.35E0,3.47E0,-5.3908866E-2,-2.2580594E-1,7.5E0,7.3E0,4E-2,3.41E0,6.9E0,4.85E1,5.9E1,5.4E-1,1.11E-1,6.2E0,6.05E-1,-2.4319515E-1,1.12E1,1.1066667E1,3.09E0,3.65E-1,6.15E1,1.65E-1,1.105E1,4.7101807E-2,6.4E-1,7.8E0,4.55E-1,1.2545758E-1,2.8E-2,1.5655416E-1,-1.0771299E-1,1.2032854E-1,1.6E-2,3.0403847E-2,4.8E-1,1.8E1,-2.2790499E-2,3.3E-2,-7.55389E-2,1.1777913E-1,-7.560098E-2,1.052691E-1,-1.3514465E-1,7.0559196E-2,1.7916735E-1,4.796232E-2,1.3787061E-1,-3.3193976E-2,-2.2148143E-1,-3.0913705E-2,-2.2320251E-1,-4.0099356E-2,1.1076916E-1,-1.6627626E-2,-1.2453696E-2,1.0105499E-1,-1.5867686E-1,1.1818963E-1,1.4494658E-1,7.850419E-4,4.99325E-2,1.8463746E-1,-1.0436251E-1,1.4699146E-1,1.8059114E-1,4.1595217E-2,-8.989069E-2,8.933109E-2,1.7697191E-1,-4.193637E-2,-3.9724402E-2,-2.401393E-1,3.480031E-2,-7.3293604E-2,1.7113288E-1,-7.781088E-2,-1.4271723E-1,-1.9010324E-2,1.6844039E-1,-8.273539E-2,-1.6906227E-1,1.1755848E-1,-2.3526023E-1,-2.7995938E-2,-1.707583E-1,1.48260575E-2,4.3228887E-2,-1.6576691E-1,-2.0897335E-1,-8.154222E-2,1.2751001E-1,-9.029427E-3,-1.01452E-1,7.225375E-2,5.1176853E-2,1.9036698E-1,1.2079636E-1,-8.420222E-2,5.4457765E-2,-2.1849987E-1,1.0597907E-1,-1.094195E-1,-1.5258232E-1,7.733644E-2,-1.6721772E-1,2.5811078E-2,1.0122966E-1,-1.05108984E-1,-1.5966317E-1,1.2957887E-1,1.4290948E-1,-1.058149E-1,9.7251594E-2,-1.222117E-1,-2.3327865E-1,-4.163479E-2,3.5678763E-2,1.7872402E-1,1.20161325E-1,-8.339101E-2,1.467494E-1,-1.1030505E-1,1.611937E-1,4.6018526E-2,-2.1778119E-1,-1.8756341E-2,1.3774543E-2,1.4573571E-1,1.8975559E-1,5.8736395E-2,-1.6600442E-1,4.2755492E-2,1.11097045E-1,-3.3889633E-2,3.433101E-2,1.7358057E-1,-1.22238174E-1,1.4540125E-1,3.7481323E-2,1.8098974E-1,3.0167757E-2,1.7221108E-1],"split_indices":[8,1,8,7,8,5,5,0,5,1,1,7,1,4,4,0,2,0,5,7,7,5,7,1,1,7,5,3,0,1,0,5,1,6,6,2,6,3,4,1,4,0,8,0,6,4,6,4,0,0,6,1,4,0,3,2,6,0,2,6,7,5,1,5,5,3,3,4,3,0,0,5,0,3,4,3,0,2,4,5,3,5,7,6,0,6,3,6,4,3,4,2,0,4,0,0,3,5,8,0,0,0,4,3,0,0,0,4,1,0,5,0,0,0,3,4,0,0,0,5,5,0,2,8,4,2,0,4,0,0,0,0,0,4,6,0,0,8,3,4,6,1,6,2,0,2,1,0,5,6,6,0,0,0,0,4,6,0,5,5,7,4,3,1,0,8,8,6,1,5,1,8,0,7,0,1,0,4,0,0,0,4,0,7,5,0,4,0,0,0,0,0,0,0,0,0,0,0,0,0,0,0,0,0,0,0,0,0,0,0,0,0,0,0,0,0,0,0,0,0,0,0,0,0,0,0,0,0,0,0,0,0,0,0,0,0,0,0,0,0,0,0,0,0,0,0,0,0,0,0,0,0,0,0,0,0,0,0,0,0,0,0,0,0,0,0,0,0,0,0,0,0,0,0,0,0,0,0,0,0,0,0,0,0,0,0,0,0,0,0,0],"split_type":[0,0,0,0,0,0,0,0,0,0,0,0,0,0,0,0,0,0,0,0,0,0,0,0,0,0,0,0,0,0,0,0,0,0,0,0,0,0,0,0,0,0,0,0,0,0,0,0,0,0,0,0,0,0,0,0,0,0,0,0,0,0,0,0,0,0,0,0,0,0,0,0,0,0,0,0,0,0,0,0,0,0,0,0,0,0,0,0,0,0,0,0,0,0,0,0,0,0,0,0,0,0,0,0,0,0,0,0,0,0,0,0,0,0,0,0,0,0,0,0,0,0,0,0,0,0,0,0,0,0,0,0,0,0,0,0,0,0,0,0,0,0,0,0,0,0,0,0,0,0,0,0,0,0,0,0,0,0,0,0,0,0,0,0,0,0,0,0,0,0,0,0,0,0,0,0,0,0,0,0,0,0,0,0,0,0,0,0,0,0,0,0,0,0,0,0,0,0,0,0,0,0,0,0,0,0,0,0,0,0,0,0,0,0,0,0,0,0,0,0,0,0,0,0,0,0,0,0,0,0,0,0,0,0,0,0,0,0,0,0,0,0,0,0,0,0,0,0,0,0,0,0,0,0,0,0,0,0,0,0,0,0,0,0,0,0,0,0,0,0,0,0,0,0,0,0,0,0,0,0,0,0,0,0,0,0,0,0,0,0,0],"sum_hessian":[1.0330176E3,6.529111E2,3.8010648E2,1.6877512E2,4.8413596E2,2.046777E2,1.7542876E2,9.553213E1,7.324299E1,3.2338187E2,1.6075409E2,4.2146122E1,1.6253159E2,2.7130795E1,1.4829797E2,1.7994457E1,7.7537674E1,1.9266912E1,5.3976078E1,2.778749E2,4.5506943E1,5.529334E1,1.05460754E2,2.4294802E1,1.7851318E1,1.5742451E2,5.10707E0,1.296761E1,1.4163183E1,1.4671382E2,1.5841414E0,8.798157E0,9.1963005E0,3.854241E1,3.899526E1,7.09271E0,1.2174203E1,2.3654602E1,3.0321478E1,2.5641095E2,2.1463974E1,1.5500123E1,3.000682E1,6.894512E0,4.8398827E1,7.255681E1,3.2903946E1,1.8844522E1,5.4502788E0,1.8993552E0,1.5951964E1,1.0809772E2,4.93268E1,2.0131128E0,3.0939572E0,7.460691E0,5.5069194E0,1.472363E0,1.2690821E1,1.3823228E2,8.481538E0,4.1042786E0,4.6938787E0,5.102132E0,4.094169E0,2.4819395E1,1.3723017E1,8.254325E0,3.0740934E1,1.199465E0,5.893245E0,6.523051E0,5.6511517E0,3.389653E0,2.0264948E1,8.971716E0,2.1349762E1,6.60469E1,1.9036404E2,1.2166016E1,9.297958E0,3.916144E0,2.6090675E1,5.84482E0,1.0496924E0,3.5644817E1,1.2754006E1,1.4211137E1,5.834567E1,2.7357132E1,5.5468144E0,1.7467062E1,1.3774617E0,1.4508474E1,1.44349E0,1.04182396E2,3.9153187E0,4.3448418E1,5.8783817E0,1.1626965E0,1.9312607E0,1.9292785E0,5.5314126E0,2.7556179E0,2.7513018E0,1.1548942E1,1.1418788E0,1.2251058E2,1.5721705E1,1.1968055E0,7.2847323E0,2.1212308E0,1.9830476E0,2.2952313E0,2.398647E0,3.6594667E0,1.442665E0,2.8799412E0,1.2142279E0,7.115166E0,1.770423E1,9.923418E0,3.7995996E0,6.083817E0,2.1705084E0,2.8888256E1,1.8526781E0,2.33841E0,4.184641E0,2.1051917E0,3.54596E0,2.2767727E0,1.1128801E0,1.6806412E1,3.4585366E0,1.0261796E0,7.945536E0,1.3743566E1,7.606196E0,1.1023788E1,5.5023106E1,3.5806227E0,1.8678343E2,1.0214086E1,1.9519299E0,3.3632305E0,5.9347277E0,1.4521809E0,2.463963E0,3.2277603E0,2.2862915E1,1.9439788E0,3.900841E0,1.9077068E1,1.656775E1,6.365192E0,6.388815E0,4.513556E0,9.69758E0,3.735353E1,2.0992138E1,1.9080862E1,8.27627E0,3.1175137E0,2.4293008E0,1.018821E1,7.278851E0,1.1322061E1,3.1864133E0,2.5302092E1,7.88803E1,2.8119376E0,1.103381E0,1.348183E1,2.9966589E1,4.4318542E0,1.4465275E0,2.2356691E0,3.2957435E0,1.3639616E0,1.3916562E0,1.2150347E2,1.0071125E0,4.481381E0,1.1240324E1,1.7143714E0,5.5703607E0,1.1686103E0,1.2300369E0,1.6394012E0,2.0200658E0,1.9156699E0,5.1994963E0,1.6481981E1,1.2222492E0,5.775429E0,4.147989E0,1.7066673E0,2.0929322E0,4.6580334E0,1.4257834E0,1.0535256E0,1.1169828E0,1.6112354E1,1.2775901E1,1.2457228E0,1.092687E0,2.235101E0,1.310859E0,1.2222813E0,1.5584131E1,1.0631973E0,2.3953393E0,6.7718153E0,1.1737211E0,8.325668E0,5.4178977E0,6.101012E0,1.5051833E0,2.8332293E0,8.190559E0,1.2809019E1,4.221409E1,2.1254208E0,1.4552017E0,1.7492061E2,1.1862819E1,8.750107E0,1.4639788E0,1.4928999E0,1.8703305E0,4.689162E0,1.245566E0,1.2364476E0,1.2275155E0,1.738061E0,1.4896992E0,1.8365763E1,4.4971533E0,1.1309874E1,7.7671943E0,1.3248571E1,3.3191793E0,1.1025325E0,5.262659E0,3.8976524E0,2.4911625E0,1.1009209E0,3.4126353E0,8.472367E0,1.2252129E0,3.5965252E1,1.388281E0,8.154238E0,1.2837901E1,1.6660667E1,2.4201953E0,5.721888E0,2.5543816E0,1.4118688E0,1.7056448E0,4.210758E0,5.9774513E0,4.155513E0,3.1233385E0,1.0383141E0,1.0283747E1,1.2554727E0,1.9309406E0,2.4254416E1,1.047676E0,8.874223E0,7.000608E1,1.6977797E0,1.114158E0,5.3562765E0,8.125553E0,2.6659662E1,3.3069267E0,1.9057784E0,2.5260758E0,1.1780277E0,1.0576413E0,1.0233458E0,1.20480125E2,1.8450203E0,2.6363606E0,2.6973374E0,8.542987E0,1.0073317E0,4.5630293E0],"tree_param":{"num_deleted":"0","num_feature":"9","num_nodes":"291","size_leaf_vector":"1"}},{"base_weights":[1.0238647E-2,-3.3224377E-1,6.22E-1,2.7176088E-1,-5.3772205E-1,3.773373E-1,9.1553766E-1,9.150637E-2,5.073485E-1,-7.0158726E-1,-2.0533068E-1,-1.6747488E-1,5.2098674E-1,4.733125E-1,9.952064E-1,-1.0981561E0,1.4603254E-1,4.3026965E-2,6.713084E-1,-6.285531E-1,-1.1323824E0,-9.50273E-2,-6.82937E-1,-6.59555E-1,5.280289E-1,6.918118E-1,2.999682E-1,-1.16994075E-1,1.015466E0,1.0413816E0,4.6109042E-1,-2.0708767E-1,-1.8682634E-2,-2.1453579E-1,3.2391092E-1,8.630797E-1,-4.439536E-1,9.0039164E-1,4.746925E-1,-6.663404E-1,-1.6170456E-1,-2.1837614E-1,-9.274729E-1,-6.0532796E-1,-4.3703164E-3,-1.3504668E0,-2.1742389E-1,-2.2135569E-1,-1.0448403E0,-8.050956E-2,6.888773E-1,8.349093E-1,3.3363864E-1,7.3220804E-2,6.848518E-1,-9.19212E-1,2.525882E-1,1.1201603E0,9.286582E-3,1.0567802E0,2.4291831E-1,-5.3651565E-1,7.0883435E-1,1.570958E-1,-6.2223697E-1,7.281098E-1,4.2261727E-2,-5.0968636E-2,1.7125618E-1,-9.691666E-1,2.1855696E-1,1.7793317E-1,1.0120593E0,9.771521E-1,2.3830667E-1,-4.812956E-1,-8.006211E-1,4.0062523E-1,-8.5520285E-1,-1.5021546E-1,-1.0351422E0,-7.894114E-1,2.7952814E-2,3.3902824E-1,-1.7507152E-1,-2.2180147E-1,-3.8330086E-2,8.6117305E-2,-1.0629978E0,5.725024E-1,-5.594163E-1,-1.2558172E0,-3.8690048E-1,8.416477E-1,-7.541982E-2,-7.7200085E-2,8.7998134E-1,4.487641E-2,1.0546554E0,-3.4217757E-1,3.8513696E-1,8.881999E-1,-2.545524E-2,-5.044651E-2,-1.6897483E-1,7.9418415E-1,-4.3547854E-1,3.348786E-2,1.7807333E-1,8.609861E-1,1.712964E-1,-9.630634E-2,1.2921746E-1,-1.633581E-2,-1.0656096E-1,9.416968E-1,-5.345835E-2,-3.5918733E-1,8.430097E-1,9.100452E-2,-8.3141476E-1,8.314855E-1,-5.992339E-2,-2.5274384E-1,4.918703E-1,-2.0050088E-1,-1.9066238E-1,-6.661787E-2,6.4147353E-1,1.390639E-1,-1.4799988E-1,1.1163464E0,3.8372913E-1,1.6993418E-1,4.1707516E-1,-1.0010079E-1,8.260368E-1,-1.0853983E0,-3.490955E-1,-2.9952448E-2,-8.474965E-1,7.578751E-1,-1.5653272E-1,-1.22778356E-1,-1.1862015E0,8.641331E-2,-6.1700124E-1,-4.2657694E-1,-1.100066E0,-1.950737E-1,-1.1124253E0,1.3504045E-1,-4.1123492E-1,-5.872476E-1,4.669425E-1,-3.0806956E-1,5.0192803E-1,-5.361538E-1,4.6922082E-1,-6.0248408E-3,-2.0174801E-1,-4.9551573E-2,1.5343045E-1,-8.256736E-1,8.8315375E-2,-2.0285363E-1,-4.5134656E-2,-8.174707E-1,7.1682654E-2,1.0554193E0,4.6336416E-2,9.358836E-1,-1.2062338E-2,7.243783E-1,-4.1149512E-1,1.730224E-1,4.130071E-2,1.623011E-1,-8.224579E-1,-1.9331765E-1,5.5384153E-1,1.0070255E0,1.2192803E-1,-3.9171293E-1,1.2070974E-1,4.100431E-2,1.4775915E-1,4.683661E-2,-1.522576E-1,-2.465799E-2,9.08929E-1,4.2679153E-2,1.011564E0,1.1263849E-1,-1.0887594E-1,-1.8194556E-1,3.0326052E-3,-2.574803E-2,1.5594172E-1,-1.7080432E-1,-1.9829106E-2,1.3627246E-1,5.8622514E-3,-9.4123125E-2,6.5649554E-2,1.14582635E-1,-5.141853E-2,-1.4669362E-1,1.1153907E-1,1.3647862E-1,7.1835704E-4,4.6388708E-2,1.739185E-1,-9.436094E-2,1.3848576E-1,1.18136264E-1,-3.0525642E-2,-9.451837E-2,7.213523E-2,1.6706541E-1,-3.782482E-2,-1.1386926E-1,-2.1386011E-1,-1.9255306E-1,-3.4649394E-2,-1.1888232E-1,1.05796166E-1,6.864041E-2,-1.3151671E-1,1.5116543E-1,-7.497129E-2,1.3615042E-1,-1.3430095E-1,-2.0680067E-1,-2.568342E-2,-1.5694909E-1,1.3614247E-2,3.9028987E-2,-1.5288202E-1,-1.8333471E-1,-7.164512E-2,3.7357874E-2,-1.8044336E-1,-4.741894E-2,-1.8245631E-1,5.877171E-2,-1.2481051E-1,4.0627927E-2,-2.129795E-1,1.2461421E-1,2.3955882E-3,-1.283736E-1,-2.944437E-2,4.606258E-3,1.3556103E-1,-1.6475913E-1,9.5135935E-2,1.6477041E-1,-2.275484E-2,1.867459E-2,-1.685753E-1,-3.163816E-2,-1.5843995E-1,3.321737E-2,1.6736913E-1,-7.156486E-2,1.17746264E-1,1.4438485E-1,-2.781354E-2,8.156626E-2,-9.231876E-2,-2.7790705E-2,1.494677E-1,2.0394454E-2,-1.6918336E-1,-1.0705726E-1,7.6611295E-2,-2.0603903E-1,5.2730072E-2,-1.28057E-1,1.0880033E-1,3.8346656E-2,1.7116682E-1,9.287993E-2,-8.597257E-2,7.004948E-2,-1.1981831E-1,3.0634713E-3,1.4177728E-1,1.6532946E-1,4.088348E-2],"categories":[],"categories_nodes":[],"categories_segments":[],"categories_sizes":[],"default_left":[0,0,0,0,0,0,0,0,0,0,0,0,0,0,0,0,0,0,0,0,0,0,0,0,0,0,0,0,0,0,0,0,0,0,0,0,0,0,0,0,0,0,0,0,0,0,0,0,0,0,0,0,0,0,0,0,0,0,0,0,0,0,0,0,0,0,0,0,0,0,0,0,0,0,0,0,0,0,0,0,0,0,0,0,0,0,0,0,0,0,0,0,0,0,0,0,0,0,0,0,0,0,0,0,0,0,0,0,0,0,0,0,0,0,0,0,0,0,0,0,0,0,0,0,0,0,0,0,0,0,0,0,0,0,0,0,0,0,0,0,0,0,0,0,0,0,0,0,0,0,0,0,0,0,0,0,0,0,0,0,0,0,0,0,0,0,0,0,0,0,0,0,0,0,0,0,0,0,0,0,0,0,0,0,0,0,0,0,0,0,0,0,0,0,0,0,0,0,0,0,0,0,0,0,0,0,0,0,0,0,0,0,0,0,0,0,0,0,0,0,0,0,0,0,0,0,0,0,0,0,0,0,0,0,0,0,0,0,0,0,0,0,0,0,0,0,0,0,0,0,0,0,0,0,0,0,0,0,0,0,0,0,0,0,0,0,0,0,0,0,0,0,0,0,0,0,0,0,0,0,0,0,0,0,0,0,0,0,0,0,0],"id":4,"left_children":[1,3,5,7,9,11,13,15,17,19,21,23,25,27,29,31,33,35,37,39,41,43,45,47,49,51,53,55,57,59,61,-1,-1,63,65,67,69,71,73,75,77,-1,79,81,83,85,87,89,91,-1,93,95,97,99,101,103,105,107,-1,109,111,113,115,117,119,121,123,-1,-1,125,127,129,131,133,135,137,139,141,143,145,147,149,151,153,155,-1,-1,157,159,161,163,165,167,169,-1,-1,171,173,175,177,179,181,183,-1,-1,185,187,-1,-1,189,-1,-1,-1,-1,-1,191,193,195,197,-1,199,201,-1,203,205,207,-1,-1,209,-1,-1,211,213,-1,215,217,219,221,223,225,227,229,-1,231,233,-1,235,237,239,241,243,-1,245,247,249,251,253,255,257,-1,-1,-1,-1,259,-1,-1,-1,261,-1,263,265,267,269,271,273,-1,-1,275,277,-1,279,281,283,285,-1,-1,-1,-1,-1,-1,287,-1,289,-1,-1,-1,-1,-1,-1,-1,-1,-1,-1,-1,-1,-1,-1,-1,-1,-1,-1,-1,-1,-1,-1,-1,-1,-1,-1,-1,-1,-1,-1,-1,-1,-1,-1,-1,-1,-1,-1,-1,-1,-1,-1,-1,-1,-1,-1,-1,-1,-1,-1,-1,-1,-1,-1,-1,-1,-1,-1,-1,-1,-1,-1,-1,-1,-1,-1,-1,-1,-1,-1,-1,-1,-1,-1,-1,-1,-1,-1,-1,-1,-1,-1,-1,-1,-1,-1,-1,-1,-1,-1,-1,-1,-1,-1,-1,-1,-1,-1],"loss_changes":[2.1048964E2,8.0083984E1,2.5549423E1,6.924719E0,2.605095E1,1.5610891E1,5.279068E0,6.2722974E0,5.371624E0,9.410202E0,8.37565E0,1.477179E1,5.728054E0,8.702606E0,2.9082336E0,9.95749E-1,5.904372E0,8.202768E0,1.9308243E0,4.784523E0,1.6580048E0,6.07251E0,8.997132E0,4.010803E0,3.455577E0,4.2270966E0,6.085199E0,4.3050365E0,1.3367043E0,1.2883148E0,3.5257597E0,0E0,0E0,4.742512E0,6.9499593E0,2.9469018E0,4.7163754E0,1.6808453E0,3.3648348E0,5.981659E0,8.9558525E0,0E0,2.40036E0,2.3306146E0,6.654929E0,1.3196259E0,4.918538E0,3.8157077E0,1.3327465E0,0E0,3.3526263E0,4.233242E0,5.524353E0,6.008913E0,3.7698088E0,1.7069626E-1,4.142791E0,4.940195E-1,0E0,1.0682678E0,2.5652602E0,1.53216E-1,1.9365335E0,6.2647176E0,4.314113E0,3.2602768E0,5.058368E0,0E0,0E0,1.4636607E0,2.1179295E0,4.667541E0,8.667908E-1,3.4468937E-1,4.4427443E0,8.42663E0,5.2843018E0,7.434931E0,2.3293157E0,2.0118206E0,5.838871E-1,2.7350883E0,2.4488745E0,4.741116E0,6.981101E0,0E0,0E0,3.771173E0,1.4004354E0,2.1205556E0,3.4333355E0,4.6657276E-1,2.113289E0,2.439557E0,0E0,0E0,3.0286865E0,6.547518E0,2.683735E-1,4.974985E0,8.162525E0,1.7161951E0,2.3664765E0,0E0,0E0,3.327086E-1,2.541587E0,0E0,0E0,2.1822968E0,0E0,0E0,0E0,0E0,0E0,8.836794E-2,2.401626E0,3.3631911E0,1.680336E0,0E0,2.6611338E0,1.3882179E0,0E0,6.2569494E0,3.6850135E0,3.1314669E0,0E0,0E0,7.477783E-1,0E0,0E0,2.1302223E-1,2.9507904E0,0E0,9.9282646E-1,4.861674E0,2.7993932E0,1.0632706E0,9.850939E0,5.865506E0,5.6946335E0,3.9304385E0,0E0,4.2303014E0,1.1149654E0,0E0,1.1454246E0,1.9757979E0,1.1995144E0,3.2661026E0,4.2252827E-1,0E0,1.7775888E0,3.9694023E0,5.5131817E0,3.7495995E0,2.4013212E0,4.705787E0,3.9453163E0,0E0,0E0,0E0,0E0,2.4748988E0,0E0,0E0,0E0,2.780018E-1,0E0,3.3144093E-1,1.9777365E0,1.8824387E0,1.862569E0,2.2781916E0,5.13166E0,0E0,0E0,3.5941913E0,7.212866E0,0E0,6.5721273E0,1.4560585E0,1.6853472E0,2.24444E0,0E0,0E0,0E0,0E0,0E0,0E0,1.2581482E0,0E0,1.6940355E-1,0E0,0E0,0E0,0E0,0E0,0E0,0E0,0E0,0E0,0E0,0E0,0E0,0E0,0E0,0E0,0E0,0E0,0E0,0E0,0E0,0E0,0E0,0E0,0E0,0E0,0E0,0E0,0E0,0E0,0E0,0E0,0E0,0E0,0E0,0E0,0E0,0E0,0E0,0E0,0E0,0E0,0E0,0E0,0E0,0E0,0E0,0E0,0E0,0E0,0E0,0E0,0E0,0E0,0E0,0E0,0E0,0E0,0E0,0E0,0E0,0E0,0E0,0E0,0E0,0E0,0E0,0E0,0E0,0E0,0E0,0E0,0E0,0E0,0E0,0E0,0E0,0E0,0E0,0E0,0E0,0E0,0E0,0E0,0E0,0E0,0E0,0E0,0E0,0E0,0E0,0E0,0E0,0E0,0E0,0E0,0E0,0E0,0E0],"parents":[2147483647,0,0,1,1,2,2,3,3,4,4,5,5,6,6,7,7,8,8,9,9,10,10,11,11,12,12,13,13,14,14,15,15,16,16,17,17,18,18,19,19,20,20,21,21,22,22,23,23,24,24,25,25,26,26,27,27,28,28,29,29,30,30,33,33,34,34,35,35,36,36,37,37,38,38,39,39,40,40,42,42,43,43,44,44,45,45,46,46,47,47,48,48,50,50,51,51,52,52,53,53,54,54,55,55,56,56,57,57,59,59,60,60,61,61,62,62,63,63,64,64,65,65,66,66,69,69,70,70,71,71,72,72,73,73,74,74,75,75,76,76,77,77,78,78,79,79,80,80,81,81,82,82,83,83,84,84,87,87,88,88,89,89,90,90,91,91,92,92,93,93,96,96,97,97,98,98,99,99,100,100,101,101,102,102,105,105,106,106,109,109,115,115,116,116,117,117,118,118,120,120,121,121,123,123,124,124,125,125,128,128,131,131,132,132,134,134,135,135,136,136,137,137,138,138,139,139,140,140,141,141,143,143,144,144,146,146,147,147,148,148,149,149,150,150,152,152,153,153,154,154,155,155,156,156,157,157,158,158,163,163,167,167,169,169,170,170,171,171,172,172,173,173,174,174,177,177,178,178,180,180,181,181,182,182,183,183,190,190,192,192],"right_children":[2,4,6,8,10,12,14,16,18,20,22,24,26,28,30,32,34,36,38,40,42,44,46,48,50,52,54,56,58,60,62,-1,-1,64,66,68,70,72,74,76,78,-1,80,82,84,86,88,90,92,-1,94,96,98,100,102,104,106,108,-1,110,112,114,116,118,120,122,124,-1,-1,126,128,130,132,134,136,138,140,142,144,146,148,150,152,154,156,-1,-1,158,160,162,164,166,168,170,-1,-1,172,174,176,178,180,182,184,-1,-1,186,188,-1,-1,190,-1,-1,-1,-1,-1,192,194,196,198,-1,200,202,-1,204,206,208,-1,-1,210,-1,-1,212,214,-1,216,218,220,222,224,226,228,230,-1,232,234,-1,236,238,240,242,244,-1,246,248,250,252,254,256,258,-1,-1,-1,-1,260,-1,-1,-1,262,-1,264,266,268,270,272,274,-1,-1,276,278,-1,280,282,284,286,-1,-1,-1,-1,-1,-1,288,-1,290,-1,-1,-1,-1,-1,-1,-1,-1,-1,-1,-1,-1,-1,-1,-1,-1,-1,-1,-1,-1,-1,-1,-1,-1,-1,-1,-1,-1,-1,-1,-1,-1,-1,-1,-1,-1,-1,-1,-1,-1,-1,-1,-1,-1,-1,-1,-1,-1,-1,-1,-1,-1,-1,-1,-1,-1,-1,-1,-1,-1,-1,-1,-1,-1,-1,-1,-1,-1,-1,-1,-1,-1,-1,-1,-1,-1,-1,-1,-1,-1,-1,-1,-1,-1,-1,-1,-1,-1,-1,-1,-1,-1,-1,-1,-1,-1,-1,-1],"split_conditions":[1.065E1,2.4E-1,1.155E1,4.9E-1,9.9E0,1.4E1,1.2E1,3E-2,2.5E1,6.1E-1,5.65E-1,5.9E-1,2.7E-1,5.8E-2,4.95E-1,1.4E0,6.6E0,6.9E0,4E1,6.9E-1,5.4E-1,1.5E0,5.5E-1,3.6E-1,2.35E-1,3.7E-1,5.8E-1,2.3E-1,3.42E0,7.9E-2,3.19E0,-2.0708767E-1,-1.8682634E-2,4.15E1,3.2E-1,2.4E-1,3.18E0,1.3E0,4.5E-2,5E-2,9.1E-2,-2.1837614E-1,9.2E0,5.2E-2,4.5E-2,8.7E0,7.1E-1,6.7E0,9E0,-8.050956E-2,3.51E0,1E0,3.7E0,3.2E0,8.5E-2,2E0,2.9E0,2.75E-1,9.286582E-3,1.2066667E1,5.8E-1,6.7E0,3.57E0,2.85E1,5.9E0,3.42E0,4.05E1,-5.0968636E-2,1.7125618E-1,1.1E1,7.15E0,1.2E0,5.4E-2,2.15E-1,7.3E0,2.1E-1,7E0,5E1,1.85E0,8E0,5.5E-1,3.9E-2,2.5E-1,3.8E-1,7.4E-1,-2.2180147E-1,-3.8330086E-2,7.7E-2,9E0,9E0,5.9E-2,1.03E-1,2.1E0,9.4E-2,-7.541982E-2,-7.7200085E-2,1.08E1,6.9E0,5E1,7E0,1.9E1,6.4E-1,1.1266666E1,-5.044651E-2,-1.6897483E-1,3.7E-2,3.14E0,3.348786E-2,1.7807333E-1,2.2E-2,1.712964E-1,-9.630634E-2,1.2921746E-1,-1.633581E-2,-1.0656096E-1,1.4E1,5.5E0,3.15E0,1.4E0,9.100452E-2,5.1E-2,5.9E-2,-5.992339E-2,1.0133333E1,6.15E1,4E-2,-1.9066238E-1,-6.661787E-2,9.2E0,1.390639E-1,-1.4799988E-1,3.3E-2,3.09E0,1.6993418E-1,9.633333E0,3.7E-1,1.55E1,7.75E0,2.2E0,5.9E-1,3E-2,5.2E-1,-1.5653272E-1,4.05E-1,5.4E-1,8.641331E-2,1.4E1,3.35E0,3.47E0,4.05E1,3.9E-1,1.3504045E-1,2.75E-1,3.17E0,3E-1,1.1E1,7.5E-2,6.2E-1,8.5E-2,-6.0248408E-3,-2.0174801E-1,-4.9551573E-2,1.5343045E-1,3E-1,8.8315375E-2,-2.0285363E-1,-4.5134656E-2,1.1E1,7.1682654E-2,3.09E0,1.11E-1,7.35E1,2.1E-1,3.3E-2,5E-1,1.730224E-1,4.130071E-2,9E-2,5.1E-1,-1.9331765E-1,2.2E-1,3.19E0,7.7E0,2.2E-1,1.2070974E-1,4.100431E-2,1.4775915E-1,4.683661E-2,-1.522576E-1,-2.465799E-2,3.2E-1,4.2679153E-2,3.55E1,1.1263849E-1,-1.0887594E-1,-1.8194556E-1,3.0326052E-3,-2.574803E-2,1.5594172E-1,-1.7080432E-1,-1.9829106E-2,1.3627246E-1,5.8622514E-3,-9.4123125E-2,6.5649554E-2,1.14582635E-1,-5.141853E-2,-1.4669362E-1,1.1153907E-1,1.3647862E-1,7.1835704E-4,4.6388708E-2,1.739185E-1,-9.436094E-2,1.3848576E-1,1.18136264E-1,-3.0525642E-2,-9.451837E-2,7.213523E-2,1.6706541E-1,-3.782482E-2,-1.1386926E-1,-2.1386011E-1,-1.9255306E-1,-3.4649394E-2,-1.1888232E-1,1.05796166E-1,6.864041E-2,-1.3151671E-1,1.5116543E-1,-7.497129E-2,1.3615042E-1,-1.3430095E-1,-2.0680067E-1,-2.568342E-2,-1.5694909E-1,1.3614247E-2,3.9028987E-2,-1.5288202E-1,-1.8333471E-1,-7.164512E-2,3.7357874E-2,-1.8044336E-1,-4.741894E-2,-1.8245631E-1,5.877171E-2,-1.2481051E-1,4.0627927E-2,-2.129795E-1,1.2461421E-1,2.3955882E-3,-1.283736E-1,-2.944437E-2,4.606258E-3,1.3556103E-1,-1.6475913E-1,9.5135935E-2,1.6477041E-1,-2.275484E-2,1.867459E-2,-1.685753E-1,-3.163816E-2,-1.5843995E-1,3.321737E-2,1.6736913E-1,-7.156486E-2,1.17746264E-1,1.4438485E-1,-2.781354E-2,8.156626E-2,-9.231876E-2,-2.7790705E-2,1.494677E-1,2.0394454E-2,-1.6918336E-1,-1.0705726E-1,7.6611295E-2,-2.0603903E-1,5.2730072E-2,-1.28057E-1,1.0880033E-1,3.8346656E-2,1.7116682E-1,9.287993E-2,-8.597257E-2,7.004948E-2,-1.1981831E-1,3.0634713E-3,1.4177728E-1,1.6532946E-1,4.088348E-2],"split_indices":[8,1,8,7,8,5,5,4,5,1,1,7,1,4,1,3,0,0,5,7,7,3,7,1,1,2,7,2,6,4,6,0,0,5,2,2,6,3,4,4,4,0,8,4,4,0,7,0,5,0,6,3,3,3,4,3,3,1,0,8,7,0,6,5,0,6,5,0,0,5,0,3,4,1,0,2,5,5,3,5,7,4,2,7,7,0,0,4,5,5,4,4,3,4,0,0,3,0,5,0,5,1,8,0,0,4,6,0,0,4,0,0,0,0,0,5,0,6,3,0,4,4,0,8,5,4,0,0,0,0,0,4,6,0,8,2,3,3,3,7,2,2,0,1,1,0,5,6,6,5,7,0,1,6,1,5,4,7,4,0,0,0,0,2,0,0,0,5,0,6,4,5,1,4,7,0,0,2,7,0,2,6,0,2,0,0,0,0,0,0,7,0,5,0,0,0,0,0,0,0,0,0,0,0,0,0,0,0,0,0,0,0,0,0,0,0,0,0,0,0,0,0,0,0,0,0,0,0,0,0,0,0,0,0,0,0,0,0,0,0,0,0,0,0,0,0,0,0,0,0,0,0,0,0,0,0,0,0,0,0,0,0,0,0,0,0,0,0,0,0,0,0,0,0,0,0,0,0,0,0,0,0,0,0,0,0,0,0,0,0,0],"split_type":[0,0,0,0,0,0,0,0,0,0,0,0,0,0,0,0,0,0,0,0,0,0,0,0,0,0,0,0,0,0,0,0,0,0,0,0,0,0,0,0,0,0,0,0,0,0,0,0,0,0,0,0,0,0,0,0,0,0,0,0,0,0,0,0,0,0,0,0,0,0,0,0,0,0,0,0,0,0,0,0,0,0,0,0,0,0,0,0,0,0,0,0,0,0,0,0,0,0,0,0,0,0,0,0,0,0,0,0,0,0,0,0,0,0,0,0,0,0,0,0,0,0,0,0,0,0,0,0,0,0,0,0,0,0,0,0,0,0,0,0,0,0,0,0,0,0,0,0,0,0,0,0,0,0,0,0,0,0,0,0,0,0,0,0,0,0,0,0,0,0,0,0,0,0,0,0,0,0,0,0,0,0,0,0,0,0,0,0,0,0,0,0,0,0,0,0,0,0,0,0,0,0,0,0,0,0,0,0,0,0,0,0,0,0,0,0,0,0,0,0,0,0,0,0,0,0,0,0,0,0,0,0,0,0,0,0,0,0,0,0,0,0,0,0,0,0,0,0,0,0,0,0,0,0,0,0,0,0,0,0,0,0,0,0,0,0,0,0,0,0,0,0,0,0,0,0,0,0,0,0,0,0,0,0,0,0,0,0,0,0,0],"sum_hessian":[1.00265356E3,6.4308954E2,3.59564E2,1.6315929E2,4.7993027E2,1.9735483E2,1.6220915E2,9.3221436E1,6.993785E1,3.2071213E2,1.5921815E2,4.1144035E1,1.562108E2,2.5821306E1,1.3638785E2,3.246596E0,8.9974846E1,1.8580833E1,5.135702E1,2.7632486E2,4.4387245E1,1.3031973E2,2.8898432E1,2.412611E1,1.7017925E1,8.690888E1,6.930192E1,1.2737111E1,1.3084195E1,1.24660965E2,1.172688E1,2.1925557E0,1.0540404E0,2.965553E1,6.0319313E1,6.635183E0,1.194565E1,2.2066832E1,2.9290188E1,2.5523822E2,2.108665E1,1.4846537E1,2.9540707E1,1.880286E1,1.1151687E2,1.1091942E1,1.780649E1,1.2024604E1,1.2101507E1,1.9267367E0,1.50911875E1,6.114799E1,2.5760893E1,4.4358894E1,2.494302E1,3.5481994E0,9.188912E0,1.16323185E1,1.4518763E0,1.2198493E2,2.676036E0,2.101009E0,9.625872E0,1.5835598E1,1.3819933E1,2.4119665E1,3.6199646E1,1.2066066E0,5.428576E0,6.405079E0,5.5405707E0,3.3013618E0,1.876547E1,8.368487E0,2.0921701E1,1.0925882E2,1.459794E2,1.1877765E1,9.208887E0,3.8856459E0,2.565506E1,1.4377138E1,4.4257216E0,3.6700535E1,7.481633E1,9.615551E0,1.4763908E0,1.3763773E1,4.0427165E0,3.3841677E0,8.640436E0,8.475134E0,3.6263726E0,1.3636717E1,1.4544712E0,1.6394577E0,5.9508533E1,1.9152636E1,6.6082573E0,1.8982151E1,2.5376743E1,1.9196861E1,5.746159E0,1.6187166E0,1.9294829E0,5.0554247E0,4.133487E0,1.1096088E0,1.052271E1,4.0352966E1,8.163196E1,1.0852743E0,1.5907617E0,1.077541E0,1.0234678E0,7.1931767E0,2.4326947E0,9.30678E0,6.5288177E0,1.7337348E0,1.2086198E1,2.2334679E1,1.7849872E0,2.2122246E1,1.4077402E1,2.275597E0,4.1294823E0,2.1389208E0,3.40165E0,2.1331162E0,1.1682456E0,1.5428105E1,3.3373654E0,5.747511E0,2.6209764E0,1.3803504E1,7.1181974E0,1.8322392E1,9.0936424E1,8.463977E0,1.3751543E2,9.903203E0,1.9745617E0,3.2930505E0,5.915837E0,1.4286108E0,2.457035E0,3.2029095E0,2.245215E1,5.62718E0,8.749958E0,1.1304885E0,3.2952332E0,4.0174804E0,3.2683056E1,6.2987293E1,1.1829042E1,5.0925293E0,8.671244E0,1.1205794E0,2.922137E0,1.2149907E0,2.169177E0,7.2419577E0,1.3984782E0,7.3189983E0,1.1561357E0,2.4575086E0,1.168864E0,1.04900465E1,3.14667E0,5.595295E1,3.5555854E0,7.4592032E0,1.1693432E1,5.4384713E0,1.1697861E0,9.580753E0,9.401398E0,1.715537E0,2.3661205E1,1.6347647E1,2.849214E0,4.3536153E0,1.3925436E0,2.0081558E0,3.0472689E0,2.006323E0,2.1271641E0,1.6939985E0,3.865897E1,1.1787058E0,6.014471E0,1.0544388E0,1.3782557E0,2.1873963E0,7.119384E0,1.0802962E0,5.4485216E0,7.959696E0,4.126502E0,2.0223118E1,2.1115615E0,1.4398224E1,7.7240214E0,1.0681216E1,3.3961864E0,1.2282622E0,1.0473348E0,2.091118E0,1.3105317E0,1.1967525E0,1.4231353E1,1.1022118E0,2.2351537E0,1.4726655E0,1.1483109E0,7.1742353E0,6.629268E0,5.592719E0,1.5254784E0,1.1003851E1,7.318541E0,9.09475E0,8.1841675E1,4.116507E0,4.3474703E0,2.6966352E0,1.3481879E2,8.427431E0,1.4757713E0,1.3360859E0,1.9569645E0,4.671634E0,1.2442027E0,1.2315959E0,1.2254393E0,1.7434679E0,1.4594417E0,1.7962912E1,4.4892387E0,4.4286E0,1.1985803E0,1.4769627E0,7.2729955E0,1.1567898E0,2.1384435E0,2.3107247E0,1.7067554E0,1.7623358E1,1.5059697E1,9.546637E0,5.3440655E1,5.9397306E0,5.8893113E0,3.4815562E0,1.610973E0,3.9247491E0,4.746495E0,1.8688443E0,5.3731136E0,1.226196E0,1.2313125E0,1.0232724E0,9.466774E0,2.048843E0,1.0978271E0,5.479075E1,1.1622009E0,1.9021598E0,1.6534255E0,1.7908171E0,5.668386E0,7.0874867E0,4.6059456E0,2.4280574E0,7.152696E0,6.282181E0,3.119217E0,2.137701E0,2.1523504E1,2.9156697E0,1.3431978E1,1.7245828E0,1.1246313E0,1.3527812E0,3.0008342E0,1.5768127E0,3.7082157E1,4.919666E0,1.0948051E0],"tree_param":{"num_deleted":"0","num_feature":"9","num_nodes":"291","size_leaf_vector":"1"}},{"base_weights":[9.348207E-3,-2.7895728E-1,5.8903366E-1,2.571976E-1,-4.598779E-1,3.6601722E-1,8.6683446E-1,8.360059E-2,4.8731557E-1,-6.1050344E-1,-1.7613573E-1,5.072072E-1,-1.5162694E-1,9.420435E-1,2.6653084E-1,-2.8140113E-1,2.6356366E-1,-9.085568E-2,6.144126E-1,-4.8788553E-1,-8.3864737E-1,-4.699497E-1,-1.653692E-2,7.877107E-1,2.821133E-1,-7.0278656E-1,3.7102982E-1,7.2194654E-1,1.0383676E0,-1.7988797E-1,5.058786E-1,-2.2328585E-2,-5.6418097E-1,3.367807E-1,-9.095092E-1,7.0986027E-1,-6.413345E-1,7.983811E-1,2.889076E-1,-7.941454E-1,-3.5176855E-1,-1.072413E0,-6.838495E-1,-8.705902E-1,-1.3225089E-1,6.7068875E-1,-1.10108204E-1,4.8898748E-1,1.0299847E0,1.21509105E-1,7.4256355E-1,-9.408124E-1,1.3892306E-1,6.8942523E-1,-7.410411E-1,2.654598E-1,8.6952424E-1,1.0567588E0,-2.9386625E-2,4.8525214E-2,8.441158E-1,-4.613099E-1,6.549351E-1,-2.4544369E-1,-2.2326343E-1,-7.586536E-2,5.3177047E-1,-1.7625827E-2,-2.0567362E-1,-4.6671886E-2,1.5486091E-1,1.090895E-1,-9.523237E-1,9.518374E-1,5.280324E-1,7.162604E-1,-3.6701182E-1,-8.6528075E-1,2.8186384E-1,1.9020672E-1,-4.6480438E-1,-1.1215137E0,-2.3734352E-1,-1.5359819E-1,-7.97579E-1,-1.1232884E0,2.7643435E-2,4.6841103E-1,-5.0282246E-1,-1.4612085E-1,9.3354243E-1,-4.1098785E-1,2.4322836E-1,6.718427E-1,-3.284219E-1,1.7279018E-1,2.1556799E-1,3.6636606E-1,-4.7092518E-1,9.66814E-1,3.3241323E-1,-1.0669497E0,1.5166912E-2,-2.6457247E-1,8.396748E-1,-1.190647E0,5.5919908E-2,-3.499534E-1,8.9256734E-1,1.0948551E0,4.161922E-1,3.239834E-1,1.0727363E0,1.2480432E-1,-7.252413E-1,1.6301881E-1,2.2620682E-1,-7.3200476E-1,3.2928663E-1,1.5387024E-1,6.30995E-2,-9.7802377E-1,9.885621E-2,-4.2246267E-1,5.967692E-1,6.600641E-1,-7.783377E-1,-1.7951591E-1,-2.667327E-1,1.6217494E-2,1.0128009E0,-7.657012E-2,7.011481E-1,-2.124002E-1,9.1230357E-1,-1.0779853E0,1.6535576E-1,-1.0199045E0,-2.552133E-1,1.4303824E-1,-1.0706114E-1,4.4814736E-1,-6.731652E-1,-6.1468893E-1,-1.6305624E-2,-5.9163964E-1,-1.2270437E0,8.4087074E-2,-1.3340883E-1,-5.8997047E-1,3.6617076E-1,-6.171297E-1,-1.1205678E0,-1.2679068E0,1.191719E-1,-4.7643626E-1,1.21017896E-1,-1.13618255E-1,6.819298E-1,2.2522625E-2,-8.029926E-1,-1.08150996E-1,7.713621E-2,2.981885E-2,1.0658376E0,4.7324342E-1,-5.4184335E-1,5.4816675E-1,-1.7328507E-1,-2.3663408E-1,8.5853916E-1,4.7809747E-1,-1.2460037E0,1.2695251E-1,-2.902346E-1,-8.215795E-2,6.513219E-1,-9.2758566E-1,3.9578897E-1,1.0634351E0,-7.1798945E-3,6.2209034E-1,-7.600875E-2,-1.9539727E-1,-1.2084242E0,-1.0372231E-1,4.383393E-2,9.744089E-1,-5.9879024E-2,-2.0980816E-1,-5.7815786E-2,3.1670085E-1,-2.128972E-1,1.5125194E-1,2.4844907E-2,1.1363355E0,2.3008846E-2,-3.896976E-1,6.382067E-1,1.037216E-1,-3.181625E-2,1.1135259E0,6.5976584E-1,-1.9344173E-1,-1.167022E-1,-3.9423868E-2,7.538665E-2,-1.0011812E-2,-1.6714299E-1,-4.2315446E-2,1.2115331E-1,-6.050788E-2,1.0585429E-1,-1.7525306E-1,-4.1343108E-2,1.6657838E-1,-6.952856E-2,-1.3886793E-1,2.3832766E-2,1.2552388E-1,-2.50338E-2,1.8273175E-1,6.284427E-2,3.6305174E-2,-1.7816725E-1,-9.045162E-4,-5.9631E-2,1.5688142E-1,3.3032652E-2,1.2659712E-1,-1.5196741E-2,3.8708534E-2,-8.7302655E-2,1.5181988E-1,3.7761677E-2,-2.6630564E-3,-2.3441035E-1,-7.858297E-2,9.093385E-2,-1.065118E-1,-1.7932555E-1,-1.3495529E-1,1.3968475E-1,-7.3447614E-3,1.1683635E-1,1.1825936E-1,-2.0410746E-1,7.7947274E-2,-1.01191856E-1,1.0217338E-1,-5.411504E-2,-1.8811627E-1,2.0163674E-2,-1.3835844E-1,-2.1420349E-1,7.590995E-2,-1.3652591E-1,1.4117502E-1,-3.694525E-2,-6.121321E-2,-1.656952E-1,-1.8320388E-1,-2.3898946E-2,-9.413948E-2,-2.1138844E-1,-1.1754131E-1,3.4907136E-2,1.4738931E-1,1.2971827E-2,8.748546E-2,-8.92259E-2,-1.4207949E-1,6.4189754E-2,1.8720552E-1,2.0631356E-2,1.3045849E-1,-1.2864669E-1,-1.0089675E-1,1.7168777E-2,1.4222713E-2,1.318389E-1,-1.6215174E-1,-1.1908008E-3,-1.0060972E-1,1.04289524E-1,1.6257413E-1,1.1334199E-2,1.2968302E-1,-4.6745732E-2,-3.8816363E-2,-2.3804136E-1,5.9874397E-2,-1.3949865E-1,-1.6640657E-1,1.4205628E-2,1.2767185E-1,-4.648658E-2,-1.6537571E-1,5.162185E-2,-7.503697E-2,1.3590835E-1,4.4826906E-2,1.6667795E-1,-7.0796885E-2,1.4196713E-1,-8.717035E-2,4.3718457E-2,-4.228489E-2,-1.9756806E-1,2.3631515E-2,1.6228908E-1,1.01143226E-1,-5.0871562E-2,1.7732126E-1,2.4744913E-2,-1.162285E-1,2.6943386E-2,3.2866254E-2,1.4981839E-1,1.7035486E-1,7.913554E-2,-1.8864095E-2,1.4293799E-1,6.1328452E-2,-8.844461E-2],"categories":[],"categories_nodes":[],"categories_segments":[],"categories_sizes":[],"default_left":[0,0,0,0,0,0,0,0,0,0,0,0,0,0,0,0,0,0,0,0,0,0,0,0,0,0,0,0,0,0,0,0,0,0,0,0,0,0,0,0,0,0,0,0,0,0,0,0,0,0,0,0,0,0,0,0,0,0,0,0,0,0,0,0,0,0,0,0,0,0,0,0,0,0,0,0,0,0,0,0,0,0,0,0,0,0,0,0,0,0,0,0,0,0,0,0,0,0,0,0,0,0,0,0,0,0,0,0,0,0,0,0,0,0,0,0,0,0,0,0,0,0,0,0,0,0,0,0,0,0,0,0,0,0,0,0,0,0,0,0,0,0,0,0,0,0,0,0,0,0,0,0,0,0,0,0,0,0,0,0,0,0,0,0,0,0,0,0,0,0,0,0,0,0,0,0,0,0,0,0,0,0,0,0,0,0,0,0,0,0,0,0,0,0,0,0,0,0,0,0,0,0,0,0,0,0,0,0,0,0,0,0,0,0,0,0,0,0,0,0,0,0,0,0,0,0,0,0,0,0,0,0,0,0,0,0,0,0,0,0,0,0,0,0,0,0,0,0,0,0,0,0,0,0,0,0,0,0,0,0,0,0,0,0,0,0,0,0,0,0,0,0,0,0,0,0,0,0,0,0,0,0,0,0,0,0,0,0,0,0,0,0,0,0,0,0,0,0,0,0,0,0,0,0,0,0,0,0,0,0,0,0,0,0,0,0,0,0,0,0,0,0,0,0,0],"id":5,"left_children":[1,3,5,7,9,11,13,15,17,19,21,23,25,27,29,31,33,35,37,39,41,43,45,47,49,51,53,55,57,-1,59,61,63,65,67,69,71,73,75,77,79,81,83,85,87,89,91,93,95,97,99,101,-1,103,105,107,109,111,-1,113,115,117,119,121,-1,123,125,-1,-1,-1,-1,-1,127,129,131,133,135,137,139,141,143,145,147,149,151,153,155,157,159,161,163,165,167,169,171,-1,173,175,177,179,181,183,-1,185,187,189,-1,191,193,195,197,199,201,-1,203,-1,205,207,209,-1,211,213,215,217,219,221,223,-1,225,-1,227,-1,229,231,233,235,237,239,241,-1,-1,243,245,247,249,251,253,-1,-1,255,257,259,261,263,-1,265,-1,-1,267,269,271,-1,-1,-1,273,275,277,279,281,283,285,287,289,-1,291,293,295,297,299,301,-1,303,-1,305,307,-1,-1,309,-1,-1,-1,311,-1,-1,-1,313,-1,315,317,-1,-1,319,321,-1,323,-1,-1,-1,-1,-1,-1,-1,-1,-1,-1,-1,-1,-1,-1,-1,-1,-1,-1,-1,-1,-1,-1,-1,-1,-1,-1,-1,-1,-1,-1,-1,-1,-1,-1,-1,-1,-1,-1,-1,-1,-1,-1,-1,-1,-1,-1,-1,-1,-1,-1,-1,-1,-1,-1,-1,-1,-1,-1,-1,-1,-1,-1,-1,-1,-1,-1,-1,-1,-1,-1,-1,-1,-1,-1,-1,-1,-1,-1,-1,-1,-1,-1,-1,-1,-1,-1,-1,-1,-1,-1,-1,-1,-1,-1,-1,-1,-1,-1,-1,-1,-1,-1,-1,-1,-1,-1,-1,-1,-1,-1,-1,-1,-1,-1,-1,-1,-1,-1,-1,-1],"loss_changes":[1.6264987E2,6.3167343E1,1.9709435E1,6.5360117E0,2.0678368E1,1.3308149E1,6.2147903E0,6.3175974E0,5.242695E0,8.466904E0,7.966548E0,8.77327E0,1.1658549E1,1.9401703E0,6.689925E0,2.3223145E0,5.8184023E0,6.446037E0,3.2421665E0,8.42345E0,3.229988E0,7.9785624E0,7.226678E0,4.04644E0,5.8701386E0,8.472246E0,7.933367E0,2.592165E0,2.1585464E0,0E0,2.3736384E0,5.556751E0,4.111639E0,4.959499E0,1.3161981E0,2.3010423E0,4.344232E0,1.0110588E0,6.572171E0,5.099777E0,9.052603E0,1.4507484E0,4.0176086E0,6.2009125E0,7.7234173E0,3.0287242E0,1.0599555E1,4.7134786E0,3.1097412E0,9.014377E0,1.5776892E0,2.4210186E0,0E0,2.6323662E0,3.0218818E0,4.818885E0,2.7342052E0,6.4603424E-1,0E0,5.269686E0,1.0905204E0,2.6615438E0,1.5515893E0,3.24894E0,0E0,5.029904E0,7.5130043E0,0E0,0E0,0E0,0E0,0E0,9.249878E-1,1.0235577E0,3.1367855E0,2.7366748E0,3.7894325E0,5.376198E0,3.816012E0,6.083131E0,8.148373E0,1.4704704E0,2.3683865E0,3.2468917E0,2.5892143E0,6.897583E0,3.1116705E0,4.0116186E0,3.374909E0,1.9441135E0,7.919407E-1,6.471299E0,5.94382E0,4.4251204E0,5.1593165E0,0E0,2.0430782E0,5.637498E0,7.5952883E0,1.3082485E0,2.4597926E0,1.7103672E0,0E0,9.2666507E-1,2.8537846E0,1.1529112E-1,0E0,5.1630335E0,3.4345627E-1,6.1634445E-1,2.3924177E0,7.856914E-1,6.57074E-1,0E0,1.3629844E0,0E0,6.4242315E-1,2.147255E0,1.2733672E0,0E0,1.4544493E0,2.2443557E-1,5.868558E0,4.2758384E0,1.4932289E0,4.666506E0,2.030934E0,0E0,1.08028024E-1,0E0,3.051052E-1,0E0,1.6523056E0,7.1460104E-1,5.1817036E-1,2.1401477E0,2.2388382E0,1.7264404E0,1.1096311E1,0E0,0E0,3.4235525E0,7.4755516E0,6.5318336E0,7.795931E0,4.235328E0,6.314316E-1,0E0,0E0,3.1444025E0,2.5968676E0,3.4563427E0,1.641407E0,9.378395E-1,0E0,1.2377517E0,0E0,0E0,2.0452251E0,3.3630648E0,2.814787E0,0E0,0E0,0E0,1.2697029E0,4.6812215E0,4.1335726E0,3.9391975E0,3.0267997E0,2.5000768E0,3.5985842E0,1.4916351E0,6.5361786E-1,0E0,2.0786114E0,3.350063E0,5.41691E0,3.1065798E0,3.6550455E0,9.7023964E-2,0E0,2.9334E0,0E0,8.074242E-1,9.770832E-1,0E0,0E0,1.0247793E0,0E0,0E0,0E0,1.3755772E0,0E0,0E0,0E0,6.608696E-1,0E0,8.427865E-1,1.2580049E0,0E0,0E0,3.5891724E-1,2.3952384E0,0E0,1.0413942E0,0E0,0E0,0E0,0E0,0E0,0E0,0E0,0E0,0E0,0E0,0E0,0E0,0E0,0E0,0E0,0E0,0E0,0E0,0E0,0E0,0E0,0E0,0E0,0E0,0E0,0E0,0E0,0E0,0E0,0E0,0E0,0E0,0E0,0E0,0E0,0E0,0E0,0E0,0E0,0E0,0E0,0E0,0E0,0E0,0E0,0E0,0E0,0E0,0E0,0E0,0E0,0E0,0E0,0E0,0E0,0E0,0E0,0E0,0E0,0E0,0E0,0E0,0E0,0E0,0E0,0E0,0E0,0E0,0E0,0E0,0E0,0E0,0E0,0E0,0E0,0E0,0E0,0E0,0E0,0E0,0E0,0E0,0E0,0E0,0E0,0E0,0E0,0E0,0E0,0E0,0E0,0E0,0E0,0E0,0E0,0E0,0E0,0E0,0E0,0E0,0E0,0E0,0E0,0E0,0E0,0E0,0E0,0E0,0E0,0E0,0E0,0E0,0E0,0E0,0E0,0E0,0E0,0E0,0E0,0E0],"parents":[2147483647,0,0,1,1,2,2,3,3,4,4,5,5,6,6,7,7,8,8,9,9,10,10,11,11,12,12,13,13,14,14,15,15,16,16,17,17,18,18,19,19,20,20,21,21,22,22,23,23,24,24,25,25,26,26,27,27,28,28,30,30,31,31,32,32,33,33,34,34,35,35,36,36,37,37,38,38,39,39,40,40,41,41,42,42,43,43,44,44,45,45,46,46,47,47,48,48,49,49,50,50,51,51,53,53,54,54,55,55,56,56,57,57,59,59,60,60,61,61,62,62,63,63,65,65,66,66,72,72,73,73,74,74,75,75,76,76,77,77,78,78,79,79,80,80,81,81,82,82,83,83,84,84,85,85,86,86,87,87,88,88,89,89,90,90,91,91,92,92,93,93,94,94,96,96,97,97,98,98,99,99,100,100,101,101,103,103,104,104,105,105,107,107,108,108,109,109,110,110,111,111,112,112,114,114,116,116,117,117,118,118,120,120,121,121,122,122,123,123,124,124,125,125,126,126,128,128,130,130,132,132,133,133,134,134,135,135,136,136,137,137,138,138,141,141,142,142,143,143,144,144,145,145,146,146,149,149,150,150,151,151,152,152,153,153,155,155,158,158,159,159,160,160,164,164,165,165,166,166,167,167,168,168,169,169,170,170,171,171,172,172,174,174,175,175,176,176,177,177,178,178,179,179,181,181,183,183,184,184,187,187,191,191,195,195,197,197,198,198,201,201,202,202,204,204],"right_children":[2,4,6,8,10,12,14,16,18,20,22,24,26,28,30,32,34,36,38,40,42,44,46,48,50,52,54,56,58,-1,60,62,64,66,68,70,72,74,76,78,80,82,84,86,88,90,92,94,96,98,100,102,-1,104,106,108,110,112,-1,114,116,118,120,122,-1,124,126,-1,-1,-1,-1,-1,128,130,132,134,136,138,140,142,144,146,148,150,152,154,156,158,160,162,164,166,168,170,172,-1,174,176,178,180,182,184,-1,186,188,190,-1,192,194,196,198,200,202,-1,204,-1,206,208,210,-1,212,214,216,218,220,222,224,-1,226,-1,228,-1,230,232,234,236,238,240,242,-1,-1,244,246,248,250,252,254,-1,-1,256,258,260,262,264,-1,266,-1,-1,268,270,272,-1,-1,-1,274,276,278,280,282,284,286,288,290,-1,292,294,296,298,300,302,-1,304,-1,306,308,-1,-1,310,-1,-1,-1,312,-1,-1,-1,314,-1,316,318,-1,-1,320,322,-1,324,-1,-1,-1,-1,-1,-1,-1,-1,-1,-1,-1,-1,-1,-1,-1,-1,-1,-1,-1,-1,-1,-1,-1,-1,-1,-1,-1,-1,-1,-1,-1,-1,-1,-1,-1,-1,-1,-1,-1,-1,-1,-1,-1,-1,-1,-1,-1,-1,-1,-1,-1,-1,-1,-1,-1,-1,-1,-1,-1,-1,-1,-1,-1,-1,-1,-1,-1,-1,-1,-1,-1,-1,-1,-1,-1,-1,-1,-1,-1,-1,-1,-1,-1,-1,-1,-1,-1,-1,-1,-1,-1,-1,-1,-1,-1,-1,-1,-1,-1,-1,-1,-1,-1,-1,-1,-1,-1,-1,-1,-1,-1,-1,-1,-1,-1,-1,-1,-1,-1,-1],"split_conditions":[1.075E1,2.4E-1,1.1633333E1,4.9E-1,9.9E0,4.05E-1,4.95E-1,6.6E0,1.95E1,4.25E-1,5E-1,6.9E0,5.9E-1,1.2066667E1,3.8E-1,4.15E1,1.78E1,6.9E0,2.1E-1,2.7E-1,5.4E-1,2.6E1,4E-2,4.7E-1,5.4E-2,9.4E0,9.4E-2,1.55E1,1.37E1,-1.7988797E-1,6.6E0,2.85E1,1.25E1,2.5E0,4.3E-2,2.4E-1,5E0,4.8E-2,7.1E0,1.78E1,3.1E-1,3.42E0,9E0,3.6E-1,6.6E0,2.1E1,7.5E0,4.6E-2,3.44E0,2.75E-1,2.1E1,1.1433333E1,1.3892306E-1,5.6E-2,1.17E-1,5.1E-2,1.195E1,2.94E0,-2.9386625E-2,4.6E-2,1.26E1,2.15E-1,9.733334E0,2.5E-1,-2.2326343E-1,1.04E1,5E-1,-1.7625827E-2,-2.0567362E-1,-4.6671886E-2,1.5486091E-1,1.090895E-1,4.3E-1,2.3E-1,4.9E-2,6.15E0,7.3E0,9.6E0,6.3E0,3.28E0,3.21E0,4.9E-2,6.1E-1,7.7E0,2.9E-1,3.45E0,1.55E1,5.1E0,3.14E0,3.5E-2,3.3E-2,2.6E-1,3.6E-1,1.3E0,3E-1,1.7279018E-1,5.3E-1,1.7E0,3.05E1,4.8E0,8.1E-2,1.09E1,1.5166912E-2,5.75E-1,8.15E-1,3.7E-1,5.5919908E-2,3.9E-1,5.9E-1,5.2E-1,3E-1,7.4E0,3.4E0,1.2480432E-1,5.4E-2,1.6301881E-1,3.19E0,2.1E1,9.633333E0,1.5387024E-1,3.27E0,5.45E0,2.9E-1,1.85E-1,8.4E0,9.2E0,2.05E-1,-1.7951591E-1,3.11E0,1.6217494E-2,5.1E-1,-7.657012E-2,1.42E1,4.05E1,5.15E1,4.4E-2,4.4E-2,4.7E-1,3.2E0,1.4303824E-1,-1.0706114E-1,6.7E0,3.2E1,3.7E-2,6.6E0,4.4E-2,2.3E-1,8.4087074E-2,-1.3340883E-1,5.3E-1,8.4E0,8.3E0,5.05E1,3.11E0,1.191719E-1,9.2E0,1.21017896E-1,-1.13618255E-1,4.8E-2,7.5E0,8.1E0,-1.08150996E-1,7.713621E-2,2.981885E-2,6.5E-1,5E-1,8.4E0,1.0133333E1,4E-1,2.45E-1,1.1333333E1,1.12E1,1.5E0,1.2695251E-1,3.1E-1,1.1E1,7.9E0,3.26E0,3.6E-1,2E-1,-7.1798945E-3,2.3E1,-7.600875E-2,6.7E0,3.5E-2,-1.0372231E-1,4.383393E-2,2E0,-5.9879024E-2,-2.0980816E-1,-5.7815786E-2,7.15E0,-2.128972E-1,1.5125194E-1,2.4844907E-2,3.48E0,2.3008846E-2,4.9E-1,3.3E0,1.037216E-1,-3.181625E-2,7.9E-1,4.5E-1,-1.9344173E-1,2.25E0,-3.9423868E-2,7.538665E-2,-1.0011812E-2,-1.6714299E-1,-4.2315446E-2,1.2115331E-1,-6.050788E-2,1.0585429E-1,-1.7525306E-1,-4.1343108E-2,1.6657838E-1,-6.952856E-2,-1.3886793E-1,2.3832766E-2,1.2552388E-1,-2.50338E-2,1.8273175E-1,6.284427E-2,3.6305174E-2,-1.7816725E-1,-9.045162E-4,-5.9631E-2,1.5688142E-1,3.3032652E-2,1.2659712E-1,-1.5196741E-2,3.8708534E-2,-8.7302655E-2,1.5181988E-1,3.7761677E-2,-2.6630564E-3,-2.3441035E-1,-7.858297E-2,9.093385E-2,-1.065118E-1,-1.7932555E-1,-1.3495529E-1,1.3968475E-1,-7.3447614E-3,1.1683635E-1,1.1825936E-1,-2.0410746E-1,7.7947274E-2,-1.01191856E-1,1.0217338E-1,-5.411504E-2,-1.8811627E-1,2.0163674E-2,-1.3835844E-1,-2.1420349E-1,7.590995E-2,-1.3652591E-1,1.4117502E-1,-3.694525E-2,-6.121321E-2,-1.656952E-1,-1.8320388E-1,-2.3898946E-2,-9.413948E-2,-2.1138844E-1,-1.1754131E-1,3.4907136E-2,1.4738931E-1,1.2971827E-2,8.748546E-2,-8.92259E-2,-1.4207949E-1,6.4189754E-2,1.8720552E-1,2.0631356E-2,1.3045849E-1,-1.2864669E-1,-1.0089675E-1,1.7168777E-2,1.4222713E-2,1.318389E-1,-1.6215174E-1,-1.1908008E-3,-1.0060972E-1,1.04289524E-1,1.6257413E-1,1.1334199E-2,1.2968302E-1,-4.6745732E-2,-3.8816363E-2,-2.3804136E-1,5.9874397E-2,-1.3949865E-1,-1.6640657E-1,1.4205628E-2,1.2767185E-1,-4.648658E-2,-1.6537571E-1,5.162185E-2,-7.503697E-2,1.3590835E-1,4.4826906E-2,1.6667795E-1,-7.0796885E-2,1.4196713E-1,-8.717035E-2,4.3718457E-2,-4.228489E-2,-1.9756806E-1,2.3631515E-2,1.6228908E-1,1.01143226E-1,-5.0871562E-2,1.7732126E-1,2.4744913E-2,-1.162285E-1,2.6943386E-2,3.2866254E-2,1.4981839E-1,1.7035486E-1,7.913554E-2,-1.8864095E-2,1.4293799E-1,6.1328452E-2,-8.844461E-2],"split_indices":[8,1,8,7,8,1,1,0,5,1,7,0,7,8,7,5,3,0,1,2,7,5,4,7,4,3,4,5,3,0,0,5,3,3,4,2,5,4,0,3,2,6,5,2,0,5,0,4,6,1,5,8,0,4,4,4,8,6,0,4,8,1,8,2,0,8,2,0,0,0,0,0,2,2,4,0,0,8,0,6,6,4,1,0,2,6,5,0,6,4,4,1,2,3,2,0,7,3,5,3,4,8,0,1,1,2,0,2,2,2,2,0,6,0,4,0,6,5,8,0,6,3,2,1,0,8,1,0,6,0,2,0,3,5,5,4,4,7,6,0,0,0,5,4,0,4,2,0,0,1,0,0,5,6,0,0,0,0,4,0,0,0,0,0,7,2,3,8,2,1,8,8,3,0,2,5,0,6,7,1,0,5,0,0,4,0,0,3,0,0,0,0,0,0,0,6,0,7,3,0,0,7,7,0,3,0,0,0,0,0,0,0,0,0,0,0,0,0,0,0,0,0,0,0,0,0,0,0,0,0,0,0,0,0,0,0,0,0,0,0,0,0,0,0,0,0,0,0,0,0,0,0,0,0,0,0,0,0,0,0,0,0,0,0,0,0,0,0,0,0,0,0,0,0,0,0,0,0,0,0,0,0,0,0,0,0,0,0,0,0,0,0,0,0,0,0,0,0,0,0,0,0,0,0,0,0,0,0,0,0,0,0,0,0,0,0,0,0,0,0,0,0,0,0,0],"split_type":[0,0,0,0,0,0,0,0,0,0,0,0,0,0,0,0,0,0,0,0,0,0,0,0,0,0,0,0,0,0,0,0,0,0,0,0,0,0,0,0,0,0,0,0,0,0,0,0,0,0,0,0,0,0,0,0,0,0,0,0,0,0,0,0,0,0,0,0,0,0,0,0,0,0,0,0,0,0,0,0,0,0,0,0,0,0,0,0,0,0,0,0,0,0,0,0,0,0,0,0,0,0,0,0,0,0,0,0,0,0,0,0,0,0,0,0,0,0,0,0,0,0,0,0,0,0,0,0,0,0,0,0,0,0,0,0,0,0,0,0,0,0,0,0,0,0,0,0,0,0,0,0,0,0,0,0,0,0,0,0,0,0,0,0,0,0,0,0,0,0,0,0,0,0,0,0,0,0,0,0,0,0,0,0,0,0,0,0,0,0,0,0,0,0,0,0,0,0,0,0,0,0,0,0,0,0,0,0,0,0,0,0,0,0,0,0,0,0,0,0,0,0,0,0,0,0,0,0,0,0,0,0,0,0,0,0,0,0,0,0,0,0,0,0,0,0,0,0,0,0,0,0,0,0,0,0,0,0,0,0,0,0,0,0,0,0,0,0,0,0,0,0,0,0,0,0,0,0,0,0,0,0,0,0,0,0,0,0,0,0,0,0,0,0,0,0,0,0,0,0,0,0,0,0,0,0,0,0,0,0,0,0,0,0,0,0,0,0,0,0,0,0,0,0,0],"sum_hessian":[9.7123096E2,6.4898047E2,3.222505E2,1.6363364E2,4.8534683E2,1.8003625E2,1.4221422E2,9.404843E1,6.9585205E1,3.1629102E2,1.6905583E2,1.4146983E2,3.8566425E1,1.2587473E2,1.6339487E1,3.0871367E1,