{"learner":{"attributes":{"best_iteration":"20","best_score":"-0.846715"},"feature_names":[],"feature_types":[],"gradient_booster":{"model":{"gbtree_model_param":{"num_parallel_tree":"1","num_trees":"71"},"iteration_indptr":[0,1,2,3,4,5,6,7,8,9,10,11,12,13,14,15,16,17,18,19,20,21,22,23,24,25,26,27,28,29,30,31,32,33,34,35,36,37,38,39,40,41,42,43,44,45,46,47,48,49,50,51,52,53,54,55,56,57,58,59,60,61,62,63,64,65,66,67,68,69,70,71],"tree_info":[0,0,0,0,0,0,0,0,0,0,0,0,0,0,0,0,0,0,0,0,0,0,0,0,0,0,0,0,0,0,0,0,0,0,0,0,0,0,0,0,0,0,0,0,0,0,0,0,0,0,0,0,0,0,0,0,0,0,0,0,0,0,0,0,0,0,0,0,0,0,0],"trees":[{"base_weights":[-3.62315E-2,5.5755913E-1,-4.8355743E-1,9.072001E-1,2.6287627E-1,6.1464883E-2,-7.3154235E-1,9.758342E-2,1.6316506E-1,1.0190586E-1,-5.140544E-2,-1.1043284E0,-4.4262838E-1,-1.329788E-1,-1.9035143E-1,-1.027192E-2,-1.24111235E-1],"categories":[],"categories_nodes":[],"categories_segments":[],"categories_sizes":[],"default_left":[0,0,0,0,0,0,0,0,0,0,0,0,0,0,0,0,0],"id":0,"left_children":[1,3,5,7,9,-1,11,-1,-1,-1,-1,13,15,-1,-1,-1,-1],"loss_changes":[1.7265259E2,2.8539581E1,8.241671E1,5.193199E0,3.88162E1,0E0,3.0798615E1,0E0,0E0,0E0,0E0,3.4004364E0,2.3744778E1,0E0,0E0,0E0,0E0],"parents":[2147483647,0,0,1,1,2,2,3,3,4,4,6,6,11,11,12,12],"right_children":[2,4,6,8,10,-1,12,-1,-1,-1,-1,14,16,-1,-1,-1,-1],"split_conditions":[4.5E-2,3.6E-2,2.4E-1,2.8E1,2.8E-1,6.1464883E-2,2.7E-1,9.758342E-2,1.6316506E-1,1.0190586E-1,-5.140544E-2,7E0,2.7E1,-1.329788E-1,-1.9035143E-1,-1.027192E-2,-1.24111235E-1],"split_indices":[4,4,1,5,1,0,2,0,0,0,0,0,5,0,0,0,0],"split_type":[0,0,0,0,0,0,0,0,0,0,0,0,0,0,0,0,0],"sum_hessian":[6.479884E2,2.783087E2,3.6967972E2,1.26334435E2,1.5197426E2,8.018274E1,2.8949698E2,5.4076733E1,7.22577E1,8.997249E1,6.200177E1,1.2516898E2,1.64328E2,5.6640713E1,6.8528275E1,8.391217E1,8.0415825E1],"tree_param":{"num_deleted":"0","num_feature":"9","num_nodes":"17","size_leaf_vector":"1"}},{"base_weights":[5.84626E-2,6.000265E-1,-2.604445E-1,7.203904E-1,4.97423E-2,-7.5973207E-1,5.5552956E-2,8.049033E-1,8.740816E-2,-1.5542406E-1,-6.0441833E-2,7.6025896E-2,-1.7994452E-1,1.3546821E-1,1.0319061E-1,4.6392046E-2,-1.0289017E-1,-5.2066315E-2,5.8501568E-2],"categories":[],"categories_nodes":[],"categories_segments":[],"categories_sizes":[],"default_left":[0,0,0,0,0,0,0,0,0,0,0,0,0,0,0,0,0,0,0],"id":1,"left_children":[1,3,5,7,-1,9,11,13,-1,-1,-1,-1,15,-1,-1,17,-1,-1,-1],"loss_changes":[1.1606691E2,7.806778E0,6.679563E1,1.521492E0,0E0,1.5762711E1,2.7727386E1,5.6640625E-1,0E0,0E0,0E0,0E0,1.968533E1,0E0,0E0,1.6294577E1,0E0,0E0,0E0],"parents":[2147483647,0,0,1,1,2,2,3,3,5,5,6,6,7,7,12,12,15,15],"right_children":[2,4,6,8,-1,10,12,14,-1,-1,-1,-1,16,-1,-1,18,-1,-1,-1],"split_conditions":[2.6E-1,2.3E-1,2.7E-1,2E-1,4.97423E-2,3.31E0,3.3E-1,3.21E0,8.740816E-2,-1.5542406E-1,-6.0441833E-2,7.6025896E-2,8E0,1.3546821E-1,1.0319061E-1,2.4E0,-1.0289017E-1,-5.2066315E-2,5.8501568E-2],"split_indices":[1,1,2,1,0,6,2,6,0,0,0,0,3,0,0,3,0,0,0],"split_type":[0,0,0,0,0,0,0,0,0,0,0,0,0,0,0,0,0,0,0],"sum_hessian":[6.701343E2,2.4803795E2,4.2209634E2,1.7008337E2,7.7954575E1,1.6305663E2,2.590397E2,1.0238454E2,6.769884E1,9.080178E1,7.2254845E1,8.842937E1,1.7061035E2,5.1998978E1,5.038556E1,1.1850823E2,5.210212E1,5.523953E1,6.32687E1],"tree_param":{"num_deleted":"0","num_feature":"9","num_nodes":"19","size_leaf_vector":"1"}},{"base_weights":[-7.108661E-3,-5.693789E-1,8.509612E-1,5.3792156E-2,-1.1127373E0,5.3239256E-1,1.1997795E0,5.7201613E-2,-3.9659165E-2,-1.3716134E0,-8.616996E-2,1.3984558E-1,3.2993495E-2,1.5794408E-1,1.9667858E-1,-1.5213443E-1,-2.4898657E-1],"categories":[],"categories_nodes":[],"categories_segments":[],"categories_sizes":[],"default_left":[0,0,0,0,0,0,0,0,0,0,0,0,0,0,0,0,0],"id":2,"left_children":[1,3,5,7,9,11,13,-1,-1,15,-1,-1,-1,-1,-1,-1,-1],"loss_changes":[3.2235165E2,1.367314E2,2.8752808E1,1.9794872E1,2.9264618E1,1.7292503E1,6.7149353E-1,0E0,0E0,1.3246887E1,0E0,0E0,0E0,0E0,0E0,0E0,0E0],"parents":[2147483647,0,0,1,1,2,2,3,3,4,4,5,5,6,6,9,9],"right_children":[2,4,6,8,10,12,14,-1,-1,16,-1,-1,-1,-1,-1,-1,-1],"split_conditions":[1.065E1,2.9E-1,1.16E1,2.3E-1,9.9E0,6.9E0,1.23E1,5.7201613E-2,-3.9659165E-2,3.95E-1,-8.616996E-2,1.3984558E-1,3.2993495E-2,1.5794408E-1,1.9667858E-1,-1.5213443E-1,-2.4898657E-1],"split_indices":[8,1,8,1,8,0,8,0,0,1,0,0,0,0,0,0,0],"split_type":[0,0,0,0,0,0,0,0,0,0,0,0,0,0,0,0,0],"sum_hessian":[6.661276E2,4.0263083E2,2.6349677E2,1.8796132E2,2.1466951E2,1.3904033E2,1.2445645E2,9.251983E1,9.54415E1,1.439095E2,7.076002E1,6.0113E1,7.892733E1,5.820467E1,6.625178E1,6.6273E1,7.76365E1],"tree_param":{"num_deleted":"0","num_feature":"9","num_nodes":"17","size_leaf_vector":"1"}},{"base_weights":[2.6731266E-2,-1.221548E-1,4.0785158E-1,-1.494026E-1,2.9499235E-2,2.3055077E-2,5.485742E-1,1.2483101E-1,-8.380946E-2,4.845446E-2,1.2185735E-1,2.950719E-1,-1.397877E-1,8.293756E-2,1.1641648E-1,6.379509E-3,-4.390064E-2,4.486902E-2,-1.750906E-2],"categories":[],"categories_nodes":[],"categories_segments":[],"categories_sizes":[],"default_left":[0,0,0,0,0,0,0,0,0,0,0,0,0,0,0,0,0,0,0],"id":3,"left_children":[1,3,5,-1,7,-1,9,11,-1,-1,-1,13,15,-1,17,-1,-1,-1,-1],"loss_changes":[3.6790745E1,6.183518E1,6.429161E0,0E0,2.2409414E1,0E0,6.688877E0,1.5521591E1,0E0,0E0,0E0,9.583025E0,3.7810888E0,0E0,5.3586907E0,0E0,0E0,0E0,0E0],"parents":[2147483647,0,0,1,1,2,2,4,4,6,6,7,7,11,11,12,12,14,14],"right_children":[2,4,6,-1,8,-1,10,12,-1,-1,-1,14,16,-1,18,-1,-1,-1,-1],"split_conditions":[5.9E-1,1.5E1,3.2E0,-1.494026E-1,5.4E1,2.3055077E-2,6.9E-1,7.1E0,-8.380946E-2,4.845446E-2,1.2185735E-1,4.5E-1,3.14E0,8.293756E-2,6.2E0,6.379509E-3,-4.390064E-2,4.486902E-2,-1.750906E-2],"split_indices":[7,5,6,0,5,0,7,0,0,0,0,7,6,0,3,0,0,0,0],"split_type":[0,0,0,0,0,0,0,0,0,0,0,0,0,0,0,0,0,0,0],"sum_hessian":[6.4649133E2,4.653716E2,1.8111967E2,6.79961E1,3.9737552E2,6.529192E1,1.1582776E2,3.4263406E2,5.474147E1,6.3641514E1,5.2186245E1,2.0842802E2,1.3420602E2,8.445015E1,1.2397788E2,6.15398E1,7.266622E1,6.934806E1,5.462982E1],"tree_param":{"num_deleted":"0","num_feature":"9","num_nodes":"19","size_leaf_vector":"1"}},{"base_weights":[3.0056711E-2,5.5898637E-1,-2.3268364E-1,2.1865776E-2,7.048046E-1,-5.6485E-1,-3.5625108E-2,8.6398125E-1,5.4842245E-2,-1.3781139E-1,-4.2753704E-2,2.4105962E-1,-2.2267258E-1,1.0625963E-1,1.5116778E-1,5.5808086E-2,1.3368145E-2,-7.9448745E-2,3.8049057E-2],"categories":[],"categories_nodes":[],"categories_segments":[],"categories_sizes":[],"default_left":[0,0,0,0,0,0,0,0,0,0,0,0,0,0,0,0,0,0,0],"id":4,"left_children":[1,3,5,-1,7,9,11,13,-1,-1,-1,15,17,-1,-1,-1,-1,-1,-1],"loss_changes":[8.851505E1,1.2633118E1,2.7839773E1,0E0,8.105347E0,1.5425781E1,1.393442E1,1.6447754E0,0E0,0E0,0E0,2.1295815E0,2.3610718E1,0E0,0E0,0E0,0E0,0E0,0E0],"parents":[2147483647,0,0,1,1,2,2,4,4,5,5,6,6,7,7,11,11,12,12],"right_children":[2,4,6,-1,8,10,12,14,-1,-1,-1,16,18,-1,-1,-1,-1,-1,-1],"split_conditions":[4.2E-2,1.6E0,2.7E-1,2.1865776E-2,7.5E0,5.3E-1,3.5E-1,3.21E0,5.4842245E-2,-1.3781139E-1,-4.2753704E-2,3.1E-1,5.9E-1,1.0625963E-1,1.5116778E-1,5.5808086E-2,1.3368145E-2,-7.9448745E-2,3.8049057E-2],"split_indices":[4,3,2,0,3,7,2,6,0,0,0,2,7,0,0,0,0,0,0],"split_type":[0,0,0,0,0,0,0,0,0,0,0,0,0,0,0,0,0,0,0],"sum_hessian":[6.349952E2,2.1036873E2,4.2462646E2,5.539422E1,1.549745E2,1.5741603E2,2.6721045E2,1.044231E2,5.05514E1,6.850062E1,8.8915405E1,1.0766349E2,1.5954695E2,5.30037E1,5.1419403E1,5.7038715E1,5.0624775E1,9.695179E1,6.2595158E1],"tree_param":{"num_deleted":"0","num_feature":"9","num_nodes":"19","size_leaf_vector":"1"}},{"base_weights":[-3.2485172E-3,-5.646816E-1,5.8699536E-1,-4.0407723E-1,-8.649841E-1,3.4724414E-1,1.0263004E0,-1.3369416E-1,-2.4648046E-1,-1.03955835E-1,-1.5995842E-1,-9.6277887E-4,4.732377E-1,1.298771E-1,1.7723519E-1,-4.613392E-1,1.6776161E-2,9.395999E-2,3.9700773E-2,-9.910144E-2,-3.866639E-2],"categories":[],"categories_nodes":[],"categories_segments":[],"categories_sizes":[],"default_left":[0,0,0,0,0,0,0,0,0,0,0,0,0,0,0,0,0,0,0,0,0],"id":5,"left_children":[1,3,5,7,9,11,13,-1,15,-1,-1,-1,17,-1,-1,19,-1,-1,-1,-1,-1],"loss_changes":[2.1486214E2,1.567717E1,3.2934746E1,1.6548698E1,3.2404785E0,9.182085E0,1.7444687E0,0E0,1.286187E1,0E0,0E0,0E0,4.6865616E0,0E0,0E0,4.0584774E0,0E0,0E0,0E0,0E0,0E0],"parents":[2147483647,0,0,1,1,2,2,3,3,4,4,5,5,6,6,8,8,12,12,15,15],"right_children":[2,4,6,8,10,12,14,-1,16,-1,-1,-1,18,-1,-1,20,-1,-1,-1,-1,-1],"split_conditions":[1.03E1,6.4E-2,1.16E1,2.5E1,2.1E1,1.55E1,2.8E1,-1.3369416E-1,9.533334E0,-1.03955835E-1,-1.5995842E-1,-9.6277887E-4,7.1E0,1.298771E-1,1.7723519E-1,6.9E0,1.6776161E-2,9.395999E-2,3.9700773E-2,-9.910144E-2,-3.866639E-2],"split_indices":[8,4,8,5,5,5,5,0,8,0,0,0,0,0,0,0,0,0,0,0,0],"split_type":[0,0,0,0,0,0,0,0,0,0,0,0,0,0,0,0,0,0,0,0,0],"sum_hessian":[6.4638104E2,3.312978E2,3.1508325E2,2.1738435E2,1.1391342E2,2.049966E2,1.1008666E2,5.199233E1,1.6539203E2,6.3846733E1,5.0066692E1,5.4096714E1,1.5089987E2,5.7373478E1,5.271318E1,1.03214485E2,6.2177536E1,8.585105E1,6.504883E1,5.1014023E1,5.2200466E1],"tree_param":{"num_deleted":"0","num_feature":"9","num_nodes":"21","size_leaf_vector":"1"}},{"base_weights":[-3.337966E-2,3.1557253E-1,-2.8936607E-1,-2.1433204E-2,5.1245075E-1,-1.906603E-1,-8.2911804E-2,6.9923276E-1,2.272419E-3,-5.588312E-2,-8.718461E-2,1.2710914E-1,7.3318645E-2,4.1381553E-2,-3.08979E-1,-7.0351944E-3,-8.696668E-2],"categories":[],"categories_nodes":[],"categories_segments":[],"categories_sizes":[],"default_left":[0,0,0,0,0,0,0,0,0,0,0,0,0,0,0,0,0],"id":6,"left_children":[1,3,5,-1,7,9,-1,11,-1,-1,13,-1,-1,-1,15,-1,-1],"loss_changes":[5.515993E1,2.366291E1,9.1530285E0,0E0,1.6992615E1,4.8719864E0,0E0,3.7342148E0,0E0,0E0,1.3564842E1,0E0,0E0,0E0,7.381154E0,0E0,0E0],"parents":[2147483647,0,0,1,1,2,2,4,4,5,5,7,7,10,10,14,14],"right_children":[2,4,6,-1,8,10,-1,12,-1,-1,14,-1,-1,-1,16,-1,-1],"split_conditions":[4.6E-2,2.35E1,8E-2,-2.1433204E-2,4.8E1,2.7E-1,-8.2911804E-2,3.9E-2,2.272419E-3,-5.588312E-2,3.4E-1,1.2710914E-1,7.3318645E-2,4.1381553E-2,6E0,-7.0351944E-3,-8.696668E-2],"split_indices":[4,5,4,0,5,2,0,4,0,0,2,0,0,0,3,0,0],"split_type":[0,0,0,0,0,0,0,0,0,0,0,0,0,0,0,0,0],"sum_hessian":[6.1548334E2,2.6035004E2,3.5513333E2,7.829727E1,1.8205276E2,2.595766E2,9.555674E1,1.3204991E2,5.0002846E1,9.318019E1,1.663964E2,7.571562E1,5.6334293E1,6.300988E1,1.0338652E2,5.3135475E1,5.0251045E1],"tree_param":{"num_deleted":"0","num_feature":"9","num_nodes":"17","size_leaf_vector":"1"}},{"base_weights":[2.7196988E-2,-3.6581197E-1,7.082389E-1,3.7317395E-2,-5.7401854E-1,5.235864E-1,1.6781648E-1,-7.768969E-1,-2.034448E-1,3.3906427E-1,1.3490406E-1,-6.211606E-1,-1.5360919E-1,-6.682301E-2,3.116624E-3,8.326298E-2,1.6826715E-2,-1.276388E-1,-5.5578157E-2],"categories":[],"categories_nodes":[],"categories_segments":[],"categories_sizes":[],"default_left":[0,0,0,0,0,0,0,0,0,0,0,0,0,0,0,0,0,0,0],"id":7,"left_children":[1,3,5,-1,7,9,-1,11,13,15,-1,17,-1,-1,-1,-1,-1,-1,-1],"loss_changes":[1.6752962E2,5.0935066E1,1.6775246E1,0E0,2.2155098E1,1.0778557E1,0E0,6.73275E0,5.781256E0,5.270734E0,0E0,6.5941734E0,0E0,0E0,0E0,0E0,0E0,0E0,0E0],"parents":[2147483647,0,0,1,1,2,2,4,4,5,5,7,7,8,8,9,9,11,11],"right_children":[2,4,6,-1,8,10,-1,12,14,16,-1,18,-1,-1,-1,-1,-1,-1,-1],"split_conditions":[1.065E1,2.4E-1,1.2066667E1,3.7317395E-2,9.9E0,5.9E-1,1.6781648E-1,4.15E-1,5.6E-1,4E-2,1.3490406E-1,5E-1,-1.5360919E-1,-6.682301E-2,3.116624E-3,8.326298E-2,1.6826715E-2,-1.276388E-1,-5.5578157E-2],"split_indices":[8,1,8,0,8,7,0,1,7,4,0,7,0,0,0,0,0,0,0],"split_type":[0,0,0,0,0,0,0,0,0,0,0,0,0,0,0,0,0,0,0],"sum_hessian":[6.23947E2,3.9593033E2,2.2801671E2,1.0013929E2,2.9579102E2,1.5884598E2,6.917073E1,1.9043626E2,1.0535477E2,1.07809105E2,5.103687E1,1.18980644E2,7.145561E1,5.0189617E1,5.516515E1,5.448574E1,5.3323364E1,6.08258E1,5.8154846E1],"tree_param":{"num_deleted":"0","num_feature":"9","num_nodes":"19","size_leaf_vector":"1"}},{"base_weights":[-2.7230546E-2,-5.1733667E-1,4.1452086E-1,-1.2139726E-1,-3.7401646E-1,2.3334819E-1,1.3890974E-1,-2.6458618E-1,-8.389112E-2,-4.2025313E-2,4.2809182E-1,-6.410184E-2,-3.0149363E-3,2.969277E-1,9.716097E-2,3.3453904E-2,5.380904E-2],"categories":[],"categories_nodes":[],"categories_segments":[],"categories_sizes":[],"default_left":[0,0,0,0,0,0,0,0,0,0,0,0,0,0,0,0,0],"id":8,"left_children":[1,3,5,-1,7,9,-1,11,-1,-1,13,-1,-1,15,-1,-1,-1],"loss_changes":[1.3266606E2,1.1851913E1,2.9655212E1,0E0,3.8393803E0,2.4056206E1,0E0,4.987172E0,0E0,0E0,4.818741E0,0E0,0E0,4.257965E-1,0E0,0E0,0E0],"parents":[2147483647,0,0,1,1,2,2,4,4,5,5,7,7,10,10,13,13],"right_children":[2,4,6,-1,8,10,-1,12,-1,-1,14,-1,-1,16,-1,-1,-1],"split_conditions":[1.0033334E1,2.5E-1,1.1733334E1,-1.2139726E-1,7.5E0,1.55E1,1.3890974E-1,9.5E0,-8.389112E-2,-4.2025313E-2,1.1E1,-6.410184E-2,-3.0149363E-3,3.05E1,9.716097E-2,3.3453904E-2,5.380904E-2],"split_indices":[8,2,8,0,0,5,0,8,0,0,8,0,0,5,0,0,0],"split_type":[0,0,0,0,0,0,0,0,0,0,0,0,0,0,0,0,0],"sum_hessian":[6.107715E2,2.8945795E2,3.213135E2,9.377281E1,1.9568515E2,2.383527E2,8.29608E1,1.2454536E2,7.113979E1,6.5416954E1,1.7293575E2,7.432072E1,5.022464E1,1.097498E2,6.3185944E1,5.207981E1,5.766999E1],"tree_param":{"num_deleted":"0","num_feature":"9","num_nodes":"17","size_leaf_vector":"1"}},{"base_weights":[3.9121853E-3,-3.072949E-1,9.5547445E-2,-9.487908E-2,-1.5466817E-2,2.3584192E-1,-1.2961172E-1,4.824231E-1,-3.1382315E-2,-2.6420978E-1,1.375699E-2,4.215631E-2,8.724656E-2,-4.029301E-2,1.8156689E-2,-2.2049729E-2,-5.5122137E-2],"categories":[],"categories_nodes":[],"categories_segments":[],"categories_sizes":[],"default_left":[0,0,0,0,0,0,0,0,0,0,0,0,0,0,0,0,0],"id":9,"left_children":[1,3,5,-1,-1,7,9,11,13,15,-1,-1,-1,-1,-1,-1,-1],"loss_changes":[1.7123453E1,9.005236E0,1.4682449E1,0E0,0E0,1.886877E1,5.34791E0,2.8111725E0,5.032001E0,1.2942362E0,0E0,0E0,0E0,0E0,0E0,0E0,0E0],"parents":[2147483647,0,0,1,1,2,2,5,5,6,6,7,7,8,8,9,9],"right_children":[2,4,6,-1,-1,8,10,12,14,16,-1,-1,-1,-1,-1,-1,-1],"split_conditions":[2.4E-1,3.24E0,5.2E-2,-9.487908E-2,-1.5466817E-2,3.4E-1,3.25E0,2.4E0,3.05E1,2.6E1,1.375699E-2,4.215631E-2,8.724656E-2,-4.029301E-2,1.8156689E-2,-2.2049729E-2,-5.5122137E-2],"split_indices":[2,6,4,0,0,2,6,3,5,5,0,0,0,0,0,0,0],"split_type":[0,0,0,0,0,0,0,0,0,0,0,0,0,0,0,0,0],"sum_hessian":[5.984238E2,1.3558919E2,4.6283466E2,5.148443E1,8.410475E1,2.8512723E2,1.7770743E2,1.4787253E2,1.372547E2,1.10384E2,6.7323425E1,5.0073788E1,9.7798744E1,5.339236E1,8.386234E1,5.2837475E1,5.7546528E1],"tree_param":{"num_deleted":"0","num_feature":"9","num_nodes":"17","size_leaf_vector":"1"}},{"base_weights":[3.5297459E-3,-3.5789263E-1,7.7488475E-2,-9.038489E-2,-1.5309314E-2,3.0181888E-1,-8.789806E-2,-5.8619156E-3,4.8653993E-1,1.8341033E-2,-1.860979E-1,1.07847705E-1,3.47487E-2,-4.4462085E-2,-8.010072E-2,1.8689828E-2,-4.1262783E-2],"categories":[],"categories_nodes":[],"categories_segments":[],"categories_sizes":[],"default_left":[0,0,0,0,0,0,0,0,0,0,0,0,0,0,0,0,0],"id":10,"left_children":[1,3,5,-1,-1,7,9,-1,11,-1,13,-1,-1,15,-1,-1,-1],"loss_changes":[1.604306E1,6.320386E0,1.8509949E1,0E0,0E0,1.3346533E1,5.957321E0,0E0,7.970272E0,0E0,9.652751E0,0E0,0E0,5.5180774E0,0E0,0E0,0E0],"parents":[2147483647,0,0,1,1,2,2,5,5,6,6,8,8,10,10,13,13],"right_children":[2,4,6,-1,-1,8,10,-1,12,-1,14,-1,-1,16,-1,-1,-1],"split_conditions":[2.1E-1,6.9E-2,4.5E-2,-9.038489E-2,-1.5309314E-2,2.5E1,1.95E1,-5.8619156E-3,3.85E1,1.8341033E-2,6.1E-2,1.07847705E-1,3.47487E-2,3.5E-1,-8.010072E-2,1.8689828E-2,-4.1262783E-2],"split_indices":[2,4,4,0,0,5,5,0,5,0,4,0,0,2,0,0,0],"split_type":[0,0,0,0,0,0,0,0,0,0,0,0,0,0,0,0,0],"sum_hessian":[5.981442E2,1.0095536E2,4.9718887E2,5.0910152E1,5.0045204E1,2.1064497E2,2.865439E2,7.430511E1,1.3633986E2,9.117087E1,1.9537305E2,7.035623E1,6.5983635E1,1.396487E2,5.5724354E1,8.084446E1,5.880423E1],"tree_param":{"num_deleted":"0","num_feature":"9","num_nodes":"17","size_leaf_vector":"1"}},{"base_weights":[2.040263E-2,-2.0920148E-1,6.193311E-1,1.353191E-1,-4.7630012E-1,5.2779075E-2,1.3571216E-1,7.343944E-2,-3.592786E-2,-8.658297E-1,-1.4720811E-1,-3.8377844E-2,2.273628E-2,-1.0722754E-1,-1.5075739E-1,3.279322E-3,-6.1908346E-2],"categories":[],"categories_nodes":[],"categories_segments":[],"categories_sizes":[],"default_left":[0,0,0,0,0,0,0,0,0,0,0,0,0,0,0,0,0],"id":11,"left_children":[1,3,5,7,9,-1,-1,-1,11,13,15,-1,-1,-1,-1,-1,-1],"loss_changes":[8.215008E1,3.9808525E1,1.2319008E1,1.1507893E1,3.108817E1,0E0,0E0,0E0,5.3421907E0,1.6211853E0,5.988396E0,0E0,0E0,0E0,0E0,0E0,0E0],"parents":[2147483647,0,0,1,1,2,2,3,3,4,4,8,8,9,9,10,10],"right_children":[2,4,6,8,10,-1,-1,-1,12,14,16,-1,-1,-1,-1,-1,-1],"split_conditions":[1.0933333E1,2.8E-1,1.1733334E1,2E-1,5.3E-1,5.2779075E-2,1.3571216E-1,7.343944E-2,9.533334E0,3.45E-1,5.4E-1,-3.8377844E-2,2.273628E-2,-1.0722754E-1,-1.5075739E-1,3.279322E-3,-6.1908346E-2],"split_indices":[8,1,8,1,7,0,0,0,8,1,1,0,0,0,0,0,0],"split_type":[0,0,0,0,0,0,0,0,0,0,0,0,0,0,0,0,0],"sum_hessian":[5.9544147E2,4.3090228E2,1.6453918E2,1.8839366E2,2.425086E2,8.6092575E1,7.844661E1,6.0784065E1,1.276096E2,1.1030967E2,1.3219894E2,5.8559723E1,6.904987E1,5.5862816E1,5.4446854E1,8.132906E1,5.0869877E1],"tree_param":{"num_deleted":"0","num_feature":"9","num_nodes":"17","size_leaf_vector":"1"}},{"base_weights":[-1.4713057E-2,-8.612935E-2,6.339076E-2,-6.796586E-2,2.531474E-4,9.6627526E-2,-7.586035E-2,8.116252E-2,-3.2460827E-2,5.3058647E-2,-3.7382852E-2,4.565414E-2,-4.9816355E-2,-6.175364E-2,3.4416296E-2],"categories":[],"categories_nodes":[],"categories_segments":[],"categories_sizes":[],"default_left":[0,0,0,0,0,0,0,0,0,0,0,0,0,0,0],"id":12,"left_children":[1,3,-1,-1,5,7,-1,-1,9,11,-1,-1,13,-1,-1],"loss_changes":[1.7823816E1,1.5546327E1,0E0,0E0,1.9455547E1,1.9245665E1,0E0,0E0,4.8448973E0,4.8685427E0,0E0,0E0,1.3642322E1,0E0,0E0],"parents":[2147483647,0,0,1,1,4,4,5,5,8,8,9,9,12,12],"right_children":[2,4,-1,-1,6,8,-1,-1,10,12,-1,-1,14,-1,-1],"split_conditions":[6.8E-1,2.2E-1,6.339076E-2,-6.796586E-2,8.1E0,3.7E-2,-7.586035E-2,8.116252E-2,4E-1,3.14E0,-3.7382852E-2,4.565414E-2,4.8E-1,-6.175364E-2,3.4416296E-2],"split_indices":[7,2,0,0,0,4,0,0,2,6,0,0,7,0,0],"split_type":[0,0,0,0,0,0,0,0,0,0,0,0,0,0,0],"sum_hessian":[5.685319E2,4.8941156E2,7.912038E1,9.244304E1,3.9696854E2,3.3413562E2,6.2832916E1,7.4486E1,2.596496E2,1.8673189E2,7.2917725E1,5.3669613E1,1.3306227E2,5.7751385E1,7.531089E1],"tree_param":{"num_deleted":"0","num_feature":"9","num_nodes":"15","size_leaf_vector":"1"}},{"base_weights":[7.0255958E-3,-4.1578677E-2,6.872001E-2,-6.962304E-2,3.1077549E-2,2.2303775E-1,-1.2357835E-1,3.286918E-1,-1.4566053E-2,-2.5036637E-2,-2.4114367E-1,7.832497E-2,-8.179551E-3,2.4001697E-2,-3.503488E-2,-4.784087E-2,-2.2340605E-2],"categories":[],"categories_nodes":[],"categories_segments":[],"categories_sizes":[],"default_left":[0,0,0,0,0,0,0,0,0,0,0,0,0,0,0,0,0],"id":13,"left_children":[1,3,-1,-1,5,7,9,11,-1,13,15,-1,-1,-1,-1,-1,-1],"loss_changes":[1.3067759E1,1.6537476E1,0E0,0E0,1.3688255E1,6.9885483E0,2.9536932E0,1.151062E1,0E0,5.443511E0,7.873063E-1,0E0,0E0,0E0,0E0,0E0,0E0],"parents":[2147483647,0,0,1,1,4,4,5,5,6,6,7,7,9,9,10,10],"right_children":[2,4,-1,-1,6,8,10,12,-1,14,16,-1,-1,-1,-1,-1,-1],"split_conditions":[7.2E-1,1.2E1,6.872001E-2,-6.962304E-2,4.6E-2,4.6E1,3.4E1,7.1E0,-1.4566053E-2,7.3E0,5E-1,7.832497E-2,-8.179551E-3,2.4001697E-2,-3.503488E-2,-4.784087E-2,-2.2340605E-2],"split_indices":[7,5,0,0,4,5,5,0,0,0,7,0,0,0,0,0,0],"split_type":[0,0,0,0,0,0,0,0,0,0,0,0,0,0,0,0,0],"sum_hessian":[5.9413135E2,5.3716296E2,5.6968388E1,7.8017586E1,4.5914536E2,2.046678E2,2.5447755E2,1.5386322E2,5.080458E1,1.390993E2,1.1537825E2,1.02003075E2,5.1860153E1,7.3822334E1,6.527696E1,6.124567E1,5.413258E1],"tree_param":{"num_deleted":"0","num_feature":"9","num_nodes":"17","size_leaf_vector":"1"}},{"base_weights":[2.3922242E-2,-2.9470983E-1,3.284934E-1,-4.3041986E-1,2.6066365E-2,-4.7004357E-2,4.649377E-1,-5.1432747E-1,-2.7078658E-2,3.349027E-1,1.3795185E-1,-9.283562E-2,-5.654621E-2,8.0327615E-2,2.0033912E-1,-4.091114E-3,6.114752E-2],"categories":[],"categories_nodes":[],"categories_segments":[],"categories_sizes":[],"default_left":[0,0,0,0,0,0,0,0,0,0,0,0,0,0,0,0,0],"id":14,"left_children":[1,3,5,7,-1,-1,9,11,-1,13,-1,-1,-1,-1,15,-1,-1],"loss_changes":[5.4819557E1,1.7629229E1,2.5435999E1,4.40226E0,0E0,0E0,1.3798187E1,2.064186E0,0E0,4.9430084E0,0E0,0E0,0E0,0E0,5.370145E0,0E0,0E0],"parents":[2147483647,0,0,1,1,2,2,3,3,6,6,7,7,9,9,14,14],"right_children":[2,4,6,8,-1,-1,10,12,-1,14,-1,-1,-1,-1,16,-1,-1],"split_conditions":[1.0033334E1,1.25E1,1.45E0,9.8E0,2.6066365E-2,-4.7004357E-2,1.19E1,5.2E-1,-2.7078658E-2,6.9E0,1.3795185E-1,-9.283562E-2,-5.654621E-2,8.0327615E-2,5.5E-1,-4.091114E-3,6.114752E-2],"split_indices":[8,3,3,8,0,0,8,7,0,0,0,0,0,0,7,0,0],"split_type":[0,0,0,0,0,0,0,0,0,0,0,0,0,0,0,0,0],"sum_hessian":[5.6288385E2,2.7510776E2,2.877761E2,2.1337805E2,6.17297E1,5.0222908E1,2.3755319E2,1.5894933E2,5.4428726E1,1.8607953E2,5.1473667E1,8.8251274E1,7.0698044E1,7.3508865E1,1.12570656E2,5.407188E1,5.849877E1],"tree_param":{"num_deleted":"0","num_feature":"9","num_nodes":"17","size_leaf_vector":"1"}},{"base_weights":[-8.3971545E-3,-1.6953157E-1,4.659002E-1,1.2932326E-1,-4.483984E-1,4.2721394E-2,9.6056215E-2,6.2754E-2,-2.7460126E-2,-6.08908E-1,-3.1535987E-2,-3.0705014E-2,1.9414084E-2,-6.882467E-2,-1.1696621E-1],"categories":[],"categories_nodes":[],"categories_segments":[],"categories_sizes":[],"default_left":[0,0,0,0,0,0,0,0,0,0,0,0,0,0,0],"id":15,"left_children":[1,3,5,7,9,-1,-1,-1,11,13,-1,-1,-1,-1,-1],"loss_changes":[4.214293E1,3.435722E1,4.2358456E0,9.049064E0,8.018883E0,0E0,0E0,0E0,3.6479433E0,2.8934479E0,0E0,0E0,0E0,0E0,0E0],"parents":[2147483647,0,0,1,1,2,2,3,3,4,4,8,8,9,9],"right_children":[2,4,6,8,10,-1,-1,-1,12,14,-1,-1,-1,-1,-1],"split_conditions":[1.1E1,2.9E-1,1.16E1,2.05E-1,5.8E-1,4.2721394E-2,9.6056215E-2,6.2754E-2,9.6E0,4.15E-1,-3.1535987E-2,-3.0705014E-2,1.9414084E-2,-6.882467E-2,-1.1696621E-1],"split_indices":[8,1,8,1,7,0,0,0,8,1,0,0,0,0,0],"split_type":[0,0,0,0,0,0,0,0,0,0,0,0,0,0,0],"sum_hessian":[5.493906E2,4.1055435E2,1.3883626E2,1.9843385E2,2.121205E2,6.941808E1,6.9418175E1,6.919732E1,1.2923654E2,1.2578773E2,8.633277E1,6.0539097E1,6.869744E1,6.8929985E1,5.6857742E1],"tree_param":{"num_deleted":"0","num_feature":"9","num_nodes":"15","size_leaf_vector":"1"}},{"base_weights":[2.6212249E-2,-1.4568284E-1,4.2903814E-1,-6.315579E-2,-9.907287E-2,3.489994E-2,9.5835164E-2,-1.6982512E-1,5.8259483E-2,-4.592404E-2,-3.5203734E-1,1.22997565E-2,-3.677846E-2,-8.493637E-2,-1.808695E-2],"categories":[],"categories_nodes":[],"categories_segments":[],"categories_sizes":[],"default_left":[0,0,0,0,0,0,0,0,0,0,0,0,0,0,0],"id":16,"left_children":[1,3,5,7,-1,-1,-1,9,-1,11,13,-1,-1,-1,-1],"loss_changes":[3.8237236E1,1.6406965E1,6.657221E0,1.6191149E1,0E0,0E0,0E0,6.1133404E0,0E0,4.168948E0,5.3726645E0,0E0,0E0,0E0,0E0],"parents":[2147483647,0,0,1,1,2,2,3,3,7,7,9,9,10,10],"right_children":[2,4,6,8,-1,-1,-1,10,-1,12,14,-1,-1,-1,-1],"split_conditions":[1.075E1,5.55E-1,1.145E1,3.34E0,-9.907287E-2,3.489994E-2,9.5835164E-2,2.95E-1,5.8259483E-2,3.17E0,5.3E-2,1.22997565E-2,-3.677846E-2,-8.493637E-2,-1.808695E-2],"split_indices":[8,1,8,6,0,0,0,1,0,6,4,0,0,0,0],"split_type":[0,0,0,0,0,0,0,0,0,0,0,0,0,0,0],"sum_hessian":[5.5030914E2,3.8616287E2,1.6414626E2,3.3377823E2,5.238465E1,8.588811E1,7.825814E1,2.7050198E2,6.3276245E1,1.6176006E2,1.0874193E2,9.8874306E1,6.2885746E1,5.572457E1,5.3017353E1],"tree_param":{"num_deleted":"0","num_feature":"9","num_nodes":"15","size_leaf_vector":"1"}},{"base_weights":[1.1486904E-2,5.620316E-2,-6.6596046E-2,-1.1906714E-2,-6.948702E-2,-1.6820195E-1,1.4067231E-1,-4.1472656E-3,-2.8375491E-1,-2.5664171E-2,2.5346065E-1,-1.5754715E-2,-7.0331074E-2,1.9454475E-2,6.137493E-2],"categories":[],"categories_nodes":[],"categories_segments":[],"categories_sizes":[],"default_left":[0,0,0,0,0,0,0,0,0,0,0,0,0,0,0],"id":17,"left_children":[1,-1,3,5,-1,7,9,-1,11,-1,13,-1,-1,-1,-1],"loss_changes":[1.5345297E1,0E0,9.657969E0,9.384288E0,0E0,3.1487517E0,7.0468073E0,0E0,3.4761686E0,0E0,2.77316E0,0E0,0E0,0E0,0E0],"parents":[2147483647,0,0,2,2,3,3,5,5,6,6,8,8,10,10],"right_children":[2,-1,4,6,-1,8,10,-1,12,-1,14,-1,-1,-1,-1],"split_conditions":[2.1E-1,5.620316E-2,5.95E-1,5.1E-1,-6.948702E-2,2.75E-1,3.15E0,-4.1472656E-3,6.9E0,-2.5664171E-2,7.3E0,-1.5754715E-2,-7.0331074E-2,1.9454475E-2,6.137493E-2],"split_indices":[1,0,1,7,0,1,6,0,0,0,0,0,0,0,0],"split_type":[0,0,0,0,0,0,0,0,0,0,0,0,0,0,0],"sum_hessian":[5.3921356E2,9.473899E1,4.4447458E2,3.9152234E2,5.2952217E1,1.933553E2,1.9816705E2,8.779934E1,1.0555596E2,5.2508198E1,1.4565884E2,5.4503147E1,5.1052814E1,8.2174545E1,6.3484303E1],"tree_param":{"num_deleted":"0","num_feature":"9","num_nodes":"15","size_leaf_vector":"1"}},{"base_weights":[1.3715158E-2,-9.229224E-2,1.3722934E-1,-8.646689E-2,1.322719E-2,-1.2339622E-2,2.505478E-1,3.6077634E-2,-1.340717E-1,5.978355E-2,2.1892307E-2,9.582709E-3,-4.9541302E-2],"categories":[],"categories_nodes":[],"categories_segments":[],"categories_sizes":[],"default_left":[0,0,0,0,0,0,0,0,0,0,0,0,0],"id":18,"left_children":[1,3,5,-1,7,-1,9,-1,11,-1,-1,-1,-1],"loss_changes":[7.100583E0,1.4920628E1,6.249327E0,0E0,8.089177E0,0E0,2.5025682E0,0E0,5.717453E0,0E0,0E0,0E0,0E0],"parents":[2147483647,0,0,1,1,2,2,4,4,6,6,8,8],"right_children":[2,4,6,-1,8,-1,10,-1,12,-1,-1,-1,-1],"split_conditions":[5.3E-1,1.8E1,3.19E0,-8.646689E-2,3.14E0,-1.2339622E-2,3.31E0,3.6077634E-2,3.75E1,5.978355E-2,2.1892307E-2,9.582709E-3,-4.9541302E-2],"split_indices":[7,5,6,0,6,0,6,0,5,0,0,0,0],"split_type":[0,0,0,0,0,0,0,0,0,0,0,0,0],"sum_hessian":[5.403345E2,2.909103E2,2.4942415E2,5.1258503E1,2.396518E2,8.5019226E1,1.6440492E2,9.398888E1,1.4566292E2,6.691248E1,9.749245E1,7.2843285E1,7.281963E1],"tree_param":{"num_deleted":"0","num_feature":"9","num_nodes":"13","size_leaf_vector":"1"}},{"base_weights":[-2.606931E-2,3.729772E-2,-9.2628986E-2,4.6551637E-2,-2.6477536E-2,3.1359952E-2,-9.0957426E-2,-2.6204857E-1,1.479763E-1,-7.5553276E-2,-7.875669E-2,-1.0506679E-2,6.076431E-2,-2.3641238E-2,2.9448974E-3],"categories":[],"categories_nodes":[],"categories_segments":[],"categories_sizes":[],"default_left":[0,0,0,0,0,0,0,0,0,0,0,0,0,0,0],"id":19,"left_children":[1,3,-1,-1,5,-1,7,9,11,13,-1,-1,-1,-1,-1],"loss_changes":[2.0381449E1,8.568315E0,0E0,0E0,6.0853376E0,0E0,1.2886154E1,8.960461E0,7.4154162E0,8.5078365E-1,0E0,0E0,0E0,0E0,0E0],"parents":[2147483647,0,0,1,1,4,4,6,6,7,7,8,8,9,9],"right_children":[2,4,-1,-1,6,-1,8,10,12,14,-1,-1,-1,-1,-1],"split_conditions":[6.1E-1,2.1E-1,-9.2628986E-2,4.6551637E-2,3.9E-2,3.1359952E-2,5.8E-2,2.95E-1,7.7E0,8.1E0,-7.875669E-2,-1.0506679E-2,6.076431E-2,-2.3641238E-2,2.9448974E-3],"split_indices":[1,1,0,0,4,0,4,1,0,3,0,0,0,0,0],"split_type":[0,0,0,0,0,0,0,0,0,0,0,0,0,0,0],"sum_hessian":[5.421969E2,4.9057507E2,5.162186E1,9.21555E1,3.9841956E2,8.51448E1,3.1327475E2,1.8249817E2,1.3077658E2,1.0753231E2,7.4965866E1,7.116268E1,5.9613903E1,5.739725E1,5.013506E1],"tree_param":{"num_deleted":"0","num_feature":"9","num_nodes":"15","size_leaf_vector":"1"}},{"base_weights":[-9.418927E-3,5.3961635E-2,-6.289201E-2,-1.9525743E-1,1.389339E-1,-5.638429E-2,8.1818005E-5,7.854992E-2,6.770877E-2,3.9368514E-2,-3.254426E-2,5.2368466E-2,-3.893434E-2,-1.2285884E-2,2.002176E-2],"categories":[],"categories_nodes":[],"categories_segments":[],"categories_sizes":[],"default_left":[0,0,0,0,0,0,0,0,0,0,0,0,0,0,0],"id":20,"left_children":[1,3,-1,5,7,-1,-1,-1,9,-1,11,13,-1,-1,-1],"loss_changes":[1.3868872E1,9.82167E0,0E0,4.174356E0,9.432117E0,0E0,0E0,0E0,5.7227907E0,0E0,3.7552714E0,1.5585135E0,0E0,0E0,0E0],"parents":[2147483647,0,0,1,1,3,3,4,4,8,8,10,10,11,11],"right_children":[2,4,-1,6,8,-1,-1,-1,10,-1,12,14,-1,-1,-1],"split_conditions":[5.5E-1,1.85E0,-6.289201E-2,2.5E1,2.05E-1,-5.638429E-2,8.1818005E-5,7.854992E-2,4.75E0,3.9368514E-2,4.1E-1,2.7E-1,-3.893434E-2,-1.2285884E-2,2.002176E-2],"split_indices":[1,3,0,5,1,0,0,0,3,0,2,2,0,0,0],"split_type":[0,0,0,0,0,0,0,0,0,0,0,0,0,0,0],"sum_hessian":[5.3201483E2,4.615149E2,7.0499916E1,1.1701584E2,3.4449905E2,6.0386524E1,5.662932E1,5.2821934E1,2.9167712E2,9.85736E1,1.9310352E2,1.4109743E2,5.200609E1,5.3131115E1,8.796632E1],"tree_param":{"num_deleted":"0","num_feature":"9","num_nodes":"15","size_leaf_vector":"1"}},{"base_weights":[2.1043366E-2,-1.2934618E-1,3.724862E-1,1.6278008E-2,-1.9931336E-1,2.2058186E-1,9.640265E-2,-3.2870403E-1,-1.8774018E-2,7.2710253E-3,5.8160566E-2,-1.6219769E-2,-4.5622888E-1,2.2510182E-2,-2.36958E-2,-7.90746E-2,-5.6046497E-2],"categories":[],"categories_nodes":[],"categories_segments":[],"categories_sizes":[],"default_left":[0,0,0,0,0,0,0,0,0,0,0,0,0,0,0,0,0],"id":21,"left_children":[1,3,5,-1,7,9,-1,11,13,-1,-1,-1,15,-1,-1,-1,-1],"loss_changes":[2.7506514E1,6.0891337E0,6.258999E0,0E0,6.5828056E0,2.896883E0,0E0,4.570612E0,2.8161836E0,0E0,0E0,0E0,4.108963E-1,0E0,0E0,0E0,0E0],"parents":[2147483647,0,0,1,1,2,2,4,4,5,5,7,7,8,8,12,12],"right_children":[2,4,6,-1,8,10,-1,12,14,-1,-1,-1,16,-1,-1,-1,-1],"split_conditions":[1.075E1,2.3E-1,1.1733334E1,1.6278008E-2,9.8E0,2.35E1,9.640265E-2,5E-2,1.0133333E1,7.2710253E-3,5.8160566E-2,-1.6219769E-2,3.85E-1,2.2510182E-2,-2.36958E-2,-7.90746E-2,-5.6046497E-2],"split_indices":[8,1,8,0,8,5,0,4,8,0,0,0,1,0,0,0,0],"split_type":[0,0,0,0,0,0,0,0,0,0,0,0,0,0,0,0,0],"sum_hessian":[5.185195E2,3.6357172E2,1.5494778E2,8.251064E1,2.8106107E2,1.0034858E2,5.4599205E1,1.6324464E2,1.1781643E2,5.007734E1,5.027124E1,6.048142E1,1.0276322E2,5.320395E1,6.461248E1,5.2385002E1,5.037822E1],"tree_param":{"num_deleted":"0","num_feature":"9","num_nodes":"17","size_leaf_vector":"1"}},{"base_weights":[6.5553556E-3,-7.596731E-2,6.38566E-2,4.5306217E-2,2.2899825E-2,3.2378912E-2,-2.1099724E-2,1.2192948E-1,-1.111082E-1,-8.941298E-3,4.688755E-2,-1.7206194E-1,9.202826E-3,-1.2346803E-2,-4.8377696E-2],"categories":[],"categories_nodes":[],"categories_segments":[],"categories_sizes":[],"default_left":[0,0,0,0,0,0,0,0,0,0,0,0,0,0,0],"id":22,"left_children":[1,-1,3,-1,5,-1,7,9,11,-1,-1,13,-1,-1,-1],"loss_changes":[1.5254225E1,0E0,4.54573E0,0E0,3.394609E0,0E0,4.2112164E0,4.39398E0,2.1197782E0,0E0,0E0,1.9788847E0,0E0,0E0,0E0],"parents":[2147483647,0,0,2,2,4,4,6,6,7,7,8,8,11,11],"right_children":[2,-1,4,-1,6,-1,8,10,12,-1,-1,14,-1,-1,-1],"split_conditions":[1.4E0,-7.596731E-2,2.1E-1,4.5306217E-2,3.9E-2,3.2378912E-2,2.5E0,2E0,1.195E1,-8.941298E-3,4.688755E-2,4.05E1,9.202826E-3,-1.2346803E-2,-4.8377696E-2],"split_indices":[3,0,1,0,4,0,3,3,3,0,0,5,0,0,0],"split_type":[0,0,0,0,0,0,0,0,0,0,0,0,0,0,0],"sum_hessian":[5.168256E2,5.1140327E1,4.6568527E2,6.739189E1,3.982934E2,7.323149E1,3.250619E2,1.25414925E2,1.9964697E2,6.4595436E1,6.081949E1,1.4751288E2,5.2134087E1,9.336559E1,5.414729E1],"tree_param":{"num_deleted":"0","num_feature":"9","num_nodes":"15","size_leaf_vector":"1"}},{"base_weights":[-7.779396E-3,-1.6030543E-1,1.9747397E-1,1.9462999E-2,-3.030112E-1,-9.528792E-3,3.84598E-1,-6.503003E-2,-2.5650252E-2,2.4447521E-2,8.204509E-2],"categories":[],"categories_nodes":[],"categories_segments":[],"categories_sizes":[],"default_left":[0,0,0,0,0,0,0,0,0,0,0],"id":23,"left_children":[1,3,5,-1,7,-1,9,-1,-1,-1,-1],"loss_changes":[1.6080744E1,1.2235751E1,1.0719981E1,0E0,3.3337784E0,0E0,4.5055885E0,0E0,0E0,0E0,0E0],"parents":[2147483647,0,0,1,1,2,2,4,4,6,6],"right_children":[2,4,6,-1,8,-1,10,-1,-1,-1,-1],"split_conditions":[1.04E1,2.55E-1,2.2E1,1.9462999E-2,7.15E0,-9.528792E-3,1.0933333E1,-6.503003E-2,-2.5650252E-2,2.4447521E-2,8.204509E-2],"split_indices":[8,1,5,0,0,0,8,0,0,0,0],"split_type":[0,0,0,0,0,0,0,0,0,0,0],"sum_hessian":[5.116443E2,2.9364926E2,2.1799501E2,9.6861916E1,1.9678735E2,9.1304565E1,1.2669044E2,9.780255E1,9.89848E1,5.4418926E1,7.227151E1],"tree_param":{"num_deleted":"0","num_feature":"9","num_nodes":"11","size_leaf_vector":"1"}},{"base_weights":[3.117533E-2,-2.1724777E-2,6.54399E-2,-1.1004653E-1,1.3434878E-1,-3.0288422E-1,1.6086563E-2,-1.1779794E-2,5.4245725E-2,-7.713217E-2,-9.91847E-3,-3.9698157E-2,2.1324657E-1,5.274689E-2,8.549736E-3],"categories":[],"categories_nodes":[],"categories_segments":[],"categories_sizes":[],"default_left":[0,0,0,0,0,0,0,0,0,0,0,0,0,0,0],"id":24,"left_children":[1,3,-1,5,7,9,11,-1,-1,-1,-1,-1,13,-1,-1],"loss_changes":[1.1238902E1,6.4170375E0,0E0,7.2325277E0,8.171497E0,5.8478355E0,1.0052561E1,0E0,0E0,0E0,0E0,0E0,2.2860956E0,0E0,0E0],"parents":[2147483647,0,0,1,1,3,3,4,4,5,5,6,6,12,12],"right_children":[2,4,-1,6,8,10,12,-1,-1,-1,-1,-1,14,-1,-1],"split_conditions":[1.16E1,7.1E0,6.54399E-2,4.9E-2,9.5E0,1.85E0,9.8E0,-1.1779794E-2,5.4245725E-2,-7.713217E-2,-9.91847E-3,-3.9698157E-2,1.8E1,5.274689E-2,8.549736E-3],"split_indices":[8,3,0,4,8,3,8,0,0,0,0,0,5,0,0],"split_type":[0,0,0,0,0,0,0,0,0,0,0,0,0,0,0],"sum_hessian":[5.23021E2,4.6344666E2,5.957435E1,2.961505E2,1.6729614E2,1.16554955E2,1.7959555E2,8.672418E1,8.057196E1,6.0965755E1,5.5589203E1,7.395165E1,1.056439E2,5.5358604E1,5.0285294E1],"tree_param":{"num_deleted":"0","num_feature":"9","num_nodes":"15","size_leaf_vector":"1"}},{"base_weights":[9.336098E-3,-1.8300143E-1,1.5396947E-1,-8.3806604E-2,-6.633802E-2,-2.983475E-2,2.60225E-1,-3.660794E-2,6.627974E-3,1.5455136E-1,8.1860036E-2,4.4426464E-2,4.302847E-3],"categories":[],"categories_nodes":[],"categories_segments":[],"categories_sizes":[],"default_left":[0,0,0,0,0,0,0,0,0,0,0,0,0],"id":25,"left_children":[1,3,5,7,-1,-1,9,-1,-1,11,-1,-1,-1],"loss_changes":[1.40891075E1,5.553846E0,1.0889366E1,3.2611904E0,0E0,0E0,6.6312494E0,0E0,0E0,2.9122903E0,0E0,0E0,0E0],"parents":[2147483647,0,0,1,1,2,2,3,3,6,6,9,9],"right_children":[2,4,6,8,-1,-1,10,-1,-1,12,-1,-1,-1],"split_conditions":[9.9E0,4.4E-1,1.5E1,3E1,-6.633802E-2,-2.983475E-2,1.1266666E1,-3.660794E-2,6.627974E-3,3E-1,8.1860036E-2,4.4426464E-2,4.302847E-3],"split_indices":[8,2,5,5,0,0,8,0,0,2,0,0,0],"split_type":[0,0,0,0,0,0,0,0,0,0,0,0,0],"sum_hessian":[5.0445392E2,2.1640594E2,2.8804797E2,1.5747589E2,5.8930054E1,6.646155E1,2.2158643E2,6.952473E1,8.795116E1,1.628522E2,5.8734222E1,7.599215E1,8.6860054E1],"tree_param":{"num_deleted":"0","num_feature":"9","num_nodes":"13","size_leaf_vector":"1"}},{"base_weights":[2.8514644E-2,-1.0952189E-1,1.7508142E-1,-2.3734322E-1,2.1389203E-2,-2.3344297E-2,3.5758516E-1,2.354338E-4,-3.598332E-1,-1.9824885E-2,9.004645E-3,2.9055214E-2,6.9808364E-2,-2.016746E-2,-8.1166305E-2],"categories":[],"categories_nodes":[],"categories_segments":[],"categories_sizes":[],"default_left":[0,0,0,0,0,0,0,0,0,0,0,0,0,0,0],"id":26,"left_children":[1,3,5,7,-1,9,11,-1,13,-1,-1,-1,-1,-1,-1],"loss_changes":[1.0328331E1,8.510232E0,8.972166E0,5.119357E0,0E0,1.0924277E0,2.1889E0,0E0,4.651717E0,0E0,0E0,0E0,0E0,0E0,0E0],"parents":[2147483647,0,0,1,1,2,2,3,3,5,5,6,6,8,8],"right_children":[2,4,6,8,-1,10,12,-1,14,-1,-1,-1,-1,-1,-1],"split_conditions":[1.0033334E1,1.02E1,2.35E1,1.9E1,2.1389203E-2,1.2E1,2.2E0,2.354338E-4,2.75E-1,-1.9824885E-2,9.004645E-3,2.9055214E-2,6.9808364E-2,-2.016746E-2,-8.1166305E-2],"split_indices":[8,3,5,5,0,5,3,0,1,0,0,0,0,0,0],"split_type":[0,0,0,0,0,0,0,0,0,0,0,0,0,0,0],"sum_hessian":[5.085579E2,2.6203046E2,2.4652744E2,1.7391524E2,8.811522E1,1.18529396E2,1.2799804E2,5.927956E1,1.1463569E2,5.1164356E1,6.7365036E1,5.189855E1,7.6099495E1,5.1877285E1,6.27584E1],"tree_param":{"num_deleted":"0","num_feature":"9","num_nodes":"15","size_leaf_vector":"1"}},{"base_weights":[1.0029294E-2,9.3540736E-2,-2.3549671E-1,-3.808496E-2,1.4853649E-1,-1.8458702E-2,-5.9130985E-2,2.4689957E-1,4.6949442E-2,3.6137405E-1,-6.7317195E-4,-1.4032078E-2,3.788083E-2,4.3152772E-2,6.6742525E-2],"categories":[],"categories_nodes":[],"categories_segments":[],"categories_sizes":[],"default_left":[0,0,0,0,0,0,0,0,0,0,0,0,0,0,0],"id":27,"left_children":[1,3,5,-1,7,-1,-1,9,11,13,-1,-1,-1,-1,-1],"loss_changes":[1.0307966E1,7.20396E0,2.2286286E0,0E0,3.2301712E0,0E0,0E0,4.7381544E0,4.6691537E0,5.685663E-1,0E0,0E0,0E0,0E0,0E0],"parents":[2147483647,0,0,1,1,2,2,4,4,7,7,8,8,9,9],"right_children":[2,4,6,-1,8,-1,-1,10,12,14,-1,-1,-1,-1,-1],"split_conditions":[4.05E-1,1.4E0,1.95E1,-3.808496E-2,2.7E-1,-1.8458702E-2,-5.9130985E-2,3.26E0,3.25E-1,8.7E0,-6.7317195E-4,-1.4032078E-2,3.788083E-2,4.3152772E-2,6.6742525E-2],"split_indices":[1,3,5,0,1,0,0,6,1,3,0,0,0,0,0],"split_type":[0,0,0,0,0,0,0,0,0,0,0,0,0,0,0],"sum_hessian":[5.006495E2,3.7404395E2,1.26605576E2,5.0621506E1,3.2342242E2,7.5144485E1,5.146109E1,1.6359189E2,1.5983055E2,1.1210501E2,5.148687E1,9.52697E1,6.456085E1,6.1937214E1,5.0167797E1],"tree_param":{"num_deleted":"0","num_feature":"9","num_nodes":"15","size_leaf_vector":"1"}},{"base_weights":[4.78125E-2,1.3837574E-1,-1.9696398E-2,1.5747702E-2,4.980363E-2,9.8989256E-2,-9.498637E-2,-3.4903683E-2,2.7003827E-2,-1.3269734E-2,4.020723E-2,3.8843132E-3,-3.2852367E-2],"categories":[],"categories_nodes":[],"categories_segments":[],"categories_sizes":[],"default_left":[0,0,0,0,0,0,0,0,0,0,0,0,0],"id":28,"left_children":[1,3,5,7,-1,9,11,-1,-1,-1,-1,-1,-1],"loss_changes":[2.9830365E0,4.941498E0,2.5128577E0,5.290203E0,0E0,3.4853296E0,2.5833693E0,0E0,0E0,0E0,0E0,0E0,0E0],"parents":[2147483647,0,0,1,1,2,2,3,3,5,5,6,6],"right_children":[2,4,6,8,-1,10,12,-1,-1,-1,-1,-1,-1],"split_conditions":[2.5E0,3.31E0,3.14E0,1.45E0,4.980363E-2,3.06E0,3.5E1,-3.4903683E-2,2.7003827E-2,-1.3269734E-2,4.020723E-2,3.8843132E-3,-3.2852367E-2],"split_indices":[3,6,6,3,0,6,5,0,0,0,0,0,0],"split_type":[0,0,0,0,0,0,0,0,0,0,0,0,0],"sum_hessian":[4.864708E2,2.0731192E2,2.7915887E2,1.2759413E2,7.971778E1,1.0823095E2,1.7092793E2,5.062182E1,7.697231E1,5.1549313E1,5.6681637E1,8.696304E1,8.396489E1],"tree_param":{"num_deleted":"0","num_feature":"9","num_nodes":"13","size_leaf_vector":"1"}},{"base_weights":[-1.130941E-2,-1.3457483E-1,9.578952E-2,-2.599402E-1,-2.4196101E-2,-9.6810155E-2,2.4859758E-1,-1.9764762E-2,-5.895314E-2,1.2062572E-2,-2.0658648E-2,-7.781294E-2,3.3180453E-2,5.4613065E-2,1.412164E-2],"categories":[],"categories_nodes":[],"categories_segments":[],"categories_sizes":[],"default_left":[0,0,0,0,0,0,0,0,0,0,0,0,0,0,0],"id":29,"left_children":[1,3,5,7,9,11,13,-1,-1,-1,-1,-1,-1,-1,-1],"loss_changes":[6.623229E0,3.220757E0,7.9266834E0,1.8090029E0,1.4970578E0,1.615109E1,2.641468E0,0E0,0E0,0E0,0E0,0E0,0E0,0E0,0E0],"parents":[2147483647,0,0,1,1,2,2,3,3,4,4,5,5,6,6],"right_children":[2,4,6,8,10,12,14,-1,-1,-1,-1,-1,-1,-1,-1],"split_conditions":[9.95E0,6.4E0,2.2E1,7.3E0,4.7E1,5E-2,7.1E0,-1.9764762E-2,-5.895314E-2,1.2062572E-2,-2.0658648E-2,-7.781294E-2,3.3180453E-2,5.4613065E-2,1.412164E-2],"split_indices":[8,3,5,0,5,4,0,0,0,0,0,0,0,0,0],"split_type":[0,0,0,0,0,0,0,0,0,0,0,0,0,0,0],"sum_hessian":[4.9972272E2,2.3220734E2,2.6751538E2,1.0808834E2,1.24119E2,1.1851067E2,1.490047E2,5.6072704E1,5.2015636E1,6.474753E1,5.9371475E1,5.0661415E1,6.784926E1,8.447951E1,6.452519E1],"tree_param":{"num_deleted":"0","num_feature":"9","num_nodes":"15","size_leaf_vector":"1"}},{"base_weights":[-2.1417908E-2,-6.0042765E-2,4.445443E-2,-1.5643555E-1,-3.7610298E-3,-4.8094794E-2,-7.497346E-2,-7.83519E-2,3.9903745E-2,2.892667E-2,-4.5700323E-2,-4.6141304E-2,1.6378056E-2,1.3377956E-1,-3.00122E-2,8.033275E-3,3.1745255E-2],"categories":[],"categories_nodes":[],"categories_segments":[],"categories_sizes":[],"default_left":[0,0,0,0,0,0,0,0,0,0,0,0,0,0,0,0,0],"id":30,"left_children":[1,3,-1,5,7,-1,9,11,-1,-1,-1,-1,13,15,-1,-1,-1],"loss_changes":[6.0684633E0,2.3884597E0,0E0,2.1469967E0,5.6364083E0,0E0,6.8128204E0,4.7695146E0,0E0,0E0,0E0,0E0,3.995929E0,6.249012E-1,0E0,0E0,0E0],"parents":[2147483647,0,0,1,1,3,3,4,4,6,6,7,7,12,12,13,13],"right_children":[2,4,-1,6,8,-1,10,12,-1,-1,-1,-1,14,16,-1,-1,-1],"split_conditions":[1.16E1,9.533334E0,4.445443E-2,4.8E-2,7.2E0,-4.8094794E-2,9.233334E0,3.17E0,3.9903745E-2,2.892667E-2,-4.5700323E-2,-4.6141304E-2,2.5E0,5.4E-2,-3.00122E-2,8.033275E-3,3.1745255E-2],"split_indices":[8,8,0,4,3,0,8,6,0,0,0,0,3,4,0,0,0],"split_type":[0,0,0,0,0,0,0,0,0,0,0,0,0,0,0,0,0],"sum_hessian":[4.9195688E2,4.3936505E2,5.2591835E1,1.6131096E2,2.7805408E2,5.251827E1,1.08792694E2,2.1838438E2,5.9669697E1,5.030223E1,5.8490463E1,6.3195995E1,1.551884E2,1.0086436E2,5.432404E1,5.0507713E1,5.0356644E1],"tree_param":{"num_deleted":"0","num_feature":"9","num_nodes":"17","size_leaf_vector":"1"}},{"base_weights":[2.3227945E-2,-1.5246645E-1,1.16908684E-1,2.2615555E-3,-4.083803E-2,6.192481E-2,4.800288E-2,2.3158374E-1,-8.002839E-2,2.7066402E-2,4.2717203E-2,3.2136764E-2,-4.222378E-2],"categories":[],"categories_nodes":[],"categories_segments":[],"categories_sizes":[],"default_left":[0,0,0,0,0,0,0,0,0,0,0,0,0],"id":31,"left_children":[1,3,5,-1,-1,7,-1,9,11,-1,-1,-1,-1],"loss_changes":[8.027743E0,3.4094598E0,3.5312734E0,0E0,0E0,6.0749598E0,0E0,2.609768E-1,8.221533E0,0E0,0E0,0E0,0E0],"parents":[2147483647,0,0,1,1,2,2,5,5,7,7,8,8],"right_children":[2,4,6,-1,-1,8,-1,10,12,-1,-1,-1,-1],"split_conditions":[9.533334E0,3.14E0,7.3E-2,2.2615555E-3,-4.083803E-2,2.7E-1,4.800288E-2,1.065E1,6.7E0,2.7066402E-2,4.2717203E-2,3.2136764E-2,-4.222378E-2],"split_indices":[8,6,4,0,0,1,0,8,0,0,0,0,0],"split_type":[0,0,0,0,0,0,0,0,0,0,0,0,0],"sum_hessian":[4.8565353E2,1.6867776E2,3.1697577E2,7.068556E1,9.7992195E1,2.5047484E2,6.650094E1,1.13814804E2,1.3666003E2,6.0268295E1,5.354651E1,5.551174E1,8.1148285E1],"tree_param":{"num_deleted":"0","num_feature":"9","num_nodes":"13","size_leaf_vector":"1"}},{"base_weights":[2.081256E-2,-1.1096886E-1,1.6931213E-1,-5.9552655E-2,1.5069264E-3,3.941016E-3,2.5492015E-1,-1.1446953E-1,2.3899732E-2,5.608042E-2,1.3059013E-2,3.5616015E-3,-3.6242418E-2],"categories":[],"categories_nodes":[],"categories_segments":[],"categories_sizes":[],"default_left":[0,0,0,0,0,0,0,0,0,0,0,0,0],"id":32,"left_children":[1,3,5,-1,7,-1,9,11,-1,-1,-1,-1,-1],"loss_changes":[9.5456085E0,8.318529E0,2.8009834E0,0E0,3.4330833E0,0E0,2.8291864E0,1.9057869E0,0E0,0E0,0E0,0E0,0E0],"parents":[2147483647,0,0,1,1,2,2,4,4,6,6,7,7],"right_children":[2,4,6,-1,8,-1,10,12,-1,-1,-1,-1,-1],"split_conditions":[5.3E-1,2.7E-1,9.9E0,-5.9552655E-2,4.6E-1,3.941016E-3,3.31E0,3.14E0,2.3899732E-2,5.608042E-2,1.3059013E-2,3.5616015E-3,-3.6242418E-2],"split_indices":[7,2,8,0,7,0,6,6,0,0,0,0,0],"split_type":[0,0,0,0,0,0,0,0,0,0,0,0,0],"sum_hessian":[4.8582022E2,2.5753308E2,2.2828716E2,7.1969696E1,1.8556339E2,8.596273E1,1.4232442E2,1.0712093E2,7.844246E1,8.257952E1,5.9744904E1,5.1716373E1,5.540456E1],"tree_param":{"num_deleted":"0","num_feature":"9","num_nodes":"13","size_leaf_vector":"1"}},{"base_weights":[-3.799582E-2,-6.2301528E-2,6.012828E-3,4.482199E-2,-4.1734852E-2,-2.5444446E-2,8.541842E-2,4.6692483E-2,2.4396794E-2,-6.8953104E-2,1.6449969E-1,8.818045E-3,-2.4425449E-2,4.694103E-2,2.4555968E-3],"categories":[],"categories_nodes":[],"categories_segments":[],"categories_sizes":[],"default_left":[0,0,0,0,0,0,0,0,0,0,0,0,0,0,0],"id":33,"left_children":[1,-1,3,5,-1,-1,7,-1,9,11,13,-1,-1,-1,-1],"loss_changes":[8.160166E0,0E0,4.876296E0,3.3994088E0,0E0,0E0,4.507361E0,0E0,3.3985674E0,1.8820239E0,2.2785153E0,0E0,0E0,0E0,0E0],"parents":[2147483647,0,0,2,2,3,3,6,6,8,8,9,9,10,10],"right_children":[2,-1,4,6,-1,-1,8,-1,10,12,14,-1,-1,-1,-1],"split_conditions":[1.4E0,-6.2301528E-2,5.85E-1,3.06E0,-4.1734852E-2,-2.5444446E-2,3.14E0,4.6692483E-2,3.25E-1,2.35E-1,2.9E-1,8.818045E-3,-2.4425449E-2,4.694103E-2,2.4555968E-3],"split_indices":[3,0,1,6,0,0,6,0,1,1,2,0,0,0,0],"split_type":[0,0,0,0,0,0,0,0,0,0,0,0,0,0,0],"sum_hessian":[4.902317E2,5.0321064E1,4.3991064E2,3.878044E2,5.2106216E1,6.122157E1,3.2658286E2,6.859284E1,2.5799002E2,1.5513327E2,1.0285673E2,6.587533E1,8.925795E1,5.081863E1,5.2038097E1],"tree_param":{"num_deleted":"0","num_feature":"9","num_nodes":"15","size_leaf_vector":"1"}},{"base_weights":[2.5316343E-2,-1.0605573E-1,9.007524E-2,-5.6009497E-2,5.8293417E-2,4.236616E-2,2.7477546E-2,2.9796971E-2,-1.2523957E-2,-5.226481E-2,5.0808545E-2,-2.8515385E-2,6.863952E-2,3.8205616E-2,-2.0382732E-2],"categories":[],"categories_nodes":[],"categories_segments":[],"categories_sizes":[],"default_left":[0,0,0,0,0,0,0,0,0,0,0,0,0,0,0],"id":34,"left_children":[1,3,5,-1,7,-1,9,-1,-1,11,-1,-1,13,-1,-1],"loss_changes":[4.2229233E0,7.2267222E0,3.9933226E0,0E0,2.0547152E0,0E0,6.2672586E0,0E0,0E0,3.3679447E0,0E0,0E0,4.1436872E0,0E0,0E0],"parents":[2147483647,0,0,1,1,2,2,4,4,6,6,9,9,12,12],"right_children":[2,4,6,-1,8,-1,10,-1,-1,12,-1,-1,14,-1,-1],"split_conditions":[4.4E-2,2.5E1,1.4E1,-5.6009497E-2,3.85E1,4.236616E-2,1.22E1,2.9796971E-2,-1.2523957E-2,2.85E1,5.0808545E-2,-2.8515385E-2,4.25E1,3.8205616E-2,-2.0382732E-2],"split_indices":[4,5,5,0,5,0,3,0,0,5,0,0,5,0,0],"split_type":[0,0,0,0,0,0,0,0,0,0,0,0,0,0,0],"sum_hessian":[4.9425308E2,1.6298285E2,3.3127023E2,6.1565113E1,1.0141774E2,8.046998E1,2.5080025E2,5.0764965E1,5.065278E1,2.0031174E2,5.0488503E1,9.333371E1,1.06978035E2,5.588852E1,5.108952E1],"tree_param":{"num_deleted":"0","num_feature":"9","num_nodes":"15","size_leaf_vector":"1"}},{"base_weights":[1.2969374E-2,-8.811175E-2,1.4599921E-1,-6.7887686E-2,3.9576758E-2,5.6605402E-2,6.3924156E-2,1.4889361E-1,-3.4429837E-2,4.8769053E-2,-6.66449E-2,5.919506E-2,-1.1379009E-2,-2.8239433E-2,1.0789394E-2],"categories":[],"categories_nodes":[],"categories_segments":[],"categories_sizes":[],"default_left":[0,0,0,0,0,0,0,0,0,0,0,0,0,0,0],"id":35,"left_children":[1,3,5,-1,7,-1,9,11,-1,-1,13,-1,-1,-1,-1],"loss_changes":[6.726097E0,1.3249455E1,4.0763793E0,0E0,6.2551622E0,0E0,5.498765E0,8.369096E0,0E0,0E0,1.8320283E0,0E0,0E0,0E0,0E0],"parents":[2147483647,0,0,1,1,2,2,4,4,6,6,7,7,10,10],"right_children":[2,4,6,-1,8,-1,10,12,-1,-1,14,-1,-1,-1,-1],"split_conditions":[5.4E-1,2.6E-1,2.65E-1,-6.7887686E-2,7.5E0,5.6605402E-2,2.2E-1,3.17E0,-3.4429837E-2,4.8769053E-2,3.8E-1,5.919506E-2,-1.1379009E-2,-2.8239433E-2,1.0789394E-2],"split_indices":[7,2,1,0,0,0,2,6,0,0,2,0,0,0,0],"split_type":[0,0,0,0,0,0,0,0,0,0,0,0,0,0,0],"sum_hessian":[4.9824368E2,2.8331094E2,2.1493275E2,7.28433E1,2.1046764E2,5.533766E1,1.595951E2,1.4998697E2,6.048066E1,5.2692963E1,1.0690213E2,7.128733E1,7.8699646E1,5.67434E1,5.0158733E1],"tree_param":{"num_deleted":"0","num_feature":"9","num_nodes":"15","size_leaf_vector":"1"}},{"base_weights":[-3.2460958E-2,1.2002631E-4,-3.731935E-2,4.7718152E-2,-2.870329E-2,-1.8047402E-2,1.5817085E-1,3.5271674E-2,-9.7393475E-2,3.8479112E-2,5.6102853E-3,8.280651E-3,-4.323065E-2],"categories":[],"categories_nodes":[],"categories_segments":[],"categories_sizes":[],"default_left":[0,0,0,0,0,0,0,0,0,0,0,0,0],"id":36,"left_children":[1,3,-1,5,-1,7,9,-1,11,-1,-1,-1,-1],"loss_changes":[3.4181168E0,3.859461E0,0E0,2.4664974E0,0E0,4.3116784E0,1.4951413E0,0E0,4.769299E0,0E0,0E0,0E0,0E0],"parents":[2147483647,0,0,1,1,3,3,5,5,6,6,8,8],"right_children":[2,4,-1,6,-1,8,10,-1,12,-1,-1,-1,-1],"split_conditions":[5.55E-1,1.11E1,-3.731935E-2,3.6E-1,-2.870329E-2,3.8E-2,4.6E-1,3.5271674E-2,2.9E-1,3.8479112E-2,5.6102853E-3,8.280651E-3,-4.323065E-2],"split_indices":[1,3,0,2,0,4,2,0,2,0,0,0,0],"split_type":[0,0,0,0,0,0,0,0,0,0,0,0,0],"sum_hessian":[4.8394525E2,4.2146948E2,6.247576E1,3.3815866E2,8.3310814E1,2.124805E2,1.2567817E2,5.0230938E1,1.6224956E2,6.864679E1,5.7031376E1,9.0546875E1,7.170268E1],"tree_param":{"num_deleted":"0","num_feature":"9","num_nodes":"13","size_leaf_vector":"1"}},{"base_weights":[-1.9054364E-2,-5.623533E-2,3.975928E-2,-4.4221036E-2,-2.043023E-2,-2.938984E-2,9.708838E-3,-6.4603224E-2,1.150254E-1,1.3765216E-1,-4.551895E-2,-1.8606851E-3,3.4519643E-2,4.1459575E-2,-1.3950361E-4],"categories":[],"categories_nodes":[],"categories_segments":[],"categories_sizes":[],"default_left":[0,0,0,0,0,0,0,0,0,0,0,0,0,0,0],"id":37,"left_children":[1,3,-1,-1,5,-1,7,9,11,13,-1,-1,-1,-1,-1],"loss_changes":[5.175197E0,3.6908865E0,0E0,0E0,1.9980696E0,0E0,2.5355422E0,9.222227E0,1.9682907E0,1.9920033E0,0E0,0E0,0E0,0E0,0E0],"parents":[2147483647,0,0,1,1,4,4,6,6,7,7,8,8,9,9],"right_children":[2,4,-1,-1,6,-1,8,10,12,14,-1,-1,-1,-1,-1],"split_conditions":[1.145E1,6.15E0,3.975928E-2,-4.4221036E-2,3.9E-2,-2.938984E-2,3.3E1,1.95E1,9.5E0,2.2E0,-4.551895E-2,-1.8606851E-3,3.4519643E-2,4.1459575E-2,-1.3950361E-4],"split_indices":[8,0,0,0,4,0,5,5,8,3,0,0,0,0,0],"split_type":[0,0,0,0,0,0,0,0,0,0,0,0,0,0,0],"sum_hessian":[4.874921E2,4.317881E2,5.570402E1,5.5402718E1,3.7638538E2,5.435738E1,3.2202798E2,1.890322E2,1.3299579E2,1.0258795E2,8.6444244E1,6.3542255E1,6.945354E1,5.0766922E1,5.1821033E1],"tree_param":{"num_deleted":"0","num_feature":"9","num_nodes":"15","size_leaf_vector":"1"}},{"base_weights":[3.8701617E-3,-2.8624263E-2,4.0206525E-2,5.286732E-2,-1.4858347E-1,-2.8360775E-2,1.6828164E-1,-9.399156E-3,-5.760495E-2,-2.5955006E-2,2.3902588E-2,5.4335285E-2,-9.239008E-4,-2.9948242E-2,3.021055E-2],"categories":[],"categories_nodes":[],"categories_segments":[],"categories_sizes":[],"default_left":[0,0,0,0,0,0,0,0,0,0,0,0,0,0,0],"id":38,"left_children":[1,3,-1,5,7,9,11,13,-1,-1,-1,-1,-1,-1,-1],"loss_changes":[4.3011565E0,4.3705735E0,0E0,2.5030751E0,5.9211874E0,4.298362E0,3.7314947E0,4.6384444E0,0E0,0E0,0E0,0E0,0E0,0E0,0E0],"parents":[2147483647,0,0,1,1,3,3,4,4,5,5,6,6,7,7],"right_children":[2,4,-1,6,8,10,12,14,-1,-1,-1,-1,-1,-1,-1],"split_conditions":[1.145E1,3.4E-1,4.0206525E-2,1.0033334E1,3.05E-1,3.35E-1,3E-1,4.7E-2,-5.760495E-2,-2.5955006E-2,2.3902588E-2,5.4335285E-2,-9.239008E-4,-2.9948242E-2,3.021055E-2],"split_indices":[8,2,0,8,1,1,1,4,0,0,0,0,0,0,0],"split_type":[0,0,0,0,0,0,0,0,0,0,0,0,0,0,0],"sum_hessian":[4.9916354E2,4.4528345E2,5.388008E1,2.6548886E2,1.7979459E2,1.5626471E2,1.0922415E2,1.136507E2,6.614389E1,8.829349E1,6.797122E1,5.1209698E1,5.8014458E1,5.9764423E1,5.388628E1],"tree_param":{"num_deleted":"0","num_feature":"9","num_nodes":"15","size_leaf_vector":"1"}},{"base_weights":[8.111491E-4,-1.6379419E-1,5.4914366E-2,-4.2801205E-2,-4.054585E-3,-8.213915E-3,1.7833143E-1,1.2560083E-1,-1.360229E-1,4.421325E-2,2.6596212E-3,4.964546E-2,-1.3432102E-2,-4.7022484E-2,3.4806835E-3],"categories":[],"categories_nodes":[],"categories_segments":[],"categories_sizes":[],"default_left":[0,0,0,0,0,0,0,0,0,0,0,0,0,0,0],"id":39,"left_children":[1,3,5,-1,-1,7,9,11,13,-1,-1,-1,-1,-1,-1],"loss_changes":[4.3359976E0,1.9944487E0,2.856333E0,0E0,0E0,4.179565E0,2.3141353E0,5.306045E0,3.5383296E0,0E0,0E0,0E0,0E0,0E0,0E0],"parents":[2147483647,0,0,1,1,2,2,5,5,6,6,7,7,8,8],"right_children":[2,4,6,-1,-1,8,10,12,14,-1,-1,-1,-1,-1,-1],"split_conditions":[6.5E0,1.03E1,3.26E0,-4.2801205E-2,-4.054585E-3,7.4E0,3.38E0,3.14E0,2.8E0,4.421325E-2,2.6596212E-3,4.964546E-2,-1.3432102E-2,-4.7022484E-2,3.4806835E-3],"split_indices":[0,8,6,0,0,0,6,6,3,0,0,0,0,0,0],"split_type":[0,0,0,0,0,0,0,0,0,0,0,0,0,0,0],"sum_hessian":[4.848701E2,1.1944361E2,3.6542645E2,6.266469E1,5.6778927E1,2.423811E2,1.23045364E2,1.1841697E2,1.2396413E2,7.084945E1,5.219592E1,6.0309975E1,5.8106995E1,5.8167355E1,6.5796776E1],"tree_param":{"num_deleted":"0","num_feature":"9","num_nodes":"15","size_leaf_vector":"1"}},{"base_weights":[-1.6992211E-2,-7.168016E-2,1.4486825E-1,1.2361473E-1,-2.1160196E-1,-5.86833E-3,5.2092772E-2,1.5976479E-3,4.440005E-2,-7.0590824E-2,-6.614009E-2,1.5497594E-2,-4.754922E-2],"categories":[],"categories_nodes":[],"categories_segments":[],"categories_sizes":[],"default_left":[0,0,0,0,0,0,0,0,0,0,0,0,0],"id":40,"left_children":[1,3,5,7,9,-1,-1,-1,-1,11,-1,-1,-1],"loss_changes":[4.3419943E0,1.0039349E1,4.6284337E0,2.9876294E0,6.8844614E0,0E0,0E0,0E0,0E0,5.758419E0,0E0,0E0,0E0],"parents":[2147483647,0,0,1,1,2,2,3,3,4,4,9,9],"right_children":[2,4,6,8,10,-1,-1,-1,-1,12,-1,-1,-1],"split_conditions":[1.09E1,2.9E-1,3.3E-1,7.15E0,7.5E0,-5.86833E-3,5.2092772E-2,1.5976479E-3,4.440005E-2,9.733334E0,-6.614009E-2,1.5497594E-2,-4.754922E-2],"split_indices":[8,2,2,0,0,0,0,0,0,8,0,0,0],"split_type":[0,0,0,0,0,0,0,0,0,0,0,0,0],"sum_hessian":[4.88347E2,3.6543445E2,1.2291254E2,1.5258356E2,2.128509E2,6.48095E1,5.8103035E1,9.282041E1,5.976314E1,1.3261604E2,8.0234856E1,7.808533E1,5.453072E1],"tree_param":{"num_deleted":"0","num_feature":"9","num_nodes":"13","size_leaf_vector":"1"}},{"base_weights":[-2.1912884E-3,4.797423E-2,-5.024526E-2,-3.9569724E-2,9.3514286E-2,2.9817369E-2,6.351521E-2,4.2848244E-2,-3.6663987E-2,2.5201578E-2,-3.0324714E-2,3.0287283E-2,-2.121824E-2],"categories":[],"categories_nodes":[],"categories_segments":[],"categories_sizes":[],"default_left":[0,0,0,0,0,0,0,0,0,0,0,0,0],"id":41,"left_children":[1,3,-1,-1,5,7,-1,-1,9,11,-1,-1,-1],"loss_changes":[8.082632E0,5.998934E0,0E0,0E0,7.7185006E0,5.2733946E0,0E0,0E0,2.528892E0,5.3388557E0,0E0,0E0,0E0],"parents":[2147483647,0,0,1,1,4,4,5,5,8,8,9,9],"right_children":[2,4,-1,-1,6,8,-1,-1,10,12,-1,-1,-1],"split_conditions":[5.55E-1,1.2E1,-5.024526E-2,-3.9569724E-2,1.12E1,2.1E-1,6.351521E-2,4.2848244E-2,1.03E1,5E-2,-3.0324714E-2,3.0287283E-2,-2.121824E-2],"split_indices":[1,5,0,0,8,1,0,0,8,4,0,0,0],"split_type":[0,0,0,0,0,0,0,0,0,0,0,0,0],"sum_hessian":[4.8220316E2,4.197782E2,6.2424934E1,5.2890587E1,3.6688763E2,3.0843015E2,5.845747E1,6.2936665E1,2.4549348E2,1.7931265E2,6.618083E1,8.692766E1,9.2384995E1],"tree_param":{"num_deleted":"0","num_feature":"9","num_nodes":"13","size_leaf_vector":"1"}},{"base_weights":[-1.8392062E-3,-8.904527E-2,9.4339535E-2,1.3368162E-2,-1.5168478E-1,-8.410027E-3,1.8954216E-1,-4.6202313E-2,-5.4959107E-2,4.836694E-2,8.95578E-3,-2.8166397E-2,1.1056266E-2],"categories":[],"categories_nodes":[],"categories_segments":[],"categories_sizes":[],"default_left":[0,0,0,0,0,0,0,0,0,0,0,0,0],"id":42,"left_children":[1,3,5,-1,7,-1,9,-1,11,-1,-1,-1,-1],"loss_changes":[3.8908756E0,2.7286565E0,3.1695457E0,0E0,2.710507E0,0E0,2.3158998E0,0E0,1.9388644E0,0E0,0E0,0E0,0E0],"parents":[2147483647,0,0,1,1,2,2,4,4,6,6,8,8],"right_children":[2,4,6,-1,8,-1,10,-1,12,-1,-1,-1,-1],"split_conditions":[1.0033334E1,9.2E0,3.2E0,1.3368162E-2,3.16E0,-8.410027E-3,3.2E-1,-4.6202313E-2,3.35E-1,4.836694E-2,8.95578E-3,-2.8166397E-2,1.1056266E-2],"split_indices":[8,8,6,0,6,0,1,0,1,0,0,0,0],"split_type":[0,0,0,0,0,0,0,0,0,0,0,0,0],"sum_hessian":[4.6189548E2,2.4228647E2,2.19609E2,6.2914677E1,1.793718E2,8.528388E1,1.343251E2,6.77263E1,1.116455E2,6.564545E1,6.867966E1,5.4710884E1,5.6934612E1],"tree_param":{"num_deleted":"0","num_feature":"9","num_nodes":"13","size_leaf_vector":"1"}},{"base_weights":[-7.7554085E-3,2.4609515E-2,-4.147622E-2,-1.7033294E-2,3.873867E-2,1.11875236E-1,-1.130759E-1,-1.0470249E-3,2.8554363E-2,1.4898758E-2,-1.8066959E-1,7.5753743E-4,-4.509954E-2],"categories":[],"categories_nodes":[],"categories_segments":[],"categories_sizes":[],"default_left":[0,0,0,0,0,0,0,0,0,0,0,0,0],"id":43,"left_children":[1,3,-1,5,-1,7,9,-1,-1,-1,11,-1,-1],"loss_changes":[4.189664E0,4.189378E0,0E0,4.5439343E0,0E0,1.4637208E0,3.0362313E0,0E0,0E0,0E0,3.5634637E0,0E0,0E0],"parents":[2147483647,0,0,1,1,3,3,5,5,6,6,10,10],"right_children":[2,4,-1,6,-1,8,10,-1,-1,-1,12,-1,-1],"split_conditions":[5.9E-1,6.5E-1,-4.147622E-2,6.8E0,3.873867E-2,3.3E0,4.2E-1,-1.0470249E-3,2.8554363E-2,1.4898758E-2,2.65E-1,7.5753743E-4,-4.509954E-2],"split_indices":[1,7,0,0,0,3,7,0,0,0,1,0,0],"split_type":[0,0,0,0,0,0,0,0,0,0,0,0,0],"sum_hessian":[4.7989008E2,4.29121E2,5.0769073E1,3.6499548E2,6.412554E1,1.5576398E2,2.0923149E2,6.2312866E1,9.345111E1,5.039739E1,1.588341E2,6.2719063E1,9.611505E1],"tree_param":{"num_deleted":"0","num_feature":"9","num_nodes":"13","size_leaf_vector":"1"}},{"base_weights":[6.28197E-2,-4.0695146E-2,1.1459784E-1,6.424703E-2,2.5532168E-1,-9.906489E-3,3.5147846E-2,2.7706742E-2,4.8657715E-2,-1.2587944E-1,2.4001103E-2,-3.280425E-2,1.0737516E-3],"categories":[],"categories_nodes":[],"categories_segments":[],"categories_sizes":[],"default_left":[0,0,0,0,0,0,0,0,0,0,0,0,0],"id":44,"left_children":[1,-1,3,5,7,9,-1,-1,-1,11,-1,-1,-1],"loss_changes":[8.1155405E0,0E0,2.8554258E0,3.7837262E0,4.5927858E-1,4.1535373E0,0E0,0E0,0E0,1.547878E0,0E0,0E0,0E0],"parents":[2147483647,0,0,2,2,3,3,4,4,5,5,9,9],"right_children":[2,-1,4,6,8,10,-1,-1,-1,12,-1,-1,-1],"split_conditions":[4E-1,-4.0695146E-2,1.065E1,9E0,1.1266666E1,5.8E-1,3.5147846E-2,2.7706742E-2,4.8657715E-2,3.1E0,2.4001103E-2,-3.280425E-2,1.0737516E-3],"split_indices":[7,0,8,3,8,7,0,0,0,3,0,0,0],"split_type":[0,0,0,0,0,0,0,0,0,0,0,0,0],"sum_hessian":[4.663052E2,6.1997845E1,4.0430734E2,2.9883948E2,1.05467865E2,2.0875946E2,9.0080025E1,5.396677E1,5.150109E1,1.2422804E2,8.453142E1,7.279665E1,5.1431393E1],"tree_param":{"num_deleted":"0","num_feature":"9","num_nodes":"13","size_leaf_vector":"1"}},{"base_weights":[4.6804943E-3,-1.0093549E-1,7.378064E-2,-3.6900774E-2,-2.942424E-2,-1.6642915E-4,5.130226E-2,2.7372016E-2,-2.760295E-2,-2.8655695E-2,7.727932E-2,-1.9665107E-2,1.8605322E-1,4.834396E-2,6.201601E-3],"categories":[],"categories_nodes":[],"categories_segments":[],"categories_sizes":[],"default_left":[0,0,0,0,0,0,0,0,0,0,0,0,0,0,0],"id":45,"left_children":[1,3,5,-1,7,9,-1,-1,-1,-1,11,-1,13,-1,-1],"loss_changes":[3.4752772E0,1.9467452E0,5.708976E0,0E0,4.2037654E0,3.3646867E0,0E0,0E0,0E0,0E0,3.694537E0,0E0,2.0922608E0,0E0,0E0],"parents":[2147483647,0,0,1,1,2,2,4,4,5,5,10,10,12,12],"right_children":[2,4,6,-1,8,10,-1,-1,-1,-1,12,-1,14,-1,-1],"split_conditions":[9.733334E0,2.7E-1,6.6E0,-3.6900774E-2,3.6E-1,1.03E1,5.130226E-2,2.7372016E-2,-2.760295E-2,-2.8655695E-2,1.7E0,-1.9665107E-2,3.65E-1,4.834396E-2,6.201601E-3],"split_indices":[8,2,3,0,2,8,0,0,0,0,3,0,1,0,0],"split_type":[0,0,0,0,0,0,0,0,0,0,0,0,0,0,0],"sum_hessian":[4.741702E2,1.8735188E2,2.8681833E2,6.1054653E1,1.26297226E2,2.2561891E2,6.1199417E1,5.319809E1,7.309913E1,6.4698166E1,1.6092075E2,5.512039E1,1.0580036E2,5.3862804E1,5.1937557E1],"tree_param":{"num_deleted":"0","num_feature":"9","num_nodes":"15","size_leaf_vector":"1"}},{"base_weights":[-4.07968E-2,-4.7944825E-2,7.277041E-3,-2.8855583E-2,7.003397E-2,1.23947635E-1,-1.3693779E-2,2.3199486E-2,4.7985643E-2,-2.2673044E-2,1.8647984E-2],"categories":[],"categories_nodes":[],"categories_segments":[],"categories_sizes":[],"default_left":[0,0,0,0,0,0,0,0,0,0,0],"id":46,"left_children":[1,-1,3,-1,5,7,-1,9,-1,-1,-1],"loss_changes":[6.313533E0,0E0,5.0572777E0,0E0,2.681654E0,4.54395E0,0E0,2.7222128E0,0E0,0E0,0E0],"parents":[2147483647,0,0,2,2,4,4,5,5,7,7],"right_children":[2,-1,4,-1,6,8,-1,10,-1,-1,-1],"split_conditions":[1.1E1,-4.7944825E-2,4.3E-1,-2.8855583E-2,6.2E-1,5.4E-1,-1.3693779E-2,3.3E0,4.7985643E-2,-2.2673044E-2,1.8647984E-2],"split_indices":[5,0,7,0,7,7,0,3,0,0,0],"split_type":[0,0,0,0,0,0,0,0,0,0,0],"sum_hessian":[4.6982095E2,6.825915E1,4.015618E2,9.554398E1,3.0601782E2,2.2953946E2,7.647836E1,1.523364E2,7.720307E1,5.5737785E1,9.659861E1],"tree_param":{"num_deleted":"0","num_feature":"9","num_nodes":"11","size_leaf_vector":"1"}},{"base_weights":[2.381627E-2,-3.0333284E-2,1.1797859E-1,-5.295231E-2,3.785299E-2,-1.9675563E-3,4.1468866E-2,-3.5716962E-2,1.5529199E-1,-1.0458572E-2,4.834569E-2],"categories":[],"categories_nodes":[],"categories_segments":[],"categories_sizes":[],"default_left":[0,0,0,0,0,0,0,0,0,0,0],"id":47,"left_children":[1,3,5,-1,7,-1,-1,-1,9,-1,-1],"loss_changes":[2.4325821E0,6.685575E0,3.6214683E0,0E0,8.179789E0,0E0,0E0,0E0,6.6686683E0,0E0,0E0],"parents":[2147483647,0,0,1,1,2,2,4,4,8,8],"right_children":[2,4,6,-1,8,-1,-1,-1,10,-1,-1],"split_conditions":[5.6E-2,1.8E1,5.9E-1,-5.295231E-2,9.5E0,-1.9675563E-3,4.1468866E-2,-3.5716962E-2,4.7E-1,-1.0458572E-2,4.834569E-2],"split_indices":[4,5,7,0,8,0,0,0,7,0,0],"split_type":[0,0,0,0,0,0,0,0,0,0,0],"sum_hessian":[4.7538284E2,3.0224808E2,1.7313475E2,5.1997925E1,2.5025017E2,9.5255936E1,7.7878815E1,7.439776E1,1.758524E2,7.51651E1,1.006873E2],"tree_param":{"num_deleted":"0","num_feature":"9","num_nodes":"11","size_leaf_vector":"1"}},{"base_weights":[3.8531065E-2,6.506821E-2,-2.4236493E-2,2.2060372E-2,4.2796187E-2,2.6067449E-2,-1.6592126E-2,2.784443E-2,-8.073649E-2,-2.2324997E-1,1.5358307E-2,-8.519584E-3,-5.169905E-2],"categories":[],"categories_nodes":[],"categories_segments":[],"categories_sizes":[],"default_left":[0,0,0,0,0,0,0,0,0,0,0,0,0],"id":48,"left_children":[1,3,-1,5,-1,-1,7,-1,9,11,-1,-1,-1],"loss_changes":[2.5421562E0,3.9874537E0,0E0,2.0779355E0,0E0,0E0,3.68469E0,0E0,5.6463304E0,2.4356117E0,0E0,0E0,0E0],"parents":[2147483647,0,0,1,1,3,3,6,6,8,8,9,9],"right_children":[2,4,-1,6,-1,-1,8,-1,10,12,-1,-1,-1],"split_conditions":[3.42E0,1.12E1,-2.4236493E-2,1.6E1,4.2796187E-2,2.6067449E-2,3.09E0,2.784443E-2,3.23E0,6.9E0,1.5358307E-2,-8.519584E-3,-5.169905E-2],"split_indices":[6,8,0,5,0,0,6,0,6,3,0,0,0],"split_type":[0,0,0,0,0,0,0,0,0,0,0,0,0],"sum_hessian":[4.7574323E2,4.2063574E2,5.5107487E1,3.5283517E2,6.780057E1,7.09275E1,2.8190768E2,6.7430916E1,2.1447678E2,1.20489296E2,9.398747E1,5.1437138E1,6.905216E1],"tree_param":{"num_deleted":"0","num_feature":"9","num_nodes":"13","size_leaf_vector":"1"}},{"base_weights":[4.2032986E-3,3.948177E-2,-2.9623548E-2,-2.3118848E-2,2.1886608E-1,-2.7896723E-2,5.665692E-2,2.0534908E-2,4.4164874E-2,1.8220156E-1,-3.8767654E-2,4.8066285E-2,1.3010386E-2],"categories":[],"categories_nodes":[],"categories_segments":[],"categories_sizes":[],"default_left":[0,0,0,0,0,0,0,0,0,0,0,0,0],"id":49,"left_children":[1,3,-1,5,7,-1,9,-1,-1,11,-1,-1,-1],"loss_changes":[3.3077052E0,4.4470124E0,0E0,3.831986E0,5.941067E-1,0E0,7.8875923E0,0E0,0E0,1.8503332E0,0E0,0E0,0E0],"parents":[2147483647,0,0,1,1,3,3,4,4,6,6,9,9],"right_children":[2,4,-1,6,8,-1,10,-1,-1,12,-1,-1,-1],"split_conditions":[3.39E0,6.3E-2,-2.9623548E-2,2.5E1,9.7E0,-2.7896723E-2,3.05E-1,2.0534908E-2,4.4164874E-2,3.85E1,-3.8767654E-2,4.8066285E-2,1.3010386E-2],"split_indices":[6,4,0,5,8,0,1,0,0,5,0,0,0],"split_type":[0,0,0,0,0,0,0,0,0,0,0,0,0],"sum_hessian":[4.6276712E2,3.9455862E2,6.820848E1,2.931335E2,1.0142512E2,9.594141E1,1.9719211E2,5.0000904E1,5.142421E1,1.4131247E2,5.5879642E1,5.6761543E1,8.4550934E1],"tree_param":{"num_deleted":"0","num_feature":"9","num_nodes":"13","size_leaf_vector":"1"}},{"base_weights":[1.5501557E-2,7.315972E-2,-1.3250488E-1,-4.2263366E-2,1.3654813E-1,-4.4265125E-4,-5.043179E-2,1.15277115E-2,-2.3970881E-2,3.8170295E-3,2.1718225E-1,1.8814027E-2,4.948087E-2],"categories":[],"categories_nodes":[],"categories_segments":[],"categories_sizes":[],"default_left":[0,0,0,0,0,0,0,0,0,0,0,0,0],"id":50,"left_children":[1,3,5,7,9,-1,-1,-1,-1,-1,11,-1,-1],"loss_changes":[4.076195E0,2.5194988E0,3.5340302E0,1.7282337E0,1.983376E0,0E0,0E0,0E0,0E0,0E0,1.2874317E0,0E0,0E0],"parents":[2147483647,0,0,1,1,2,2,3,3,4,4,10,10],"right_children":[2,4,6,8,10,-1,-1,-1,-1,-1,12,-1,-1],"split_conditions":[8.3E0,3.18E0,3.17E0,1.0133333E1,1.0033334E1,-4.4265125E-4,-5.043179E-2,1.15277115E-2,-2.3970881E-2,3.8170295E-3,2.35E1,1.8814027E-2,4.948087E-2],"split_indices":[3,6,6,8,8,0,0,0,0,0,5,0,0],"split_type":[0,0,0,0,0,0,0,0,0,0,0,0,0],"sum_hessian":[4.7551822E2,3.425704E2,1.3294783E2,1.21558846E2,2.2101155E2,8.1884995E1,5.106283E1,6.054757E1,6.101128E1,9.349944E1,1.27512115E2,7.144924E1,5.606287E1],"tree_param":{"num_deleted":"0","num_feature":"9","num_nodes":"13","size_leaf_vector":"1"}},{"base_weights":[-3.480374E-2,-3.0593239E-2,4.1440073E-3,3.7459474E-2,-3.54714E-2,2.7210139E-2,-1.4155121E-1,3.570046E-2,-8.609218E-2,-5.1232707E-2,1.2088804E-2,2.2682117E-2,-3.5044406E-2],"categories":[],"categories_nodes":[],"categories_segments":[],"categories_sizes":[],"default_left":[0,0,0,0,0,0,0,0,0,0,0,0,0],"id":51,"left_children":[1,-1,3,-1,5,7,9,-1,11,-1,-1,-1,-1],"loss_changes":[3.1051826E0,0E0,3.7447479E0,0E0,2.208298E0,5.0176835E0,5.5055685E0,0E0,4.825628E0,0E0,0E0,0E0,0E0],"parents":[2147483647,0,0,2,2,4,4,5,5,6,6,8,8],"right_children":[2,-1,4,-1,6,8,10,-1,12,-1,-1,-1,-1],"split_conditions":[3.9E-2,-3.0593239E-2,2.1E-1,3.7459474E-2,1.0133333E1,5E-2,5.8E-2,3.570046E-2,2.2E0,-5.1232707E-2,1.2088804E-2,2.2682117E-2,-3.5044406E-2],"split_indices":[4,0,1,0,8,4,4,0,3,0,0,0,0],"split_type":[0,0,0,0,0,0,0,0,0,0,0,0,0],"sum_hessian":[4.7020682E2,8.721088E1,3.8299594E2,5.2462696E1,3.3053326E2,2.0823355E2,1.222997E2,7.24128E1,1.3582076E2,6.407454E1,5.822516E1,5.205995E1,8.3760796E1],"tree_param":{"num_deleted":"0","num_feature":"9","num_nodes":"13","size_leaf_vector":"1"}},{"base_weights":[-8.0367355E-3,-5.035936E-2,1.3598655E-1,-1.6182924E-3,-4.737442E-2,5.696024E-3,3.3726335E-2,2.6466936E-2,-5.8506854E-2,2.372433E-2,-1.3237782E-1,-8.385348E-3,1.594012E-2,-3.4581985E-2,-1.4612982E-3],"categories":[],"categories_nodes":[],"categories_segments":[],"categories_sizes":[],"default_left":[0,0,0,0,0,0,0,0,0,0,0,0,0,0,0],"id":52,"left_children":[1,3,5,7,-1,-1,-1,-1,9,11,13,-1,-1,-1,-1],"loss_changes":[2.8232484E0,4.6296825E0,9.077414E-1,3.083067E0,0E0,0E0,0E0,0E0,1.4041691E0,7.2888064E-1,1.4622822E0,0E0,0E0,0E0,0E0],"parents":[2147483647,0,0,1,1,2,2,3,3,8,8,9,9,10,10],"right_children":[2,4,6,8,-1,-1,-1,-1,10,12,14,-1,-1,-1,-1],"split_conditions":[7.3E-2,4.05E-1,5.9E-1,6.4E0,-4.737442E-2,5.696024E-3,3.3726335E-2,2.6466936E-2,4.5E-2,4.8E-1,5.3E-2,-8.385348E-3,1.594012E-2,-3.4581985E-2,-1.4612982E-3],"split_indices":[4,1,7,0,0,0,0,0,4,7,4,0,0,0,0],"split_type":[0,0,0,0,0,0,0,0,0,0,0,0,0,0,0],"sum_hessian":[4.610501E2,3.568397E2,1.04210434E2,3.0233603E2,5.4503662E1,5.0230537E1,5.3979893E1,7.269496E1,2.2964107E2,1.0899244E2,1.2064863E2,5.5640568E1,5.3351875E1,6.6520065E1,5.4128563E1],"tree_param":{"num_deleted":"0","num_feature":"9","num_nodes":"15","size_leaf_vector":"1"}},{"base_weights":[-4.5428067E-2,-3.628131E-2,4.291677E-3,-6.688461E-2,1.8197665E-1,1.9691857E-2,-4.1001298E-2,5.066902E-2,1.5770126E-3,8.708419E-2,-1.9274015E-2,2.8908039E-2,-7.6922565E-3],"categories":[],"categories_nodes":[],"categories_segments":[],"categories_sizes":[],"default_left":[0,0,0,0,0,0,0,0,0,0,0,0,0],"id":53,"left_children":[1,-1,3,5,7,9,-1,-1,-1,11,-1,-1,-1],"loss_changes":[4.508563E0,0E0,4.682232E0,4.731048E0,2.825257E0,1.8807107E0,0E0,0E0,0E0,1.899459E0,0E0,0E0,0E0],"parents":[2147483647,0,0,2,2,3,3,4,4,5,5,9,9],"right_children":[2,-1,4,6,8,10,-1,-1,-1,12,-1,-1,-1],"split_conditions":[3.9E-2,-3.628131E-2,7.7E0,6.2E-2,7.4E-2,3.28E0,-4.1001298E-2,5.066902E-2,1.5770126E-3,4.9E-2,-1.9274015E-2,2.8908039E-2,-7.6922565E-3],"split_indices":[4,0,0,4,4,6,0,0,0,4,0,0,0],"split_type":[0,0,0,0,0,0,0,0,0,0,0,0,0],"sum_hessian":[4.6049094E2,9.222735E1,3.6826358E2,2.633825E2,1.04881065E2,1.8620384E2,7.7178665E1,5.443936E1,5.0441708E1,1.2827756E2,5.7926285E1,7.251945E1,5.5758118E1],"tree_param":{"num_deleted":"0","num_feature":"9","num_nodes":"13","size_leaf_vector":"1"}},{"base_weights":[-1.07726175E-2,3.400619E-2,-1.3409589E-1,-8.963404E-3,3.9317302E-2,-5.1086757E-4,-4.6412088E-2,-2.71522E-2,6.925411E-2,2.3342746E-1,-1.5347905E-2,2.2798922E-2,4.6527416E-2],"categories":[],"categories_nodes":[],"categories_segments":[],"categories_sizes":[],"default_left":[0,0,0,0,0,0,0,0,0,0,0,0,0],"id":54,"left_children":[1,3,5,7,-1,-1,-1,-1,9,11,-1,-1,-1],"loss_changes":[2.5545192E0,3.330577E0,2.8218627E0,3.8707411E0,0E0,0E0,0E0,0E0,5.595977E0,5.866194E-1,0E0,0E0,0E0],"parents":[2147483647,0,0,1,1,2,2,3,3,8,8,9,9],"right_children":[2,4,6,8,-1,-1,-1,-1,10,12,-1,-1,-1],"split_conditions":[4.05E-1,3.4E-1,1.9E1,2.5E1,3.9317302E-2,-5.1086757E-4,-4.6412088E-2,-2.71522E-2,3.18E0,4.25E1,-1.5347905E-2,2.2798922E-2,4.6527416E-2],"split_indices":[1,1,5,5,0,0,0,0,6,5,0,0,0],"split_type":[0,0,0,0,0,0,0,0,0,0,0,0,0],"sum_hessian":[4.6075925E2,3.3855414E2,1.222051E2,2.8569724E2,5.2856922E1,7.059773E1,5.160737E1,8.887937E1,1.9681786E2,1.0039371E2,9.642414E1,5.015803E1,5.023568E1],"tree_param":{"num_deleted":"0","num_feature":"9","num_nodes":"13","size_leaf_vector":"1"}},{"base_weights":[2.1540313E-3,-1.3061948E-1,1.704798E-1,-5.1138397E-2,-6.098599E-2,9.702461E-2,5.2308377E-2,-3.5608623E-2,5.3405995E-3,4.099403E-2,-9.95324E-4,2.637346E-2,-1.6497027E-2],"categories":[],"categories_nodes":[],"categories_segments":[],"categories_sizes":[],"default_left":[0,0,0,0,0,0,0,0,0,0,0,0,0],"id":55,"left_children":[1,3,5,-1,7,9,-1,-1,11,-1,-1,-1,-1],"loss_changes":[1.0261063E1,3.738021E0,2.616827E0,0E0,2.2716818E0,2.6467571E0,0E0,0E0,2.81111E0,0E0,0E0,0E0,0E0],"parents":[2147483647,0,0,1,1,2,2,4,4,5,5,8,8],"right_children":[2,4,6,-1,8,10,-1,-1,12,-1,-1,-1,-1],"split_conditions":[3.23E0,2E0,4.7E0,-5.1138397E-2,3.06E0,1.8E0,5.2308377E-2,-3.5608623E-2,3.14E0,4.099403E-2,-9.95324E-4,2.637346E-2,-1.6497027E-2],"split_indices":[6,3,3,0,6,3,0,0,6,0,0,0,0],"split_type":[0,0,0,0,0,0,0,0,0,0,0,0,0],"sum_hessian":[4.571279E2,2.5567683E2,2.0145107E2,6.262983E1,1.9304701E2,1.4375348E2,5.7697586E1,5.2045532E1,1.4100148E2,5.2627155E1,9.112633E1,5.668199E1,8.431948E1],"tree_param":{"num_deleted":"0","num_feature":"9","num_nodes":"13","size_leaf_vector":"1"}},{"base_weights":[3.400923E-2,-3.57608E-2,7.768291E-2,1.3134657E-1,-5.7773314E-2,7.9869546E-2,4.894262E-2,1.5127517E-2,-3.646E-2,-7.4010044E-3,1.2425089E-1,3.2049697E-2,-1.1106633E-3],"categories":[],"categories_nodes":[],"categories_segments":[],"categories_sizes":[],"default_left":[0,0,0,0,0,0,0,0,0,0,0,0,0],"id":56,"left_children":[1,-1,3,5,7,9,-1,-1,-1,-1,11,-1,-1],"loss_changes":[5.425007E0,0E0,2.859931E0,2.7972918E0,3.317525E0,1.2901047E0,0E0,0E0,0E0,0E0,1.9668045E0,0E0,0E0],"parents":[2147483647,0,0,2,2,3,3,4,4,5,5,10,10],"right_children":[2,-1,4,6,8,10,-1,-1,-1,-1,12,-1,-1],"split_conditions":[6.15E0,-3.57608E-2,6E-1,4.85E1,1.95E1,1.7E1,4.894262E-2,1.5127517E-2,-3.646E-2,-7.4010044E-3,3.4E1,3.2049697E-2,-1.1106633E-3],"split_indices":[0,0,7,5,5,5,0,0,0,0,5,0,0],"split_type":[0,0,0,0,0,0,0,0,0,0,0,0,0],"sum_hessian":[4.534279E2,6.2033733E1,3.9139413E2,2.8035596E2,1.11038185E2,2.2290369E2,5.7452282E1,6.007E1,5.0968185E1,5.6960384E1,1.659433E2,9.845479E1,6.748851E1],"tree_param":{"num_deleted":"0","num_feature":"9","num_nodes":"13","size_leaf_vector":"1"}},{"base_weights":[4.85178E-3,3.199237E-2,-2.9294701E-2,-2.5995206E-2,7.119187E-2,1.9999748E-1,-1.722178E-2,1.5394406E-2,5.152877E-2,2.4334982E-2,-1.5591681E-1,-4.4020604E-2,-3.2306935E-3],"categories":[],"categories_nodes":[],"categories_segments":[],"categories_sizes":[],"default_left":[0,0,0,0,0,0,0,0,0,0,0,0,0],"id":57,"left_children":[1,3,-1,-1,5,7,9,-1,-1,-1,11,-1,-1],"loss_changes":[2.5998504E0,3.4026988E0,0E0,0E0,4.040103E0,1.9820867E0,5.2796464E0,0E0,0E0,0E0,2.204155E0,0E0,0E0],"parents":[2147483647,0,0,1,1,4,4,5,5,6,6,10,10],"right_children":[2,4,-1,-1,6,8,10,-1,-1,-1,12,-1,-1],"split_conditions":[5.4E1,1.1E1,-2.9294701E-2,-2.5995206E-2,2.9E-1,5.8E-2,4.6E-2,1.5394406E-2,5.152877E-2,2.4334982E-2,3.8E-1,-4.4020604E-2,-3.2306935E-3],"split_indices":[5,5,0,0,2,4,4,0,0,0,2,0,0],"split_type":[0,0,0,0,0,0,0,0,0,0,0,0,0],"sum_hessian":[4.7645123E2,4.2029834E2,5.6152878E1,6.683777E1,3.5346057E2,1.4335356E2,2.1010703E2,8.6433044E1,5.6920513E1,9.152054E1,1.1858648E2,5.8015907E1,6.057057E1],"tree_param":{"num_deleted":"0","num_feature":"9","num_nodes":"13","size_leaf_vector":"1"}},{"base_weights":[2.1493943E-2,-2.639465E-2,1.7757258E-1,-7.784598E-2,3.2146722E-2,5.2936915E-2,2.0509136E-3,-2.645434E-1,1.977438E-2,-3.312703E-2,-4.5385677E-2,1.1256048E-1,-2.9284723E-2,3.7592232E-2,-1.1259662E-2],"categories":[],"categories_nodes":[],"categories_segments":[],"categories_sizes":[],"default_left":[0,0,0,0,0,0,0,0,0,0,0,0,0,0,0],"id":58,"left_children":[1,3,5,7,-1,-1,-1,9,11,-1,-1,13,-1,-1,-1],"loss_changes":[3.5035393E0,4.4637246E0,3.1574001E0,5.410432E0,0E0,0E0,0E0,1.02500916E-1,3.9256232E0,0E0,0E0,3.5757952E0,0E0,0E0,0E0],"parents":[2147483647,0,0,1,1,2,2,3,3,7,7,8,8,11,11],"right_children":[2,4,6,8,-1,-1,-1,10,12,-1,-1,14,-1,-1,-1],"split_conditions":[9.4E0,4.5E-1,4.2E1,3.19E0,3.2146722E-2,5.2936915E-2,2.0509136E-3,2.6E0,2.9E0,-3.312703E-2,-4.5385677E-2,2.1E1,-2.9284723E-2,3.7592232E-2,-1.1259662E-2],"split_indices":[3,2,5,6,0,0,0,3,3,0,0,5,0,0,0],"split_type":[0,0,0,0,0,0,0,0,0,0,0,0,0,0,0],"sum_hessian":[4.6711234E2,3.5807684E2,1.0903551E2,2.95574E2,6.2502842E1,5.2122055E1,5.691345E1,1.0089808E2,1.9467592E2,5.0117302E1,5.0780777E1,1.363223E2,5.8353615E1,7.834231E1,5.7979996E1],"tree_param":{"num_deleted":"0","num_feature":"9","num_nodes":"15","size_leaf_vector":"1"}},{"base_weights":[-2.2561928E-2,2.2488233E-1,-9.3658105E-2,1.3290225E-2,5.436226E-2,-2.0570186E-1,-2.5708321E-3,-2.914516E-1,-7.484198E-3,6.83956E-2,-2.5398366E-2,-6.341946E-2,-2.3825206E-2,-1.2768787E-2,3.4884788E-2],"categories":[],"categories_nodes":[],"categories_segments":[],"categories_sizes":[],"default_left":[0,0,0,0,0,0,0,0,0,0,0,0,0,0,0],"id":59,"left_children":[1,3,5,-1,-1,7,9,11,-1,13,-1,-1,-1,-1,-1],"loss_changes":[8.281401E0,1.9376502E0,3.7291558E0,0E0,0E0,2.1747074E0,2.4089642E0,1.7702494E0,0E0,3.6193943E0,0E0,0E0,0E0,0E0,0E0],"parents":[2147483647,0,0,1,1,2,2,5,5,6,6,7,7,9,9],"right_children":[2,4,6,-1,-1,8,10,12,-1,14,-1,-1,-1,-1,-1],"split_conditions":[2.3E-1,4.4E0,3.19E0,1.3290225E-2,5.436226E-2,9.2E0,3.39E0,3.4E-1,-7.484198E-3,7.15E0,-2.5398366E-2,-6.341946E-2,-2.3825206E-2,-1.2768787E-2,3.4884788E-2],"split_indices":[1,3,6,0,0,3,6,2,0,0,0,0,0,0,0],"split_type":[0,0,0,0,0,0,0,0,0,0,0,0,0,0,0],"sum_hessian":[4.6854172E2,1.0409272E2,3.64449E2,5.3110184E1,5.0982533E1,1.6286066E2,2.0158835E2,1.0448559E2,5.8375065E1,1.4182153E2,5.976682E1,5.1395245E1,5.3090347E1,7.353646E1,6.828507E1],"tree_param":{"num_deleted":"0","num_feature":"9","num_nodes":"15","size_leaf_vector":"1"}},{"base_weights":[2.382557E-3,4.151149E-2,-4.028183E-2,-2.7082542E-2,8.651509E-2,1.0112638E-2,5.017542E-2,3.0211708E-2,-3.7286196E-2,-1.5357088E-1,8.387215E-2,-1.3622061E-2,-3.1703256E-2,9.262333E-4,2.3799121E-2],"categories":[],"categories_nodes":[],"categories_segments":[],"categories_sizes":[],"default_left":[0,0,0,0,0,0,0,0,0,0,0,0,0,0,0],"id":60,"left_children":[1,3,-1,-1,5,7,-1,-1,9,11,13,-1,-1,-1,-1],"loss_changes":[4.9184666E0,4.0665503E0,0E0,0E0,6.3954024E0,2.3578653E0,0E0,0E0,2.951573E0,3.680482E-1,5.9636337E-1,0E0,0E0,0E0,0E0],"parents":[2147483647,0,0,1,1,4,4,5,5,8,8,9,9,10,10],"right_children":[2,4,-1,-1,6,8,-1,-1,10,12,14,-1,-1,-1,-1],"split_conditions":[5.55E-1,3.06E0,-4.028183E-2,-2.7082542E-2,7.7E0,3.14E0,5.017542E-2,3.0211708E-2,5E-1,3.24E0,3.1E1,-1.3622061E-2,-3.1703256E-2,9.262333E-4,2.3799121E-2],"split_indices":[1,6,0,0,0,6,0,0,7,6,5,0,0,0,0],"split_type":[0,0,0,0,0,0,0,0,0,0,0,0,0,0,0],"sum_hessian":[4.6190546E2,4.043533E2,5.7552166E1,6.763066E1,3.3672263E2,2.582112E2,7.851144E1,5.0628487E1,2.0758272E2,1.0578523E2,1.01797485E2,5.1943268E1,5.3841965E1,5.045883E1,5.1338654E1],"tree_param":{"num_deleted":"0","num_feature":"9","num_nodes":"15","size_leaf_vector":"1"}},{"base_weights":[1.43677145E-2,4.7241222E-2,-3.570771E-2,-1.18729375E-1,1.1862893E-1,5.0961515E-3,-4.572185E-2,-1.3351242E-2,1.8360984E-1,1.2492436E-1,4.8429545E-2,3.6094487E-2,-7.2900658E-3],"categories":[],"categories_nodes":[],"categories_segments":[],"categories_sizes":[],"default_left":[0,0,0,0,0,0,0,0,0,0,0,0,0],"id":61,"left_children":[1,3,-1,5,7,-1,-1,-1,9,11,-1,-1,-1],"loss_changes":[3.903505E0,4.9411926E0,0E0,3.5785184E0,3.9464245E0,0E0,0E0,0E0,1.7753386E0,3.1827157E0,0E0,0E0,0E0],"parents":[2147483647,0,0,1,1,3,3,4,4,8,8,9,9],"right_children":[2,4,-1,6,8,-1,-1,-1,10,12,-1,-1,-1],"split_conditions":[5.9E-1,3.12E0,-3.570771E-2,7.4E0,9.5E0,5.0961515E-3,-4.572185E-2,-1.3351242E-2,3.6E-1,3.28E0,4.8429545E-2,3.6094487E-2,-7.2900658E-3],"split_indices":[1,6,0,0,8,0,0,0,1,6,0,0,0],"split_type":[0,0,0,0,0,0,0,0,0,0,0,0,0],"sum_hessian":[4.6806546E2,4.148507E2,5.3214752E1,1.2457074E2,2.9027997E2,6.887107E1,5.569967E1,6.910263E1,2.2117734E2,1.5693683E2,6.424051E1,9.392281E1,6.301402E1],"tree_param":{"num_deleted":"0","num_feature":"9","num_nodes":"13","size_leaf_vector":"1"}},{"base_weights":[2.6002008E-2,-1.5028409E-2,5.24774E-2,-4.2729277E-2,1.9120818E-2,1.0187357E-2,-4.717147E-2,1.2606712E-1,-1.2583426E-1,-2.457043E-3,3.4884382E-2,-6.27853E-3,-3.537241E-2],"categories":[],"categories_nodes":[],"categories_segments":[],"categories_sizes":[],"default_left":[0,0,0,0,0,0,0,0,0,0,0,0,0],"id":62,"left_children":[1,3,-1,5,-1,7,-1,9,11,-1,-1,-1,-1],"loss_changes":[6.2877355E0,1.6657165E0,0E0,5.077807E0,0E0,4.6869016E0,0E0,2.4388952E0,1.2538455E0,0E0,0E0,0E0,0E0],"parents":[2147483647,0,0,1,1,3,3,5,5,7,7,8,8],"right_children":[2,4,-1,6,-1,8,-1,10,12,-1,-1,-1,-1],"split_conditions":[1.145E1,5.1E-1,5.24774E-2,3.75E-1,1.9120818E-2,9.95E0,-4.717147E-2,4.7E-1,7.2E0,-2.457043E-3,3.4884382E-2,-6.27853E-3,-3.537241E-2],"split_indices":[8,1,0,1,0,8,0,7,0,0,0,0,0],"split_type":[0,0,0,0,0,0,0,0,0,0,0,0,0],"sum_hessian":[4.7180792E2,4.1959958E2,5.220833E1,3.5189447E2,6.770509E1,2.9534518E2,5.65493E1,1.595199E2,1.3582529E2,6.860311E1,9.091679E1,7.7800644E1,5.8024647E1],"tree_param":{"num_deleted":"0","num_feature":"9","num_nodes":"13","size_leaf_vector":"1"}},{"base_weights":[-1.7649833E-2,-3.5126373E-2,2.2369703E-2,-1.64142E-2,2.94632E-2,1.04162626E-1,-8.31691E-2,3.6566813E-2,-8.55093E-4,2.6802307E-2,-3.526272E-2,-1.1316314E-2,2.570043E-2],"categories":[],"categories_nodes":[],"categories_segments":[],"categories_sizes":[],"default_left":[0,0,0,0,0,0,0,0,0,0,0,0,0],"id":63,"left_children":[1,-1,3,5,-1,7,9,-1,-1,11,-1,-1,-1],"loss_changes":[4.066536E0,0E0,2.6796727E0,2.62591E0,0E0,1.7854857E0,3.5120826E0,0E0,0E0,1.8250628E0,0E0,0E0,0E0],"parents":[2147483647,0,0,2,2,3,3,5,5,6,6,9,9],"right_children":[2,-1,4,6,-1,8,10,-1,-1,12,-1,-1,-1],"split_conditions":[1.2E1,-3.5126373E-2,3.36E0,2.9E-1,2.94632E-2,4.75E0,3.18E0,3.6566813E-2,-8.55093E-4,9E0,-3.526272E-2,-1.1316314E-2,2.570043E-2],"split_indices":[5,0,6,2,0,3,6,0,0,3,0,0,0],"split_type":[0,0,0,0,0,0,0,0,0,0,0,0,0],"sum_hessian":[4.6768683E2,7.2199486E1,3.9548734E2,3.241604E2,7.1326935E1,1.1531355E2,2.0884686E2,5.0243862E1,6.5069695E1,1.2162579E2,8.722106E1,7.151415E1,5.011164E1],"tree_param":{"num_deleted":"0","num_feature":"9","num_nodes":"13","size_leaf_vector":"1"}},{"base_weights":[1.3685054E-2,-4.693541E-2,1.3453001E-1,-8.8239975E-2,1.892352E-2,5.786589E-2,-7.464494E-4,4.146369E-2,-2.1236984E-1,3.672699E-2,-2.9324204E-2,-4.6715446E-2,-1.889332E-2],"categories":[],"categories_nodes":[],"categories_segments":[],"categories_sizes":[],"default_left":[0,0,0,0,0,0,0,0,0,0,0,0,0],"id":64,"left_children":[1,3,5,7,-1,-1,-1,9,11,-1,-1,-1,-1],"loss_changes":[3.3611295E0,2.1968067E0,5.373066E0,3.992004E0,0E0,0E0,0E0,5.9188404E0,1.0444007E0,0E0,0E0,0E0,0E0],"parents":[2147483647,0,0,1,1,2,2,3,3,7,7,8,8],"right_children":[2,4,6,8,-1,-1,-1,10,12,-1,-1,-1,-1],"split_conditions":[5.8E-2,3.32E0,2.1E-1,2.65E-1,1.892352E-2,5.786589E-2,-7.464494E-4,3.4E-1,6.8E0,3.672699E-2,-2.9324204E-2,-4.6715446E-2,-1.889332E-2],"split_indices":[4,6,2,1,0,0,0,2,3,0,0,0,0],"split_type":[0,0,0,0,0,0,0,0,0,0,0,0,0],"sum_hessian":[4.5695294E2,3.047102E2,1.5224272E2,2.464021E2,5.8308117E1,5.3723904E1,9.8518814E1,1.2082141E2,1.2558069E2,6.499903E1,5.5822376E1,5.7294086E1,6.82866E1],"tree_param":{"num_deleted":"0","num_feature":"9","num_nodes":"13","size_leaf_vector":"1"}},{"base_weights":[-2.127796E-2,1.968357E-3,-2.9022263E-2,-8.29957E-2,7.656561E-2,-1.6273676E-1,5.6936964E-3,1.4228067E-1,-1.6544972E-2,-4.5566812E-2,-5.727034E-3,5.691275E-3,4.7258776E-2],"categories":[],"categories_nodes":[],"categories_segments":[],"categories_sizes":[],"default_left":[0,0,0,0,0,0,0,0,0,0,0,0,0],"id":65,"left_children":[1,3,-1,5,7,9,-1,11,-1,-1,-1,-1,-1],"loss_changes":[1.8345946E0,2.571321E0,0E0,1.8356248E0,2.6682956E0,1.9999707E0,0E0,2.876906E0,0E0,0E0,0E0,0E0,0E0],"parents":[2147483647,0,0,1,1,3,3,4,4,5,5,7,7],"right_children":[2,4,-1,6,8,10,-1,12,-1,-1,-1,-1,-1],"split_conditions":[5.65E-1,4.7E-2,-2.9022263E-2,1.065E1,7.6E-2,2.6E-1,5.6936964E-3,5.7E-2,-1.6544972E-2,-4.5566812E-2,-5.727034E-3,5.691275E-3,4.7258776E-2],"split_indices":[1,4,0,8,4,1,0,4,0,0,0,0,0],"split_type":[0,0,0,0,0,0,0,0,0,0,0,0,0],"sum_hessian":[4.5719797E2,4.0369104E2,5.3506924E1,1.8867885E2,2.1501219E2,1.1350381E2,7.517504E1,1.5924796E2,5.576423E1,5.2554585E1,6.094922E1,1.00048965E2,5.9198994E1],"tree_param":{"num_deleted":"0","num_feature":"9","num_nodes":"13","size_leaf_vector":"1"}},{"base_weights":[1.5785182E-2,-3.033027E-2,5.676754E-2,1.3060454E-1,-3.1437673E-2,7.015726E-2,4.512532E-2,-1.02123115E-2,1.2935227E-1,2.1213757E-1,-4.69204E-3,1.5444202E-2,4.8033435E-2],"categories":[],"categories_nodes":[],"categories_segments":[],"categories_sizes":[],"default_left":[0,0,0,0,0,0,0,0,0,0,0,0,0],"id":66,"left_children":[1,-1,3,5,-1,7,-1,-1,9,11,-1,-1,-1],"loss_changes":[4.2017484E0,0E0,7.8074646E0,3.1724062E0,0E0,1.8936185E0,0E0,0E0,2.1558244E0,1.227076E0,0E0,0E0,0E0],"parents":[2147483647,0,0,2,2,3,3,5,5,8,8,9,9],"right_children":[2,-1,4,6,-1,8,-1,-1,10,12,-1,-1,-1],"split_conditions":[1.2E1,-3.033027E-2,6.1E-1,5.3E-1,-3.1437673E-2,2.2E0,4.512532E-2,-1.02123115E-2,3.21E0,3.11E0,-4.69204E-3,1.5444202E-2,4.8033435E-2],"split_indices":[5,0,7,7,0,3,0,0,6,6,0,0,0],"split_type":[0,0,0,0,0,0,0,0,0,0,0,0,0],"sum_hessian":[4.6804498E2,7.34464E1,3.945986E2,3.093512E2,8.524739E1,2.2933043E2,8.002077E1,6.871312E1,1.6061731E2,1.057805E2,5.483681E1,5.359608E1,5.2184425E1],"tree_param":{"num_deleted":"0","num_feature":"9","num_nodes":"13","size_leaf_vector":"1"}},{"base_weights":[-2.1747041E-2,2.3260731E-2,-5.2633718E-2,-1.3554452E-1,1.5189406E-2,-1.4475432E-3,-2.1468961E-1,3.1459786E-2,-4.8146736E-2,-1.7123723E-2,-4.8430983E-2,1.35838045E-2,-2.4170445E-2],"categories":[],"categories_nodes":[],"categories_segments":[],"categories_sizes":[],"default_left":[0,0,0,0,0,0,0,0,0,0,0,0,0],"id":67,"left_children":[1,-1,3,5,7,-1,9,-1,11,-1,-1,-1,-1],"loss_changes":[2.5103636E0,0E0,2.1995292E0,1.7509193E0,2.66968E0,0E0,1.1374779E0,0E0,2.5793245E0,0E0,0E0,0E0,0E0],"parents":[2147483647,0,0,2,2,3,3,4,4,6,6,8,8],"right_children":[2,-1,4,6,8,-1,10,-1,12,-1,-1,-1,-1],"split_conditions":[2.1E-1,2.3260731E-2,9.9E0,2.7E1,1.03E1,-1.4475432E-3,2.85E-1,3.1459786E-2,7E0,-1.7123723E-2,-4.8430983E-2,1.35838045E-2,-2.4170445E-2],"split_indices":[1,0,8,5,8,0,1,0,0,0,0,0,0],"split_type":[0,0,0,0,0,0,0,0,0,0,0,0,0],"sum_hessian":[4.571664E2,6.738475E1,3.8978165E2,1.74934E2,2.1484766E2,6.795751E1,1.0697649E2,5.219985E1,1.6264781E2,5.651458E1,5.0461906E1,7.31041E1,8.954371E1],"tree_param":{"num_deleted":"0","num_feature":"9","num_nodes":"13","size_leaf_vector":"1"}},{"base_weights":[1.5472915E-2,-3.1635523E-2,1.0519852E-1,5.5429507E-2,-1.498373E-1,3.0092726E-2,-3.4329882E-3,-1.4109948E-2,2.6719773E-2,-4.1000284E-2,5.3003654E-3],"categories":[],"categories_nodes":[],"categories_segments":[],"categories_sizes":[],"default_left":[0,0,0,0,0,0,0,0,0,0,0],"id":68,"left_children":[1,3,5,7,9,-1,-1,-1,-1,-1,-1],"loss_changes":[1.9032116E0,3.0494235E0,1.8986845E0,3.1515694E0,2.8821754E0,0E0,0E0,0E0,0E0,0E0,0E0],"parents":[2147483647,0,0,1,1,2,2,3,3,4,4],"right_children":[2,4,6,8,10,-1,-1,-1,-1,-1,-1],"split_conditions":[5.8E-2,2.75E-1,2.5E0,2.2E-1,3.21E0,3.0092726E-2,-3.4329882E-3,-1.4109948E-2,2.6719773E-2,-4.1000284E-2,5.3003654E-3],"split_indices":[4,1,3,1,6,0,0,0,0,0,0],"split_type":[0,0,0,0,0,0,0,0,0,0,0],"sum_hessian":[4.484816E2,2.9450546E2,1.5397614E2,1.6989517E2,1.2461028E2,8.7915436E1,6.606071E1,7.669107E1,9.32041E1,7.4468636E1,5.014165E1],"tree_param":{"num_deleted":"0","num_feature":"9","num_nodes":"11","size_leaf_vector":"1"}},{"base_weights":[2.3587935E-2,-4.548692E-2,1.0329983E-1,-4.50134E-2,4.3204784E-2,2.0225419E-1,-1.4849263E-3,-2.0431297E-2,1.6018328E-1,1.5124422E-2,4.8212945E-2,4.758438E-2,3.375151E-3],"categories":[],"categories_nodes":[],"categories_segments":[],"categories_sizes":[],"default_left":[0,0,0,0,0,0,0,0,0,0,0,0,0],"id":69,"left_children":[1,3,5,-1,7,9,-1,-1,11,-1,-1,-1,-1],"loss_changes":[2.5195642E0,5.554199E0,2.3806593E0,0E0,3.8597665E0,1.3375878E0,0E0,0E0,2.3962867E0,0E0,0E0,0E0,0E0],"parents":[2147483647,0,0,1,1,2,2,4,4,5,5,8,8],"right_children":[2,4,6,-1,8,10,-1,-1,12,-1,-1,-1,-1],"split_conditions":[5.3E-1,2.2E1,2.5E0,-4.50134E-2,2.45E-1,4.7E-1,-1.4849263E-3,-2.0431297E-2,3.8E1,1.5124422E-2,4.8212945E-2,4.758438E-2,3.375151E-3],"split_indices":[7,5,3,0,1,1,0,0,5,0,0,0,0],"split_type":[0,0,0,0,0,0,0,0,0,0,0,0,0],"sum_hessian":[4.557427E2,2.4439232E2,2.1135039E2,6.252415E1,1.8186816E2,1.12350945E2,9.899944E1,7.171394E1,1.1015421E2,6.1690624E1,5.0660316E1,5.0849354E1,5.930486E1],"tree_param":{"num_deleted":"0","num_feature":"9","num_nodes":"13","size_leaf_vector":"1"}},{"base_weights":[-3.7226428E-3,2.1987237E-2,-4.2967442E-2,-8.934474E-2,1.8724818E-2,-4.641871E-2,-2.6389241E-2,2.6731279E-2,-9.909302E-2,-3.5884365E-2,7.440542E-3],"categories":[],"categories_nodes":[],"categories_segments":[],"categories_sizes":[],"default_left":[0,0,0,0,0,0,0,0,0,0,0],"id":70,"left_children":[1,-1,3,5,-1,-1,7,-1,9,-1,-1],"loss_changes":[2.70585E0,0E0,2.8412988E0,3.9482162E0,0E0,0E0,3.3363264E0,0E0,3.455348E0,0E0,0E0],"parents":[2147483647,0,0,2,2,3,3,6,6,8,8],"right_children":[2,-1,4,6,-1,-1,8,-1,10,-1,-1],"split_conditions":[3.09E0,2.1987237E-2,4.1E-1,3.17E0,1.8724818E-2,-4.641871E-2,3.24E0,2.6731279E-2,3.36E0,-3.5884365E-2,7.440542E-3],"split_indices":[6,0,2,6,0,0,6,0,6,0,0],"split_type":[0,0,0,0,0,0,0,0,0,0,0],"sum_hessian":[4.5665518E2,9.398099E1,3.626742E2,2.8450797E2,7.8166214E1,6.2404747E1,2.2210323E2,5.7851242E1,1.6425198E2,8.4246635E1,8.000534E1],"tree_param":{"num_deleted":"0","num_feature":"9","num_nodes":"11","size_leaf_vector":"1"}}]},"name":"gbtree"},"learner_model_param":{"base_score":"6.3004094E-1","boost_from_average":"1","num_class":"0","num_feature":"9","num_target":"1"},"objective":{"name":"binary:logistic","reg_loss_param":{"scale_pos_weight":"1"}}},"version":[2,0,3]}