{"learner":{"attributes":{"best_iteration":"5","best_score":"-0.81701"},"feature_names":[],"feature_types":[],"gradient_booster":{"model":{"gbtree_model_param":{"num_parallel_tree":"1","num_trees":"56"},"iteration_indptr":[0,1,2,3,4,5,6,7,8,9,10,11,12,13,14,15,16,17,18,19,20,21,22,23,24,25,26,27,28,29,30,31,32,33,34,35,36,37,38,39,40,41,42,43,44,45,46,47,48,49,50,51,52,53,54,55,56],"tree_info":[0,0,0,0,0,0,0,0,0,0,0,0,0,0,0,0,0,0,0,0,0,0,0,0,0,0,0,0,0,0,0,0,0,0,0,0,0,0,0,0,0,0,0,0,0,0,0,0,0,0,0,0,0,0,0,0],"trees":[{"base_weights":[2.6943743E-2,6.1797196E-1,-4.356978E-1,-2.559712E-2,8.0015594E-1,8.1539415E-2,-6.9639754E-1,1.1207701E0,4.5740956E-1,-1.1478226E0,-3.7519717E-1,1.8851061E-1,1.4550649E-1,1.3583937E-1,8.463207E-3,-1.3946824E-1,-1.9474271E-1,-8.651978E-3,-1.0389808E-1],"categories":[],"categories_nodes":[],"categories_segments":[],"categories_sizes":[],"default_left":[0,0,0,0,0,0,0,0,0,0,0,0,0,0,0,0,0,0,0],"id":0,"left_children":[1,3,5,-1,7,-1,9,11,13,15,17,-1,-1,-1,-1,-1,-1,-1,-1],"loss_changes":[1.7772488E2,4.1136612E1,9.346649E1,0E0,2.4980728E1,0E0,4.1386612E1,1.2233124E0,2.0403482E1,2.710205E0,1.7094677E1,0E0,0E0,0E0,0E0,0E0,0E0,0E0,0E0],"parents":[2147483647,0,0,1,1,2,2,4,4,6,6,7,7,8,8,9,9,10,10],"right_children":[2,4,6,-1,8,-1,10,12,14,16,18,-1,-1,-1,-1,-1,-1,-1,-1],"split_conditions":[4.5E-2,1.9E1,2.25E-1,-2.559712E-2,3.7E-2,8.1539415E-2,2.7E-1,3.2E-2,2.45E-1,1.5E-1,2.7E1,1.8851061E-1,1.4550649E-1,1.3583937E-1,8.463207E-3,-1.3946824E-1,-1.9474271E-1,-8.651978E-3,-1.0389808E-1],"split_indices":[4,5,1,0,4,0,2,4,1,2,5,0,0,0,0,0,0,0,0],"split_type":[0,0,0,0,0,0,0,0,0,0,0,0,0,0,0,0,0,0,0],"sum_hessian":[6.479884E2,2.8436902E2,3.636194E2,5.3377464E1,2.3099155E2,7.622022E1,2.8739917E2,1.1817631E2,1.1281525E2,1.1840939E2,1.6898979E2,5.827234E1,5.9903965E1,5.2678196E1,6.0137054E1,5.127966E1,6.712974E1,8.5077614E1,8.391217E1],"tree_param":{"num_deleted":"0","num_feature":"9","num_nodes":"19","size_leaf_vector":"1"}},{"base_weights":[4.1282605E-2,5.9076315E-1,-2.7340862E-1,7.2561437E-1,4.733427E-2,-1.2876615E-1,-1.6448286E-1,1.2571235E-1,7.461888E-2,-3.5859218E-1,2.9447505E-1,-1.2811789E-1,-1.7908461E-1,7.414255E-2,-7.0166646E-4,2.4654947E-2,-8.806267E-2,-4.361994E-2,4.0531833E-2],"categories":[],"categories_nodes":[],"categories_segments":[],"categories_sizes":[],"default_left":[0,0,0,0,0,0,0,0,0,0,0,0,0,0,0,0,0,0,0],"id":1,"left_children":[1,3,5,7,-1,9,-1,-1,-1,11,13,-1,15,-1,-1,17,-1,-1,-1],"loss_changes":[1.1605405E2,8.840263E0,5.067923E1,3.7719269E0,0E0,3.553008E1,0E0,0E0,0E0,2.0881214E1,7.695775E0,0E0,1.4549175E1,0E0,0E0,9.186372E0,0E0,0E0,0E0],"parents":[2147483647,0,0,1,1,2,2,3,3,5,5,9,9,10,10,12,12,15,15],"right_children":[2,4,6,8,-1,10,-1,-1,-1,12,14,-1,16,-1,-1,18,-1,-1,-1],"split_conditions":[2.6E-1,2.3E-1,5.95E-1,7.2E0,4.733427E-2,3.26E0,-1.6448286E-1,1.2571235E-1,7.461888E-2,2.7E-1,4.1E-1,-1.2811789E-1,8E0,7.414255E-2,-7.0166646E-4,2.4E0,-8.806267E-2,-4.361994E-2,4.0531833E-2],"split_indices":[1,1,1,0,0,6,0,0,0,2,1,0,3,0,0,3,0,0,0],"split_type":[0,0,0,0,0,0,0,0,0,0,0,0,0,0,0,0,0,0,0],"sum_hessian":[6.692217E2,2.4337999E2,4.2584167E2,1.6224284E2,8.1137146E1,3.631802E2,6.266145E1,1.068824E2,5.536044E1,2.3546959E2,1.2771062E2,6.1617535E1,1.7385207E2,7.617795E1,5.153267E1,1.1657735E2,5.7274715E1,5.094576E1,6.563159E1],"tree_param":{"num_deleted":"0","num_feature":"9","num_nodes":"19","size_leaf_vector":"1"}},{"base_weights":[2.047141E-2,-6.541928E-1,7.431796E-1,4.982895E-2,-9.972141E-1,4.1200402E-1,1.2232146E0,-1.1716369E0,-6.7084886E-2,1.0109868E-1,2.087667E-2,1.4965804E-1,2.055281E-1,-1.1304479E-1,-1.324314E0,-2.1920481E-1,-1.7987522E-1],"categories":[],"categories_nodes":[],"categories_segments":[],"categories_sizes":[],"default_left":[0,0,0,0,0,0,0,0,0,0,0,0,0,0,0,0,0],"id":2,"left_children":[1,3,5,-1,7,9,11,13,-1,-1,-1,-1,-1,-1,15,-1,-1],"loss_changes":[3.2524414E2,1.17065384E2,5.069342E1,0E0,2.4056686E1,1.3635376E1,2.973343E0,1.1378082E1,0E0,0E0,0E0,0E0,0E0,0E0,6.611481E-1,0E0,0E0],"parents":[2147483647,0,0,1,1,2,2,4,4,5,5,6,6,7,7,14,14],"right_children":[2,4,6,-1,8,10,12,14,-1,-1,-1,-1,-1,-1,16,-1,-1],"split_conditions":[1.04E1,2.4E-1,1.155E1,4.982895E-2,9.9E0,2.8E-1,1.215E1,2.85E-1,-6.7084886E-2,1.0109868E-1,2.087667E-2,1.4965804E-1,2.055281E-1,-1.1304479E-1,5.7E-2,-2.1920481E-1,-1.7987522E-1],"split_indices":[8,1,8,0,8,1,8,1,0,0,0,0,0,0,4,0,0],"split_type":[0,0,0,0,0,0,0,0,0,0,0,0,0,0,0,0,0],"sum_hessian":[6.650535E2,3.4400864E2,3.210449E2,8.877124E1,2.552374E2,1.910784E2,1.2996649E2,1.929229E2,6.23145E1,9.67254E1,9.4353004E1,5.4357025E1,7.560947E1,5.3201622E1,1.3972128E2,6.1592285E1,7.812899E1],"tree_param":{"num_deleted":"0","num_feature":"9","num_nodes":"17","size_leaf_vector":"1"}},{"base_weights":[2.3973418E-2,-1.1974298E-1,3.3912525E-1,-1.534868E-1,4.085396E-2,1.2596667E-2,4.8180664E-1,2.0699923E-1,-6.395198E-2,4.631675E-2,1.04128815E-1,4.4442013E-1,-1.6494226E-1,6.405715E-1,2.0205813E-2,-7.672763E-2,3.504082E-2,7.7887E-2,1.1269035E-1],"categories":[],"categories_nodes":[],"categories_segments":[],"categories_sizes":[],"default_left":[0,0,0,0,0,0,0,0,0,0,0,0,0,0,0,0,0,0,0],"id":3,"left_children":[1,3,5,-1,7,-1,9,11,-1,-1,-1,13,15,17,-1,-1,-1,-1,-1],"loss_changes":[2.927294E1,6.4467514E1,7.327963E0,0E0,2.942672E1,0E0,4.5482693E0,2.4753544E1,0E0,0E0,0E0,1.029369E1,1.5261244E1,1.0112724E0,0E0,0E0,0E0,0E0,0E0],"parents":[2147483647,0,0,1,1,2,2,4,4,6,6,7,7,11,11,12,12,13,13],"right_children":[2,4,6,-1,8,-1,10,12,-1,-1,-1,14,16,18,-1,-1,-1,-1,-1],"split_conditions":[5.8E-1,1.5E1,3.21E0,-1.534868E-1,4.7E1,1.2596667E-2,6.8E-1,7.1E0,-6.395198E-2,4.631675E-2,1.04128815E-1,6.1E0,4.6E0,1.95E0,2.0205813E-2,-7.672763E-2,3.504082E-2,7.7887E-2,1.1269035E-1],"split_indices":[7,5,6,0,5,0,7,0,0,0,0,3,3,3,0,0,0,0,0],"split_type":[0,0,0,0,0,0,0,0,0,0,0,0,0,0,0,0,0,0,0],"sum_hessian":[6.444125E2,4.4300992E2,2.0140254E2,6.604965E1,3.7696027E2,7.2802795E1,1.2859975E2,2.784833E2,9.847696E1,7.221817E1,5.638158E1,1.6986118E2,1.08622116E2,1.0334288E2,6.65183E1,5.794765E1,5.067447E1,5.2019756E1,5.132312E1],"tree_param":{"num_deleted":"0","num_feature":"9","num_nodes":"19","size_leaf_vector":"1"}},{"base_weights":[-2.167324E-2,4.311195E-1,-3.3816525E-1,6.5511346E-1,1.3654073E-1,-4.9641752E-1,3.4544915E-2,6.669364E-2,1.2753393E-1,-1.7681466E-2,5.6369603E-2,-2.9702523E-1,-1.2669265E-1,-8.603112E-2,-1.7147517E-1,3.8420465E-2,-7.0953794E-2],"categories":[],"categories_nodes":[],"categories_segments":[],"categories_sizes":[],"default_left":[0,0,0,0,0,0,0,0,0,0,0,0,0,0,0,0,0],"id":4,"left_children":[1,3,5,7,9,11,-1,-1,-1,-1,-1,13,-1,-1,15,-1,-1],"loss_changes":[9.115492E1,1.7179512E1,3.379178E1,5.716858E0,7.002414E0,2.0102242E1,0E0,0E0,0E0,0E0,0E0,6.426651E0,0E0,0E0,1.6972794E1,0E0,0E0],"parents":[2147483647,0,0,1,1,2,2,3,3,4,4,5,5,11,11,14,14],"right_children":[2,4,6,8,10,12,-1,-1,-1,-1,-1,14,-1,-1,16,-1,-1],"split_conditions":[4.5E-2,3.8E-2,6.5E-1,3.18E0,3.19E0,6.6E-2,3.4544915E-2,6.669364E-2,1.2753393E-1,-1.7681466E-2,5.6369603E-2,2.7E-1,-1.2669265E-1,-8.603112E-2,3.4E-1,3.8420465E-2,-7.0953794E-2],"split_indices":[4,4,7,6,6,4,0,0,0,0,0,2,0,0,2,0,0],"split_type":[0,0,0,0,0,0,0,0,0,0,0,0,0,0,0,0,0],"sum_hessian":[6.340717E2,2.607149E2,3.733568E2,1.4740564E2,1.1330926E2,2.9215253E2,8.120427E1,7.2485985E1,7.4919655E1,5.5160652E1,5.81486E1,1.869507E2,1.0520184E2,5.72635E1,1.296872E2,5.3695362E1,7.599183E1],"tree_param":{"num_deleted":"0","num_feature":"9","num_nodes":"17","size_leaf_vector":"1"}},{"base_weights":[1.3803466E-2,-4.417318E-1,7.721342E-1,-6.67429E-1,-4.666958E-2,4.5693773E-1,1.058906E0,-1.4994995E-1,-5.2163374E-1,-6.7971855E-2,2.8493857E-2,1.5454082E-2,1.266514E-1,1.2363601E-1,1.8352343E-1,-3.209123E-1,-1.3739559E-1,-2.4011848E-2,-6.77922E-2],"categories":[],"categories_nodes":[],"categories_segments":[],"categories_sizes":[],"default_left":[0,0,0,0,0,0,0,0,0,0,0,0,0,0,0,0,0,0,0],"id":5,"left_children":[1,3,5,7,9,11,13,-1,15,-1,-1,-1,-1,-1,-1,17,-1,-1,-1],"loss_changes":[2.2369147E2,3.604075E1,2.1480865E1,1.1946175E1,1.4337081E1,1.602612E1,3.8764343E0,0E0,1.4030975E1,0E0,0E0,0E0,0E0,0E0,0E0,2.487671E0,0E0,0E0,0E0],"parents":[2147483647,0,0,1,1,2,2,3,3,4,4,5,5,6,6,8,8,15,15],"right_children":[2,4,6,8,10,12,14,-1,16,-1,-1,-1,-1,-1,-1,18,-1,-1,-1],"split_conditions":[1.065E1,9.9E0,1.1433333E1,2.5E-1,2.1E1,2.7E1,2.35E1,-1.4994995E-1,4.4E-1,-6.7971855E-2,2.8493857E-2,1.5454082E-2,1.266514E-1,1.2363601E-1,1.8352343E-1,9.4E0,-1.3739559E-1,-2.4011848E-2,-6.77922E-2],"split_indices":[8,8,8,2,5,5,5,0,2,0,0,0,0,0,0,8,0,0,0],"split_type":[0,0,0,0,0,0,0,0,0,0,0,0,0,0,0,0,0,0,0],"sum_hessian":[6.4555585E2,4.0355478E2,2.4200107E2,2.5639062E2,1.4716415E2,1.165224E2,1.2547867E2,7.641039E1,1.7998024E2,5.381197E1,9.335218E1,6.1555157E1,5.4967247E1,5.420308E1,7.127559E1,1.2047238E2,5.9507866E1,5.5083946E1,6.5388435E1],"tree_param":{"num_deleted":"0","num_feature":"9","num_nodes":"19","size_leaf_vector":"1"}},{"base_weights":[2.4321584E-2,4.5089033E-1,-1.2398373E-1,1.2329868E-2,9.869245E-2,-3.706581E-1,1.8636359E-2,-3.5572574E-2,-8.459981E-2,1.9370525E-1,-2.1885252E-1,4.9638865E-4,5.2981548E-2,1.5576294E-2,-7.8582264E-2],"categories":[],"categories_nodes":[],"categories_segments":[],"categories_sizes":[],"default_left":[0,0,0,0,0,0,0,0,0,0,0,0,0,0,0],"id":6,"left_children":[1,3,5,-1,-1,7,9,-1,-1,11,13,-1,-1,-1,-1],"loss_changes":[3.8932716E1,1.2065201E1,1.6076778E1,0E0,0E0,4.1870403E0,1.211586E1,0E0,0E0,5.0915117E0,1.222995E1,0E0,0E0,0E0,0E0],"parents":[2147483647,0,0,1,1,2,2,5,5,6,6,9,9,10,10],"right_children":[2,4,6,-1,-1,8,10,-1,-1,12,14,-1,-1,-1,-1],"split_conditions":[4E-2,2.5E1,2.7E-1,1.2329868E-2,9.869245E-2,3.4E0,4.1E-1,-3.5572574E-2,-8.459981E-2,3E1,2.6E1,4.9638865E-4,5.2981548E-2,1.5576294E-2,-7.8582264E-2],"split_indices":[4,5,2,0,0,3,2,0,0,5,5,0,0,0,0],"split_type":[0,0,0,0,0,0,0,0,0,0,0,0,0,0,0],"sum_hessian":[6.135326E2,1.5775204E2,4.5578058E2,5.723536E1,1.00516685E2,1.6639185E2,2.893887E2,9.974291E1,6.664894E1,1.6669273E2,1.2269598E2,7.645347E1,9.023927E1,5.994205E1,6.275392E1],"tree_param":{"num_deleted":"0","num_feature":"9","num_nodes":"15","size_leaf_vector":"1"}},{"base_weights":[6.2312717E-3,-3.856885E-1,6.597399E-1,3.5661608E-2,-7.737635E-1,3.543183E-1,1.5035787E-1,4.9428716E-2,-3.3669896E-2,-1.598475E-1,-5.083122E-1,9.966535E-2,5.0273594E-3,-1.11560814E-1,-4.066591E-2],"categories":[],"categories_nodes":[],"categories_segments":[],"categories_sizes":[],"default_left":[0,0,0,0,0,0,0,0,0,0,0,0,0,0,0],"id":7,"left_children":[1,3,5,7,9,11,-1,-1,-1,-1,13,-1,-1,-1,-1],"loss_changes":[1.5999571E2,6.3881374E1,2.4152473E1,1.4458978E1,1.5212196E1,1.2449753E1,0E0,0E0,0E0,0E0,5.8517E0,0E0,0E0,0E0,0E0],"parents":[2147483647,0,0,1,1,2,2,3,3,4,4,5,5,10,10],"right_children":[2,4,6,8,10,12,-1,-1,-1,-1,14,-1,-1,-1,-1],"split_conditions":[1.065E1,2.85E-1,1.155E1,2.3E-1,5.4E-1,2.8E-1,1.5035787E-1,4.9428716E-2,-3.3669896E-2,-1.598475E-1,9.7E0,9.966535E-2,5.0273594E-3,-1.11560814E-1,-4.066591E-2],"split_indices":[8,1,8,1,7,1,0,0,0,0,8,0,0,0,0],"split_type":[0,0,0,0,0,0,0,0,0,0,0,0,0,0,0],"sum_hessian":[6.2268964E2,3.8950623E2,2.3318343E2,1.8718227E2,2.0232397E2,1.2436405E2,1.08819374E2,8.776659E1,9.941568E1,9.4927986E1,1.0739599E2,6.2690487E1,6.1673565E1,5.2828457E1,5.456753E1],"tree_param":{"num_deleted":"0","num_feature":"9","num_nodes":"15","size_leaf_vector":"1"}},{"base_weights":[-1.6992644E-3,-4.3553334E-1,5.112907E-1,-1.225494E-1,-3.5742956E-1,3.4915286E-1,1.5868384E-1,-8.763398E-2,-2.454273E-1,-2.3433855E-2,5.1247144E-1,-6.0753614E-2,-9.209347E-3,4.0443584E-2,1.0609287E-1],"categories":[],"categories_nodes":[],"categories_segments":[],"categories_sizes":[],"default_left":[0,0,0,0,0,0,0,0,0,0,0,0,0,0,0],"id":8,"left_children":[1,3,5,-1,7,9,-1,-1,11,-1,13,-1,-1,-1,-1],"loss_changes":[1.3573193E2,9.55286E0,2.4396935E1,0E0,6.868904E0,1.7991909E1,0E0,0E0,5.453376E0,0E0,7.5797806E0,0E0,0E0,0E0,0E0],"parents":[2147483647,0,0,1,1,2,2,4,4,5,5,8,8,10,10],"right_children":[2,4,6,-1,8,10,-1,-1,12,-1,14,-1,-1,-1,-1],"split_conditions":[1.04E1,1.9E-1,1.2066667E1,-1.225494E-1,2.6E1,1.4E1,1.5868384E-1,-8.763398E-2,9.5E0,-2.3433855E-2,1.1E1,-6.0753614E-2,-9.209347E-3,4.0443584E-2,1.0609287E-1],"split_indices":[8,2,8,0,5,5,0,0,8,0,8,0,0,0,0],"split_type":[0,0,0,0,0,0,0,0,0,0,0,0,0,0,0],"sum_hessian":[6.0788654E2,3.2943518E2,2.7845135E2,5.438005E1,2.7505515E2,2.160141E2,6.243727E1,8.953554E1,1.855196E2,5.276859E1,1.632455E2,9.871269E1,8.6806915E1,7.372587E1,8.951964E1],"tree_param":{"num_deleted":"0","num_feature":"9","num_nodes":"15","size_leaf_vector":"1"}},{"base_weights":[1.953931E-2,3.3820516E-1,-7.289725E-2,2.1628082E-2,8.7833375E-2,1.3397645E-2,-2.170444E-1,-1.6363922E-1,2.5016794E-1,-3.6445364E-1,1.4104414E-3,-4.3755613E-2,7.024692E-5,1.4369839E-2,5.2785587E-2,-2.5034716E-2,-8.108401E-2],"categories":[],"categories_nodes":[],"categories_segments":[],"categories_sizes":[],"default_left":[0,0,0,0,0,0,0,0,0,0,0,0,0,0,0,0,0],"id":9,"left_children":[1,3,5,-1,-1,7,9,11,13,15,-1,-1,-1,-1,-1,-1,-1],"loss_changes":[1.7658602E1,6.383876E0,5.7854137E0,0E0,0E0,1.22691965E1,5.816225E0,3.5208569E0,1.93258E0,3.5802689E0,0E0,0E0,0E0,0E0,0E0,0E0,0E0],"parents":[2147483647,0,0,1,1,2,2,5,5,6,6,7,7,8,8,9,9],"right_children":[2,4,6,-1,-1,8,10,12,14,16,-1,-1,-1,-1,-1,-1,-1],"split_conditions":[3.9E-2,3.2E0,3.5E-1,2.1628082E-2,8.7833375E-2,2.7E-1,3.2E0,3.32E0,2.85E1,6E0,1.4104414E-3,-4.3755613E-2,7.024692E-5,1.4369839E-2,5.2785587E-2,-2.5034716E-2,-8.108401E-2],"split_indices":[4,6,2,0,0,2,6,6,5,3,0,0,0,0,0,0,0],"split_type":[0,0,0,0,0,0,0,0,0,0,0,0,0,0,0,0,0],"sum_hessian":[5.976462E2,1.3378317E2,4.63863E2,7.586152E1,5.7921658E1,2.9072507E2,1.7313794E2,1.6652246E2,1.2420259E2,1.04501625E2,6.8636314E1,9.3095695E1,7.342677E1,5.0109943E1,7.409264E1,5.0169445E1,5.4332176E1],"tree_param":{"num_deleted":"0","num_feature":"9","num_nodes":"17","size_leaf_vector":"1"}},{"base_weights":[1.6003111E-3,-2.8661522E-1,1.02206245E-1,-8.4429495E-2,-1.7010098E-2,3.2112518E-1,-5.2999917E-2,5.0927037E-1,-1.8822199E-2,-1.0539468E-1,2.3502786E-2,9.748215E-2,4.7271613E-2,2.4644E-2,-5.8357485E-2,4.4255763E-2,-3.3065204E-2],"categories":[],"categories_nodes":[],"categories_segments":[],"categories_sizes":[],"default_left":[0,0,0,0,0,0,0,0,0,0,0,0,0,0,0,0,0],"id":10,"left_children":[1,3,5,-1,-1,7,9,11,-1,13,-1,-1,-1,15,-1,-1,-1],"loss_changes":[1.742028E1,7.3744984E0,1.5147827E1,0E0,0E0,1.5598963E1,2.8887494E0,3.3513298E0,0E0,7.7470994E0,0E0,0E0,0E0,9.658674E0,0E0,0E0,0E0],"parents":[2147483647,0,0,1,1,2,2,5,5,6,6,7,7,9,9,13,13],"right_children":[2,4,6,-1,-1,8,10,12,-1,14,-1,-1,-1,16,-1,-1,-1],"split_conditions":[2.5E-1,3.24E0,4.5E-2,-8.4429495E-2,-1.7010098E-2,7.4E0,8.7E0,3.4E-1,-1.8822199E-2,4.1E-1,2.3502786E-2,9.748215E-2,4.7271613E-2,3.2E0,-5.8357485E-2,4.4255763E-2,-3.3065204E-2],"split_indices":[2,6,4,0,0,0,0,2,0,2,0,0,0,6,0,0,0],"split_type":[0,0,0,0,0,0,0,0,0,0,0,0,0,0,0,0,0],"sum_hessian":[5.987679E2,1.544503E2,4.4431757E2,5.8655365E1,9.579494E1,1.838821E2,2.604355E2,1.2927934E2,5.4602757E1,2.0876741E2,5.166807E1,7.361232E1,5.566702E1,1.437705E2,6.499692E1,6.825792E1,7.5512566E1],"tree_param":{"num_deleted":"0","num_feature":"9","num_nodes":"17","size_leaf_vector":"1"}},{"base_weights":[-4.425946E-3,-2.4161911E-1,6.5165085E-1,1.3659634E-1,-5.198755E-1,7.179065E-2,1.3528998E-1,5.969508E-2,-2.4104958E-2,-8.8324946E-1,-1.420844E-1,-3.60626E-2,2.5777308E-2,-1.0662569E-1,-1.6518857E-1,-7.072795E-2,3.128102E-2],"categories":[],"categories_nodes":[],"categories_segments":[],"categories_sizes":[],"default_left":[0,0,0,0,0,0,0,0,0,0,0,0,0,0,0,0,0],"id":11,"left_children":[1,3,5,7,9,-1,-1,-1,11,13,15,-1,-1,-1,-1,-1,-1],"loss_changes":[9.289598E1,4.6211586E1,6.4336014E0,7.848417E0,3.4578926E1,0E0,0E0,0E0,4.9799676E0,4.053421E0,1.4552271E1,0E0,0E0,0E0,0E0,0E0,0E0],"parents":[2147483647,0,0,1,1,2,2,3,3,4,4,8,8,9,9,10,10],"right_children":[2,4,6,8,10,-1,-1,-1,12,14,16,-1,-1,-1,-1,-1,-1],"split_conditions":[1.0933333E1,2.8E-1,1.2E1,2.05E-1,5.5E-1,7.179065E-2,1.3528998E-1,5.969508E-2,9.533334E0,4E-1,9.9E0,-3.60626E-2,2.5777308E-2,-1.0662569E-1,-1.6518857E-1,-7.072795E-2,3.128102E-2],"split_indices":[8,1,8,1,7,0,0,0,8,1,8,0,0,0,0,0,0],"split_type":[0,0,0,0,0,0,0,0,0,0,0,0,0,0,0,0,0],"sum_hessian":[5.949411E2,4.3742825E2,1.5751286E2,1.8562695E2,2.5180128E2,9.484725E1,6.2665615E1,7.011414E1,1.1551282E2,1.276677E2,1.2413359E2,5.4796406E1,6.071641E1,7.3667946E1,5.3999756E1,6.38229E1,6.031069E1],"tree_param":{"num_deleted":"0","num_feature":"9","num_nodes":"17","size_leaf_vector":"1"}},{"base_weights":[-5.545799E-3,-5.731581E-2,6.848359E-2,1.30056115E-2,-7.981413E-2,-6.1917316E-2,9.71906E-2,2.57357E-1,-1.3358E-1,3.7053126E-1,-1.107446E-2,1.4537002E-2,-3.8400434E-2,2.6901541E-2,8.5517675E-2],"categories":[],"categories_nodes":[],"categories_segments":[],"categories_sizes":[],"default_left":[0,0,0,0,0,0,0,0,0,0,0,0,0,0,0],"id":12,"left_children":[1,3,-1,5,-1,-1,7,9,11,13,-1,-1,-1,-1,-1],"loss_changes":[1.3628419E1,1.7107435E1,0E0,1.6066025E1,0E0,0E0,1.3861553E1,8.317221E0,4.3681984E0,6.1941566E0,0E0,0E0,0E0,0E0,0E0],"parents":[2147483647,0,0,1,1,3,3,6,6,7,7,8,8,9,9],"right_children":[2,4,-1,6,-1,-1,8,10,12,14,-1,-1,-1,-1,-1],"split_conditions":[7.2E-1,8.3E0,6.848359E-2,2E-1,-7.981413E-2,-6.1917316E-2,4.9E-2,3.9E-1,3.14E0,4.8E-1,-1.107446E-2,1.4537002E-2,-3.8400434E-2,2.6901541E-2,8.5517675E-2],"split_indices":[7,0,0,2,0,0,4,2,6,7,0,0,0,0,0],"split_type":[0,0,0,0,0,0,0,0,0,0,0,0,0,0,0],"sum_hessian":[5.675827E2,5.1118942E2,5.6393253E1,4.4608978E2,6.509963E1,7.299502E1,3.7309476E2,2.2017032E2,1.5292445E2,1.640066E2,5.6163704E1,5.3120148E1,9.9804306E1,8.473549E1,7.9271126E1],"tree_param":{"num_deleted":"0","num_feature":"9","num_nodes":"15","size_leaf_vector":"1"}},{"base_weights":[-4.311743E-2,-1.9520536E-1,1.7006177E-1,-1.1583693E-1,-8.6776905E-2,6.3469246E-2,5.71124E-2,1.5018255E-1,-3.245545E-1,-1.2996322E-2,4.240761E-2,5.625564E-2,-2.157051E-2,-7.76E-2,-1.3504916E-2],"categories":[],"categories_nodes":[],"categories_segments":[],"categories_sizes":[],"default_left":[0,0,0,0,0,0,0,0,0,0,0,0,0,0,0],"id":13,"left_children":[1,3,5,-1,7,9,-1,11,13,-1,-1,-1,-1,-1,-1],"loss_changes":[1.9049852E1,2.1380108E1,5.472429E0,0E0,1.6370796E1,5.4130044E0,0E0,9.690411E0,6.5049496E0,0E0,0E0,0E0,0E0,0E0,0E0],"parents":[2147483647,0,0,1,1,2,2,4,4,5,5,7,7,8,8],"right_children":[2,4,6,-1,8,10,-1,12,14,-1,-1,-1,-1,-1,-1],"split_conditions":[5.4E-1,1.5E1,6.8E-1,-1.1583693E-1,4.6E-2,2.85E1,5.71124E-2,3.75E1,7.9E0,-1.2996322E-2,4.240761E-2,5.625564E-2,-2.157051E-2,-7.76E-2,-1.3504916E-2],"split_indices":[7,5,7,0,4,5,0,5,3,0,0,0,0,0,0],"split_type":[0,0,0,0,0,0,0,0,0,0,0,0,0,0,0],"sum_hessian":[5.855359E2,3.4178284E2,2.4375304E2,5.309526E1,2.886876E2,1.6272653E2,8.10265E1,1.4477707E2,1.4391052E2,9.6951866E1,6.5774666E1,8.187744E1,6.289963E1,7.83227E1,6.558782E1],"tree_param":{"num_deleted":"0","num_feature":"9","num_nodes":"15","size_leaf_vector":"1"}},{"base_weights":[-2.9512595E-2,-2.2160757E-1,5.109829E-1,-3.6993736E-1,-1.0746883E-2,4.1149408E-2,1.133074E-1,-4.8718068E-1,3.5988549E-3,-2.5648441E-2,9.3221106E-2,-6.001804E-1,-5.0220754E-2,2.504779E-2,3.3712897E-3,-7.977322E-2,-9.972023E-2],"categories":[],"categories_nodes":[],"categories_segments":[],"categories_sizes":[],"default_left":[0,0,0,0,0,0,0,0,0,0,0,0,0,0,0,0,0],"id":14,"left_children":[1,3,5,7,9,-1,-1,11,-1,-1,13,15,-1,-1,-1,-1,-1],"loss_changes":[5.8794945E1,1.3059998E1,8.381893E0,1.1335064E1,2.9067414E0,0E0,0E0,3.0530815E0,0E0,0E0,5.48804E-1,1.20224E-1,0E0,0E0,0E0,0E0,0E0],"parents":[2147483647,0,0,1,1,2,2,3,3,4,4,7,7,10,10,11,11],"right_children":[2,4,6,8,10,-1,-1,12,-1,-1,14,16,-1,-1,-1,-1,-1],"split_conditions":[1.0933333E1,9.9E0,1.1633333E1,1.28E1,2.1E0,4.1149408E-2,1.133074E-1,5.3E-1,3.5988549E-3,-2.5648441E-2,3E-1,6.9E0,-5.0220754E-2,2.504779E-2,3.3712897E-3,-7.977322E-2,-9.972023E-2],"split_indices":[8,8,8,3,3,0,0,7,0,0,2,0,0,0,0,0,0],"split_type":[0,0,0,0,0,0,0,0,0,0,0,0,0,0,0,0,0],"sum_hessian":[5.6419025E2,4.1668735E2,1.475029E2,2.44171E2,1.7251633E2,7.6017365E1,7.148554E1,1.879852E2,5.6185814E1,6.763221E1,1.0488412E2,1.0625162E2,8.173358E1,5.0680756E1,5.420336E1,5.611773E1,5.013389E1],"tree_param":{"num_deleted":"0","num_feature":"9","num_nodes":"17","size_leaf_vector":"1"}},{"base_weights":[2.528337E-2,-2.3987505E-1,3.595215E-1,1.8494536E-1,-4.5484337E-1,2.1945086E-1,1.2058858E-1,5.2823466E-3,4.939647E-2,-3.8580236E-1,-9.596415E-2,-1.0448779E-2,7.5100884E-2,-7.667115E-2,-2.1509636E-2],"categories":[],"categories_nodes":[],"categories_segments":[],"categories_sizes":[],"default_left":[0,0,0,0,0,0,0,0,0,0,0,0,0,0,0],"id":15,"left_children":[1,3,5,7,9,11,-1,-1,-1,13,-1,-1,-1,-1,-1],"loss_changes":[4.9000446E1,2.8244652E1,1.5046551E1,2.2433531E0,2.370926E0,1.5264866E1,0E0,0E0,0E0,4.539356E0,0E0,0E0,0E0,0E0,0E0],"parents":[2147483647,0,0,1,1,2,2,3,3,4,4,5,5,9,9],"right_children":[2,4,6,8,10,12,-1,-1,-1,14,-1,-1,-1,-1,-1],"split_conditions":[1.03E1,2.55E-1,1.1733334E1,4.7E-1,8E-2,5.4E-1,1.2058858E-1,5.2823466E-3,4.939647E-2,5.8E-2,-9.596415E-2,-1.0448779E-2,7.5100884E-2,-7.667115E-2,-2.1509636E-2],"split_indices":[8,1,8,7,4,7,0,0,0,4,0,0,0,0,0],"split_type":[0,0,0,0,0,0,0,0,0,0,0,0,0,0,0],"sum_hessian":[5.5091675E2,3.0736206E2,2.435547E2,1.0332025E2,2.0404181E2,1.8632193E2,5.7232777E1,5.1328285E1,5.1991962E1,1.5081844E2,5.322338E1,9.2243484E1,9.4078445E1,9.868395E1,5.2134487E1],"tree_param":{"num_deleted":"0","num_feature":"9","num_nodes":"15","size_leaf_vector":"1"}},{"base_weights":[7.493637E-3,-2.678124E-1,2.83067E-1,2.1184376E-2,-3.9601508E-1,1.7286706E-1,1.016177E-1,-8.0167666E-2,-2.8051507E-1,-1.3477796E-2,3.4845296E-1,-8.116777E-3,-6.865284E-2,7.542883E-2,2.6481686E-2],"categories":[],"categories_nodes":[],"categories_segments":[],"categories_sizes":[],"default_left":[0,0,0,0,0,0,0,0,0,0,0,0,0,0,0],"id":16,"left_children":[1,3,5,-1,7,9,-1,-1,11,-1,13,-1,-1,-1,-1],"loss_changes":[4.1859104E1,1.4530449E1,1.186619E1,0E0,3.214489E0,1.0034525E1,0E0,0E0,4.660918E0,0E0,3.3667917E0,0E0,0E0,0E0,0E0],"parents":[2147483647,0,0,1,1,2,2,4,4,5,5,8,8,10,10],"right_children":[2,4,6,-1,8,10,-1,-1,12,-1,14,-1,-1,-1,-1],"split_conditions":[1.0033334E1,2.4E-1,1.1733334E1,2.1184376E-2,7E0,3.2E0,1.016177E-1,-8.0167666E-2,3.8E-1,-1.3477796E-2,3.35E-1,-8.116777E-3,-6.865284E-2,7.542883E-2,2.6481686E-2],"split_indices":[8,1,8,0,0,6,0,0,1,0,1,0,0,0,0],"split_type":[0,0,0,0,0,0,0,0,0,0,0,0,0,0,0],"sum_hessian":[5.4974396E2,2.7501944E2,2.7472452E2,6.5603676E1,2.0941576E2,2.1584958E2,5.887494E1,9.360064E1,1.1581512E2,8.6665405E1,1.2918417E2,5.1416397E1,6.439872E1,6.70424E1,6.2141773E1],"tree_param":{"num_deleted":"0","num_feature":"9","num_nodes":"15","size_leaf_vector":"1"}},{"base_weights":[8.9275995E-3,6.226193E-2,-7.253799E-2,-1.1121059E-2,-7.7920176E-2,-9.253754E-2,1.6512647E-1,-1.9045187E-2,-5.4522943E-2,5.74635E-2,-2.1207757E-2,1.0797919E-1,-1.6157241E-1,-1.7287023E-2,5.05708E-2,-2.0822423E-2,-2.7268931E-2],"categories":[],"categories_nodes":[],"categories_segments":[],"categories_sizes":[],"default_left":[0,0,0,0,0,0,0,0,0,0,0,0,0,0,0,0,0],"id":17,"left_children":[1,-1,3,5,-1,7,9,11,-1,-1,-1,13,15,-1,-1,-1,-1],"loss_changes":[1.8042253E1,0E0,1.2463865E1,5.7610855E0,0E0,5.4598246E0,8.531036E0,3.946373E0,0E0,0E0,0E0,5.939373E0,2.2005796E-2,0E0,0E0,0E0,0E0],"parents":[2147483647,0,0,2,2,3,3,5,5,6,6,7,7,11,11,12,12],"right_children":[2,-1,4,6,-1,8,10,12,-1,-1,-1,14,16,-1,-1,-1,-1],"split_conditions":[2.05E-1,6.226193E-2,5.95E-1,5.8E-1,-7.7920176E-2,3.8E-1,2.9E0,7.5E0,-5.4522943E-2,5.74635E-2,-2.1207757E-2,2.1E0,3.15E0,-1.7287023E-2,5.05708E-2,-2.0822423E-2,-2.7268931E-2],"split_indices":[1,0,1,7,0,1,3,3,0,0,0,3,6,0,0,0,0],"split_type":[0,0,0,0,0,0,0,0,0,0,0,0,0,0,0,0,0],"sum_hessian":[5.433807E2,9.0097694E1,4.53283E2,3.9941977E2,5.3863224E1,2.735363E2,1.2588348E2,2.160146E2,5.7521687E1,7.342229E1,5.246119E1,1.1434734E2,1.0166726E2,5.8175358E1,5.617198E1,5.1534763E1,5.0132496E1],"tree_param":{"num_deleted":"0","num_feature":"9","num_nodes":"17","size_leaf_vector":"1"}},{"base_weights":[3.2734115E-2,-2.6022738E-1,1.12739556E-1,-7.546705E-2,2.348878E-3,2.0198002E-1,-1.9184763E-2,6.4094394E-2,1.02380514E-1,-3.7011493E-2,9.616814E-2,-1.6864814E-2,4.8581418E-2,3.1487825E-3,2.763716E-2],"categories":[],"categories_nodes":[],"categories_segments":[],"categories_sizes":[],"default_left":[0,0,0,0,0,0,0,0,0,0,0,0,0,0,0],"id":18,"left_children":[1,3,5,-1,-1,7,9,-1,11,-1,13,-1,-1,-1,-1],"loss_changes":[1.265707E1,7.77236E0,4.9943013E0,0E0,0E0,5.632456E0,4.537413E0,0E0,8.444542E0,0E0,7.564702E-1,0E0,0E0,0E0,0E0],"parents":[2147483647,0,0,1,1,2,2,5,5,6,6,8,8,10,10],"right_children":[2,4,6,-1,-1,8,10,-1,12,-1,14,-1,-1,-1,-1],"split_conditions":[1.8E0,2.5E1,3.4E-1,-7.546705E-2,2.348878E-3,2.5E0,4.8E-1,6.4094394E-2,2.7E-1,-3.7011493E-2,3.2E1,-1.6864814E-2,4.8581418E-2,3.1487825E-3,2.763716E-2],"split_indices":[3,5,2,0,0,3,7,0,2,0,5,0,0,0,0],"split_type":[0,0,0,0,0,0,0,0,0,0,0,0,0,0,0],"sum_hessian":[5.3776E2,1.1487212E2,4.2288788E2,6.0651688E1,5.4220436E1,2.5193495E2,1.7095293E2,7.621953E1,1.7571542E2,5.7124157E1,1.13828766E2,8.945341E1,8.626201E1,6.2080853E1,5.1747913E1],"tree_param":{"num_deleted":"0","num_feature":"9","num_nodes":"15","size_leaf_vector":"1"}},{"base_weights":[1.0692941E-2,-5.5131372E-2,6.678193E-2,6.2220685E-2,6.474655E-3,1.5137546E-1,-1.0909986E-1,-1.967527E-2,2.7027333E-1,2.9879343E-2,-3.5209197E-1,6.0578756E-2,2.0455744E-2,-3.2430694E-2,-7.685157E-2],"categories":[],"categories_nodes":[],"categories_segments":[],"categories_sizes":[],"default_left":[0,0,0,0,0,0,0,0,0,0,0,0,0,0,0],"id":19,"left_children":[1,-1,3,-1,5,7,9,-1,11,-1,13,-1,-1,-1,-1],"loss_changes":[1.1514215E1,0E0,9.914112E0,0E0,6.777619E0,6.0673566E0,1.6938408E1,0E0,2.211256E0,0E0,2.6391897E0,0E0,0E0,0E0,0E0],"parents":[2147483647,0,0,2,2,4,4,5,5,6,6,8,8,10,10],"right_children":[2,-1,4,-1,6,8,10,-1,12,-1,14,-1,-1,-1,-1],"split_conditions":[1.5E0,-5.5131372E-2,2.1E-1,6.2220685E-2,5E-2,2.7E1,1.9E1,-1.967527E-2,4.25E1,2.9879343E-2,3.65E-1,6.0578756E-2,2.0455744E-2,-3.2430694E-2,-7.685157E-2],"split_indices":[3,0,1,0,4,5,5,0,5,0,1,0,0,0,0],"split_type":[0,0,0,0,0,0,0,0,0,0,0,0,0,0,0],"sum_hessian":[5.405864E2,6.909465E1,4.714918E2,6.876765E1,4.0272412E2,1.7855374E2,2.2417038E2,5.285297E1,1.25700775E2,9.888747E1,1.2528291E2,6.1915565E1,6.378521E1,6.9066414E1,5.62165E1],"tree_param":{"num_deleted":"0","num_feature":"9","num_nodes":"15","size_leaf_vector":"1"}},{"base_weights":[4.3811027E-2,1.0469748E-1,-7.1410455E-2,6.1942387E-2,3.982606E-2,-3.295623E-2,9.597166E-2,3.3581528E-1,-4.0940415E-2,7.0857935E-2,2.3440754E-2,1.5684865E-2,-1.7155612E-1,-5.416405E-2,4.1826113E-4],"categories":[],"categories_nodes":[],"categories_segments":[],"categories_sizes":[],"default_left":[0,0,0,0,0,0,0,0,0,0,0,0,0,0,0],"id":20,"left_children":[1,3,-1,-1,5,-1,7,9,11,-1,-1,-1,13,-1,-1],"loss_changes":[1.6896078E1,9.526571E0,0E0,0E0,5.7822194E0,0E0,1.0710309E1,2.8314247E0,3.975996E0,0E0,0E0,0E0,3.640035E0,0E0,0E0],"parents":[2147483647,0,0,1,1,4,4,6,6,7,7,8,8,12,12],"right_children":[2,4,-1,-1,6,-1,8,10,12,-1,-1,-1,14,-1,-1],"split_conditions":[5.95E-1,2.1E-1,-7.1410455E-2,6.1942387E-2,1.7E0,-3.295623E-2,3.4E0,1.95E1,6.8E0,7.0857935E-2,2.3440754E-2,1.5684865E-2,3.7E1,-5.416405E-2,4.1826113E-4],"split_indices":[1,1,0,0,3,0,3,5,0,0,0,0,5,0,0],"split_type":[0,0,0,0,0,0,0,0,0,0,0,0,0,0,0],"sum_hessian":[5.312044E2,4.762289E2,5.497551E1,8.186457E1,3.9436435E2,6.9621994E1,3.2474234E2,1.1748262E2,2.0725974E2,6.580023E1,5.1682396E1,9.8135735E1,1.0912399E2,5.177068E1,5.7353313E1],"tree_param":{"num_deleted":"0","num_feature":"9","num_nodes":"15","size_leaf_vector":"1"}},{"base_weights":[-6.2905494E-3,-9.985944E-2,9.736534E-2,6.1399538E-2,-2.6708454E-1,-3.0143132E-2,1.8132946E-1,-4.548858E-1,-1.6744613E-3,2.1443497E-3,6.743502E-2,-9.0578176E-2,-4.340297E-2],"categories":[],"categories_nodes":[],"categories_segments":[],"categories_sizes":[],"default_left":[0,0,0,0,0,0,0,0,0,0,0,0,0],"id":21,"left_children":[1,3,-1,5,7,-1,9,11,-1,-1,-1,-1,-1],"loss_changes":[3.1724932E1,1.222256E1,0E0,7.3123164E0,1.0683837E1,0E0,7.127552E0,2.9876766E0,0E0,0E0,0E0,0E0,0E0],"parents":[2147483647,0,0,1,1,3,3,4,4,6,6,7,7],"right_children":[2,4,-1,6,8,-1,10,12,-1,-1,-1,-1,-1],"split_conditions":[1.155E1,2.95E-1,9.736534E-2,9.5E0,5.8E-1,-3.0143132E-2,5.3E-1,9.733334E0,-1.6744613E-3,2.1443497E-3,6.743502E-2,-9.0578176E-2,-4.340297E-2],"split_indices":[8,1,0,8,7,0,7,8,0,0,0,0,0],"split_type":[0,0,0,0,0,0,0,0,0,0,0,0,0],"sum_hessian":[5.152729E2,4.516408E2,6.363206E1,2.3024405E2,2.2139676E2,7.202015E1,1.582239E2,1.2724436E2,9.415239E1,9.815512E1,6.0068783E1,6.55793E1,6.1665066E1],"tree_param":{"num_deleted":"0","num_feature":"9","num_nodes":"13","size_leaf_vector":"1"}},{"base_weights":[1.6612574E-2,6.5073654E-2,-6.405083E-2,2.359801E-1,-1.3316136E-4,-3.0996108E-3,8.108951E-2,4.6686515E-2,-3.5156485E-2,-3.426684E-2,1.1756927E-1,4.1824054E-2,1.1669384E-2,3.7497424E-2,-3.4705065E-2],"categories":[],"categories_nodes":[],"categories_segments":[],"categories_sizes":[],"default_left":[0,0,0,0,0,0,0,0,0,0,0,0,0,0,0],"id":22,"left_children":[1,3,-1,5,7,-1,-1,9,-1,-1,11,-1,13,-1,-1],"loss_changes":[1.11376295E1,5.201662E0,0E0,1.0088551E1,3.7271905E0,0E0,0E0,5.550619E0,0E0,0E0,3.8540769E0,0E0,8.014954E0,0E0,0E0],"parents":[2147483647,0,0,1,1,3,3,4,4,7,7,10,10,12,12],"right_children":[2,4,-1,6,8,-1,-1,10,-1,-1,12,-1,14,-1,-1],"split_conditions":[6.1E-1,2.35E-1,-6.405083E-2,6.2E0,1.16E1,-3.0996108E-3,8.108951E-2,1.7E0,-3.5156485E-2,-3.426684E-2,2.7E0,4.1824054E-2,4.7E-2,3.7497424E-2,-3.4705065E-2],"split_indices":[1,1,0,3,3,0,0,3,0,0,3,0,4,0,0],"split_type":[0,0,0,0,0,0,0,0,0,0,0,0,0,0,0],"sum_hessian":[5.157799E2,4.65754E2,5.002591E1,1.2790287E2,3.3785114E2,6.9923454E1,5.7979412E1,2.8223898E2,5.561216E1,5.7362602E1,2.2487637E2,8.849253E1,1.3638385E2,6.88466E1,6.7537254E1],"tree_param":{"num_deleted":"0","num_feature":"9","num_nodes":"15","size_leaf_vector":"1"}},{"base_weights":[4.5494568E-3,-9.987204E-2,2.410795E-1,-2.0744334E-1,5.8988467E-2,3.3639765E-3,7.159632E-2,-4.91457E-2,-1.2915985E-1,3.9779082E-2,-2.0646324E-2,1.1997137E-2,-4.6603143E-2],"categories":[],"categories_nodes":[],"categories_segments":[],"categories_sizes":[],"default_left":[0,0,0,0,0,0,0,0,0,0,0,0,0],"id":23,"left_children":[1,3,5,7,9,-1,-1,-1,11,-1,-1,-1,-1],"loss_changes":[1.2634333E1,6.0770836E0,8.081129E0,1.9508638E0,5.877977E0,0E0,0E0,0E0,4.9577065E0,0E0,0E0,0E0,0E0],"parents":[2147483647,0,0,1,1,2,2,3,3,4,4,8,8],"right_children":[2,4,6,8,10,-1,-1,-1,12,-1,-1,-1,-1],"split_conditions":[1.065E1,7.3E0,2.5E1,6.9E0,2.65E-1,3.3639765E-3,7.159632E-2,-4.91457E-2,7.8E0,3.9779082E-2,-2.0646324E-2,1.1997137E-2,-4.6603143E-2],"split_indices":[8,3,5,0,1,0,0,0,0,0,0,0,0],"split_type":[0,0,0,0,0,0,0,0,0,0,0,0,0],"sum_hessian":[5.0956107E2,3.539012E2,1.5565987E2,2.1083197E2,1.4306924E2,8.1405846E1,7.425403E1,8.189974E1,1.2893222E2,6.966415E1,7.340509E1,6.0169483E1,6.876273E1],"tree_param":{"num_deleted":"0","num_feature":"9","num_nodes":"13","size_leaf_vector":"1"}},{"base_weights":[-3.830144E-2,-1.2917826E-1,2.4420503E-1,-1.859999E-1,2.589813E-2,-6.2112347E-3,6.607068E-2,-3.2634136E-1,-2.5684461E-2,-2.4664915E-1,-7.542364E-2,-4.8880324E-2,1.2364064E-1,-5.418092E-2,-2.2938099E-2,4.879784E-2,-1.159962E-2],"categories":[],"categories_nodes":[],"categories_segments":[],"categories_sizes":[],"default_left":[0,0,0,0,0,0,0,0,0,0,0,0,0,0,0,0,0],"id":24,"left_children":[1,3,5,7,-1,-1,-1,9,11,13,-1,-1,15,-1,-1,-1,-1],"loss_changes":[1.3379855E1,6.790135E0,7.1312337E0,7.4633503E0,0E0,0E0,0E0,2.3652534E0,7.0375175E0,1.2750616E0,0E0,0E0,4.2797446E0,0E0,0E0,0E0,0E0],"parents":[2147483647,0,0,1,1,2,2,3,3,7,7,8,8,9,9,12,12],"right_children":[2,4,6,8,-1,-1,-1,10,12,14,-1,-1,16,-1,-1,-1,-1],"split_conditions":[1.1E1,1.28E1,1.95E1,9.9E0,2.589813E-2,-6.2112347E-3,6.607068E-2,7.4E-2,4.4E-2,4.8E-2,-7.542364E-2,-4.8880324E-2,3E-1,-5.418092E-2,-2.2938099E-2,4.879784E-2,-1.159962E-2],"split_indices":[8,3,5,8,0,0,0,4,4,4,0,0,2,0,0,0,0],"split_type":[0,0,0,0,0,0,0,0,0,0,0,0,0,0,0,0,0],"sum_hessian":[5.189299E2,3.930395E2,1.2589038E2,3.310931E2,6.194638E1,5.1595646E1,7.429474E1,1.7599234E2,1.5510078E2,1.2289551E2,5.3096844E1,5.113106E1,1.0396971E2,5.4018806E1,6.887669E1,5.158478E1,5.2384933E1],"tree_param":{"num_deleted":"0","num_feature":"9","num_nodes":"17","size_leaf_vector":"1"}},{"base_weights":[5.455807E-3,-6.354104E-2,7.190219E-2,-1.6504356E-1,3.7148774E-2,-9.042216E-2,-5.044718E-2,-7.849876E-2,4.0684536E-2,1.8331988E-2,-5.4831717E-2,-7.249447E-2,2.3851903E-2],"categories":[],"categories_nodes":[],"categories_segments":[],"categories_sizes":[],"default_left":[0,0,0,0,0,0,0,0,0,0,0,0,0],"id":25,"left_children":[1,3,-1,5,7,9,-1,11,-1,-1,-1,-1,-1],"loss_changes":[1.6439268E1,4.492279E0,0E0,2.765635E0,6.0086136E0,9.039201E0,0E0,1.4384109E1,0E0,0E0,0E0,0E0,0E0],"parents":[2147483647,0,0,1,1,3,3,4,4,5,5,7,7],"right_children":[2,4,-1,6,8,10,-1,12,-1,-1,-1,-1,-1],"split_conditions":[1.1433333E1,9.9E0,7.190219E-2,7.5E0,5.8E-2,4.25E1,-5.044718E-2,2.5E1,4.0684536E-2,1.8331988E-2,-5.4831717E-2,-7.249447E-2,2.3851903E-2],"split_indices":[8,8,0,0,4,5,0,5,0,0,0,0,0],"split_type":[0,0,0,0,0,0,0,0,0,0,0,0,0],"sum_hessian":[5.0084354E2,4.379462E2,6.2897343E1,2.1777467E2,2.2017154E2,1.5275046E2,6.5024216E1,1.4781061E2,7.236092E1,8.6473236E1,6.627722E1,5.4274376E1,9.353623E1],"tree_param":{"num_deleted":"0","num_feature":"9","num_nodes":"13","size_leaf_vector":"1"}},{"base_weights":[3.0503735E-2,-3.5756316E-2,5.8905855E-2,8.682417E-2,-1.8272418E-1,-4.500524E-2,2.1682434E-1,4.3081506E-3,-3.0985004E-1,9.506533E-3,3.1188834E-1,-6.240693E-2,-2.3493968E-2,2.8272415E-2,6.6306226E-2],"categories":[],"categories_nodes":[],"categories_segments":[],"categories_sizes":[],"default_left":[0,0,0,0,0,0,0,0,0,0,0,0,0,0,0],"id":26,"left_children":[1,3,-1,5,7,-1,9,-1,11,-1,13,-1,-1,-1,-1],"loss_changes":[1.2150671E1,7.7339206E0,0E0,1.1846677E1,5.254533E0,0E0,2.5464897E0,0E0,1.9193344E0,0E0,1.6573133E0,0E0,0E0,0E0,0E0],"parents":[2147483647,0,0,1,1,3,3,4,4,6,6,8,8,10,10],"right_children":[2,4,-1,6,8,-1,10,-1,12,-1,14,-1,-1,-1,-1],"split_conditions":[1.1266666E1,3.05E-1,5.8905855E-2,2.5E1,2.2E-1,-4.500524E-2,9.5E0,4.3081506E-3,3.8E-1,9.506533E-3,4.05E1,-6.240693E-2,-2.3493968E-2,2.8272415E-2,6.6306226E-2],"split_indices":[8,1,0,5,2,0,8,0,2,0,5,0,0,0,0],"split_type":[0,0,0,0,0,0,0,0,0,0,0,0,0,0,0],"sum_hessian":[5.04703E2,4.2741446E2,7.728853E1,2.3326552E2,1.9414894E2,5.834184E1,1.7492368E2,7.318924E1,1.209597E2,6.755176E1,1.0737192E2,7.043048E1,5.052922E1,5.6371273E1,5.100064E1],"tree_param":{"num_deleted":"0","num_feature":"9","num_nodes":"15","size_leaf_vector":"1"}},{"base_weights":[-9.188599E-3,-1.3477583E-1,9.201483E-2,1.9291542E-2,-2.4845837E-1,1.4872621E-1,-2.0201575E-2,-7.452175E-2,-1.1558698E-1,3.0847918E-2,2.7369896E-1,-2.8675196E-3,-3.207457E-2,-3.4726042E-2,3.783051E-2,6.1199103E-2,2.20671E-2],"categories":[],"categories_nodes":[],"categories_segments":[],"categories_sizes":[],"default_left":[0,0,0,0,0,0,0,0,0,0,0,0,0,0,0,0,0],"id":27,"left_children":[1,3,5,-1,7,9,-1,-1,11,13,15,-1,-1,-1,-1,-1,-1],"loss_changes":[6.3673177E0,6.7248616E0,3.5872257E0,0E0,5.10614E0,3.2682066E0,0E0,0E0,9.7439003E-1,6.7709856E0,1.773159E0,0E0,0E0,0E0,0E0,0E0,0E0],"parents":[2147483647,0,0,1,1,2,2,4,4,5,5,8,8,9,9,10,10],"right_children":[2,4,6,-1,8,10,-1,-1,12,14,16,-1,-1,-1,-1,-1,-1],"split_conditions":[5E-1,2.3E-1,5.55E-1,1.9291542E-2,2.7E0,2.9E1,-2.0201575E-2,-7.452175E-2,3.16E0,3.35E-1,4.15E1,-2.8675196E-3,-3.207457E-2,-3.4726042E-2,3.783051E-2,6.1199103E-2,2.20671E-2],"split_indices":[7,1,1,0,3,5,0,0,6,1,5,0,0,0,0,0,0],"split_type":[0,0,0,0,0,0,0,0,0,0,0,0,0,0,0,0,0],"sum_hessian":[4.98999E2,2.2252606E2,2.7647293E2,6.704986E1,1.5547621E2,2.214235E2,5.5049427E1,5.3234753E1,1.02241455E2,1.1458763E2,1.0683585E2,5.2189022E1,5.0052433E1,5.241659E1,6.217104E1,5.076052E1,5.6075336E1],"tree_param":{"num_deleted":"0","num_feature":"9","num_nodes":"17","size_leaf_vector":"1"}},{"base_weights":[4.996672E-2,-1.2110416E-1,1.10493876E-1,-3.238522E-2,-8.8170473E-4,1.8842065E-1,9.72649E-3,8.0079794E-2,5.9413467E-2,3.7453283E-2,-1.2968396E-1,-1.2382269E-2,4.3908283E-2,-2.7965043E-2,-1.0567408E-2],"categories":[],"categories_nodes":[],"categories_segments":[],"categories_sizes":[],"default_left":[0,0,0,0,0,0,0,0,0,0,0,0,0,0,0],"id":28,"left_children":[1,3,5,-1,-1,7,9,11,-1,-1,13,-1,-1,-1,-1],"loss_changes":[5.0967703E0,1.40543E0,2.8498468E0,0E0,0E0,4.5745816E0,5.365609E0,4.7202034E0,0E0,0E0,3.2805336E-1,0E0,0E0,0E0,0E0],"parents":[2147483647,0,0,1,1,2,2,5,5,6,6,7,7,10,10],"right_children":[2,4,6,-1,-1,8,10,12,-1,-1,14,-1,-1,-1,-1],"split_conditions":[1.9E0,2.5E1,3.4E1,-3.238522E-2,-8.8170473E-4,2.35E1,3.14E0,7.8E0,5.9413467E-2,3.7453283E-2,4.8E1,-1.2382269E-2,4.3908283E-2,-2.7965043E-2,-1.0567408E-2],"split_indices":[3,5,5,0,0,5,6,0,0,0,5,0,0,0,0],"split_type":[0,0,0,0,0,0,0,0,0,0,0,0,0,0,0],"sum_hessian":[4.899384E2,1.2778174E2,3.6215665E2,6.962614E1,5.8155594E1,2.0373315E2,1.584235E2,1.3479585E2,6.89373E1,5.7926212E1,1.00497284E2,7.672699E1,5.8068863E1,5.0228508E1,5.0268776E1],"tree_param":{"num_deleted":"0","num_feature":"9","num_nodes":"15","size_leaf_vector":"1"}},{"base_weights":[-3.2324634E-2,-1.081858E-1,1.5057848E-1,-1.9046798E-1,1.6833536E-2,-1.3703491E-2,4.925814E-2,-2.7925792E-1,-3.1688833E-4,-8.97521E-3,-4.0374878E-1,-8.7045014E-2,-2.9641397E-2],"categories":[],"categories_nodes":[],"categories_segments":[],"categories_sizes":[],"default_left":[0,0,0,0,0,0,0,0,0,0,0,0,0],"id":29,"left_children":[1,3,5,7,-1,-1,-1,9,-1,-1,11,-1,-1],"loss_changes":[6.970784E0,6.4569936E0,6.36909E0,4.3270273E0,0E0,0E0,0E0,4.7795715E0,0E0,0E0,3.9624062E0,0E0,0E0],"parents":[2147483647,0,0,1,1,2,2,3,3,7,7,10,10],"right_children":[2,4,6,8,-1,-1,-1,10,-1,-1,12,-1,-1],"split_conditions":[1.065E1,1.02E1,2.1E1,1.0033334E1,1.6833536E-2,-1.3703491E-2,4.925814E-2,1.9E1,-3.1688833E-4,-8.97521E-3,5.5E0,-8.7045014E-2,-2.9641397E-2],"split_indices":[8,3,5,8,0,0,0,5,0,0,3,0,0],"split_type":[0,0,0,0,0,0,0,0,0,0,0,0,0],"sum_hessian":[5.00216E2,3.5385788E2,1.4635811E2,2.577658E2,9.609207E1,6.2205166E1,8.415294E1,1.7485655E2,8.290926E1,6.3830975E1,1.1102558E2,5.8827118E1,5.2198463E1],"tree_param":{"num_deleted":"0","num_feature":"9","num_nodes":"13","size_leaf_vector":"1"}},{"base_weights":[-2.5889897E-3,-7.173399E-2,2.1641056E-1,-1.5085699E-1,2.3082515E-2,1.5210442E-2,4.6844706E-2,-1.7525356E-2,-2.4934173E-1,2.9395672E-2,-3.5233404E-2,-6.684948E-2,-1.5346389E-1,-4.6848223E-2,-1.9583972E-3],"categories":[],"categories_nodes":[],"categories_segments":[],"categories_sizes":[],"default_left":[0,0,0,0,0,0,0,0,0,0,0,0,0,0,0],"id":30,"left_children":[1,3,5,7,-1,-1,-1,9,11,-1,-1,-1,13,-1,-1],"loss_changes":[7.494455E0,6.7376833E0,1.2780738E0,3.6588917E0,0E0,0E0,0E0,5.596025E0,2.9504194E0,0E0,0E0,0E0,2.4334102E0,0E0,0E0],"parents":[2147483647,0,0,1,1,2,2,3,3,7,7,8,8,12,12],"right_children":[2,4,6,8,-1,-1,-1,10,12,-1,-1,-1,14,-1,-1],"split_conditions":[1.09E1,3.32E0,2.2E0,3.14E0,2.3082515E-2,1.5210442E-2,4.6844706E-2,7.3E0,9.5E0,2.9395672E-2,-3.5233404E-2,-6.684948E-2,7E0,-4.6848223E-2,-1.9583972E-3],"split_indices":[8,6,3,6,0,0,0,0,8,0,0,0,0,0,0],"split_type":[0,0,0,0,0,0,0,0,0,0,0,0,0,0,0],"sum_hessian":[4.9289597E2,3.751286E2,1.17767365E2,2.779753E2,9.715331E1,5.4480667E1,6.32867E1,1.18595314E2,1.5937999E2,5.9879574E1,5.8715736E1,5.109945E1,1.0828053E2,5.022807E1,5.8052467E1],"tree_param":{"num_deleted":"0","num_feature":"9","num_nodes":"15","size_leaf_vector":"1"}},{"base_weights":[-5.4049592E-2,4.081997E-2,-1.0025261E-1,-4.7493313E-2,-6.404345E-2,-1.3599001E-1,1.980685E-2,1.6493758E-2,-2.3621142E-1,1.803785E-2,-1.4144129E-2,-4.699831E-2,-2.2620276E-2],"categories":[],"categories_nodes":[],"categories_segments":[],"categories_sizes":[],"default_left":[0,0,0,0,0,0,0,0,0,0,0,0,0],"id":31,"left_children":[1,-1,3,-1,5,7,-1,9,11,-1,-1,-1,-1],"loss_changes":[7.349372E0,0E0,3.3196058E0,0E0,5.187687E0,4.108268E0,0E0,1.2464904E0,1.0204964E0,0E0,0E0,0E0,0E0],"parents":[2147483647,0,0,2,2,4,4,5,5,7,7,8,8],"right_children":[2,-1,4,-1,6,8,-1,10,12,-1,-1,-1,-1],"split_conditions":[2E-1,4.081997E-2,3.06E0,-4.7493313E-2,7.7E0,4.6E-2,1.980685E-2,2.9E-1,3.29E0,1.803785E-2,-1.4144129E-2,-4.699831E-2,-2.2620276E-2],"split_indices":[1,0,6,0,0,4,0,1,6,0,0,0,0],"split_type":[0,0,0,0,0,0,0,0,0,0,0,0,0],"sum_hessian":[4.8485175E2,5.9550312E1,4.2530142E2,5.986016E1,3.6544125E2,2.6757318E2,9.7868095E1,1.064493E2,1.6112387E2,5.492438E1,5.1524918E1,8.3273384E1,7.785049E1],"tree_param":{"num_deleted":"0","num_feature":"9","num_nodes":"13","size_leaf_vector":"1"}},{"base_weights":[3.1568713E-2,-1.5798858E-3,4.376758E-2,-3.5752676E-2,3.586156E-2,4.522816E-3,-4.1621655E-2,7.108E-2,-2.8900364E-2,5.4074712E-2,-7.2413986E-3,-3.6129385E-2,1.06876165E-1,-2.5401008E-3,4.163099E-2],"categories":[],"categories_nodes":[],"categories_segments":[],"categories_sizes":[],"default_left":[0,0,0,0,0,0,0,0,0,0,0,0,0,0,0],"id":32,"left_children":[1,3,-1,5,-1,7,-1,9,-1,-1,11,-1,13,-1,-1],"loss_changes":[4.196667E0,3.5653846E0,0E0,3.6968014E0,0E0,4.297042E0,0E0,5.5501666E0,0E0,0E0,5.1869397E0,0E0,2.7674997E0,0E0,0E0],"parents":[2147483647,0,0,1,1,3,3,5,5,7,7,10,10,12,12],"right_children":[2,4,-1,6,-1,8,-1,10,-1,-1,12,-1,14,-1,-1],"split_conditions":[1.1433333E1,6.8E-1,4.376758E-2,3.39E0,3.586156E-2,4.1E-1,-4.1621655E-2,3.09E0,-2.8900364E-2,5.4074712E-2,3.18E0,-3.6129385E-2,5.4E-1,-2.5401008E-3,4.163099E-2],"split_indices":[8,7,0,6,0,2,0,6,0,0,6,0,7,0,0],"split_type":[0,0,0,0,0,0,0,0,0,0,0,0,0,0,0],"sum_hessian":[4.854734E2,4.31499E2,5.397439E1,3.7859125E2,5.2907738E1,3.2536176E2,5.3229504E1,2.4373474E2,8.1627014E1,5.114346E1,1.9259128E2,6.283828E1,1.29753E2,7.5721016E1,5.4031982E1],"tree_param":{"num_deleted":"0","num_feature":"9","num_nodes":"15","size_leaf_vector":"1"}},{"base_weights":[2.8666004E-3,1.5390356E-1,-1.0850138E-1,4.345026E-2,3.575823E-2,-5.298687E-2,-3.8315568E-2,4.453534E-2,-3.4112014E-2,2.3106368E-2,-1.251514E-1,-3.7005447E-2,1.3738776E-2],"categories":[],"categories_nodes":[],"categories_segments":[],"categories_sizes":[],"default_left":[0,0,0,0,0,0,0,0,0,0,0,0,0],"id":33,"left_children":[1,3,5,-1,7,-1,9,-1,-1,-1,11,-1,-1],"loss_changes":[8.190206E0,3.3042097E0,4.8009305E0,0E0,7.739554E0,0E0,3.6762726E0,0E0,0E0,0E0,4.011111E0,0E0,0E0],"parents":[2147483647,0,0,1,1,2,2,4,4,6,6,10,10],"right_children":[2,4,6,-1,8,-1,10,-1,-1,-1,12,-1,-1],"split_conditions":[2.8E-1,3.17E0,1.9E0,4.345026E-2,3.7E1,-5.298687E-2,2.5E0,4.453534E-2,-3.4112014E-2,2.3106368E-2,9.2E0,-3.7005447E-2,1.3738776E-2],"split_indices":[1,6,3,0,5,0,3,0,0,0,3,0,0],"split_type":[0,0,0,0,0,0,0,0,0,0,0,0,0],"sum_hessian":[4.849201E2,2.0564413E2,2.7927594E2,9.5011444E1,1.106327E2,6.1341045E1,2.179349E2,5.546594E1,5.5166763E1,6.7542145E1,1.5039276E2,9.626708E1,5.412568E1],"tree_param":{"num_deleted":"0","num_feature":"9","num_nodes":"13","size_leaf_vector":"1"}},{"base_weights":[3.429863E-3,-4.0664174E-2,5.864935E-2,1.4831124E-1,-1.2553513E-1,2.585046E-1,-1.335868E-2,-4.3964524E-2,8.296612E-3,6.232026E-2,7.4101537E-3,-2.3937233E-2,1.9012433E-2],"categories":[],"categories_nodes":[],"categories_segments":[],"categories_sizes":[],"default_left":[0,0,0,0,0,0,0,0,0,0,0,0,0],"id":34,"left_children":[1,-1,3,5,7,9,11,-1,-1,-1,-1,-1,-1],"loss_changes":[7.429257E0,0E0,6.7558722E0,4.899862E0,4.080304E0,5.3456287E0,2.3220286E0,0E0,0E0,0E0,0E0,0E0,0E0],"parents":[2147483647,0,0,2,2,3,3,4,4,5,5,6,6],"right_children":[2,-1,4,6,8,10,12,-1,-1,-1,-1,-1,-1],"split_conditions":[1.2E1,-4.0664174E-2,7.4E0,3.85E1,5.3E-2,4.9E-2,3.2E-1,-4.3964524E-2,8.296612E-3,6.232026E-2,7.4101537E-3,-2.3937233E-2,1.9012433E-2],"split_indices":[5,0,0,5,4,4,2,0,0,0,0,0,0],"split_type":[0,0,0,0,0,0,0,0,0,0,0,0,0],"sum_hessian":[4.88037E2,8.107287E1,4.0696414E2,2.7384824E2,1.3311589E2,1.6249414E2,1.1135411E2,6.87735E1,6.4342384E1,9.225555E1,7.023859E1,5.4420055E1,5.693406E1],"tree_param":{"num_deleted":"0","num_feature":"9","num_nodes":"13","size_leaf_vector":"1"}},{"base_weights":[-1.0343356E-2,4.053744E-2,-4.481992E-2,1.634638E-1,-4.8967905E-2,4.3302678E-2,5.2257296E-2,-4.333342E-2,1.1347455E-1,2.180897E-2,-7.645664E-3,3.4820247E-2,-1.3467163E-2],"categories":[],"categories_nodes":[],"categories_segments":[],"categories_sizes":[],"default_left":[0,0,0,0,0,0,0,0,0,0,0,0,0],"id":35,"left_children":[1,3,-1,5,7,9,-1,-1,11,-1,-1,-1,-1],"loss_changes":[7.18452E0,4.5883007E0,0E0,3.887415E0,9.451223E0,1.0429733E0,0E0,0E0,3.513591E0,0E0,0E0,0E0,0E0],"parents":[2147483647,0,0,1,1,3,3,4,4,5,5,8,8],"right_children":[2,4,-1,6,8,10,-1,-1,12,-1,-1,-1,-1],"split_conditions":[5.4E-1,3.1E-1,-4.481992E-2,2.7E-1,4.8E-1,4.9E-1,5.2257296E-2,-4.333342E-2,6.3E-1,2.180897E-2,-7.645664E-3,3.4820247E-2,-1.3467163E-2],"split_indices":[1,2,0,2,7,7,0,0,7,0,0,0,0],"split_type":[0,0,0,0,0,0,0,0,0,0,0,0,0],"sum_hessian":[4.876876E2,4.152934E2,7.239417E1,1.7463034E2,2.4066306E2,1.0659702E2,6.8033325E1,9.684627E1,1.4381679E2,5.0916523E1,5.56805E1,9.071524E1,5.310155E1],"tree_param":{"num_deleted":"0","num_feature":"9","num_nodes":"13","size_leaf_vector":"1"}},{"base_weights":[2.5179157E-2,-3.2955203E-2,5.7447277E-2,-6.112791E-3,2.2218074E-1,9.152592E-2,-1.3868973E-1,5.4066498E-2,5.475309E-3,4.888512E-2,-1.7568516E-2,-5.7260655E-2,3.5595584E-3,1.8754559E-2,-2.0526499E-2],"categories":[],"categories_nodes":[],"categories_segments":[],"categories_sizes":[],"default_left":[0,0,0,0,0,0,0,0,0,0,0,0,0,0,0],"id":36,"left_children":[1,-1,3,5,7,9,11,-1,-1,-1,13,-1,-1,-1,-1],"loss_changes":[3.7913592E0,0E0,4.4337745E0,3.9794366E0,3.0132709E0,4.5333543E0,5.1552916E0,0E0,0E0,0E0,2.088406E0,0E0,0E0,0E0,0E0],"parents":[2147483647,0,0,2,2,3,3,4,4,5,5,6,6,10,10],"right_children":[2,-1,4,6,8,10,12,-1,-1,-1,14,-1,-1,-1,-1],"split_conditions":[3.5E-2,-3.2955203E-2,7.7E0,3.2E-1,4.2E-1,2.55E-1,3.8E-1,5.4066498E-2,5.475309E-3,4.888512E-2,2.5E0,-5.7260655E-2,3.5595584E-3,1.8754559E-2,-2.0526499E-2],"split_indices":[4,0,0,2,1,1,2,0,0,0,3,0,0,0,0],"split_type":[0,0,0,0,0,0,0,0,0,0,0,0,0,0,0],"sum_hessian":[4.772102E2,5.4884785E1,4.223254E2,3.05439E2,1.1688641E2,1.76075E2,1.2936401E2,6.64582E1,5.042822E1,5.5294598E1,1.20780396E2,5.1279007E1,7.8085E1,5.4989494E1,6.57909E1],"tree_param":{"num_deleted":"0","num_feature":"9","num_nodes":"15","size_leaf_vector":"1"}},{"base_weights":[-5.061457E-2,-1.981675E-1,4.264121E-2,-3.4075636E-1,1.8804885E-2,-1.7905688E-1,1.8301828E-1,-2.7494675E-2,-7.7996686E-2,3.0967523E-3,-5.0683502E-2,5.303936E-3,2.9630983E-1,2.590104E-2,6.172431E-2],"categories":[],"categories_nodes":[],"categories_segments":[],"categories_sizes":[],"default_left":[0,0,0,0,0,0,0,0,0,0,0,0,0,0,0],"id":37,"left_children":[1,3,5,7,-1,9,11,-1,-1,-1,-1,-1,13,-1,-1],"loss_changes":[6.6404476E0,8.6614E0,9.249207E0,3.5716963E0,0E0,3.6648886E0,3.0311604E0,0E0,0E0,0E0,0E0,0E0,1.3922119E0,0E0,0E0],"parents":[2147483647,0,0,1,1,2,2,3,3,5,5,6,6,12,12],"right_children":[2,4,6,8,-1,10,12,-1,-1,-1,-1,-1,14,-1,-1],"split_conditions":[9.7E0,4.85E1,2.1E0,9.4E0,1.8804885E-2,6.9E0,2.35E1,-2.7494675E-2,-7.7996686E-2,3.0967523E-3,-5.0683502E-2,5.303936E-3,6.6E0,2.590104E-2,6.172431E-2],"split_indices":[8,5,3,8,0,0,5,0,0,0,0,0,3,0,0],"split_type":[0,0,0,0,0,0,0,0,0,0,0,0,0,0,0],"sum_hessian":[4.809708E2,1.8582549E2,2.9514532E2,1.289437E2,5.6881783E1,1.1432144E2,1.8082387E2,6.971606E1,5.922764E1,5.1030495E1,6.3290947E1,7.907433E1,1.0174954E2,5.0279903E1,5.146964E1],"tree_param":{"num_deleted":"0","num_feature":"9","num_nodes":"15","size_leaf_vector":"1"}},{"base_weights":[-1.7321438E-2,-1.582397E-1,8.3862215E-2,-5.8461625E-2,1.4448677E-2,3.7395276E-2,-3.9127534E-3,1.5907623E-2,-1.32398745E-2,-1.0210565E-1,3.4188814E-2,8.584314E-3,-3.5170265E-2],"categories":[],"categories_nodes":[],"categories_segments":[],"categories_sizes":[],"default_left":[0,0,0,0,0,0,0,0,0,0,0,0,0],"id":38,"left_children":[1,3,5,-1,7,-1,9,-1,-1,11,-1,-1,-1],"loss_changes":[7.0356727E0,8.248395E0,4.1732836E0,0E0,1.129547E0,0E0,4.3191686E0,0E0,0E0,2.823707E0,0E0,0E0,0E0],"parents":[2147483647,0,0,1,1,2,2,4,4,6,6,9,9],"right_children":[2,4,6,-1,8,-1,10,-1,-1,12,-1,-1,-1],"split_conditions":[4.7E-2,3.6E0,2.2E0,-5.8461625E-2,4.1E-2,3.7395276E-2,1.07E1,1.5907623E-2,-1.32398745E-2,3.3E0,3.4188814E-2,8.584314E-3,-3.5170265E-2],"split_indices":[4,3,3,0,4,0,3,0,0,3,0,0,0],"split_type":[0,0,0,0,0,0,0,0,0,0,0,0,0],"sum_hessian":[4.9150208E2,2.0518184E2,2.8632022E2,8.712541E1,1.18056435E2,9.86129E1,1.8770734E2,6.2386692E1,5.5669746E1,1.3225258E2,5.5454758E1,6.026953E1,7.198305E1],"tree_param":{"num_deleted":"0","num_feature":"9","num_nodes":"13","size_leaf_vector":"1"}},{"base_weights":[2.9411988E-2,-1.5413406E-1,9.96821E-2,4.9359812E-3,-6.1417293E-2,4.6785068E-2,4.3713354E-2,-1.01280496E-1,2.253837E-1,1.3081364E-2,-6.014354E-2,5.387164E-2,8.185171E-3],"categories":[],"categories_nodes":[],"categories_segments":[],"categories_sizes":[],"default_left":[0,0,0,0,0,0,0,0,0,0,0,0,0],"id":39,"left_children":[1,3,5,-1,-1,7,-1,9,11,-1,-1,-1,-1],"loss_changes":[6.297148E0,6.4714007E0,3.5647397E0,0E0,0E0,7.366797E0,0E0,8.650542E0,2.8636112E0,0E0,0E0,0E0,0E0],"parents":[2147483647,0,0,1,1,2,2,5,5,7,7,8,8],"right_children":[2,4,6,-1,-1,8,-1,10,12,-1,-1,-1,-1],"split_conditions":[9.5E0,3.18E0,7.2E0,4.9359812E-3,-6.1417293E-2,5.4E-2,4.3713354E-2,7.1E0,2.3E0,1.3081364E-2,-6.014354E-2,5.387164E-2,8.185171E-3],"split_indices":[8,6,3,0,0,4,0,0,3,0,0,0,0],"split_type":[0,0,0,0,0,0,0,0,0,0,0,0,0],"sum_hessian":[4.8604297E2,1.3423271E2,3.5181027E2,7.7978E1,5.6254707E1,2.7671463E2,7.509565E1,1.5152615E2,1.2518846E2,9.3454445E1,5.807171E1,6.959123E1,5.5597233E1],"tree_param":{"num_deleted":"0","num_feature":"9","num_nodes":"13","size_leaf_vector":"1"}},{"base_weights":[1.2226199E-2,-2.5585221E-2,4.539516E-2,-7.95787E-2,9.24144E-2,2.5066657E-2,-1.49418E-1,3.7017263E-2,-1.8396893E-3,-3.9468664E-3,-2.2700424E-1,-6.742877E-2,-3.2133318E-3],"categories":[],"categories_nodes":[],"categories_segments":[],"categories_sizes":[],"default_left":[0,0,0,0,0,0,0,0,0,0,0,0,0],"id":40,"left_children":[1,3,-1,5,7,-1,9,-1,-1,-1,11,-1,-1],"loss_changes":[5.355055E0,2.7584028E0,0E0,5.1380644E0,2.2008939E0,0E0,2.208259E0,0E0,0E0,0E0,6.4896317E0,0E0,0E0],"parents":[2147483647,0,0,1,1,3,3,4,4,6,6,10,10],"right_children":[2,4,-1,6,8,-1,10,-1,-1,-1,12,-1,-1],"split_conditions":[1.1433333E1,5.8E-1,4.539516E-2,6.4E0,3.22E0,2.5066657E-2,3.13E0,3.7017263E-2,-1.8396893E-3,-3.9468664E-3,3.23E0,-6.742877E-2,-3.2133318E-3],"split_indices":[8,7,0,0,6,0,6,0,0,0,6,0,0],"split_type":[0,0,0,0,0,0,0,0,0,0,0,0,0],"sum_hessian":[4.859716E2,4.3079373E2,5.517785E1,2.9577884E2,1.350149E2,6.495364E1,2.3082521E2,5.401011E1,8.100478E1,8.975336E1,1.4107185E2,6.717519E1,7.389666E1],"tree_param":{"num_deleted":"0","num_feature":"9","num_nodes":"13","size_leaf_vector":"1"}},{"base_weights":[2.0361532E-2,-5.0031096E-2,1.680519E-1,1.3536694E-2,-5.1588897E-2,5.2245166E-2,-5.610903E-4,-4.6056956E-2,3.4113493E-2,2.0206057E-2,-1.873246E-2,2.4544572E-2,-1.8577749E-2],"categories":[],"categories_nodes":[],"categories_segments":[],"categories_sizes":[],"default_left":[0,0,0,0,0,0,0,0,0,0,0,0,0],"id":41,"left_children":[1,3,5,7,-1,-1,-1,9,-1,11,-1,-1,-1],"loss_changes":[4.9936223E0,6.0859113E0,4.8011856E0,3.433952E0,0E0,0E0,0E0,1.1040595E0,0E0,2.4053445E0,0E0,0E0,0E0],"parents":[2147483647,0,0,1,1,2,2,3,3,7,7,9,9],"right_children":[2,4,6,8,-1,-1,-1,10,-1,12,-1,-1,-1],"split_conditions":[5.8E-1,4.15E-1,1.95E1,1.0933333E1,-5.1588897E-2,5.2245166E-2,-5.610903E-4,4.7E-1,3.4113493E-2,3.7E1,-1.873246E-2,2.4544572E-2,-1.8577749E-2],"split_indices":[7,1,5,8,0,0,0,7,0,5,0,0,0],"split_type":[0,0,0,0,0,0,0,0,0,0,0,0,0],"sum_hessian":[4.785175E2,3.2450986E2,1.5400763E2,2.675864E2,5.6923477E1,7.465266E1,7.935497E1,2.0989073E2,5.7695656E1,1.1443649E2,9.545425E1,5.727621E1,5.7160282E1],"tree_param":{"num_deleted":"0","num_feature":"9","num_nodes":"13","size_leaf_vector":"1"}},{"base_weights":[3.3498533E-2,-6.619711E-2,1.8451463E-1,-5.657406E-2,1.4632065E-2,2.5482687E-1,6.1118505E-3,-3.5998017E-2,9.1070384E-2,1.5992595E-2,6.1159637E-2,3.0421818E-2,-1.0290082E-2],"categories":[],"categories_nodes":[],"categories_segments":[],"categories_sizes":[],"default_left":[0,0,0,0,0,0,0,0,0,0,0,0,0],"id":42,"left_children":[1,3,5,-1,7,9,-1,-1,11,-1,-1,-1,-1],"loss_changes":[6.90062E0,6.9510174E0,1.8314347E0,0E0,4.309146E0,2.7251039E0,0E0,0E0,3.049651E0,0E0,0E0,0E0,0E0],"parents":[2147483647,0,0,1,1,2,2,4,4,5,5,8,8],"right_children":[2,4,6,-1,8,10,-1,-1,12,-1,-1,-1,-1],"split_conditions":[5.4E-2,9.4E0,3.34E0,-5.657406E-2,3.5E-2,9.75E0,6.1118505E-3,-3.5998017E-2,4.6E-2,1.5992595E-2,6.1159637E-2,3.0421818E-2,-1.0290082E-2],"split_indices":[4,8,6,0,4,8,0,0,4,0,0,0,0],"split_type":[0,0,0,0,0,0,0,0,0,0,0,0,0],"sum_hessian":[4.5652975E2,2.753288E2,1.8120097E2,5.604566E1,2.1928313E2,1.2116905E2,6.0031914E1,5.0136612E1,1.6914651E2,6.2390934E1,5.877812E1,9.9349236E1,6.979728E1],"tree_param":{"num_deleted":"0","num_feature":"9","num_nodes":"13","size_leaf_vector":"1"}},{"base_weights":[4.054781E-2,-2.2800505E-2,7.240061E-2,4.902129E-2,3.4369875E-2,8.722193E-2,-8.022753E-2,4.418943E-2,3.725057E-2,-2.159019E-2,-3.9372803E-3,1.2302315E-1,-1.3570881E-2,-1.48334E-3,3.9860442E-2],"categories":[],"categories_nodes":[],"categories_segments":[],"categories_sizes":[],"default_left":[0,0,0,0,0,0,0,0,0,0,0,0,0,0,0],"id":43,"left_children":[1,-1,3,-1,5,7,9,11,-1,-1,-1,13,-1,-1,-1],"loss_changes":[2.9460855E0,0E0,3.9682183E0,0E0,2.1809225E0,1.6954159E0,3.8759476E-1,2.08607E0,0E0,0E0,0E0,2.3491414E0,0E0,0E0,0E0],"parents":[2147483647,0,0,2,2,4,4,5,5,6,6,7,7,11,11],"right_children":[2,-1,4,-1,6,8,10,12,-1,-1,-1,14,-1,-1,-1],"split_conditions":[4E-1,-2.2800505E-2,3.8E-2,4.902129E-2,4.2E-1,6.3E-2,5.9E-1,5E-2,3.725057E-2,-2.159019E-2,-3.9372803E-3,7.1E0,-1.3570881E-2,-1.48334E-3,3.9860442E-2],"split_indices":[7,0,4,0,1,4,7,4,0,0,0,3,0,0,0],"split_type":[0,0,0,0,0,0,0,0,0,0,0,0,0,0,0],"sum_hessian":[4.7754883E2,6.724976E1,4.1029904E2,5.2370625E1,3.5792844E2,2.45119E2,1.12809425E2,1.9445578E2,5.0663216E1,5.0977863E1,6.183156E1,1.2270711E2,7.174868E1,6.401715E1,5.868996E1],"tree_param":{"num_deleted":"0","num_feature":"9","num_nodes":"15","size_leaf_vector":"1"}},{"base_weights":[8.0138893E-4,-5.5174455E-2,6.662969E-2,5.2172054E-2,-1.2673318E-1,3.024252E-2,-8.626165E-3,1.2469445E-2,-1.8956007E-1,-2.9238477E-1,6.0353656E-3,-6.231191E-2,-2.5216153E-2],"categories":[],"categories_nodes":[],"categories_segments":[],"categories_sizes":[],"default_left":[0,0,0,0,0,0,0,0,0,0,0,0,0],"id":44,"left_children":[1,3,-1,5,7,-1,-1,-1,9,11,-1,-1,-1],"loss_changes":[1.1490413E1,3.1643384E0,0E0,2.7182808E0,3.2717474E0,0E0,0E0,0E0,4.5096087E0,1.9427414E0,0E0,0E0,0E0],"parents":[2147483647,0,0,1,1,3,3,4,4,8,8,9,9],"right_children":[2,4,-1,6,8,-1,-1,-1,10,12,-1,-1,-1],"split_conditions":[1.1433333E1,2.65E-1,6.662969E-2,3.15E0,4.6E-1,3.024252E-2,-8.626165E-3,1.2469445E-2,5.1E-1,3.19E0,6.0353656E-3,-6.231191E-2,-2.5216153E-2],"split_indices":[8,1,0,6,7,0,0,0,1,6,0,0,0],"split_type":[0,0,0,0,0,0,0,0,0,0,0,0,0],"sum_hessian":[4.609717E2,4.100777E2,5.0894E1,1.6413174E2,2.4594597E2,6.911735E1,9.501439E1,5.6590755E1,1.8935521E2,1.3063069E2,5.872452E1,6.4468025E1,6.616267E1],"tree_param":{"num_deleted":"0","num_feature":"9","num_nodes":"13","size_leaf_vector":"1"}},{"base_weights":[-1.2593895E-2,-1.5012202E-1,5.0667442E-2,-4.5157574E-2,-2.4457183E-3,1.6629955E-1,-4.8810005E-2,1.0079785E-3,3.9965402E-2,9.793796E-2,-5.874124E-2,3.5852198E-2,-7.6937224E-3],"categories":[],"categories_nodes":[],"categories_segments":[],"categories_sizes":[],"default_left":[0,0,0,0,0,0,0,0,0,0,0,0,0],"id":45,"left_children":[1,3,5,-1,-1,7,9,-1,-1,11,-1,-1,-1],"loss_changes":[4.102842E0,2.995415E0,3.7252553E0,0E0,0E0,2.3898678E0,8.815706E0,0E0,0E0,2.601317E0,0E0,0E0,0E0],"parents":[2147483647,0,0,1,1,2,2,5,5,6,6,9,9],"right_children":[2,4,6,-1,-1,8,10,-1,-1,12,-1,-1,-1],"split_conditions":[4.4E-2,3.7E0,3.05E-1,-4.5157574E-2,-2.4457183E-3,4.9E-2,3.8E0,1.0079785E-3,3.9965402E-2,2.5E-1,-5.874124E-2,3.5852198E-2,-7.6937224E-3],"split_indices":[4,3,1,0,0,4,3,0,0,2,0,0,0],"split_type":[0,0,0,0,0,0,0,0,0,0,0,0,0],"sum_hessian":[4.6970523E2,1.4755415E2,3.2215106E2,6.875628E1,7.8797874E1,1.4866817E2,1.7348291E2,5.7732098E1,9.093607E1,1.2197929E2,5.150362E1,6.2393158E1,5.958613E1],"tree_param":{"num_deleted":"0","num_feature":"9","num_nodes":"13","size_leaf_vector":"1"}},{"base_weights":[-1.7607784E-2,-3.0458422E-2,1.4516585E-2,6.893799E-2,-7.140364E-2,1.351903E-1,-1.4685285E-2,2.9494485E-2,-3.227026E-2,-2.0940281E-2,5.6594957E-2,-2.0678744E-2,1.5508296E-2],"categories":[],"categories_nodes":[],"categories_segments":[],"categories_sizes":[],"default_left":[0,0,0,0,0,0,0,0,0,0,0,0,0],"id":46,"left_children":[1,-1,3,5,7,9,-1,-1,-1,11,-1,-1,-1],"loss_changes":[2.8121405E0,0E0,1.888636E0,2.7450705E0,6.0795264E0,6.7106857E0,0E0,0E0,0E0,1.5950503E0,0E0,0E0,0E0],"parents":[2147483647,0,0,2,2,3,3,4,4,5,5,9,9],"right_children":[2,-1,4,6,8,10,-1,-1,-1,12,-1,-1,-1],"split_conditions":[4E-1,-3.0458422E-2,7.4E0,4.5E1,1.4E1,2.9E1,-1.4685285E-2,2.9494485E-2,-3.227026E-2,3.31E0,5.6594957E-2,-2.0678744E-2,1.5508296E-2],"split_indices":[7,0,0,5,5,5,0,0,0,6,0,0,0],"split_type":[0,0,0,0,0,0,0,0,0,0,0,0,0],"sum_hessian":[4.7054584E2,6.868993E1,4.018559E2,2.4614601E2,1.557099E2,1.7631917E2,6.982684E1,5.422391E1,1.01485985E2,1.07748344E2,6.857082E1,5.547306E1,5.227528E1],"tree_param":{"num_deleted":"0","num_feature":"9","num_nodes":"13","size_leaf_vector":"1"}},{"base_weights":[-1.6810166E-2,2.6731394E-2,-4.377262E-2,-3.2261804E-2,1.688058E-1,-4.3296035E-2,6.133946E-2,6.0967736E-2,-3.7625283E-3,-3.7088376E-2,2.0433326E-1,1.0646079E-2,4.9962793E-2],"categories":[],"categories_nodes":[],"categories_segments":[],"categories_sizes":[],"default_left":[0,0,0,0,0,0,0,0,0,0,0,0,0],"id":47,"left_children":[1,3,-1,5,7,-1,9,-1,-1,-1,11,-1,-1],"loss_changes":[5.64637E0,3.420395E0,0E0,6.946664E0,5.5257945E0,0E0,9.420531E0,0E0,0E0,0E0,2.4772391E0,0E0,0E0],"parents":[2147483647,0,0,1,1,3,3,4,4,6,6,10,10],"right_children":[2,4,-1,6,8,-1,10,-1,-1,-1,12,-1,-1],"split_conditions":[5.55E-1,5.6E-2,-4.377262E-2,2.35E1,1.9E1,-4.3296035E-2,9.5E0,6.0967736E-2,-3.7625283E-3,-3.7088376E-2,4.9E-1,1.0646079E-2,4.9962793E-2],"split_indices":[1,4,0,5,5,0,8,0,0,0,7,0,0],"split_type":[0,0,0,0,0,0,0,0,0,0,0,0,0],"sum_hessian":[4.6989133E2,4.064426E2,6.344875E1,2.8773856E2,1.1870403E2,7.639773E1,2.1134082E2,5.2841316E1,6.586272E1,6.668931E1,1.4465152E2,7.181641E1,7.283511E1],"tree_param":{"num_deleted":"0","num_feature":"9","num_nodes":"13","size_leaf_vector":"1"}},{"base_weights":[4.509279E-2,-3.0159187E-2,8.954787E-2,-9.759957E-2,1.9473067E-1,-3.645688E-2,-1.9115693E-3,1.1200707E-1,6.244656E-2,2.8424317E-1,-1.3183098E-2,3.4843307E-2,4.968422E-2],"categories":[],"categories_nodes":[],"categories_segments":[],"categories_sizes":[],"default_left":[0,0,0,0,0,0,0,0,0,0,0,0,0],"id":48,"left_children":[1,-1,3,5,7,-1,-1,9,-1,11,-1,-1,-1],"loss_changes":[5.25392E0,0E0,8.010563E0,1.8079664E0,4.7234955E0,0E0,0E0,6.596152E0,0E0,1.7390347E-1,0E0,0E0,0E0],"parents":[2147483647,0,0,2,2,3,3,4,4,7,7,9,9],"right_children":[2,-1,4,6,8,-1,-1,10,-1,12,-1,-1,-1],"split_conditions":[1.1E1,-3.0159187E-2,9.533334E0,3.3E1,6.8E0,-3.645688E-2,-1.9115693E-3,2.7E1,6.244656E-2,5.6E-1,-1.3183098E-2,3.4843307E-2,4.968422E-2],"split_indices":[5,0,8,5,3,0,0,5,0,7,0,0,0],"split_type":[0,0,0,0,0,0,0,0,0,0,0,0,0],"sum_hessian":[4.7748056E2,7.2502304E1,4.0497824E2,1.457404E2,2.5923782E2,5.30118E1,9.272861E1,1.8986133E2,6.937651E1,1.01759636E2,8.810169E1,5.1146885E1,5.061275E1],"tree_param":{"num_deleted":"0","num_feature":"9","num_nodes":"13","size_leaf_vector":"1"}},{"base_weights":[-2.7400596E-2,-4.6569884E-2,2.2289205E-2,6.555424E-2,-3.4461424E-2,7.798108E-3,3.8756546E-2,3.7726987E-2,-5.3314433E-2,2.6153993E-2,-1.266678E-1,-3.8995363E-2,6.4598457E-3],"categories":[],"categories_nodes":[],"categories_segments":[],"categories_sizes":[],"default_left":[0,0,0,0,0,0,0,0,0,0,0,0,0],"id":49,"left_children":[1,-1,3,5,-1,7,-1,-1,9,-1,11,-1,-1],"loss_changes":[6.6059337E0,0E0,4.377144E0,3.8090167E0,0E0,3.950815E0,0E0,0E0,3.5657425E0,0E0,3.6553063E0,0E0,0E0],"parents":[2147483647,0,0,2,2,3,3,5,5,8,8,10,10],"right_children":[2,-1,4,6,-1,8,-1,-1,10,-1,12,-1,-1],"split_conditions":[1.1E1,-4.6569884E-2,5E-1,3.4E-1,-3.4461424E-2,2E-1,3.8756546E-2,3.7726987E-2,3.09E0,2.6153993E-2,3.23E0,-3.8995363E-2,6.4598457E-3],"split_indices":[5,0,1,1,0,1,0,0,6,0,6,0,0],"split_type":[0,0,0,0,0,0,0,0,0,0,0,0,0],"sum_hessian":[4.6816452E2,6.9126595E1,3.9903793E2,3.4120493E2,5.7832985E1,2.6336096E2,7.784399E1,5.217458E1,2.1118637E2,5.11256E1,1.6006078E2,8.935421E1,7.0706566E1],"tree_param":{"num_deleted":"0","num_feature":"9","num_nodes":"13","size_leaf_vector":"1"}},{"base_weights":[5.94908E-3,-5.5746134E-2,1.7992386E-1,8.7201476E-2,-1.18986174E-1,5.4379065E-2,6.916678E-3,-2.3246044E-2,4.6289776E-2,1.594272E-2,-1.8191408E-1,3.8190393E-3,-2.704449E-1,-5.3844772E-2,-2.1882076E-2],"categories":[],"categories_nodes":[],"categories_segments":[],"categories_sizes":[],"default_left":[0,0,0,0,0,0,0,0,0,0,0,0,0,0,0],"id":50,"left_children":[1,3,5,7,9,-1,-1,-1,-1,-1,11,-1,13,-1,-1],"loss_changes":[5.0292087E0,3.1379337E0,2.9802792E0,5.768174E0,3.425487E0,0E0,0E0,0E0,0E0,0E0,3.4617424E0,0E0,1.4027672E0,0E0,0E0],"parents":[2147483647,0,0,1,1,2,2,3,3,4,4,10,10,12,12],"right_children":[2,4,6,8,10,-1,-1,-1,-1,-1,12,-1,14,-1,-1],"split_conditions":[3.32E0,3.1E0,3.39E0,3.03E0,2.3E-1,5.4379065E-2,6.916678E-3,-2.3246044E-2,4.6289776E-2,1.594272E-2,1.95E1,3.8190393E-3,4.15E1,-5.3844772E-2,-2.1882076E-2],"split_indices":[6,6,6,6,1,0,0,0,0,0,5,0,5,0,0],"split_type":[0,0,0,0,0,0,0,0,0,0,0,0,0,0,0],"sum_hessian":[4.6662192E2,3.449683E2,1.2165363E2,1.0568939E2,2.392789E2,5.0724648E1,7.0928986E1,5.0619392E1,5.507E1,5.2095837E1,1.8718307E2,5.6215794E1,1.3096727E2,7.546044E1,5.5506836E1],"tree_param":{"num_deleted":"0","num_feature":"9","num_nodes":"15","size_leaf_vector":"1"}},{"base_weights":[-2.326155E-2,-3.9175957E-2,1.5605602E-2,-2.806984E-2,4.055264E-2,-8.302777E-2,2.8158851E-2,6.706004E-2,-1.7898484E-1,-1.3523557E-2,3.593394E-2,-6.384975E-2,-5.246313E-2,3.798555E-3,-2.2627546E-2],"categories":[],"categories_nodes":[],"categories_segments":[],"categories_sizes":[],"default_left":[0,0,0,0,0,0,0,0,0,0,0,0,0,0,0],"id":51,"left_children":[1,-1,3,5,-1,7,-1,9,11,-1,-1,13,-1,-1,-1],"loss_changes":[4.3583965E0,0E0,4.521572E0,4.1337247E0,0E0,4.00782E0,0E0,2.975823E0,3.3106341E0,0E0,0E0,7.9883516E-1,0E0,0E0,0E0],"parents":[2147483647,0,0,2,2,3,3,5,5,7,7,8,8,11,11],"right_children":[2,-1,4,6,-1,8,-1,10,12,-1,-1,14,-1,-1,-1],"split_conditions":[4E-1,-3.9175957E-2,1.12E1,4.9E-1,4.055264E-2,2.55E-1,2.8158851E-2,6.8E0,5.5E-2,-1.3523557E-2,3.593394E-2,7.6E0,-5.246313E-2,3.798555E-3,-2.2627546E-2],"split_indices":[7,0,8,1,0,1,0,3,4,0,0,3,0,0,0],"split_type":[0,0,0,0,0,0,0,0,0,0,0,0,0,0,0],"sum_hessian":[4.6989307E2,6.518241E1,4.0471066E2,3.462387E2,5.8471947E1,2.7644904E2,6.978968E1,1.0793209E2,1.6851695E2,5.6717125E1,5.1214966E1,1.0147498E2,6.704197E1,5.0461792E1,5.1013187E1],"tree_param":{"num_deleted":"0","num_feature":"9","num_nodes":"15","size_leaf_vector":"1"}},{"base_weights":[1.5782554E-2,-3.0391535E-2,1.6653115E-1,-3.546146E-2,1.0462824E-2,5.4849193E-2,-7.631291E-3,2.3509856E-2,-2.0995662E-2,-2.5261987E-2,2.996337E-2,-8.7945625E-2,4.5967832E-2,2.614568E-3,-3.4386717E-2],"categories":[],"categories_nodes":[],"categories_segments":[],"categories_sizes":[],"default_left":[0,0,0,0,0,0,0,0,0,0,0,0,0,0,0],"id":52,"left_children":[1,3,5,-1,7,-1,-1,-1,9,-1,11,13,-1,-1,-1],"loss_changes":[3.202159E0,2.9690058E0,4.687756E0,0E0,1.3611078E0,0E0,0E0,0E0,1.8360622E0,0E0,5.959425E0,1.9150507E0,0E0,0E0,0E0],"parents":[2147483647,0,0,1,1,2,2,4,4,8,8,10,10,11,11],"right_children":[2,4,6,-1,8,-1,-1,-1,10,-1,12,14,-1,-1,-1],"split_conditions":[7.1E-2,1.55E1,8.6E-2,-3.546146E-2,3.7E-2,5.4849193E-2,-7.631291E-3,2.3509856E-2,2.8E1,-2.5261987E-2,7.3E0,6.7E0,4.5967832E-2,2.614568E-3,-3.4386717E-2],"split_indices":[4,5,4,0,4,0,0,0,5,0,0,0,0,0,0],"split_type":[0,0,0,0,0,0,0,0,0,0,0,0,0,0,0],"sum_hessian":[4.5830832E2,3.5145615E2,1.0685215E2,5.7369522E1,2.9408664E2,5.5414318E1,5.143783E1,5.1349503E1,2.4273714E2,6.1762295E1,1.8097484E2,1.2734873E2,5.3626102E1,7.3449356E1,5.389938E1],"tree_param":{"num_deleted":"0","num_feature":"9","num_nodes":"15","size_leaf_vector":"1"}},{"base_weights":[1.9133538E-2,5.872413E-2,-4.2466357E-2,-2.6921818E-2,9.790475E-2,1.6831791E-1,-5.0896697E-2,6.85463E-2,8.594472E-2,-2.4745151E-2,6.7695733E-3,-1.6844587E-2,1.8579271E-1,1.3723781E-2,4.4383727E-2],"categories":[],"categories_nodes":[],"categories_segments":[],"categories_sizes":[],"default_left":[0,0,0,0,0,0,0,0,0,0,0,0,0,0,0],"id":53,"left_children":[1,3,-1,-1,5,7,9,-1,11,-1,-1,-1,13,-1,-1],"loss_changes":[5.536696E0,3.8320727E0,0E0,0E0,3.6927967E0,5.641587E0,1.2530545E0,0E0,3.724444E0,0E0,0E0,0E0,1.2687521E0,0E0,0E0],"parents":[2147483647,0,0,1,1,4,4,5,5,6,6,8,8,12,12],"right_children":[2,4,-1,-1,6,8,10,-1,12,-1,-1,-1,14,-1,-1],"split_conditions":[5.4E1,1E1,-4.2466357E-2,-2.6921818E-2,7.5E0,3.11E0,3.16E0,6.85463E-2,3.22E0,-2.4745151E-2,6.7695733E-3,-1.6844587E-2,2.85E1,1.3723781E-2,4.4383727E-2],"split_indices":[5,5,0,0,0,6,6,0,6,0,0,0,5,0,0],"split_type":[0,0,0,0,0,0,0,0,0,0,0,0,0,0,0],"sum_hessian":[4.603144E2,4.0771387E2,5.2600517E1,5.708408E1,3.506298E2,2.3791618E2,1.12713615E2,5.181059E1,1.8610559E2,5.11886E1,6.1525017E1,6.229603E1,1.2380956E2,6.767563E1,5.6133934E1],"tree_param":{"num_deleted":"0","num_feature":"9","num_nodes":"15","size_leaf_vector":"1"}},{"base_weights":[-8.318299E-3,1.6029952E-2,-2.9680291E-2,6.65399E-2,-1.0433991E-1,1.5469183E-1,-3.8975447E-3,-2.667482E-3,-3.31959E-2,4.7359187E-2,7.9827197E-4,1.1893851E-2,-1.3829189E-2],"categories":[],"categories_nodes":[],"categories_segments":[],"categories_sizes":[],"default_left":[0,0,0,0,0,0,0,0,0,0,0,0,0],"id":54,"left_children":[1,3,-1,5,7,9,11,-1,-1,-1,-1,-1,-1],"loss_changes":[2.1231937E0,2.487477E0,0E0,1.7888794E0,1.2209553E0,3.075825E0,1.1903841E0,0E0,0E0,0E0,0E0,0E0,0E0],"parents":[2147483647,0,0,1,1,3,3,4,4,5,5,6,6],"right_children":[2,4,-1,6,8,10,12,-1,-1,-1,-1,-1,-1],"split_conditions":[5.4E1,4.1E-1,-2.9680291E-2,9.95E0,1.8E1,3.4E1,2.7E-1,-2.667482E-3,-3.31959E-2,4.7359187E-2,7.9827197E-4,1.1893851E-2,-1.3829189E-2],"split_indices":[5,1,0,8,5,5,1,0,0,0,0,0,0],"split_type":[0,0,0,0,0,0,0,0,0,0,0,0,0],"sum_hessian":[4.5835458E2,4.0699094E2,5.136366E1,2.870045E2,1.1998644E2,1.2694173E2,1.6006276E2,6.961921E1,5.036724E1,6.0549488E1,6.6392235E1,8.246736E1,7.7595406E1],"tree_param":{"num_deleted":"0","num_feature":"9","num_nodes":"13","size_leaf_vector":"1"}},{"base_weights":[7.0761796E-4,-9.173317E-2,7.541873E-2,-4.4567112E-2,5.5614416E-3,-1.1519413E-3,3.8730957E-2,-1.983799E-2,2.6395302E-2,-1.3278502E-1,4.074583E-2,-3.573575E-2,-2.5030058E-3],"categories":[],"categories_nodes":[],"categories_segments":[],"categories_sizes":[],"default_left":[0,0,0,0,0,0,0,0,0,0,0,0,0],"id":55,"left_children":[1,3,5,-1,7,9,-1,-1,-1,11,-1,-1,-1],"loss_changes":[3.134754E0,4.055661E0,3.5135322E0,0E0,3.2792997E0,6.424241E0,0E0,0E0,0E0,1.4733799E0,0E0,0E0,0E0],"parents":[2147483647,0,0,1,1,2,2,4,4,5,5,9,9],"right_children":[2,4,6,-1,8,10,-1,-1,-1,12,-1,-1,-1],"split_conditions":[5E-1,2.1E0,1.06E1,-4.4567112E-2,9.8E0,7.6E0,3.8730957E-2,-1.983799E-2,2.6395302E-2,3.3E0,4.074583E-2,-3.573575E-2,-2.5030058E-3],"split_indices":[7,3,8,0,8,3,0,0,0,6,0,0,0],"split_type":[0,0,0,0,0,0,0,0,0,0,0,0,0],"sum_hessian":[4.5189243E2,2.0187843E2,2.50014E2,6.423336E1,1.3764507E2,1.7690239E2,7.311162E1,7.622387E1,6.14212E1,1.1966986E2,5.723253E1,6.2158566E1,5.751129E1],"tree_param":{"num_deleted":"0","num_feature":"9","num_nodes":"13","size_leaf_vector":"1"}}]},"name":"gbtree"},"learner_model_param":{"base_score":"6.3004094E-1","boost_from_average":"1","num_class":"0","num_feature":"9","num_target":"1"},"objective":{"name":"binary:logistic","reg_loss_param":{"scale_pos_weight":"1"}}},"version":[2,0,3]}