{"learner":{"attributes":{"best_iteration":"13","best_score":"-0.83427"},"feature_names":[],"feature_types":[],"gradient_booster":{"model":{"gbtree_model_param":{"num_parallel_tree":"1","num_trees":"64"},"iteration_indptr":[0,1,2,3,4,5,6,7,8,9,10,11,12,13,14,15,16,17,18,19,20,21,22,23,24,25,26,27,28,29,30,31,32,33,34,35,36,37,38,39,40,41,42,43,44,45,46,47,48,49,50,51,52,53,54,55,56,57,58,59,60,61,62,63,64],"tree_info":[0,0,0,0,0,0,0,0,0,0,0,0,0,0,0,0,0,0,0,0,0,0,0,0,0,0,0,0,0,0,0,0,0,0,0,0,0,0,0,0,0,0,0,0,0,0,0,0,0,0,0,0,0,0,0,0,0,0,0,0,0,0,0,0],"trees":[{"base_weights":[3.1887688E-4,7.4051714E-1,-3.042908E-1,3.4090333E-2,9.705356E-1,8.844443E-2,-5.6270987E-1,1.7995948E-1,9.553004E-2,-9.7509223E-1,-2.8928977E-1,-1.1229704E-1,-1.671263E-1,-1.5532771E-1,-1.0648032E-1,2.328572E-2,-5.313481E-2],"categories":[],"categories_nodes":[],"categories_segments":[],"categories_sizes":[],"default_left":[0,0,0,0,0,0,0,0,0,0,0,0,0,0,0,0,0],"id":0,"left_children":[1,3,5,-1,7,-1,9,-1,-1,11,13,-1,-1,15,-1,-1,-1],"loss_changes":[1.4662688E2,2.2162453E1,1.0676018E2,0E0,9.2247925E0,0E0,4.0073578E1,0E0,0E0,3.6466827E0,1.2095474E1,0E0,0E0,1.0283608E1,0E0,0E0,0E0],"parents":[2147483647,0,0,1,1,2,2,4,4,6,6,9,9,10,10,13,13],"right_children":[2,4,6,-1,8,-1,10,-1,-1,12,14,-1,-1,16,-1,-1,-1],"split_conditions":[4E-2,2.35E1,2.3E-1,3.4090333E-2,3.6E-2,8.844443E-2,2.7E-1,1.7995948E-1,9.553004E-2,1.4E-1,4.05E-1,-1.1229704E-1,-1.671263E-1,2.7E1,-1.0648032E-1,2.328572E-2,-5.313481E-2],"split_indices":[4,5,1,0,4,0,2,0,0,2,1,0,0,5,0,0,0],"split_type":[0,0,0,0,0,0,0,0,0,0,0,0,0,0,0,0,0],"sum_hessian":[6.483127E2,1.8859583E2,4.597169E2,5.8979904E1,1.2961592E2,1.0280687E2,3.5691003E2,7.5298454E1,5.4317463E1,1.4127202E2,2.15638E2,5.6182438E1,8.5089584E1,1.6458424E2,5.1053753E1,6.434171E1,1.0024252E2],"tree_param":{"num_deleted":"0","num_feature":"9","num_nodes":"17","size_leaf_vector":"1"}},{"base_weights":[4.3313928E-2,6.2669355E-1,-2.3357846E-1,7.210449E-1,5.1995482E-2,-6.810619E-2,-1.4825982E-1,1.2704058E-1,8.142684E-2,-3.2382822E-1,2.6398367E-1,-1.2368664E-1,-1.4640106E-1,-1.7725185E-2,4.9432564E-1,4.568273E-2,-7.473788E-2,9.969144E-2,4.7335617E-2],"categories":[],"categories_nodes":[],"categories_segments":[],"categories_sizes":[],"default_left":[0,0,0,0,0,0,0,0,0,0,0,0,0,0,0,0,0,0,0],"id":1,"left_children":[1,3,5,7,-1,9,-1,-1,-1,11,13,-1,15,-1,17,-1,-1,-1,-1],"loss_changes":[1.0848252E2,5.461258E0,5.682982E1,3.1463928E0,0E0,3.1906181E1,0E0,0E0,0E0,1.8727224E1,1.4455999E1,0E0,2.5198381E1,0E0,2.902462E0,0E0,0E0,0E0,0E0],"parents":[2147483647,0,0,1,1,2,2,3,3,5,5,9,9,10,10,12,12,14,14],"right_children":[2,4,6,8,-1,10,-1,-1,-1,12,14,-1,16,-1,18,-1,-1,-1,-1],"split_conditions":[2.45E-1,3.9E-1,5.55E-1,2.1E-1,5.1995482E-2,3.22E0,-1.4825982E-1,1.2704058E-1,8.142684E-2,2.7E-1,2.7E-1,-1.2368664E-1,3.7E-1,-1.7725185E-2,7E0,4.568273E-2,-7.473788E-2,9.969144E-2,4.7335617E-2],"split_indices":[1,2,1,1,0,6,0,0,0,2,2,0,2,0,0,0,0,0,0],"split_type":[0,0,0,0,0,0,0,0,0,0,0,0,0,0,0,0,0,0,0],"sum_hessian":[6.696734E2,2.1513855E2,4.5453485E2,1.5974553E2,5.5393013E1,3.7370187E2,8.083298E1,9.1412636E1,6.83329E1,2.1114046E2,1.6256143E2,5.4285133E1,1.5685532E2,6.1318027E1,1.0124341E2,6.8805176E1,8.805014E1,5.0458275E1,5.0785133E1],"tree_param":{"num_deleted":"0","num_feature":"9","num_nodes":"19","size_leaf_vector":"1"}},{"base_weights":[-2.1270426E-2,-7.7114606E-1,7.03924E-1,-2.2425614E-1,-1.2138908E0,4.209878E-1,1.8010171E-1,1.768634E-2,-7.9183385E-2,-2.1053554E-1,-1.1428234E-1,1.2274565E-1,2.8959754E-1,-1.8734521E-3,7.2595485E-2],"categories":[],"categories_nodes":[],"categories_segments":[],"categories_sizes":[],"default_left":[0,0,0,0,0,0,0,0,0,0,0,0,0,0,0],"id":2,"left_children":[1,3,5,7,9,11,-1,-1,-1,-1,-1,-1,13,-1,-1],"loss_changes":[3.6289154E2,7.9162476E1,4.7177032E1,1.5437935E1,1.4454742E1,1.1127029E1,0E0,0E0,0E0,0E0,0E0,0E0,9.702431E0,0E0,0E0],"parents":[2147483647,0,0,1,1,2,2,3,3,4,4,5,5,12,12],"right_children":[2,4,6,8,10,12,-1,-1,-1,-1,-1,-1,14,-1,-1],"split_conditions":[1.03E1,2.85E-1,1.1633333E1,2.25E-1,9.733334E0,2.1E-1,1.8010171E-1,1.768634E-2,-7.9183385E-2,-2.1053554E-1,-1.1428234E-1,1.2274565E-1,1.075E1,-1.8734521E-3,7.2595485E-2],"split_indices":[8,1,8,1,8,1,0,0,0,0,0,0,8,0,0],"split_type":[0,0,0,0,0,0,0,0,0,0,0,0,0,0,0],"sum_hessian":[6.6532025E2,3.270628E2,3.3825742E2,1.46996E2,1.8006682E2,2.1668668E2,1.2157075E2,6.9400276E1,7.7595726E1,1.25357155E2,5.4709656E1,5.2550133E1,1.6413655E2,6.462861E1,9.950794E1],"tree_param":{"num_deleted":"0","num_feature":"9","num_nodes":"15","size_leaf_vector":"1"}},{"base_weights":[2.9344853E-2,-1.0861904E-1,3.340025E-1,-1.4823289E-1,3.734967E-2,1.7441887E-1,8.1708424E-2,1.6003446E-1,-6.0960416E-2,6.279363E-2,-2.1636285E-2,3.4416208E-1,-1.2880602E-1,9.78317E-2,2.1771666E-1,2.7661704E-2,-5.7697885E-2,-1.4969866E-3,6.2286604E-2],"categories":[],"categories_nodes":[],"categories_segments":[],"categories_sizes":[],"default_left":[0,0,0,0,0,0,0,0,0,0,0,0,0,0,0,0,0,0,0],"id":3,"left_children":[1,3,5,-1,7,9,-1,11,-1,-1,-1,13,15,-1,17,-1,-1,-1,-1],"loss_changes":[2.7256218E1,5.7365177E1,6.701172E0,0E0,2.0966038E1,9.12442E0,0E0,1.6078125E1,0E0,0E0,0E0,7.0400887E0,9.534527E0,0E0,5.951245E0,0E0,0E0,0E0,0E0],"parents":[2147483647,0,0,1,1,2,2,4,4,5,5,7,7,11,11,12,12,14,14],"right_children":[2,4,6,-1,8,10,-1,12,-1,-1,-1,14,16,-1,18,-1,-1,-1,-1],"split_conditions":[5.8E-1,1.4E1,6.8E-1,-1.4823289E-1,4.9E1,7.3E0,8.1708424E-2,7.1E0,-6.0960416E-2,6.279363E-2,-2.1636285E-2,4.1E-1,3.14E0,9.78317E-2,3.22E0,2.7661704E-2,-5.7697885E-2,-1.4969866E-3,6.2286604E-2],"split_indices":[7,5,7,0,5,0,0,0,0,0,0,7,6,0,6,0,0,0,0],"split_type":[0,0,0,0,0,0,0,0,0,0,0,0,0,0,0,0,0,0,0],"sum_hessian":[6.466041E2,4.4550232E2,2.0110179E2,6.2586872E1,3.8291544E2,1.1547641E2,8.5625374E1,3.0048056E2,8.243488E1,6.5198166E1,5.027824E1,1.8338579E2,1.17094765E2,5.2158356E1,1.3122743E2,5.2770393E1,6.432437E1,6.139954E1,6.9827896E1],"tree_param":{"num_deleted":"0","num_feature":"9","num_nodes":"19","size_leaf_vector":"1"}},{"base_weights":[2.0025807E-2,4.6636128E-1,-2.9197204E-1,6.929999E-1,1.8182726E-1,-5.722532E-1,1.9097738E-1,7.420663E-2,1.4436598E-1,-9.620897E-3,6.6360384E-2,-3.181843E-2,-7.879018E-1,-4.777923E-3,4.8559196E-2,-9.245891E-2,-1.6288081E-1],"categories":[],"categories_nodes":[],"categories_segments":[],"categories_sizes":[],"default_left":[0,0,0,0,0,0,0,0,0,0,0,0,0,0,0,0,0],"id":4,"left_children":[1,3,5,7,9,11,13,-1,-1,-1,-1,-1,15,-1,-1,-1,-1],"loss_changes":[8.890511E1,1.6811306E1,5.0978634E1,7.3158264E0,7.578933E0,1.8320007E1,4.114832E0,0E0,0E0,0E0,0E0,0E0,6.9208374E0,0E0,0E0,0E0,0E0],"parents":[2147483647,0,0,1,1,2,2,3,3,4,4,5,5,6,6,12,12],"right_children":[2,4,6,8,10,12,14,-1,-1,-1,-1,-1,16,-1,-1,-1,-1],"split_conditions":[4.5E-2,3.8E-2,5.8E-1,3.23E0,3.19E0,5.2E-2,2.7E-1,7.420663E-2,1.4436598E-1,-9.620897E-3,6.6360384E-2,-3.181843E-2,7.7E-2,-4.777923E-3,4.8559196E-2,-9.245891E-2,-1.6288081E-1],"split_indices":[4,4,7,6,6,4,2,0,0,0,0,0,4,0,0,0,0],"split_type":[0,0,0,0,0,0,0,0,0,0,0,0,0,0,0,0,0],"sum_hessian":[6.364528E2,2.616495E2,3.748033E2,1.448429E2,1.1680662E2,2.3704729E2,1.3775603E2,8.507193E1,5.977096E1,6.0475464E1,5.6331154E1,8.952515E1,1.4752214E2,5.171284E1,8.604319E1,9.557731E1,5.194483E1],"tree_param":{"num_deleted":"0","num_feature":"9","num_nodes":"17","size_leaf_vector":"1"}},{"base_weights":[2.7664402E-2,-6.67424E-1,6.1276394E-1,-1.4773212E-1,-5.474175E-1,2.0216592E-1,9.0681356E-1,-4.6064522E-2,-7.317236E-1,-1.0134288E-2,6.0799118E-2,6.984858E-2,1.0523812E0,-1.4040919E-1,-7.931688E-2,1.7734057E-1,1.2930818E-1],"categories":[],"categories_nodes":[],"categories_segments":[],"categories_sizes":[],"default_left":[0,0,0,0,0,0,0,0,0,0,0,0,0,0,0,0,0],"id":5,"left_children":[1,3,5,-1,7,9,11,-1,13,-1,-1,-1,15,-1,-1,-1,-1],"loss_changes":[2.636833E2,1.0750671E1,4.231639E1,0E0,9.400124E0,8.147325E0,1.2663498E1,0E0,4.5750656E0,0E0,0E0,0E0,2.7684937E0,0E0,0E0,0E0,0E0],"parents":[2147483647,0,0,1,1,2,2,4,4,5,5,6,6,8,8,12,12],"right_children":[2,4,6,-1,8,10,12,-1,14,-1,-1,-1,16,-1,-1,-1,-1],"split_conditions":[1.0033334E1,2.4E-1,1.1E1,-1.4773212E-1,3.3E-1,2.35E1,1.55E1,-4.6064522E-2,3.7E1,-1.0134288E-2,6.0799118E-2,6.984858E-2,4E-2,-1.4040919E-1,-7.931688E-2,1.7734057E-1,1.2930818E-1],"split_indices":[8,2,8,0,2,5,5,0,5,0,0,0,4,0,0,0,0],"split_type":[0,0,0,0,0,0,0,0,0,0,0,0,0,0,0,0,0],"sum_hessian":[6.4634924E2,2.9534436E2,3.5100485E2,7.904291E1,2.1630147E2,1.4717862E2,2.0382625E2,9.504128E1,1.2126018E2,6.351725E1,8.366136E1,5.1611546E1,1.522147E2,5.862267E1,6.263751E1,8.737409E1,6.4840614E1],"tree_param":{"num_deleted":"0","num_feature":"9","num_nodes":"17","size_leaf_vector":"1"}},{"base_weights":[1.0008004E-2,3.4380877E-1,-2.2699112E-1,-3.5162855E-2,4.879608E-1,-5.4606724E-1,-2.571409E-2,1.1972785E-1,2.3787172E-1,-4.453622E-2,-1.412654E-1,2.5008122E-2,-1.8596143E-1,5.909289E-2,9.9518495E-3,2.0404477E-2,-6.584916E-2],"categories":[],"categories_nodes":[],"categories_segments":[],"categories_sizes":[],"default_left":[0,0,0,0,0,0,0,0,0,0,0,0,0,0,0,0,0],"id":6,"left_children":[1,3,5,-1,7,9,11,-1,13,-1,-1,-1,15,-1,-1,-1,-1],"loss_changes":[4.869448E1,2.1415781E1,2.3104923E1,0E0,1.5705894E1,1.3443943E1,6.8702846E0,0E0,3.0489311E0,0E0,0E0,0E0,9.957784E0,0E0,0E0,0E0,0E0],"parents":[2147483647,0,0,1,1,2,2,4,4,5,5,6,6,8,8,12,12],"right_children":[2,4,6,-1,8,10,12,-1,14,-1,-1,-1,16,-1,-1,-1,-1],"split_conditions":[4.6E-2,2E1,2.7E-1,-3.5162855E-2,3.7E-2,2.85E0,2.7E1,1.1972785E-1,4E1,-4.453622E-2,-1.412654E-1,2.5008122E-2,3.5E-1,5.909289E-2,9.9518495E-3,2.0404477E-2,-6.584916E-2],"split_indices":[4,5,2,0,4,3,5,0,5,0,0,0,2,0,0,0,0],"split_type":[0,0,0,0,0,0,0,0,0,0,0,0,0,0,0,0,0],"sum_hessian":[6.135385E2,2.545573E2,3.5898123E2,5.0672348E1,2.0388495E2,1.3819438E2,2.2078683E2,9.002329E1,1.13861664E2,8.587338E1,5.2320995E1,1.003E2,1.2048684E2,5.8935925E1,5.492574E1,5.3222355E1,6.726448E1],"tree_param":{"num_deleted":"0","num_feature":"9","num_nodes":"17","size_leaf_vector":"1"}},{"base_weights":[2.1399228E-2,-3.6785048E-1,6.8083155E-1,3.0058208E-1,-6.170629E-1,4.2744732E-1,9.1886044E-1,5.7272958E-3,8.114919E-2,-8.4268016E-1,-2.2555552E-2,2.6488476E-2,1.06717475E-1,1.19209155E-1,1.5169562E-1,-1.0078735E0,-8.816202E-2,-1.1257211E-1,-1.7985731E-1],"categories":[],"categories_nodes":[],"categories_segments":[],"categories_sizes":[],"default_left":[0,0,0,0,0,0,0,0,0,0,0,0,0,0,0,0,0,0,0],"id":7,"left_children":[1,3,5,7,9,11,13,-1,-1,15,-1,-1,-1,-1,-1,17,-1,-1,-1],"loss_changes":[1.6048705E2,6.568446E1,1.3603554E1,6.758095E0,3.006514E1,8.015816E0,5.594177E-1,0E0,0E0,7.5387115E0,0E0,0E0,0E0,0E0,0E0,4.796341E0,0E0,0E0,0E0],"parents":[2147483647,0,0,1,1,2,2,3,3,4,4,5,5,6,6,9,9,15,15],"right_children":[2,4,6,8,10,12,14,-1,-1,16,-1,-1,-1,-1,-1,18,-1,-1,-1],"split_conditions":[1.065E1,2.4E-1,1.1433333E1,4.6E-2,9.9E0,5.5E-1,1.215E1,5.7272958E-3,8.114919E-2,9.5E0,-2.2555552E-2,2.6488476E-2,1.06717475E-1,1.19209155E-1,1.5169562E-1,3.14E0,-8.816202E-2,-1.1257211E-1,-1.7985731E-1],"split_indices":[8,1,8,4,8,7,8,0,0,8,0,0,0,0,0,6,0,0,0],"split_type":[0,0,0,0,0,0,0,0,0,0,0,0,0,0,0,0,0,0,0],"sum_hessian":[6.232567E2,3.9219437E2,2.3106232E2,1.064555E2,2.857389E2,1.1327533E2,1.17786995E2,5.1454212E1,5.5001286E1,1.9207619E2,9.36627E1,6.1008617E1,5.226671E1,5.4372677E1,6.3414314E1,1.1475986E2,7.731632E1,5.1008743E1,6.3751114E1],"tree_param":{"num_deleted":"0","num_feature":"9","num_nodes":"19","size_leaf_vector":"1"}},{"base_weights":[8.255334E-2,-2.1643959E-1,6.3994426E-1,-4.0024915E-1,8.908642E-3,4.2737804E-2,8.676217E-1,-1.9572921E-2,-5.54567E-1,-1.1176107E-1,4.473623E-2,1.0233203E-1,1.573967E-1,-1.1064789E-1,-6.300376E-2,-3.63426E-2,7.689835E-3],"categories":[],"categories_nodes":[],"categories_segments":[],"categories_sizes":[],"default_left":[0,0,0,0,0,0,0,0,0,0,0,0,0,0,0,0,0],"id":8,"left_children":[1,3,5,7,9,-1,11,-1,13,15,-1,-1,-1,-1,-1,-1,-1],"loss_changes":[1.0104782E2,1.6358423E1,1.6860886E1,8.981419E0,6.2604403E0,0E0,3.611702E0,0E0,3.0904121E0,2.7061226E0,0E0,0E0,0E0,0E0,0E0,0E0,0E0],"parents":[2147483647,0,0,1,1,2,2,3,3,4,4,6,6,8,8,9,9],"right_children":[2,4,6,8,10,-1,12,-1,14,16,-1,-1,-1,-1,-1,-1,-1],"split_conditions":[1.075E1,9.8E0,2.2E1,3.13E0,3.55E1,4.2737804E-2,1.155E1,-1.9572921E-2,3.22E0,1.03E1,4.473623E-2,1.0233203E-1,1.573967E-1,-1.1064789E-1,-6.300376E-2,-3.63426E-2,7.689835E-3],"split_indices":[8,8,5,6,5,0,8,0,6,8,0,0,0,0,0,0,0],"split_type":[0,0,0,0,0,0,0,0,0,0,0,0,0,0,0,0,0],"sum_hessian":[6.044948E2,3.9384308E2,2.1065172E2,2.1648604E2,1.7735706E2,8.318687E1,1.2746485E2,7.9448204E1,1.3703783E2,1.2559141E2,5.1765656E1,6.544016E1,6.202468E1,5.6148243E1,8.088959E1,6.947886E1,5.6112545E1],"tree_param":{"num_deleted":"0","num_feature":"9","num_nodes":"17","size_leaf_vector":"1"}},{"base_weights":[1.5287197E-2,-4.6677968E-1,1.6473286E-1,-9.788026E-2,-3.576807E-2,3.5087126E-1,2.0855102E-3,5.94985E-3,4.820616E-1,2.4332501E-1,-1.9476214E-1,9.781226E-2,2.1513078E-2,9.2003485E-3,6.1346937E-2,-5.9597736E-4,-5.921415E-2],"categories":[],"categories_nodes":[],"categories_segments":[],"categories_sizes":[],"default_left":[0,0,0,0,0,0,0,0,0,0,0,0,0,0,0,0,0],"id":9,"left_children":[1,3,5,-1,-1,7,9,-1,11,13,15,-1,-1,-1,-1,-1,-1],"loss_changes":[4.3063435E1,5.844263E0,1.3811199E1,0E0,0E0,8.666412E0,1.1657012E1,0E0,8.5176735E0,3.3000736E0,5.156606E0,0E0,0E0,0E0,0E0,0E0,0E0],"parents":[2147483647,0,0,1,1,2,2,5,5,6,6,8,8,9,9,10,10],"right_children":[2,4,6,-1,-1,8,10,-1,12,14,16,-1,-1,-1,-1,-1,-1],"split_conditions":[2.4E-1,1.6E-1,4.6E-2,-9.788026E-2,-3.576807E-2,2.35E1,2.7E1,5.94985E-3,8.6E0,2.3E0,3.5E-1,9.781226E-2,2.1513078E-2,9.2003485E-3,6.1346937E-2,-5.9597736E-4,-5.921415E-2],"split_indices":[2,2,4,0,0,5,5,0,3,3,2,0,0,0,0,0,0],"split_type":[0,0,0,0,0,0,0,0,0,0,0,0,0,0,0,0,0],"sum_hessian":[5.956806E2,1.4046364E2,4.5521695E2,7.64277E1,6.403594E1,2.1173917E2,2.4347778E2,6.3176414E1,1.4856276E2,1.0929686E2,1.3418091E2,9.828943E1,5.0273323E1,5.2733593E1,5.656327E1,6.919356E1,6.498736E1],"tree_param":{"num_deleted":"0","num_feature":"9","num_nodes":"17","size_leaf_vector":"1"}},{"base_weights":[-4.609841E-2,2.1870224E-1,-1.6085726E-1,-3.6659304E-2,4.0562588E-1,-3.5799515E-1,-4.630926E-2,3.0782409E-2,1.0554578E-1,-8.568682E-2,-3.48472E-2,1.1390418E-1,-1.550355E-1,-1.9754993E-3,3.8183086E-2,-2.8832504E-1,1.7389E-2,-6.212214E-2,-2.1680864E-2],"categories":[],"categories_nodes":[],"categories_segments":[],"categories_sizes":[],"default_left":[0,0,0,0,0,0,0,0,0,0,0,0,0,0,0,0,0,0,0],"id":10,"left_children":[1,3,5,-1,7,9,11,-1,-1,-1,-1,13,15,-1,-1,17,-1,-1,-1],"loss_changes":[1.8249313E1,1.5823053E1,9.4392185E0,0E0,7.607048E0,3.9877834E0,4.6511273E0,0E0,0E0,0E0,0E0,1.935634E0,5.771692E0,0E0,0E0,1.8719997E0,0E0,0E0,0E0],"parents":[2147483647,0,0,1,1,2,2,4,4,5,5,6,6,11,11,12,12,15,15],"right_children":[2,4,6,-1,8,10,12,-1,-1,-1,-1,14,16,-1,-1,18,-1,-1,-1],"split_conditions":[4.2E-2,2.1E1,2.7E-1,-3.6659304E-2,3.23E0,3.23E0,3.5E-1,3.0782409E-2,1.0554578E-1,-8.568682E-2,-3.48472E-2,3.3E1,7.1E-2,-1.9754993E-3,3.8183086E-2,3.85E1,1.7389E-2,-6.212214E-2,-2.1680864E-2],"split_indices":[4,5,2,0,6,6,2,0,0,0,0,5,4,0,0,5,0,0,0],"split_type":[0,0,0,0,0,0,0,0,0,0,0,0,0,0,0,0,0,0,0],"sum_hessian":[5.983815E2,1.8064526E2,4.177362E2,5.1858917E1,1.2878635E2,1.527416E2,2.6499463E2,7.8012505E1,5.0773838E1,5.5324196E1,9.74174E1,1.0711209E2,1.5788252E2,5.6747887E1,5.0364204E1,1.05782684E2,5.2099846E1,5.541257E1,5.037011E1],"tree_param":{"num_deleted":"0","num_feature":"9","num_nodes":"19","size_leaf_vector":"1"}},{"base_weights":[-1.921821E-2,-2.6581922E-1,5.4268557E-1,4.87086E-2,-5.0005335E-1,4.1382704E-2,1.2841058E-1,-1.1214382E-1,6.574062E-2,-7.996617E-1,-1.949682E-1,-3.921654E-2,-1.6368547E-3,-9.460288E-2,-1.4246093E-1,-7.803373E-2,1.6219793E-2],"categories":[],"categories_nodes":[],"categories_segments":[],"categories_sizes":[],"default_left":[0,0,0,0,0,0,0,0,0,0,0,0,0,0,0,0,0],"id":11,"left_children":[1,3,5,7,9,-1,-1,11,-1,13,15,-1,-1,-1,-1,-1,-1],"loss_changes":[8.254871E1,3.052347E1,1.4957325E1,1.1178824E1,2.1540642E1,0E0,0E0,1.9091197E0,0E0,2.4298172E0,1.1780974E1,0E0,0E0,0E0,0E0,0E0,0E0],"parents":[2147483647,0,0,1,1,2,2,3,3,4,4,7,7,9,9,10,10],"right_children":[2,4,6,8,10,-1,-1,12,-1,14,16,-1,-1,-1,-1,-1,-1],"split_conditions":[1.09E1,2.8E-1,1.1733334E1,5.4E-1,5.4E-1,4.1382704E-2,1.2841058E-1,4.3E-1,6.574062E-2,3.45E-1,9.733334E0,-3.921654E-2,-1.6368547E-3,-9.460288E-2,-1.4246093E-1,-7.803373E-2,1.6219793E-2],"split_indices":[8,1,8,7,7,0,0,7,0,1,8,0,0,0,0,0,0],"split_type":[0,0,0,0,0,0,0,0,0,0,0,0,0,0,0,0,0],"sum_hessian":[5.936945E2,4.129787E2,1.8071579E2,1.7661433E2,2.3636436E2,9.862853E1,8.2087265E1,1.2550482E2,5.1109516E1,1.18434685E2,1.1792967E2,5.00729E1,7.543193E1,5.815694E1,6.0277744E1,5.654013E1,6.1389545E1],"tree_param":{"num_deleted":"0","num_feature":"9","num_nodes":"17","size_leaf_vector":"1"}},{"base_weights":[3.521342E-2,-1.20756105E-1,2.2811681E-1,4.5155995E-2,-7.4089274E-2,3.6438736E-1,-5.8278777E-3,-2.8394615E-2,1.2926564E-1,1.0423544E-2,4.9492624E-1,5.0239164E-2,2.2241954E-2,9.168133E-2,5.4505873E-2,2.5712745E-2,-1.8526783E-2],"categories":[],"categories_nodes":[],"categories_segments":[],"categories_sizes":[],"default_left":[0,0,0,0,0,0,0,0,0,0,0,0,0,0,0,0,0],"id":12,"left_children":[1,3,5,7,-1,9,-1,-1,11,-1,13,-1,15,-1,-1,-1,-1],"loss_changes":[1.7221464E1,1.9626684E1,9.321356E0,4.3648944E0,0E0,6.489563E0,0E0,0E0,3.571169E0,0E0,1.5724316E0,0E0,2.3695917E0,0E0,0E0,0E0,0E0],"parents":[2147483647,0,0,1,1,2,2,3,3,5,5,8,8,10,10,12,12],"right_children":[2,4,6,8,-1,10,-1,-1,12,-1,14,-1,16,-1,-1,-1,-1],"split_conditions":[5.3E-1,5.2E-2,7.5E-2,3.9E-1,-7.4089274E-2,3.16E0,-5.8278777E-3,-2.8394615E-2,3.14E0,1.0423544E-2,4.9E-2,5.0239164E-2,4.6E-1,9.168133E-2,5.4505873E-2,2.5712745E-2,-1.8526783E-2],"split_indices":[7,4,4,7,0,6,0,0,6,0,4,0,7,0,0,0,0],"split_type":[0,0,0,0,0,0,0,0,0,0,0,0,0,0,0,0,0],"sum_hessian":[5.7047235E2,3.1563986E2,2.5483249E2,2.1910498E2,9.653488E1,1.6847302E2,8.635946E1,5.751971E1,1.6158527E2,5.216369E1,1.16309326E2,5.457731E1,1.07007965E2,5.9802654E1,5.6506676E1,5.2796078E1,5.4211884E1],"tree_param":{"num_deleted":"0","num_feature":"9","num_nodes":"17","size_leaf_vector":"1"}},{"base_weights":[1.3159352E-2,-3.327311E-2,7.4442215E-2,-3.475194E-1,6.4869806E-2,-1.16389826E-1,-8.440607E-3,9.1297746E-2,-3.5428233E-2,1.0181949E-1,-1.8393433E-1,2.7712065E-1,-2.4842894E-2,-3.0401605E-1,1.3521704E-2,7.3854566E-2,1.1085197E-2,-3.1267755E-2,-5.6605414E-2],"categories":[],"categories_nodes":[],"categories_segments":[],"categories_sizes":[],"default_left":[0,0,0,0,0,0,0,0,0,0,0,0,0,0,0,0,0,0,0],"id":13,"left_children":[1,3,-1,5,7,-1,-1,-1,9,11,13,15,-1,17,-1,-1,-1,-1,-1],"loss_changes":[1.3313424E1,1.6729584E1,0E0,1.6061977E1,2.2581404E1,0E0,0E0,0E0,7.1559134E0,8.607839E0,5.5744596E0,4.805374E0,0E0,7.4448013E-1,0E0,0E0,0E0,0E0,0E0],"parents":[2147483647,0,0,1,1,3,3,4,4,8,8,9,9,10,10,11,11,13,13],"right_children":[2,4,-1,6,8,-1,-1,-1,10,12,14,16,-1,18,-1,-1,-1,-1,-1],"split_conditions":[7.4E-1,1.7E1,7.4442215E-2,5.2E-1,3.6E-2,-1.16389826E-1,-8.440607E-3,9.1297746E-2,5E-2,4.25E1,8.9E0,6.8E0,-2.4842894E-2,6.4E-2,1.3521704E-2,7.3854566E-2,1.1085197E-2,-3.1267755E-2,-5.6605414E-2],"split_indices":[7,5,0,7,4,0,0,0,4,5,3,0,0,4,0,0,0,0,0],"split_type":[0,0,0,0,0,0,0,0,0,0,0,0,0,0,0,0,0,0,0],"sum_hessian":[5.917509E2,5.407144E2,5.1036484E1,1.2807782E2,4.126366E2,5.1159912E1,7.6917915E1,6.346773E1,3.4916885E2,1.8162624E2,1.6754262E2,1.0969017E2,7.1936066E1,1.1642454E2,5.1118088E1,5.257824E1,5.711193E1,5.2226223E1,6.419831E1],"tree_param":{"num_deleted":"0","num_feature":"9","num_nodes":"19","size_leaf_vector":"1"}},{"base_weights":[-1.0312379E-3,-3.1161308E-1,3.919938E-1,-4.7074622E-1,-1.4887469E-1,2.4836847E-1,1.1561969E-1,-1.0309592E-1,-3.726625E-2,-5.6745116E-2,3.48157E-2,8.273287E-2,8.758384E-2,-2.0315818E-2,5.209273E-2],"categories":[],"categories_nodes":[],"categories_segments":[],"categories_sizes":[],"default_left":[0,0,0,0,0,0,0,0,0,0,0,0,0,0,0],"id":14,"left_children":[1,3,5,7,9,11,-1,-1,-1,-1,-1,13,-1,-1,-1],"loss_changes":[6.933286E1,8.146307E0,1.3449249E1,7.5295906E0,1.3926122E1,1.0136792E1,0E0,0E0,0E0,0E0,0E0,7.196105E0,0E0,0E0,0E0],"parents":[2147483647,0,0,1,1,2,2,3,3,4,4,5,5,11,11],"right_children":[2,4,6,8,10,12,-1,-1,-1,-1,-1,14,-1,-1,-1],"split_conditions":[1.03E1,6.3E0,1.1733334E1,5.4E-1,9.5E0,5.9E-1,1.1561969E-1,-1.0309592E-1,-3.726625E-2,-5.6745116E-2,3.48157E-2,2.85E0,8.758384E-2,-2.0315818E-2,5.209273E-2],"split_indices":[8,3,8,7,8,7,0,0,0,0,0,3,0,0,0],"split_type":[0,0,0,0,0,0,0,0,0,0,0,0,0,0,0],"sum_hessian":[5.659921E2,3.1627106E2,2.4972108E2,1.5894987E2,1.5732118E2,1.8226874E2,6.745236E1,7.9455696E1,7.949418E1,9.819507E1,5.9126125E1,1.228626E2,5.9406124E1,6.760112E1,5.5261486E1],"tree_param":{"num_deleted":"0","num_feature":"9","num_nodes":"15","size_leaf_vector":"1"}},{"base_weights":[1.539844E-2,-1.3100143E-1,5.7808346E-1,1.3244759E-1,-4.35194E-1,4.953717E-2,1.17406346E-1,6.483086E-2,-9.972526E-3,-6.588531E-1,-2.9145502E-2,-2.850263E-2,3.598506E-2,-1.2589265E-1,-6.911704E-2],"categories":[],"categories_nodes":[],"categories_segments":[],"categories_sizes":[],"default_left":[0,0,0,0,0,0,0,0,0,0,0,0,0,0,0],"id":15,"left_children":[1,3,5,7,9,-1,-1,-1,11,13,-1,-1,-1,-1,-1],"loss_changes":[4.550713E1,3.5195126E1,5.525402E0,1.0067993E1,1.08481865E1,0E0,0E0,0E0,7.278891E0,3.373783E0,0E0,0E0,0E0,0E0,0E0],"parents":[2147483647,0,0,1,1,2,2,3,3,4,4,8,8,9,9],"right_children":[2,4,6,8,10,-1,-1,-1,12,14,-1,-1,-1,-1,-1],"split_conditions":[1.12E1,3.05E-1,1.1733334E1,2.1E-1,9.733334E0,4.953717E-2,1.17406346E-1,6.483086E-2,9.9E0,5.4E-1,-2.9145502E-2,-2.850263E-2,3.598506E-2,-1.2589265E-1,-6.911704E-2],"split_indices":[8,1,8,1,8,0,0,0,8,7,0,0,0,0,0],"split_type":[0,0,0,0,0,0,0,0,0,0,0,0,0,0,0],"sum_hessian":[5.505058E2,4.3745547E2,1.13050354E2,2.3472989E2,2.0272557E2,5.2309155E1,6.07412E1,7.494822E1,1.5978168E2,1.0422292E2,9.8502655E1,9.300605E1,6.677562E1,5.2846256E1,5.1376667E1],"tree_param":{"num_deleted":"0","num_feature":"9","num_nodes":"15","size_leaf_vector":"1"}},{"base_weights":[-7.234646E-4,-2.1004106E-1,3.026232E-1,7.9230376E-2,-4.8460355E-1,1.5363505E-1,1.02306716E-1,4.3250103E-2,-1.6255807E-2,-1.0971668E-1,-4.383815E-2,3.076707E-1,-2.4967808E-2,7.089455E-2,1.6861321E-2],"categories":[],"categories_nodes":[],"categories_segments":[],"categories_sizes":[],"default_left":[0,0,0,0,0,0,0,0,0,0,0,0,0,0,0],"id":16,"left_children":[1,3,5,7,9,11,-1,-1,-1,-1,-1,13,-1,-1,-1],"loss_changes":[3.4969185E1,2.5919971E1,1.2606482E1,6.2898874E0,7.730812E0,8.075635E0,0E0,0E0,0E0,0E0,0E0,3.4973125E0,0E0,0E0,0E0],"parents":[2147483647,0,0,1,1,2,2,3,3,4,4,5,5,11,11],"right_children":[2,4,6,8,10,12,-1,-1,-1,-1,-1,14,-1,-1,-1],"split_conditions":[1.04E1,2.9E-1,1.1633333E1,2.3E-1,5.8E-2,3.6E-1,1.02306716E-1,4.3250103E-2,-1.6255807E-2,-1.0971668E-1,-4.383815E-2,7E0,-2.4967808E-2,7.089455E-2,1.6861321E-2],"split_indices":[8,1,8,1,4,1,0,0,0,0,0,0,0,0,0],"split_type":[0,0,0,0,0,0,0,0,0,0,0,0,0,0,0],"sum_hessian":[5.487312E2,3.248697E2,2.2386148E2,1.585438E2,1.6632591E2,1.6175124E2,6.211024E1,7.472149E1,8.3822296E1,7.161718E1,9.4708725E1,1.09226776E2,5.2524464E1,5.843755E1,5.0789227E1],"tree_param":{"num_deleted":"0","num_feature":"9","num_nodes":"15","size_leaf_vector":"1"}},{"base_weights":[-3.6667023E-4,5.7641722E-2,-8.3856165E-2,-8.887882E-2,2.6227933E-1,-6.050926E-2,4.3714587E-2,4.986588E-3,4.037277E-1,6.0853552E-2,-9.91404E-2,7.533462E-2,4.0942334E-2,1.7167602E-2,-3.5311736E-2],"categories":[],"categories_nodes":[],"categories_segments":[],"categories_sizes":[],"default_left":[0,0,0,0,0,0,0,0,0,0,0,0,0,0,0],"id":17,"left_children":[1,3,-1,5,7,-1,9,-1,11,-1,13,-1,-1,-1,-1],"loss_changes":[1.7628126E1,1.4798822E1,0E0,1.202463E1,6.6560144E0,0E0,1.0559928E1,0E0,1.5012531E0,0E0,4.296036E0,0E0,0E0,0E0,0E0],"parents":[2147483647,0,0,1,1,3,3,4,4,6,6,8,8,10,10],"right_children":[2,4,-1,6,8,-1,10,-1,12,-1,14,-1,-1,-1,-1],"split_conditions":[6.05E-1,5.3E-1,-8.3856165E-2,2.1E0,3.19E0,-6.050926E-2,2.3E-1,4.986588E-3,2.5E0,6.0853552E-2,4.3E-1,7.533462E-2,4.0942334E-2,1.7167602E-2,-3.5311736E-2],"split_indices":[1,7,0,3,6,0,1,0,3,0,7,0,0,0,0],"split_type":[0,0,0,0,0,0,0,0,0,0,0,0,0,0,0],"sum_hessian":[5.4195264E2,4.9178622E2,5.016642E1,2.8691837E2,2.0486786E2,8.448191E1,2.0243643E2,7.868878E1,1.26179085E2,5.676401E1,1.4567242E2,7.035051E1,5.5828575E1,5.680171E1,8.887072E1],"tree_param":{"num_deleted":"0","num_feature":"9","num_nodes":"15","size_leaf_vector":"1"}},{"base_weights":[1.4540836E-2,-6.75512E-2,1.9427027E-1,-7.866592E-2,5.282501E-2,5.8692876E-2,9.049566E-2,2.3510839E-1,-4.9322166E-2,-4.117406E-3,3.0086884E-2,5.8445506E-2,1.1342242E-2,4.5542024E-2,-3.160366E-2,-1.8666983E-2,3.788964E-2],"categories":[],"categories_nodes":[],"categories_segments":[],"categories_sizes":[],"default_left":[0,0,0,0,0,0,0,0,0,0,0,0,0,0,0,0,0],"id":18,"left_children":[1,3,5,-1,7,-1,9,11,13,-1,-1,-1,-1,15,-1,-1,-1],"loss_changes":[7.9228244E0,2.0308231E1,3.4064522E0,0E0,5.4627314E0,0E0,1.4540591E0,2.5660934E0,2.8943949E0,0E0,0E0,0E0,0E0,4.2375717E0,0E0,0E0,0E0],"parents":[2147483647,0,0,1,1,2,2,4,4,6,6,7,7,8,8,13,13],"right_children":[2,4,6,-1,8,-1,10,12,14,-1,-1,-1,-1,16,-1,-1,-1],"split_conditions":[5.8E-1,1.7E1,1.5E1,-7.866592E-2,3.14E0,5.8692876E-2,2.9E1,3.3E-1,7.6E0,-4.117406E-3,3.0086884E-2,5.8445506E-2,1.1342242E-2,3.3E1,-3.160366E-2,-1.8666983E-2,3.788964E-2],"split_indices":[7,5,5,0,6,0,5,2,3,0,0,0,0,5,0,0,0],"split_type":[0,0,0,0,0,0,0,0,0,0,0,0,0,0,0,0,0],"sum_hessian":[5.350927E2,3.677471E2,1.6734561E2,7.598586E1,2.9176123E2,5.677949E1,1.1056612E2,1.0431236E2,1.8744887E2,5.3739513E1,5.6826603E1,5.2247955E1,5.206441E1,1.18502426E2,6.8946434E1,6.5295265E1,5.3207165E1],"tree_param":{"num_deleted":"0","num_feature":"9","num_nodes":"17","size_leaf_vector":"1"}},{"base_weights":[6.844612E-3,6.8623774E-2,-6.953912E-2,-4.3534935E-2,1.2850241E-1,2.0661436E-1,-1.9985503E-2,3.3474472E-1,8.366365E-2,-2.2259768E-2,2.2278639E-2,6.7435354E-2,3.0275857E-2,-9.037808E-3,4.4388045E-2],"categories":[],"categories_nodes":[],"categories_segments":[],"categories_sizes":[],"default_left":[0,0,0,0,0,0,0,0,0,0,0,0,0,0,0],"id":19,"left_children":[1,3,-1,-1,5,7,9,11,13,-1,-1,-1,-1,-1,-1],"loss_changes":[1.5695744E1,1.0292767E1,0E0,0E0,4.7562547E0,4.2029314E0,3.0978956E0,1.9111776E0,4.2451515E0,0E0,0E0,0E0,0E0,0E0,0E0],"parents":[2147483647,0,0,1,1,4,4,5,5,6,6,7,7,8,8],"right_children":[2,4,-1,-1,6,8,10,12,14,-1,-1,-1,-1,-1,-1],"split_conditions":[5.85E-1,1.5E0,-6.953912E-2,-4.3534935E-2,4E1,7.1E0,6.9E0,2.95E-1,6.9E-2,-2.2259768E-2,2.2278639E-2,6.7435354E-2,3.0275857E-2,-9.037808E-3,4.4388045E-2],"split_indices":[1,3,0,0,5,0,0,1,4,0,0,0,0,0,0],"split_type":[0,0,0,0,0,0,0,0,0,0,0,0,0,0,0],"sum_hessian":[5.379589E2,4.762683E2,6.169059E1,6.755567E1,4.0871265E2,2.6756754E2,1.4114513E2,1.3018036E2,1.3738716E2,8.01705E1,6.097462E1,6.856273E1,6.1617622E1,8.230101E1,5.508616E1],"tree_param":{"num_deleted":"0","num_feature":"9","num_nodes":"15","size_leaf_vector":"1"}},{"base_weights":[-8.6081E-3,2.3045325E-1,-1.1122407E-1,9.704242E-3,4.896714E-2,-9.744153E-2,-1.4271113E-2,5.6574196E-2,-3.7904765E-2,2.6188883E-1,-1.0985153E-1,6.2755406E-2,1.5671376E-2,1.8033043E-2,-4.1370604E-2],"categories":[],"categories_nodes":[],"categories_segments":[],"categories_sizes":[],"default_left":[0,0,0,0,0,0,0,0,0,0,0,0,0,0,0],"id":20,"left_children":[1,3,5,-1,-1,-1,7,9,-1,11,13,-1,-1,-1,-1],"loss_changes":[1.3027262E1,2.5168161E0,1.93822E1,0E0,0E0,0E0,5.349113E0,8.376381E0,0E0,2.6576066E0,5.2117395E0,0E0,0E0,0E0,0E0],"parents":[2147483647,0,0,1,1,2,2,6,6,7,7,9,9,10,10],"right_children":[2,4,6,-1,-1,-1,8,10,-1,12,14,-1,-1,-1,-1],"split_conditions":[2.5E-1,2.9E1,1.7E0,9.704242E-3,4.896714E-2,-9.744153E-2,5.4E-1,3.1E-1,-3.7904765E-2,5.6E0,4.9E0,6.2755406E-2,1.5671376E-2,1.8033043E-2,-4.1370604E-2],"split_indices":[1,5,3,0,0,0,1,2,0,3,3,0,0,0,0],"split_type":[0,0,0,0,0,0,0,0,0,0,0,0,0,0,0],"sum_hessian":[5.289971E2,1.5849957E2,3.7049747E2,5.874154E1,9.975803E1,5.5668182E1,3.1482928E2,2.4329912E2,7.1530174E1,1.0866662E2,1.3463249E2,5.3663364E1,5.5003258E1,5.653272E1,7.8099785E1],"tree_param":{"num_deleted":"0","num_feature":"9","num_nodes":"15","size_leaf_vector":"1"}},{"base_weights":[-3.5464002E-3,5.9711438E-2,-8.814511E-2,-1.6859642E-1,7.3882446E-2,-2.9085454E-1,1.1184518E-1,-1.2771767E-1,-1.4261556E-1,4.822721E-2,-1.8607745E-2,-3.4812623E-1,1.2917711E-2,-3.602309E-2,-6.719961E-2],"categories":[],"categories_nodes":[],"categories_segments":[],"categories_sizes":[],"default_left":[0,0,0,0,0,0,0,0,0,0,0,0,0,0,0],"id":21,"left_children":[1,-1,3,5,-1,7,9,-1,11,-1,-1,13,-1,-1,-1],"loss_changes":[1.7666626E1,0E0,2.0146332E1,1.299085E1,0E0,2.1774357E1,5.750823E0,0E0,9.881729E0,0E0,0E0,1.0849619E0,0E0,0E0,0E0],"parents":[2147483647,0,0,2,2,3,3,5,5,6,6,8,8,11,11],"right_children":[2,-1,4,6,-1,8,10,-1,12,-1,-1,14,-1,-1,-1],"split_conditions":[2.1E-1,5.9711438E-2,1.1633333E1,5.9E-1,7.3882446E-2,1.7E1,2.2E1,-1.2771767E-1,9.633333E0,4.822721E-2,-1.8607745E-2,2.9E-1,1.2917711E-2,-3.602309E-2,-6.719961E-2],"split_indices":[1,0,8,7,0,5,5,0,8,0,0,1,0,0,0],"split_type":[0,0,0,0,0,0,0,0,0,0,0,0,0,0,0],"sum_hessian":[5.179294E2,8.947094E1,4.2845847E2,3.7694495E2,5.15135E1,2.6248004E2,1.1446492E2,5.3900455E1,2.0857957E2,6.040917E1,5.4055756E1,1.09592155E2,9.898742E1,5.4296253E1,5.5295906E1],"tree_param":{"num_deleted":"0","num_feature":"9","num_nodes":"15","size_leaf_vector":"1"}},{"base_weights":[-2.4487076E-2,4.5316182E-2,-8.622685E-2,-3.0474681E-2,-2.3790091E-1,-4.4167086E-2,4.2645533E-2,-6.3726075E-2,-1.3961404E-2,4.4997755E-2,-5.6160685E-2,2.3156838E-2,-4.3474283E-2],"categories":[],"categories_nodes":[],"categories_segments":[],"categories_sizes":[],"default_left":[0,0,0,0,0,0,0,0,0,0,0,0,0],"id":22,"left_children":[1,-1,3,5,7,-1,9,-1,-1,-1,11,-1,-1],"loss_changes":[1.0499689E1,0E0,3.6933498E0,6.2112017E0,3.1409826E0,0E0,6.433469E0,0E0,0E0,0E0,9.0569E0,0E0,0E0],"parents":[2147483647,0,0,2,2,3,3,4,4,6,6,10,10],"right_children":[2,-1,4,6,8,-1,10,-1,-1,-1,12,-1,-1],"split_conditions":[2.1E-1,4.5316182E-2,8.2E0,1.7E0,2.75E-1,-4.4167086E-2,4.6E-2,-6.3726075E-2,-1.3961404E-2,4.4997755E-2,2.5E0,2.3156838E-2,-4.3474283E-2],"split_indices":[1,0,3,3,1,0,4,0,0,0,3,0,0],"split_type":[0,0,0,0,0,0,0,0,0,0,0,0,0],"sum_hessian":[5.184253E2,8.180338E1,4.3662195E2,3.2014453E2,1.1647742E2,6.878732E1,2.513572E2,5.0001778E1,6.647564E1,6.9169655E1,1.8218755E2,9.601518E1,8.617236E1],"tree_param":{"num_deleted":"0","num_feature":"9","num_nodes":"13","size_leaf_vector":"1"}},{"base_weights":[1.9803183E-2,-5.0053846E-2,7.8346185E-2,1.8072264E-1,-2.2091022E-1,-8.6582E-3,3.2624635E-1,-4.0754837E-1,-2.6777832E-2,7.185946E-2,2.652035E-2,-4.1760158E-2,-8.652317E-2,-4.1391503E-2,2.0768166E-2],"categories":[],"categories_nodes":[],"categories_segments":[],"categories_sizes":[],"default_left":[0,0,0,0,0,0,0,0,0,0,0,0,0,0,0],"id":23,"left_children":[1,3,-1,5,7,-1,9,11,13,-1,-1,-1,-1,-1,-1],"loss_changes":[1.7992737E1,1.7793625E1,0E0,6.6843424E0,9.379435E0,0E0,2.6430311E0,2.726492E0,5.3122873E0,0E0,0E0,0E0,0E0,0E0,0E0],"parents":[2147483647,0,0,1,1,3,3,4,4,6,6,7,7,8,8],"right_children":[2,4,-1,6,8,-1,10,12,14,-1,-1,-1,-1,-1,-1],"split_conditions":[1.155E1,2.8E-1,7.8346185E-2,2.4E0,9.9E0,-8.6582E-3,2.3E-1,4.25E-1,1.7E1,7.185946E-2,2.652035E-2,-4.1760158E-2,-8.652317E-2,-4.1391503E-2,2.0768166E-2],"split_indices":[8,1,0,3,8,0,1,1,5,0,0,0,0,0,0],"split_type":[0,0,0,0,0,0,0,0,0,0,0,0,0,0,0],"sum_hessian":[5.1081796E2,4.4926288E2,6.1555088E1,1.9109383E2,2.5816907E2,7.2653206E1,1.1844062E2,1.3106465E2,1.271044E2,5.746901E1,6.097161E1,7.584392E1,5.5220737E1,5.0413006E1,7.66914E1],"tree_param":{"num_deleted":"0","num_feature":"9","num_nodes":"15","size_leaf_vector":"1"}},{"base_weights":[2.2894002E-2,-1.5011187E-1,2.0260854E-1,-5.34025E-2,-6.295177E-2,3.2447293E-2,4.4747162E-1,7.6008335E-2,-4.7485285E-2,-6.4138785E-2,4.2294066E-2,7.679492E-2,5.587056E-2,-1.953965E-2,4.909033E-2],"categories":[],"categories_nodes":[],"categories_segments":[],"categories_sizes":[],"default_left":[0,0,0,0,0,0,0,0,0,0,0,0,0,0,0],"id":24,"left_children":[1,3,5,-1,7,9,11,13,-1,-1,-1,-1,-1,-1,-1],"loss_changes":[1.6248283E1,4.757546E0,1.0663379E1,0E0,6.661814E0,1.759993E1,3.1718254E-1,6.3906884E0,0E0,0E0,0E0,0E0,0E0,0E0,0E0],"parents":[2147483647,0,0,1,1,2,2,4,4,5,5,6,6,7,7],"right_children":[2,4,6,-1,8,10,12,14,-1,-1,-1,-1,-1,-1,-1],"split_conditions":[1.0033334E1,2.5E-1,5E-2,-5.34025E-2,4.3E-1,2.2E1,3.1E-1,9.7E0,-4.7485285E-2,-6.4138785E-2,4.2294066E-2,7.679492E-2,5.587056E-2,-1.953965E-2,4.909033E-2],"split_indices":[8,2,4,0,2,5,2,3,0,0,0,0,0,0,0],"split_type":[0,0,0,0,0,0,0,0,0,0,0,0,0,0,0],"sum_hessian":[5.206146E2,2.6534222E2,2.5527238E2,7.799774E1,1.873445E2,1.5127809E2,1.03994286E2,1.21482735E2,6.5861755E1,5.294577E1,9.833233E1,5.278108E1,5.1213207E1,6.697833E1,5.4504402E1],"tree_param":{"num_deleted":"0","num_feature":"9","num_nodes":"15","size_leaf_vector":"1"}},{"base_weights":[-5.2596625E-2,-1.6277847E-1,1.989844E-1,-8.770995E-2,-2.878627E-1,-7.3214003E-4,7.20391E-2,-2.2624302E-1,3.2591384E-2,1.1645922E-2,-8.319483E-2,-5.7425845E-2,-1.836719E-2],"categories":[],"categories_nodes":[],"categories_segments":[],"categories_sizes":[],"default_left":[0,0,0,0,0,0,0,0,0,0,0,0,0],"id":25,"left_children":[1,3,5,7,9,-1,-1,11,-1,-1,-1,-1,-1],"loss_changes":[1.3970957E1,3.2634716E0,8.810129E0,9.357771E0,1.2808563E1,0E0,0E0,2.4235878E0,0E0,0E0,0E0,0E0,0E0],"parents":[2147483647,0,0,1,1,2,2,3,3,4,4,7,7],"right_children":[2,4,6,8,10,-1,-1,12,-1,-1,-1,-1,-1],"split_conditions":[1.065E1,7.4E0,2.8E1,6.9E0,3.2E-1,-7.3214003E-4,7.20391E-2,2.6E-1,3.2591384E-2,1.1645922E-2,-8.319483E-2,-5.7425845E-2,-1.836719E-2],"split_indices":[8,0,5,0,2,0,0,2,0,0,0,0,0],"split_type":[0,0,0,0,0,0,0,0,0,0,0,0,0],"sum_hessian":[5.0184042E2,3.4924072E2,1.5259969E2,2.19319E2,1.2992174E2,8.9044235E1,6.3555454E1,1.5099228E2,6.832672E1,5.5116005E1,7.480573E1,5.9115757E1,9.187652E1],"tree_param":{"num_deleted":"0","num_feature":"9","num_nodes":"13","size_leaf_vector":"1"}},{"base_weights":[-1.3850342E-2,-7.353115E-2,5.834221E-2,2.7886117E-2,-1.2816027E-1,-2.5528938E-1,1.1848949E-2,-3.5876966E-1,-1.1343094E-2,3.1460904E-2,-1.1978679E-1,-3.1516515E-2,-7.428813E-2,-3.6093213E-2,-2.2349517E-4],"categories":[],"categories_nodes":[],"categories_segments":[],"categories_sizes":[],"default_left":[0,0,0,0,0,0,0,0,0,0,0,0,0,0,0],"id":26,"left_children":[1,3,-1,-1,5,7,9,11,-1,-1,13,-1,-1,-1,-1],"loss_changes":[1.22292595E1,6.300659E0,0E0,0E0,6.5252666E0,3.5443335E0,4.592599E0,2.3636665E0,0E0,0E0,1.5138795E0,0E0,0E0,0E0,0E0],"parents":[2147483647,0,0,1,1,4,4,5,5,6,6,7,7,10,10],"right_children":[2,4,-1,-1,6,8,10,12,-1,-1,14,-1,-1,-1,-1],"split_conditions":[1.1433333E1,2.1E-1,5.834221E-2,2.7886117E-2,9.9E0,1.02E1,2.7E-1,3.6E-1,-1.1343094E-2,3.1460904E-2,2.6E0,-3.1516515E-2,-7.428813E-2,-3.6093213E-2,-2.2349517E-4],"split_indices":[8,1,0,0,8,3,2,1,0,0,3,0,0,0,0],"split_type":[0,0,0,0,0,0,0,0,0,0,0,0,0,0,0],"sum_hessian":[5.06529E2,4.418757E2,6.4653275E1,7.644211E1,3.654336E2,1.9109497E2,1.7433864E2,1.2062444E2,7.0470535E1,6.9406E1,1.0493263E2,5.8952515E1,6.167193E1,5.139798E1,5.3534653E1],"tree_param":{"num_deleted":"0","num_feature":"9","num_nodes":"15","size_leaf_vector":"1"}},{"base_weights":[-1.1657013E-2,-1.4357597E-1,8.301454E-2,-6.1648265E-2,9.849947E-3,4.275575E-2,2.6497742E-2,4.2933106E-2,-2.7993336E-2,3.2092724E-2,-5.778566E-2,1.916967E-2,-4.081427E-2],"categories":[],"categories_nodes":[],"categories_segments":[],"categories_sizes":[],"default_left":[0,0,0,0,0,0,0,0,0,0,0,0,0],"id":27,"left_children":[1,3,5,-1,7,-1,9,-1,-1,-1,11,-1,-1],"loss_changes":[6.2454767E0,8.575013E0,3.3175168E0,0E0,7.3143444E0,0E0,3.6250453E0,0E0,0E0,0E0,6.339722E0,0E0,0E0],"parents":[2147483647,0,0,1,1,2,2,4,4,6,6,10,10],"right_children":[2,4,6,-1,8,-1,10,-1,-1,-1,12,-1,-1],"split_conditions":[4.9E-1,2.6E1,2.45E-1,-6.1648265E-2,4E1,4.275575E-2,1.5E1,4.2933106E-2,-2.7993336E-2,3.2092724E-2,6E-1,1.916967E-2,-4.081427E-2],"split_indices":[7,5,1,0,5,0,5,0,0,0,7,0,0],"split_type":[0,0,0,0,0,0,0,0,0,0,0,0,0],"sum_hessian":[4.9812497E2,2.0790527E2,2.902197E2,7.518443E1,1.3272084E2,6.255794E1,2.2766176E2,5.495737E1,7.7763466E1,7.013557E1,1.5752618E2,8.4637314E1,7.288887E1],"tree_param":{"num_deleted":"0","num_feature":"9","num_nodes":"13","size_leaf_vector":"1"}},{"base_weights":[2.6472239E-2,-2.8639648E-2,6.6649616E-2,1.10852554E-1,-3.342217E-2,2.3371956E-1,-1.0169771E-1,1.1908766E-1,7.519021E-2,-4.514739E-2,3.9343224E-3,3.9994687E-2,1.046689E-3],"categories":[],"categories_nodes":[],"categories_segments":[],"categories_sizes":[],"default_left":[0,0,0,0,0,0,0,0,0,0,0,0,0],"id":28,"left_children":[1,-1,3,5,-1,7,9,11,-1,-1,-1,-1,-1],"loss_changes":[4.29343E0,0E0,5.32675E0,9.429279E0,0E0,6.9491463E0,3.3889952E0,2.6661162E0,0E0,0E0,0E0,0E0,0E0],"parents":[2147483647,0,0,2,2,3,3,5,5,6,6,7,7],"right_children":[2,-1,4,6,-1,8,10,12,-1,-1,-1,-1,-1],"split_conditions":[1.2E1,-2.8639648E-2,8.2E0,4E1,-3.342217E-2,6.7E0,6.6E0,6.8E0,7.519021E-2,-4.514739E-2,3.9343224E-3,3.9994687E-2,1.046689E-3],"split_indices":[5,0,0,5,0,3,0,0,0,0,0,0,0],"split_type":[0,0,0,0,0,0,0,0,0,0,0,0,0],"sum_hessian":[4.890808E2,7.570148E1,4.1337933E2,3.591517E2,5.4227623E1,2.275274E2,1.316243E2,1.6029407E2,6.723334E1,5.0930935E1,8.069337E1,6.861458E1,9.167948E1],"tree_param":{"num_deleted":"0","num_feature":"9","num_nodes":"13","size_leaf_vector":"1"}},{"base_weights":[-2.829202E-2,-7.461887E-2,5.1567975E-2,-1.9118796E-1,6.490514E-2,-9.063268E-2,-8.325098E-2,1.7278194E-1,-2.0750098E-2,-6.1955754E-2,5.131393E-2,4.3628424E-2,-3.0652238E-3,-1.4292485E-2,4.10496E-2],"categories":[],"categories_nodes":[],"categories_segments":[],"categories_sizes":[],"default_left":[0,0,0,0,0,0,0,0,0,0,0,0,0,0,0],"id":29,"left_children":[1,3,-1,5,7,9,-1,11,-1,-1,13,-1,-1,-1,-1],"loss_changes":[8.6392355E0,7.253241E0,0E0,8.832508E0,4.483277E0,8.781627E0,0E0,3.0473497E0,0E0,0E0,4.387342E0,0E0,0E0,0E0,0E0],"parents":[2147483647,0,0,1,1,3,3,4,4,5,5,7,7,10,10],"right_children":[2,4,-1,6,8,10,-1,12,-1,-1,14,-1,-1,-1,-1],"split_conditions":[1.155E1,5.3E-2,5.1567975E-2,7.6E0,3.3E0,9.5E0,-8.325098E-2,8.4E-2,-2.0750098E-2,-6.1955754E-2,6.6E0,4.3628424E-2,-3.0652238E-3,-1.4292485E-2,4.10496E-2],"split_indices":[8,4,0,0,3,8,0,4,0,0,3,0,0,0,0],"split_type":[0,0,0,0,0,0,0,0,0,0,0,0,0,0,0],"sum_hessian":[4.9870816E2,4.4420093E2,5.4507236E1,2.4180672E2,2.0239423E2,1.9042464E2,5.1382076E1,1.3231364E2,7.008058E1,5.7626595E1,1.3279805E2,8.181277E1,5.0500877E1,8.0376595E1,5.242145E1],"tree_param":{"num_deleted":"0","num_feature":"9","num_nodes":"15","size_leaf_vector":"1"}},{"base_weights":[-2.0858748E-2,-1.096075E-1,2.6616254E-1,-1.625646E-1,3.3826463E-2,1.8155491E-2,5.7811078E-2,-2.2670013E-1,-1.1029847E-3,-1.4279026E-1,-6.375397E-2,-4.5416724E-2,1.818367E-3],"categories":[],"categories_nodes":[],"categories_segments":[],"categories_sizes":[],"default_left":[0,0,0,0,0,0,0,0,0,0,0,0,0],"id":30,"left_children":[1,3,5,7,-1,-1,-1,9,-1,11,-1,-1,-1],"loss_changes":[1.2555664E1,6.7152414E0,1.9683113E0,3.2390652E0,0E0,0E0,0E0,3.7723475E0,0E0,4.052352E0,0E0,0E0,0E0],"parents":[2147483647,0,0,1,1,2,2,3,3,7,7,9,9],"right_children":[2,4,6,8,-1,-1,-1,10,-1,12,-1,-1,-1],"split_conditions":[1.1E1,1.33E1,3.2E0,7.7E0,3.3826463E-2,1.8155491E-2,5.7811078E-2,7.1E0,-1.1029847E-3,6.45E0,-6.375397E-2,-4.5416724E-2,1.818367E-3],"split_indices":[8,3,6,0,0,0,0,0,0,0,0,0,0],"split_type":[0,0,0,0,0,0,0,0,0,0,0,0,0],"sum_hessian":[4.907598E2,3.753251E2,1.15434715E2,3.245524E2,5.0772682E1,5.297583E1,6.245888E1,2.2932959E2,9.522281E1,1.6235767E2,6.697193E1,7.9400925E1,8.295674E1],"tree_param":{"num_deleted":"0","num_feature":"9","num_nodes":"13","size_leaf_vector":"1"}},{"base_weights":[3.216768E-2,8.161263E-2,-5.4738224E-2,-3.8705254E-3,2.9278886E-1,7.4669205E-2,-4.5272313E-2,2.2535492E-2,6.514105E-2,-3.862096E-2,5.5525787E-2,-2.5833918E-2,1.1078588E-2],"categories":[],"categories_nodes":[],"categories_segments":[],"categories_sizes":[],"default_left":[0,0,0,0,0,0,0,0,0,0,0,0,0],"id":31,"left_children":[1,3,-1,5,7,9,-1,-1,-1,11,-1,-1,-1],"loss_changes":[9.476405E0,7.7395887E0,0E0,7.1863356E0,2.4263716E0,8.151875E0,0E0,0E0,0E0,2.6668584E0,0E0,0E0,0E0],"parents":[2147483647,0,0,1,1,3,3,4,4,5,5,9,9],"right_children":[2,4,-1,6,8,10,-1,-1,-1,12,-1,-1,-1],"split_conditions":[5.95E-1,5.8E-2,-5.4738224E-2,7.6E0,9.733334E0,1.09E1,-4.5272313E-2,2.2535492E-2,6.514105E-2,9.533334E0,5.5525787E-2,-2.5833918E-2,1.1078588E-2],"split_indices":[1,4,0,0,8,8,0,0,0,8,0,0,0],"split_type":[0,0,0,0,0,0,0,0,0,0,0,0,0],"sum_hessian":[4.801346E2,4.2767557E2,5.245905E1,3.0513855E2,1.22536995E2,2.4207564E2,6.306293E1,6.20653E1,6.04717E1,1.7561678E2,6.6458855E1,8.002699E1,9.558978E1],"tree_param":{"num_deleted":"0","num_feature":"9","num_nodes":"13","size_leaf_vector":"1"}},{"base_weights":[2.0816796E-2,-2.1916008E-1,9.296276E-2,-8.150878E-2,2.625365E-2,1.5481581E-2,5.0541565E-2,6.061491E-2,-2.7283223E-2,-3.3719655E-2,1.6903666E-1,-3.0410366E-2,1.6725365E-2,6.654488E-2,-1.2899253E-2],"categories":[],"categories_nodes":[],"categories_segments":[],"categories_sizes":[],"default_left":[0,0,0,0,0,0,0,0,0,0,0,0,0,0,0],"id":32,"left_children":[1,3,5,-1,-1,7,-1,9,-1,11,13,-1,-1,-1,-1],"loss_changes":[8.41036E0,1.4449156E1,7.0513515E0,0E0,0E0,2.5441067E0,0E0,2.3804996E0,0E0,3.0905602E0,7.6150646E0,0E0,0E0,0E0,0E0],"parents":[2147483647,0,0,1,1,2,2,5,5,7,7,9,9,10,10],"right_children":[2,4,6,-1,-1,8,-1,10,-1,12,14,-1,-1,-1,-1],"split_conditions":[2.4E-1,5.5E-1,1.0933333E1,-8.150878E-2,2.625365E-2,6.3E-1,5.0541565E-2,4.9E-1,-2.7283223E-2,4.7E-2,5E-2,-3.0410366E-2,1.6725365E-2,6.654488E-2,-1.2899253E-2],"split_indices":[2,7,8,0,0,7,0,7,0,4,4,0,0,0,0],"split_type":[0,0,0,0,0,0,0,0,0,0,0,0,0,0,0],"sum_hessian":[4.8359598E2,1.1131029E2,3.7228568E2,6.0866634E1,5.0443653E1,2.833618E2,8.8923904E1,2.3118797E2,5.2173798E1,1.23993706E2,1.0719427E2,5.7119442E1,6.687427E1,5.1261177E1,5.593309E1],"tree_param":{"num_deleted":"0","num_feature":"9","num_nodes":"15","size_leaf_vector":"1"}},{"base_weights":[1.4775622E-2,-2.4843945E-1,9.352102E-2,-6.551039E-2,-4.2932737E-3,2.1403828E-1,1.825575E-2,5.9910595E-2,5.7954406E-3,2.8044632E-2,-6.969037E-2,-2.9562911E-2,2.5601888E-2],"categories":[],"categories_nodes":[],"categories_segments":[],"categories_sizes":[],"default_left":[0,0,0,0,0,0,0,0,0,0,0,0,0],"id":33,"left_children":[1,3,5,-1,-1,7,9,-1,-1,-1,11,-1,-1],"loss_changes":[1.0033187E1,4.6019154E0,3.3745844E0,0E0,0E0,4.637005E0,3.4310422E0,0E0,0E0,0E0,4.693001E0,0E0,0E0],"parents":[2147483647,0,0,1,1,2,2,5,5,6,6,10,10],"right_children":[2,4,6,-1,-1,8,10,-1,-1,-1,12,-1,-1],"split_conditions":[1.8E0,2.5E1,2.8E-1,-6.551039E-2,-4.2932737E-3,3.17E0,2.5E0,5.9910595E-2,5.7954406E-3,2.8044632E-2,3.8E-1,-2.9562911E-2,2.5601888E-2],"split_indices":[3,5,1,0,0,6,3,0,0,0,2,0,0],"split_type":[0,0,0,0,0,0,0,0,0,0,0,0,0],"sum_hessian":[4.8194324E2,1.1048388E2,3.7145935E2,5.89771E1,5.1506783E1,1.4209242E2,2.2936691E2,6.8463165E1,7.3629265E1,7.820984E1,1.5115707E2,9.891322E1,5.2243855E1],"tree_param":{"num_deleted":"0","num_feature":"9","num_nodes":"13","size_leaf_vector":"1"}},{"base_weights":[4.1007556E-2,-4.7965605E-2,1.8754725E-1,-4.3028276E-2,6.339344E-2,7.063486E-2,7.460483E-2,1.6848311E-1,-1.1905783E-2,2.9691633E-2,-1.5005759E-2,1.225742E-2,3.616042E-2],"categories":[],"categories_nodes":[],"categories_segments":[],"categories_sizes":[],"default_left":[0,0,0,0,0,0,0,0,0,0,0,0,0],"id":34,"left_children":[1,3,5,-1,7,-1,9,11,-1,-1,-1,-1,-1],"loss_changes":[6.4000306E0,8.153092E0,5.897696E0,0E0,3.154862E0,0E0,2.9006228E0,7.4192166E-1,0E0,0E0,0E0,0E0,0E0],"parents":[2147483647,0,0,1,1,2,2,4,4,6,6,7,7],"right_children":[2,4,6,-1,8,-1,10,12,-1,-1,-1,-1,-1],"split_conditions":[5.5E-2,2.5E1,2E-1,-4.3028276E-2,4.6E-2,7.063486E-2,8E-2,6.6E0,-1.1905783E-2,2.9691633E-2,-1.5005759E-2,1.225742E-2,3.616042E-2],"split_indices":[4,5,2,0,4,0,4,3,0,0,0,0,0],"split_type":[0,0,0,0,0,0,0,0,0,0,0,0,0],"sum_hessian":[4.8918146E2,3.047947E2,1.8438673E2,9.640624E1,2.0838849E2,5.1646294E1,1.3274045E2,1.1992871E2,8.845977E1,7.7719025E1,5.5021416E1,5.559652E1,6.433219E1],"tree_param":{"num_deleted":"0","num_feature":"9","num_nodes":"13","size_leaf_vector":"1"}},{"base_weights":[-1.510209E-2,2.7259836E-2,-5.4145187E-2,-2.1247935E-2,6.4221725E-2,2.3670594E-1,-2.9151479E-2,8.485363E-3,6.601696E-2,-1.4492686E-1,2.2691706E-2,4.6450323E-3,-5.8396615E-2],"categories":[],"categories_nodes":[],"categories_segments":[],"categories_sizes":[],"default_left":[0,0,0,0,0,0,0,0,0,0,0,0,0],"id":35,"left_children":[1,3,-1,-1,5,7,9,-1,-1,11,-1,-1,-1],"loss_changes":[7.155753E0,2.7276654E0,0E0,0E0,5.7717843E0,4.585515E0,4.891658E0,0E0,0E0,6.1380825E0,0E0,0E0,0E0],"parents":[2147483647,0,0,1,1,4,4,5,5,6,6,9,9],"right_children":[2,4,-1,-1,6,8,10,-1,-1,12,-1,-1,-1],"split_conditions":[5.95E-1,4.1E-1,-5.4145187E-2,-2.1247935E-2,2.6E-1,2.2E-1,7.5E0,8.485363E-3,6.601696E-2,6.8E0,2.2691706E-2,4.6450323E-3,-5.8396615E-2],"split_indices":[1,7,0,0,1,1,0,0,0,0,0,0,0],"split_type":[0,0,0,0,0,0,0,0,0,0,0,0,0],"sum_hessian":[4.8672424E2,4.3443542E2,5.2288822E1,7.748824E1,3.569472E2,1.2482619E2,2.32121E2,6.687762E1,5.794857E1,1.4151347E2,9.060754E1,8.279534E1,5.871813E1],"tree_param":{"num_deleted":"0","num_feature":"9","num_nodes":"13","size_leaf_vector":"1"}},{"base_weights":[-4.610402E-3,-9.312083E-2,2.1654794E-1,2.4373151E-2,-1.6217284E-1,5.8174755E-2,-1.0905475E-2,-9.522549E-2,-5.47213E-2,-1.0325596E-3,-4.9919136E-2,1.9689005E-2,-2.6524736E-2],"categories":[],"categories_nodes":[],"categories_segments":[],"categories_sizes":[],"default_left":[0,0,0,0,0,0,0,0,0,0,0,0,0],"id":36,"left_children":[1,3,5,-1,7,-1,-1,9,-1,11,-1,-1,-1],"loss_changes":[9.387116E0,6.070647E0,6.819334E0,0E0,3.6295948E0,0E0,0E0,4.5732903E0,0E0,3.4503775E0,0E0,0E0,0E0],"parents":[2147483647,0,0,1,1,2,2,4,4,7,7,9,9],"right_children":[2,4,6,-1,8,-1,-1,10,-1,12,-1,-1,-1],"split_conditions":[6.3E-2,2.1E-1,2.6E0,2.4373151E-2,1.11E1,5.8174755E-2,-1.0905475E-2,3.5E-1,-5.47213E-2,4.6E-2,-4.9919136E-2,1.9689005E-2,-2.6524736E-2],"split_indices":[4,1,3,0,3,0,0,1,0,4,0,0,0],"split_type":[0,0,0,0,0,0,0,0,0,0,0,0,0],"sum_hessian":[4.7752042E2,3.414476E2,1.360728E2,7.2334656E1,2.6911295E2,8.525007E1,5.0822735E1,2.0338727E2,6.572568E1,1.4636127E2,5.7026E1,8.3659225E1,6.2702038E1],"tree_param":{"num_deleted":"0","num_feature":"9","num_nodes":"13","size_leaf_vector":"1"}},{"base_weights":[-3.7241887E-2,-7.755383E-2,4.279699E-2,-2.1656202E-1,-2.2980498E-2,-9.387243E-3,-5.0811145E-2,-1.1459135E-1,7.903607E-2,-2.0584075E-1,1.2946149E-2,3.7651304E-2,-2.3672108E-3,-3.855754E-3,-6.257847E-2],"categories":[],"categories_nodes":[],"categories_segments":[],"categories_sizes":[],"default_left":[0,0,0,0,0,0,0,0,0,0,0,0,0,0,0],"id":37,"left_children":[1,3,-1,5,7,-1,-1,9,11,13,-1,-1,-1,-1,-1],"loss_changes":[6.340411E0,3.2777026E0,0E0,2.2715855E0,2.9235468E0,0E0,0E0,3.0372596E0,2.4194841E0,4.3127418E0,0E0,0E0,0E0,0E0,0E0],"parents":[2147483647,0,0,1,1,3,3,4,4,7,7,8,8,9,9],"right_children":[2,4,-1,6,8,-1,-1,10,12,14,-1,-1,-1,-1,-1],"split_conditions":[1.1433333E1,4.4E-2,4.279699E-2,3.8E-2,9.8E0,-9.387243E-3,-5.0811145E-2,1.11E1,1.0133333E1,3.3E0,1.2946149E-2,3.7651304E-2,-2.3672108E-3,-3.855754E-3,-6.257847E-2],"split_indices":[8,4,0,4,8,0,0,3,8,3,0,0,0,0,0],"split_type":[0,0,0,0,0,0,0,0,0,0,0,0,0,0,0],"sum_hessian":[4.8491623E2,4.3172067E2,5.3195545E1,1.20871284E2,3.108494E2,5.4145134E1,6.672615E1,1.6371242E2,1.4713696E2,1.125617E2,5.1150723E1,5.1707188E1,9.542978E1,6.1373676E1,5.118802E1],"tree_param":{"num_deleted":"0","num_feature":"9","num_nodes":"15","size_leaf_vector":"1"}},{"base_weights":[-2.2349462E-2,-8.652327E-2,1.5734121E-1,-1.7552358E-1,1.19171225E-1,8.629872E-3,4.521507E-2,-2.571563E-1,-9.845153E-4,4.767911E-2,-1.3978603E-2,-6.8051696E-2,-1.6479261E-1,-8.210048E-3,-4.2197093E-2],"categories":[],"categories_nodes":[],"categories_segments":[],"categories_sizes":[],"default_left":[0,0,0,0,0,0,0,0,0,0,0,0,0,0,0],"id":38,"left_children":[1,3,5,7,9,-1,-1,11,-1,-1,-1,-1,13,-1,-1],"loss_changes":[5.682496E0,6.664129E0,1.8482771E0,3.497405E0,4.67893E0,0E0,0E0,3.0295649E0,0E0,0E0,0E0,0E0,1.4967525E0,0E0,0E0],"parents":[2147483647,0,0,1,1,2,2,3,3,4,4,7,7,12,12],"right_children":[2,4,6,8,10,-1,-1,12,-1,-1,-1,-1,14,-1,-1],"split_conditions":[1.075E1,9E0,4.8E-2,3.6E-1,3.4E-1,8.629872E-3,4.521507E-2,4.7E-2,-9.845153E-4,4.767911E-2,-1.3978603E-2,-6.8051696E-2,2.3E0,-8.210048E-3,-4.2197093E-2],"split_indices":[8,3,4,2,2,0,0,4,0,0,0,0,3,0,0],"split_type":[0,0,0,0,0,0,0,0,0,0,0,0,0,0,0],"sum_hessian":[4.906025E2,3.6188074E2,1.2872176E2,2.526921E2,1.09188644E2,7.68732E1,5.184855E1,1.7002357E2,8.2668526E1,5.6153587E1,5.3035057E1,5.310997E1,1.16913605E2,6.0879887E1,5.6033714E1],"tree_param":{"num_deleted":"0","num_feature":"9","num_nodes":"15","size_leaf_vector":"1"}},{"base_weights":[-1.11458E-2,-1.1528259E-1,7.484559E-2,1.5697794E-2,-2.397074E-1,1.1406433E-2,5.052906E-2,2.6467642E-2,-2.1359397E-2,-2.2029435E-2,-5.0668422E-2,1.2286644E-1,-2.212476E-2,-1.827854E-2,4.302939E-2],"categories":[],"categories_nodes":[],"categories_segments":[],"categories_sizes":[],"default_left":[0,0,0,0,0,0,0,0,0,0,0,0,0,0,0],"id":39,"left_children":[1,3,5,7,9,11,-1,-1,-1,-1,-1,13,-1,-1,-1],"loss_changes":[4.3342433E0,3.5706747E0,4.403978E0,2.7587364E0,9.7306967E-1,3.8176847E0,0E0,0E0,0E0,0E0,0E0,5.117117E0,0E0,0E0,0E0],"parents":[2147483647,0,0,1,1,2,2,3,3,4,4,5,5,11,11],"right_children":[2,4,6,8,10,12,-1,-1,-1,-1,-1,14,-1,-1,-1],"split_conditions":[9.9E0,3.17E0,7.3E-2,9.3E0,5.3E0,4.6E-2,5.052906E-2,2.6467642E-2,-2.1359397E-2,-2.2029435E-2,-5.0668422E-2,1.9E0,-2.212476E-2,-1.827854E-2,4.302939E-2],"split_indices":[8,6,4,8,3,4,0,0,0,0,0,3,0,0,0],"split_type":[0,0,0,0,0,0,0,0,0,0,0,0,0,0,0],"sum_hessian":[4.820463E2,2.178664E2,2.641799E2,1.0656288E2,1.1130352E2,2.1352473E2,5.0655178E1,5.277947E1,5.3783413E1,5.846135E1,5.284217E1,1.256308E2,8.7893936E1,5.051167E1,7.5119125E1],"tree_param":{"num_deleted":"0","num_feature":"9","num_nodes":"15","size_leaf_vector":"1"}},{"base_weights":[-5.0672293E-2,-1.287305E-1,2.2779411E-1,5.455169E-3,-1.7388093E-1,1.9142797E-2,4.8499834E-2,-5.9184764E-2,-1.2464085E-1,-2.6444423E-1,-1.1958997E-2,-1.5577414E-2,-6.293895E-2,2.4837282E-2,-4.2298153E-2],"categories":[],"categories_nodes":[],"categories_segments":[],"categories_sizes":[],"default_left":[0,0,0,0,0,0,0,0,0,0,0,0,0,0,0],"id":40,"left_children":[1,3,5,-1,7,-1,-1,-1,9,11,13,-1,-1,-1,-1],"loss_changes":[1.0459076E1,2.8047242E0,9.676175E-1,0E0,3.1560535E0,0E0,0E0,0E0,3.8188767E0,2.6531177E0,6.5373106E0,0E0,0E0,0E0,0E0],"parents":[2147483647,0,0,1,1,2,2,4,4,8,8,9,9,10,10],"right_children":[2,4,6,-1,8,-1,-1,-1,10,12,14,-1,-1,-1,-1],"split_conditions":[1.0933333E1,9.3E0,5.1E-1,5.455169E-3,3.1E0,1.9142797E-2,4.8499834E-2,-5.9184764E-2,9.9E0,7E0,3.3E-1,-1.5577414E-2,-6.293895E-2,2.4837282E-2,-4.2298153E-2],"split_indices":[8,8,7,0,6,0,0,0,8,0,2,0,0,0,0],"split_type":[0,0,0,0,0,0,0,0,0,0,0,0,0,0,0],"sum_hessian":[4.7882465E2,3.744098E2,1.0441485E2,8.04454E1,2.9396442E2,5.211061E1,5.2304237E1,5.2346188E1,2.4161821E2,1.0723093E2,1.3438728E2,5.3510967E1,5.371996E1,8.131221E1,5.3075077E1],"tree_param":{"num_deleted":"0","num_feature":"9","num_nodes":"15","size_leaf_vector":"1"}},{"base_weights":[-3.087033E-2,2.4672993E-2,-2.0257203E-1,-1.0035832E-1,1.13808446E-1,-6.163702E-2,1.0807433E-3,-3.0500447E-2,1.4857567E-2,2.5183827E-2,5.20582E-2,3.1937778E-2,-1.3428576E-2],"categories":[],"categories_nodes":[],"categories_segments":[],"categories_sizes":[],"default_left":[0,0,0,0,0,0,0,0,0,0,0,0,0],"id":41,"left_children":[1,3,5,7,9,-1,-1,-1,-1,11,-1,-1,-1],"loss_changes":[4.558101E0,4.041583E0,5.1077275E0,3.121634E0,4.364989E0,0E0,0E0,0E0,0E0,3.3440952E0,0E0,0E0,0E0],"parents":[2147483647,0,0,1,1,2,2,3,3,4,4,9,9],"right_children":[2,4,6,8,10,-1,-1,-1,-1,12,-1,-1,-1],"split_conditions":[4.3E-1,2.9E1,7.7E-2,3.15E-1,5.5E-1,-6.163702E-2,1.0807433E-3,-3.0500447E-2,1.4857567E-2,4E1,5.20582E-2,3.1937778E-2,-1.3428576E-2],"split_indices":[1,5,4,1,7,0,0,0,0,5,0,0,0],"split_type":[0,0,0,0,0,0,0,0,0,0,0,0,0],"sum_hessian":[4.7642047E2,3.606206E2,1.1579989E2,1.5003662E2,2.1058398E2,5.761768E1,5.8182205E1,9.892857E1,5.110805E1,1.5340422E2,5.7179752E1,5.7857075E1,9.554715E1],"tree_param":{"num_deleted":"0","num_feature":"9","num_nodes":"13","size_leaf_vector":"1"}},{"base_weights":[-2.2850172E-3,-4.568605E-2,3.9554007E-2,8.895654E-2,-3.551E-2,2.8209599E-2,4.050459E-2,1.1570681E-1,-9.69469E-2,-9.013626E-3,3.2938745E-2,-2.2241357E-3,-2.7574869E-2],"categories":[],"categories_nodes":[],"categories_segments":[],"categories_sizes":[],"default_left":[0,0,0,0,0,0,0,0,0,0,0,0,0],"id":42,"left_children":[1,-1,3,5,-1,7,-1,9,11,-1,-1,-1,-1],"loss_changes":[5.808556E0,0E0,5.5282393E0,3.7653031E0,0E0,2.836039E0,0E0,2.7941327E0,7.584386E-1,0E0,0E0,0E0,0E0],"parents":[2147483647,0,0,2,2,3,3,5,5,7,7,8,8],"right_children":[2,-1,4,6,-1,8,-1,10,12,-1,-1,-1,-1],"split_conditions":[3.6E-2,-4.568605E-2,5.55E-1,6.3E-2,-3.551E-2,7.1E0,4.050459E-2,9.533334E0,2.65E-1,-9.013626E-3,3.2938745E-2,-2.2241357E-3,-2.7574869E-2],"split_indices":[4,0,1,4,0,0,0,8,1,0,0,0,0],"split_type":[0,0,0,0,0,0,0,0,0,0,0,0,0],"sum_hessian":[4.57314E2,5.483673E1,4.0247726E2,3.4200235E2,6.047491E1,2.5695468E2,8.5047676E1,1.5127411E2,1.0568059E2,5.6345596E1,9.4928505E1,5.4932312E1,5.0748272E1],"tree_param":{"num_deleted":"0","num_feature":"9","num_nodes":"13","size_leaf_vector":"1"}},{"base_weights":[-2.5024032E-2,-2.1082039E-1,6.51206E-2,-5.548724E-2,-9.320416E-3,9.951695E-2,-1.5580934E-2,3.6074027E-2,6.3189454E-2,2.762471E-2,-1.4046559E-2,8.548641E-3,-1.5572847E-2],"categories":[],"categories_nodes":[],"categories_segments":[],"categories_sizes":[],"default_left":[0,0,0,0,0,0,0,0,0,0,0,0,0],"id":43,"left_children":[1,3,5,-1,-1,7,-1,-1,9,-1,11,-1,-1],"loss_changes":[7.9493814E0,3.6440187E0,1.8692014E0,0E0,0E0,1.3482006E0,0E0,0E0,1.9930708E0,0E0,8.410072E-1,0E0,0E0],"parents":[2147483647,0,0,1,1,2,2,5,5,8,8,10,10],"right_children":[2,4,6,-1,-1,8,-1,-1,10,-1,12,-1,-1],"split_conditions":[2.1E0,4.9E-2,8.2E0,-5.548724E-2,-9.320416E-3,3.45E0,-1.5580934E-2,3.6074027E-2,4.5E-2,2.762471E-2,5E-1,8.548641E-3,-1.5572847E-2],"split_indices":[3,4,0,0,0,3,0,0,4,0,7,0,0],"split_type":[0,0,0,0,0,0,0,0,0,0,0,0,0],"sum_hessian":[4.728115E2,1.5402113E2,3.1879034E2,7.368698E1,8.033415E1,2.652196E2,5.357076E1,5.318885E1,2.1203075E2,8.208151E1,1.2994923E2,7.2748245E1,5.7200993E1],"tree_param":{"num_deleted":"0","num_feature":"9","num_nodes":"13","size_leaf_vector":"1"}},{"base_weights":[2.9916937E-2,-1.03037216E-1,1.2716405E-1,1.5336623E-2,-2.3648007E-1,6.207958E-2,4.3228593E-2,-7.242865E-2,-4.7226935E-3,-2.254775E-2,1.1253143E-1,2.0751655E-1,-1.1913698E-2,1.2032019E-2,4.8718523E-2],"categories":[],"categories_nodes":[],"categories_segments":[],"categories_sizes":[],"default_left":[0,0,0,0,0,0,0,0,0,0,0,0,0,0,0],"id":44,"left_children":[1,3,5,-1,7,-1,9,-1,-1,-1,11,13,-1,-1,-1],"loss_changes":[6.024561E0,5.4197183E0,6.4549017E0,0E0,6.02895E0,0E0,2.8227446E0,0E0,0E0,0E0,2.8353157E0,1.5221262E0,0E0,0E0,0E0],"parents":[2147483647,0,0,1,1,2,2,4,4,6,6,10,10,11,11],"right_children":[2,4,6,-1,8,-1,10,-1,-1,-1,12,14,-1,-1,-1],"split_conditions":[4.9E-1,3.14E0,2.45E-1,1.5336623E-2,3.23E0,6.207958E-2,3.15E0,-7.242865E-2,-4.7226935E-3,-2.254775E-2,3.37E0,9.95E0,-1.1913698E-2,1.2032019E-2,4.8718523E-2],"split_indices":[7,6,1,0,6,0,6,0,0,0,6,8,0,0,0],"split_type":[0,0,0,0,0,0,0,0,0,0,0,0,0,0,0],"sum_hessian":[4.6394467E2,1.9596542E2,2.6797925E2,7.7294106E1,1.18671326E2,5.979742E1,2.0818181E2,5.3280144E1,6.539118E1,5.4580894E1,1.5360092E2,1.0270073E2,5.0900192E1,5.005208E1,5.264865E1],"tree_param":{"num_deleted":"0","num_feature":"9","num_nodes":"15","size_leaf_vector":"1"}},{"base_weights":[1.2317576E-3,3.9738055E-2,-3.1992372E-2,1.4270648E-1,-3.7953217E-2,3.788057E-2,5.85932E-2,1.2902366E-2,-3.172588E-2,2.5009116E-2,-1.834313E-2,-8.771622E-2,3.579562E-2,-2.9314438E-2,-1.702248E-3],"categories":[],"categories_nodes":[],"categories_segments":[],"categories_sizes":[],"default_left":[0,0,0,0,0,0,0,0,0,0,0,0,0,0,0],"id":45,"left_children":[1,3,-1,5,7,9,-1,11,-1,-1,-1,13,-1,-1,-1],"loss_changes":[3.90232E0,3.209342E0,0E0,4.4666433E0,2.0244396E0,2.5444121E0,0E0,4.065977E0,0E0,0E0,0E0,1.0170949E0,0E0,0E0,0E0],"parents":[2147483647,0,0,1,1,3,3,4,4,5,5,7,7,11,11],"right_children":[2,4,-1,6,8,10,-1,12,-1,-1,-1,14,-1,-1,-1],"split_conditions":[5.4E-1,3.1E-1,-3.1992372E-2,9E0,1.07E1,2.8E0,5.85932E-2,5.7E0,-3.172588E-2,2.5009116E-2,-1.834313E-2,4.7E-2,3.579562E-2,-2.9314438E-2,-1.702248E-3],"split_indices":[1,2,0,3,3,3,0,3,0,0,0,4,0,0,0],"split_type":[0,0,0,0,0,0,0,0,0,0,0,0,0,0,0],"sum_hessian":[4.704012E2,3.995033E2,7.089794E1,1.7144334E2,2.2805994E2,1.21304794E2,5.0138554E1,1.7709268E2,5.096726E1,6.720274E1,5.410205E1,1.22915886E2,5.4176796E1,5.0346066E1,7.256982E1],"tree_param":{"num_deleted":"0","num_feature":"9","num_nodes":"15","size_leaf_vector":"1"}},{"base_weights":[2.093695E-2,-3.896096E-2,1.0772988E-1,-3.690108E-2,3.4256913E-2,2.4988647E-1,-8.686365E-3,3.0414646E-2,-9.2297554E-2,4.51655E-2,2.8764213E-2,8.127784E-3,-4.0597387E-2],"categories":[],"categories_nodes":[],"categories_segments":[],"categories_sizes":[],"default_left":[0,0,0,0,0,0,0,0,0,0,0,0,0],"id":46,"left_children":[1,3,5,-1,7,9,-1,-1,11,-1,-1,-1,-1],"loss_changes":[2.4341967E0,4.212089E0,4.514883E0,0E0,4.4060054E0,2.4901581E-1,0E0,0E0,3.1021328E0,0E0,0E0,0E0,0E0],"parents":[2147483647,0,0,1,1,2,2,4,4,5,5,8,8],"right_children":[2,4,6,-1,8,10,-1,-1,12,-1,-1,-1,-1],"split_conditions":[5.7E0,4.6E-1,3.17E0,-3.690108E-2,2E0,1.13E1,-8.686365E-3,3.0414646E-2,1.9E1,4.51655E-2,2.8764213E-2,8.127784E-3,-4.0597387E-2],"split_indices":[3,7,6,0,3,3,0,0,5,0,0,0,0],"split_type":[0,0,0,0,0,0,0,0,0,0,0,0,0],"sum_hessian":[4.664231E2,2.7629578E2,1.9012732E2,7.156464E1,2.0473112E2,1.0204256E2,8.808476E1,8.755259E1,1.17178535E2,5.202261E1,5.0019947E1,6.47196E1,5.2458942E1],"tree_param":{"num_deleted":"0","num_feature":"9","num_nodes":"13","size_leaf_vector":"1"}},{"base_weights":[-9.292694E-3,-3.1199262E-2,2.75167E-2,-2.8652752E-2,3.844271E-2,1.17179744E-1,-1.22498415E-1,-1.8017212E-2,4.1096255E-2,4.412076E-3,-1.8393716E-1,-1.1029763E-2,-5.40037E-2],"categories":[],"categories_nodes":[],"categories_segments":[],"categories_sizes":[],"default_left":[0,0,0,0,0,0,0,0,0,0,0,0,0],"id":47,"left_children":[1,-1,3,5,-1,7,9,-1,-1,-1,11,-1,-1],"loss_changes":[3.4980745E0,0E0,5.1952624E0,4.462872E0,0E0,4.7872868E0,1.8558722E0,0E0,0E0,0E0,2.7206988E0,0E0,0E0],"parents":[2147483647,0,0,2,2,3,3,5,5,6,6,10,10],"right_children":[2,-1,4,6,-1,8,10,-1,-1,-1,12,-1,-1],"split_conditions":[1.2E1,-3.1199262E-2,1.1E1,2.55E-1,3.844271E-2,4.5E-1,2.3E1,-1.8017212E-2,4.1096255E-2,4.412076E-3,5.4E-2,-1.1029763E-2,-5.40037E-2],"split_indices":[5,0,8,1,0,7,5,0,0,0,4,0,0],"split_type":[0,0,0,0,0,0,0,0,0,0,0,0,0],"sum_hessian":[4.764811E2,7.374491E1,4.027362E2,3.2404752E2,7.868869E1,1.2678301E2,1.972645E2,5.053584E1,7.624717E1,5.695641E1,1.4030807E2,8.710903E1,5.3199047E1],"tree_param":{"num_deleted":"0","num_feature":"9","num_nodes":"13","size_leaf_vector":"1"}},{"base_weights":[-1.1617738E-2,-3.6511526E-2,2.6813027E-2,-2.0512383E-2,6.840387E-2,4.0951286E-2,1.6496256E-2,-3.0506555E-2,8.381796E-2,-1.9043963E-2,3.9211724E-2,1.30143305E-2,-2.2241792E-2],"categories":[],"categories_nodes":[],"categories_segments":[],"categories_sizes":[],"default_left":[0,0,0,0,0,0,0,0,0,0,0,0,0],"id":48,"left_children":[1,-1,3,-1,5,-1,7,-1,9,11,-1,-1,-1],"loss_changes":[4.2210236E0,0E0,2.776218E0,0E0,3.4465399E0,0E0,3.8693316E0,0E0,3.6576366E0,1.7569427E0,0E0,0E0,0E0],"parents":[2147483647,0,0,2,2,4,4,6,6,8,8,9,9],"right_children":[2,-1,4,-1,6,-1,8,-1,10,12,-1,-1,-1],"split_conditions":[1.1E1,-3.6511526E-2,1.7E0,-2.0512383E-2,1.95E1,4.0951286E-2,3.3E0,-3.0506555E-2,9.9E0,3.17E0,3.9211724E-2,1.30143305E-2,-2.2241792E-2],"split_indices":[5,0,3,0,5,0,3,0,8,6,0,0,0],"split_type":[0,0,0,0,0,0,0,0,0,0,0,0,0],"sum_hessian":[4.7211578E2,6.6385086E1,4.0573068E2,8.179025E1,3.2394043E2,6.469037E1,2.5925006E2,6.0297367E1,1.989527E2,1.2654866E2,7.240404E1,6.9762115E1,5.6786545E1],"tree_param":{"num_deleted":"0","num_feature":"9","num_nodes":"13","size_leaf_vector":"1"}},{"base_weights":[8.438907E-3,4.1871343E-2,-3.0018834E-2,-2.0424167E-2,1.7532313E-1,4.0465947E-2,-4.2086594E-2,5.8106477E-3,4.795143E-2,-5.105618E-2,1.3526785E-1,1.839863E-2,-3.2988876E-2,-2.8141374E-3,4.078024E-2],"categories":[],"categories_nodes":[],"categories_segments":[],"categories_sizes":[],"default_left":[0,0,0,0,0,0,0,0,0,0,0,0,0,0,0],"id":49,"left_children":[1,3,-1,5,7,9,-1,-1,-1,11,13,-1,-1,-1,-1],"loss_changes":[3.2783039E0,3.3704686E0,0E0,4.3992715E0,2.530875E0,1.9620514E0,0E0,0E0,0E0,3.4116044E0,2.3397448E0,0E0,0E0,0E0,0E0],"parents":[2147483647,0,0,1,1,3,3,4,4,5,5,9,9,10,10],"right_children":[2,4,-1,6,8,10,-1,-1,-1,12,14,-1,-1,-1,-1],"split_conditions":[5.45E-1,4.1E1,-3.0018834E-2,3.4E1,9.533334E0,5E-2,-4.2086594E-2,5.8106477E-3,4.795143E-2,2.65E-1,3.45E-1,1.839863E-2,-3.2988876E-2,-2.8141374E-3,4.078024E-2],"split_indices":[1,5,0,5,8,4,0,0,0,1,1,0,0,0,0],"split_type":[0,0,0,0,0,0,0,0,0,0,0,0,0,0,0],"sum_hessian":[4.67953E2,4.03993E2,6.3959976E1,2.7600186E2,1.27991165E2,2.2433873E2,5.166313E1,6.641669E1,6.157448E1,1.1437862E2,1.0996011E2,5.6515556E1,5.7863056E1,5.2088493E1,5.7871624E1],"tree_param":{"num_deleted":"0","num_feature":"9","num_nodes":"15","size_leaf_vector":"1"}},{"base_weights":[3.939701E-3,4.593157E-2,-3.521274E-2,-7.1261354E-2,1.4976414E-1,2.622865E-2,-3.635299E-2,4.048927E-2,8.5042134E-2,2.4093831E-2,-2.2696013E-2,-1.2392363E-2,3.8437035E-2],"categories":[],"categories_nodes":[],"categories_segments":[],"categories_sizes":[],"default_left":[0,0,0,0,0,0,0,0,0,0,0,0,0],"id":50,"left_children":[1,3,-1,5,7,9,-1,-1,11,-1,-1,-1,-1],"loss_changes":[4.6832085E0,4.8447223E0,0E0,3.1304994E0,1.6177368E0,2.892707E0,0E0,0E0,3.9986682E0,0E0,0E0,0E0,0E0],"parents":[2147483647,0,0,1,1,3,3,4,4,5,5,8,8],"right_children":[2,4,-1,6,8,10,-1,-1,12,-1,-1,-1,-1],"split_conditions":[3.39E0,9.9E0,-3.521274E-2,3.2E0,1.0466666E1,2.95E-1,-3.635299E-2,4.048927E-2,1.12E1,2.4093831E-2,-2.2696013E-2,-1.2392363E-2,3.8437035E-2],"split_indices":[6,8,0,6,8,1,0,0,8,0,0,0,0],"split_type":[0,0,0,0,0,0,0,0,0,0,0,0,0],"sum_hessian":[4.6516608E2,3.9626123E2,6.890486E1,1.8630154E2,2.0995967E2,1.1921707E2,6.708447E1,7.2389366E1,1.375703E2,6.790628E1,5.1310795E1,6.9766556E1,6.780375E1],"tree_param":{"num_deleted":"0","num_feature":"9","num_nodes":"13","size_leaf_vector":"1"}},{"base_weights":[4.878543E-3,-4.143709E-2,7.149619E-2,4.443406E-2,-1.7746148E-1,1.8254232E-1,-2.1689646E-2,-2.1677528E-2,1.4999674E-1,-2.1076368E-3,-4.9911276E-2,7.2317044E-3,4.795866E-2,-2.745991E-3,4.9506996E-2],"categories":[],"categories_nodes":[],"categories_segments":[],"categories_sizes":[],"default_left":[0,0,0,0,0,0,0,0,0,0,0,0,0,0,0],"id":51,"left_children":[1,3,5,7,9,11,-1,-1,13,-1,-1,-1,-1,-1,-1],"loss_changes":[1.4424223E0,3.229785E0,4.626483E0,3.4103115E0,2.7089953E0,2.3262029E0,0E0,0E0,3.323806E0,0E0,0E0,0E0,0E0,0E0,0E0],"parents":[2147483647,0,0,1,1,2,2,3,3,4,4,5,5,8,8],"right_children":[2,4,6,8,10,12,-1,-1,14,-1,-1,-1,-1,-1,-1],"split_conditions":[5.4E-1,4.7E-1,3.3E0,2.8E0,5E-2,6.3E-1,-2.1689646E-2,-2.1677528E-2,9.8E0,-2.1076368E-3,-4.9911276E-2,7.2317044E-3,4.795866E-2,-2.745991E-3,4.9506996E-2],"split_indices":[7,7,3,3,4,7,0,0,8,0,0,0,0,0,0],"split_type":[0,0,0,0,0,0,0,0,0,0,0,0,0,0,0],"sum_hessian":[4.655333E2,2.7483408E2,1.9069922E2,1.6888905E2,1.0594502E2,1.2606982E2,6.46294E1,6.0402737E1,1.0848631E2,5.215245E1,5.3792572E1,6.437964E1,6.1690174E1,5.6536556E1,5.1949757E1],"tree_param":{"num_deleted":"0","num_feature":"9","num_nodes":"15","size_leaf_vector":"1"}},{"base_weights":[5.6191277E-2,8.889636E-2,-1.930257E-2,6.1681148E-2,3.9198443E-2,1.2054618E-1,-1.8481957E-2,5.2196067E-2,5.9237577E-2,-1.7044986E-2,1.23727605E-1,4.4232577E-2,3.1477688E-3],"categories":[],"categories_nodes":[],"categories_segments":[],"categories_sizes":[],"default_left":[0,0,0,0,0,0,0,0,0,0,0,0,0],"id":52,"left_children":[1,3,-1,5,-1,7,-1,-1,9,-1,11,-1,-1],"loss_changes":[2.803866E0,1.82812E0,0E0,3.723421E0,0E0,3.5901656E0,0E0,0E0,2.3015056E0,0E0,2.630029E0,0E0,0E0],"parents":[2147483647,0,0,1,1,3,3,5,5,8,8,10,10],"right_children":[2,4,-1,6,-1,8,-1,-1,10,-1,12,-1,-1],"split_conditions":[5.4E-1,6.6E-1,-1.930257E-2,7.6E0,3.9198443E-2,3.8E-2,-1.8481957E-2,5.2196067E-2,2.5E1,-1.7044986E-2,3.9E1,4.4232577E-2,3.1477688E-3],"split_indices":[1,7,0,0,0,4,0,0,5,0,5,0,0],"split_type":[0,0,0,0,0,0,0,0,0,0,0,0,0],"sum_hessian":[4.6083636E2,3.9200787E2,6.8828476E1,3.3974194E2,5.226595E1,2.5796216E2,8.177976E1,5.3781395E1,2.0418077E2,5.526809E1,1.4891269E2,5.515731E1,9.375537E1],"tree_param":{"num_deleted":"0","num_feature":"9","num_nodes":"13","size_leaf_vector":"1"}},{"base_weights":[2.9569553E-2,-6.84502E-2,9.547416E-2,-3.7087392E-2,1.776829E-2,3.693759E-2,2.5279183E-2,-6.805141E-2,3.65147E-2,2.2770278E-2,-3.744598E-2],"categories":[],"categories_nodes":[],"categories_segments":[],"categories_sizes":[],"default_left":[0,0,0,0,0,0,0,0,0,0,0],"id":53,"left_children":[1,3,5,-1,-1,-1,7,9,-1,-1,-1],"loss_changes":[2.957287E0,6.185847E0,2.8889604E0,0E0,0E0,0E0,3.839554E0,5.319179E0,0E0,0E0,0E0],"parents":[2147483647,0,0,1,1,2,2,6,6,7,7],"right_children":[2,4,6,-1,-1,-1,8,10,-1,-1,-1],"split_conditions":[2.35E1,6.3E-2,3.4E1,-3.7087392E-2,1.776829E-2,3.693759E-2,7.3E0,4.6E-2,3.65147E-2,2.2770278E-2,-3.744598E-2],"split_indices":[5,4,5,0,0,0,0,4,0,0,0],"split_type":[0,0,0,0,0,0,0,0,0,0,0],"sum_hessian":[4.5577606E2,1.8322595E2,2.725501E2,9.347871E1,8.9747246E1,8.578301E1,1.8676709E2,1.3128735E2,5.5479744E1,5.9460815E1,7.182653E1],"tree_param":{"num_deleted":"0","num_feature":"9","num_nodes":"11","size_leaf_vector":"1"}},{"base_weights":[-1.1128042E-2,2.3811866E-2,-3.8275808E-2,-4.330898E-2,1.2605594E-1,-1.357061E-1,1.3460138E-2,-2.0098091E-4,4.6975166E-2,-2.3328592E-3,-3.256362E-2],"categories":[],"categories_nodes":[],"categories_segments":[],"categories_sizes":[],"default_left":[0,0,0,0,0,0,0,0,0,0,0],"id":54,"left_children":[1,3,-1,5,7,9,-1,-1,-1,-1,-1],"loss_changes":[3.8925343E0,2.7479417E0,0E0,2.9869378E0,3.7817028E0,1.3970182E0,0E0,0E0,0E0,0E0,0E0],"parents":[2147483647,0,0,1,1,3,3,4,4,5,5],"right_children":[2,4,-1,6,8,10,-1,-1,-1,-1,-1],"split_conditions":[5.4E1,3E1,-3.8275808E-2,3.29E0,1.0033334E1,3.13E0,1.3460138E-2,-2.0098091E-4,4.6975166E-2,-2.3328592E-3,-3.256362E-2],"split_indices":[5,5,0,6,8,6,0,0,0,0,0],"split_type":[0,0,0,0,0,0,0,0,0,0,0],"sum_hessian":[4.547893E2,3.9862097E2,5.6168346E1,2.4099185E2,1.576291E2,1.422091E2,9.878274E1,9.436986E1,6.325925E1,5.790749E1,8.430163E1],"tree_param":{"num_deleted":"0","num_feature":"9","num_nodes":"11","size_leaf_vector":"1"}},{"base_weights":[-2.0994771E-2,-8.068727E-2,1.3165624E-1,-1.3044171E-1,9.623803E-3,3.1528976E-2,4.964742E-3,-6.1684493E-2,-5.3216014E-2,-1.4777306E-1,1.4704526E-2,-4.1733306E-2,-7.78864E-3],"categories":[],"categories_nodes":[],"categories_segments":[],"categories_sizes":[],"default_left":[0,0,0,0,0,0,0,0,0,0,0,0,0],"id":55,"left_children":[1,3,5,7,-1,-1,-1,9,-1,11,-1,-1,-1],"loss_changes":[4.121078E0,2.3498948E0,9.7754407E-1,3.7134027E0,0E0,0E0,0E0,2.5796993E0,0E0,1.5062556E0,0E0,0E0,0E0],"parents":[2147483647,0,0,1,1,2,2,3,3,7,7,9,9],"right_children":[2,4,6,8,-1,-1,-1,10,-1,12,-1,-1,-1],"split_conditions":[7.7E0,1.075E1,3.21E0,1.02E1,9.623803E-3,3.1528976E-2,4.964742E-3,1.06E1,-5.3216014E-2,9.5E0,1.4704526E-2,-4.1733306E-2,-7.78864E-3],"split_indices":[0,8,6,8,0,0,0,3,0,8,0,0,0],"split_type":[0,0,0,0,0,0,0,0,0,0,0,0,0],"sum_hessian":[4.5009753E2,3.2390823E2,1.26189316E2,2.4116704E2,8.274119E1,6.9597305E1,5.6592007E1,1.8556631E2,5.560073E1,1.2062332E2,6.4942986E1,5.0284306E1,7.033902E1],"tree_param":{"num_deleted":"0","num_feature":"9","num_nodes":"13","size_leaf_vector":"1"}},{"base_weights":[2.640614E-2,-2.0711891E-2,5.728584E-2,3.6314607E-2,5.0277924E-3,4.4040103E-2,-2.6358915E-2,-6.347002E-2,1.2867653E-1,-3.3108316E-2,1.3979191E-2,3.7244406E-2,2.5123195E-3],"categories":[],"categories_nodes":[],"categories_segments":[],"categories_sizes":[],"default_left":[0,0,0,0,0,0,0,0,0,0,0,0,0],"id":56,"left_children":[1,-1,3,-1,5,7,-1,9,11,-1,-1,-1,-1],"loss_changes":[2.2821686E0,0E0,3.646452E0,0E0,2.0911715E0,2.2266202E0,0E0,2.6827376E0,1.8266816E0,0E0,0E0,0E0,0E0],"parents":[2147483647,0,0,2,2,4,4,5,5,7,7,8,8],"right_children":[2,-1,4,-1,6,8,-1,10,12,-1,-1,-1,-1],"split_conditions":[1.2E1,-2.0711891E-2,6.4E0,3.6314607E-2,8.1E0,7E0,-2.6358915E-2,4.9E-1,7.4E0,-3.3108316E-2,1.3979191E-2,3.7244406E-2,2.5123195E-3],"split_indices":[5,0,0,0,0,0,0,7,0,0,0,0,0],"split_type":[0,0,0,0,0,0,0,0,0,0,0,0,0],"sum_hessian":[4.4675388E2,7.006587E1,3.7668802E2,8.223384E1,2.9445416E2,2.4280554E2,5.1648632E1,1.0706078E2,1.3574477E2,5.322616E1,5.383462E1,6.502878E1,7.071598E1],"tree_param":{"num_deleted":"0","num_feature":"9","num_nodes":"13","size_leaf_vector":"1"}},{"base_weights":[-5.321004E-2,-1.4019682E-1,4.8782155E-2,-2.1304207E-1,-5.374371E-2,1.638024E-1,-8.348473E-2,-4.915764E-2,-1.0535386E-2,9.336214E-3,-2.4239616E-2,4.4298396E-2,4.1286545E-3,-8.107728E-3,-1.6678931E-2],"categories":[],"categories_nodes":[],"categories_segments":[],"categories_sizes":[],"default_left":[0,0,0,0,0,0,0,0,0,0,0,0,0,0,0],"id":57,"left_children":[1,3,5,7,9,11,13,-1,-1,-1,-1,-1,-1,-1,-1],"loss_changes":[4.1574593E0,1.5802894E0,3.3010678E0,2.2178063E0,1.4726187E0,2.069467E0,7.649803E-2,0E0,0E0,0E0,0E0,0E0,0E0,0E0,0E0],"parents":[2147483647,0,0,1,1,2,2,3,3,4,4,5,5,6,6],"right_children":[2,4,6,8,10,12,14,-1,-1,-1,-1,-1,-1,-1,-1],"split_conditions":[5.3E-1,6.8E0,3.2E-1,4.7E-2,4.35E1,1.95E1,5.7E-2,-4.915764E-2,-1.0535386E-2,9.336214E-3,-2.4239616E-2,4.4298396E-2,4.1286545E-3,-8.107728E-3,-1.6678931E-2],"split_indices":[7,3,2,4,5,5,4,0,0,0,0,0,0,0,0],"split_type":[0,0,0,0,0,0,0,0,0,0,0,0,0,0,0],"sum_hessian":[4.6683517E2,2.5174937E2,2.150858E2,1.3583272E2,1.1591666E2,1.1491578E2,1.0017002E2,7.4618256E1,6.121446E1,5.605665E1,5.986001E1,5.788481E1,5.7030968E1,5.00038E1,5.0166218E1],"tree_param":{"num_deleted":"0","num_feature":"9","num_nodes":"15","size_leaf_vector":"1"}},{"base_weights":[1.3163117E-2,2.0140346E-2,-1.7217826E-2,1.5254073E-1,-1.1167824E-1,1.3017951E-3,4.653628E-2,-2.288459E-1,2.9375501E-2,-6.578802E-2,-1.3373436E-1,3.9624968E-3,-3.825087E-2],"categories":[],"categories_nodes":[],"categories_segments":[],"categories_sizes":[],"default_left":[0,0,0,0,0,0,0,0,0,0,0,0,0],"id":58,"left_children":[1,-1,3,5,7,-1,-1,9,-1,-1,11,-1,-1],"loss_changes":[1.6719147E0,0E0,5.848511E0,2.9565032E0,8.484192E0,0E0,0E0,3.3339539E0,0E0,0E0,2.3071527E0,0E0,0E0],"parents":[2147483647,0,0,2,2,3,3,4,4,7,7,10,10],"right_children":[2,-1,4,6,8,-1,-1,10,-1,-1,12,-1,-1],"split_conditions":[3.09E0,2.0140346E-2,1.95E1,1.3E1,3.8E-1,1.3017951E-3,4.653628E-2,2.9E1,2.9375501E-2,-6.578802E-2,4E1,3.9624968E-3,-3.825087E-2],"split_indices":[6,0,5,5,2,0,0,5,0,0,5,0,0],"split_type":[0,0,0,0,0,0,0,0,0,0,0,0,0],"sum_hessian":[4.527815E2,9.012033E1,3.6266116E2,1.2943448E2,2.3322668E2,6.823891E1,6.119557E1,1.6906593E2,6.416076E1,5.1620533E1,1.174454E2,5.0947E1,6.64984E1],"tree_param":{"num_deleted":"0","num_feature":"9","num_nodes":"13","size_leaf_vector":"1"}},{"base_weights":[-2.3996737E-2,2.2582175E-2,-5.2549675E-2,-1.0196246E-1,8.817116E-2,1.7909681E-2,-1.7167404E-1,3.8302146E-2,-1.3020027E-2,1.2339231E-2,-7.3553445E-3,-4.3385323E-2,-8.457823E-3],"categories":[],"categories_nodes":[],"categories_segments":[],"categories_sizes":[],"default_left":[0,0,0,0,0,0,0,0,0,0,0,0,0],"id":59,"left_children":[1,-1,3,5,7,9,11,-1,-1,-1,-1,-1,-1],"loss_changes":[2.2990732E0,0E0,2.7613943E0,2.455095E0,3.0469527E0,4.7275603E-1,2.4995728E0,0E0,0E0,0E0,0E0,0E0,0E0],"parents":[2147483647,0,0,2,2,3,3,4,4,5,5,6,6],"right_children":[2,-1,4,6,8,10,12,-1,-1,-1,-1,-1,-1],"split_conditions":[2E-1,2.2582175E-2,3.32E0,6.8E0,4.35E-1,3.18E0,7.7E0,3.8302146E-2,-1.3020027E-2,1.2339231E-2,-7.3553445E-3,-4.3385323E-2,-8.457823E-3],"split_indices":[1,0,6,0,1,6,0,0,0,0,0,0,0],"split_type":[0,0,0,0,0,0,0,0,0,0,0,0,0],"sum_hessian":[4.587256E2,6.3890335E1,3.9483524E2,2.9242752E2,1.02407715E2,1.0780138E2,1.8462614E2,5.2135475E1,5.027224E1,5.4848713E1,5.2952667E1,9.066496E1,9.3961174E1],"tree_param":{"num_deleted":"0","num_feature":"9","num_nodes":"13","size_leaf_vector":"1"}},{"base_weights":[3.549084E-2,7.995491E-2,-8.393735E-2,-1.3968425E-2,1.4549644E-1,-3.96601E-2,1.0631307E-2,2.3090856E-2,-3.0247692E-2,3.8145248E-2,4.7710184E-2,-1.0997263E-2,2.3727743E-2],"categories":[],"categories_nodes":[],"categories_segments":[],"categories_sizes":[],"default_left":[0,0,0,0,0,0,0,0,0,0,0,0,0],"id":60,"left_children":[1,3,5,7,9,-1,-1,-1,-1,11,-1,-1,-1],"loss_changes":[2.406262E0,2.0321786E0,3.457366E0,4.331324E0,3.5879908E0,0E0,0E0,0E0,0E0,1.6297418E0,0E0,0E0,0E0],"parents":[2147483647,0,0,1,1,2,2,3,3,4,4,9,9],"right_children":[2,4,6,8,10,-1,-1,-1,-1,12,-1,-1,-1],"split_conditions":[4.05E-1,2.5E-1,5.8E-1,3.21E0,3.7E1,-3.96601E-2,1.0631307E-2,2.3090856E-2,-3.0247692E-2,3.19E0,4.7710184E-2,-1.0997263E-2,2.3727743E-2],"split_indices":[1,1,7,6,5,0,0,0,0,6,0,0,0],"split_type":[0,0,0,0,0,0,0,0,0,0,0,0,0],"sum_hessian":[4.508704E2,3.2878983E2,1.2208056E2,1.3545908E2,1.9333075E2,5.604348E1,6.603708E1,7.1591064E1,6.3868008E1,1.1994058E2,7.339017E1,6.2394615E1,5.7545963E1],"tree_param":{"num_deleted":"0","num_feature":"9","num_nodes":"13","size_leaf_vector":"1"}},{"base_weights":[-6.7981385E-2,-4.1266136E-2,-3.7046287E-2,-1.7493877E-1,1.4025271E-2,-5.3587086E-3,-4.889264E-2,-7.82231E-2,1.0488317E-1,1.1913952E-2,-4.2654462E-2,3.2959085E-2,-1.287762E-2],"categories":[],"categories_nodes":[],"categories_segments":[],"categories_sizes":[],"default_left":[0,0,0,0,0,0,0,0,0,0,0,0,0],"id":61,"left_children":[1,-1,3,5,7,-1,-1,9,11,-1,-1,-1,-1],"loss_changes":[2.9076931E0,0E0,2.8008714E0,2.2477283E0,2.4463525E0,0E0,0E0,4.732064E0,3.2384112E0,0E0,0E0,0E0,0E0],"parents":[2147483647,0,0,2,2,3,3,4,4,7,7,8,8],"right_children":[2,-1,4,6,8,-1,-1,10,12,-1,-1,-1,-1],"split_conditions":[3.05E0,-4.1266136E-2,6.45E0,3.28E0,5.3E-2,-5.3587086E-3,-4.889264E-2,4.5E-2,3.33E0,1.1913952E-2,-4.2654462E-2,3.2959085E-2,-1.287762E-2],"split_indices":[6,0,0,6,4,0,0,4,6,0,0,0,0],"split_type":[0,0,0,0,0,0,0,0,0,0,0,0,0],"sum_hessian":[4.543882E2,5.8020237E1,3.9636798E2,1.0647139E2,2.898966E2,5.6043217E1,5.042817E1,1.439166E2,1.4598001E2,8.189814E1,6.2018456E1,9.1022095E1,5.4957912E1],"tree_param":{"num_deleted":"0","num_feature":"9","num_nodes":"13","size_leaf_vector":"1"}},{"base_weights":[3.5056185E-2,7.05969E-2,-1.4099308E-2,1.736555E-1,-1.6620833E-3,8.795169E-3,4.457875E-2,6.2398303E-2,-2.8944615E-2,2.1713097E-2,-1.0247257E-2],"categories":[],"categories_nodes":[],"categories_segments":[],"categories_sizes":[],"default_left":[0,0,0,0,0,0,0,0,0,0,0],"id":62,"left_children":[1,3,-1,5,7,-1,-1,9,-1,-1,-1],"loss_changes":[2.150483E0,2.733735E0,0E0,2.13238E0,2.6684275E0,0E0,0E0,1.7660915E0,0E0,0E0,0E0],"parents":[2147483647,0,0,1,1,3,3,4,4,7,7],"right_children":[2,4,-1,6,8,-1,-1,10,-1,-1,-1],"split_conditions":[4.5E-1,6.8E0,-1.4099308E-2,2.7E-1,1.07E1,8.795169E-3,4.457875E-2,5.5E-1,-2.8944615E-2,2.1713097E-2,-1.0247257E-2],"split_indices":[1,0,0,1,3,0,0,7,0,0,0],"split_type":[0,0,0,0,0,0,0,0,0,0,0],"sum_hessian":[4.6641684E2,3.6605774E2,1.003591E2,1.5029619E2,2.1576155E2,7.859408E1,7.170211E1,1.6214024E2,5.3621304E1,9.940372E1,6.273653E1],"tree_param":{"num_deleted":"0","num_feature":"9","num_nodes":"11","size_leaf_vector":"1"}},{"base_weights":[-3.0232074E-2,-4.677617E-2,2.2960767E-2,7.0069455E-2,-1.8100636E-2,-4.3258578E-2,2.5656533E-1,4.1806225E-2,-3.0691013E-2,7.0521645E-2,1.4740614E-3,2.4822924E-2,-1.3116989E-2],"categories":[],"categories_nodes":[],"categories_segments":[],"categories_sizes":[],"default_left":[0,0,0,0,0,0,0,0,0,0,0,0,0],"id":63,"left_children":[1,-1,3,5,-1,7,9,11,-1,-1,-1,-1,-1],"loss_changes":[6.90835E0,0E0,2.6367657E0,6.206622E0,0E0,2.5228806E0,5.8419695E0,1.9452986E0,0E0,0E0,0E0,0E0,0E0],"parents":[2147483647,0,0,2,2,3,3,5,5,6,6,7,7],"right_children":[2,-1,4,6,-1,8,10,12,-1,-1,-1,-1,-1],"split_conditions":[1.2E1,-4.677617E-2,4.1E-1,6.7E0,-1.8100636E-2,2.5E0,3.17E0,2.8E-1,-3.0691013E-2,7.0521645E-2,1.4740614E-3,2.4822924E-2,-1.3116989E-2],"split_indices":[5,0,2,3,0,3,6,2,0,0,0,0,0],"split_type":[0,0,0,0,0,0,0,0,0,0,0,0,0],"sum_hessian":[4.5970633E2,7.226493E1,3.8744138E2,2.921375E2,9.530386E1,1.8219255E2,1.0994498E2,1.19782555E2,6.2409996E1,5.8447144E1,5.1497833E1,6.1067616E1,5.871494E1],"tree_param":{"num_deleted":"0","num_feature":"9","num_nodes":"13","size_leaf_vector":"1"}}]},"name":"gbtree"},"learner_model_param":{"base_score":"6.2991476E-1","boost_from_average":"1","num_class":"0","num_feature":"9","num_target":"1"},"objective":{"name":"binary:logistic","reg_loss_param":{"scale_pos_weight":"1"}}},"version":[2,0,3]}