{"learner":{"attributes":{"best_iteration":"194","best_score":"-0.881752"},"feature_names":[],"feature_types":[],"gradient_booster":{"model":{"gbtree_model_param":{"num_parallel_tree":"1","num_trees":"245"},"iteration_indptr":[0,1,2,3,4,5,6,7,8,9,10,11,12,13,14,15,16,17,18,19,20,21,22,23,24,25,26,27,28,29,30,31,32,33,34,35,36,37,38,39,40,41,42,43,44,45,46,47,48,49,50,51,52,53,54,55,56,57,58,59,60,61,62,63,64,65,66,67,68,69,70,71,72,73,74,75,76,77,78,79,80,81,82,83,84,85,86,87,88,89,90,91,92,93,94,95,96,97,98,99,100,101,102,103,104,105,106,107,108,109,110,111,112,113,114,115,116,117,118,119,120,121,122,123,124,125,126,127,128,129,130,131,132,133,134,135,136,137,138,139,140,141,142,143,144,145,146,147,148,149,150,151,152,153,154,155,156,157,158,159,160,161,162,163,164,165,166,167,168,169,170,171,172,173,174,175,176,177,178,179,180,181,182,183,184,185,186,187,188,189,190,191,192,193,194,195,196,197,198,199,200,201,202,203,204,205,206,207,208,209,210,211,212,213,214,215,216,217,218,219,220,221,222,223,224,225,226,227,228,229,230,231,232,233,234,235,236,237,238,239,240,241,242,243,244,245],"tree_info":[0,0,0,0,0,0,0,0,0,0,0,0,0,0,0,0,0,0,0,0,0,0,0,0,0,0,0,0,0,0,0,0,0,0,0,0,0,0,0,0,0,0,0,0,0,0,0,0,0,0,0,0,0,0,0,0,0,0,0,0,0,0,0,0,0,0,0,0,0,0,0,0,0,0,0,0,0,0,0,0,0,0,0,0,0,0,0,0,0,0,0,0,0,0,0,0,0,0,0,0,0,0,0,0,0,0,0,0,0,0,0,0,0,0,0,0,0,0,0,0,0,0,0,0,0,0,0,0,0,0,0,0,0,0,0,0,0,0,0,0,0,0,0,0,0,0,0,0,0,0,0,0,0,0,0,0,0,0,0,0,0,0,0,0,0,0,0,0,0,0,0,0,0,0,0,0,0,0,0,0,0,0,0,0,0,0,0,0,0,0,0,0,0,0,0,0,0,0,0,0,0,0,0,0,0,0,0,0,0,0,0,0,0,0,0,0,0,0,0,0,0,0,0,0,0,0,0,0,0,0,0,0,0,0,0,0,0,0,0,0,0,0,0,0,0],"trees":[{"base_weights":[1.3062901E-2,-7.982907E-1,7.740673E-1,1.306801E-1,-1.2695391E0,4.6208093E-1,1.258124E0,3.6247438E-1,-3.3212662E-1,-1.4336969E0,-6.669307E-1,-4.275166E-1,6.267476E-1,1.330091E0,3.2401186E-1,-1.6278431E-1,5.8955616E-1,-5.1945376E-1,1.2085626E0,-1.4752434E0,5.5203795E-1,-4.6556202E-1,-1.7233788E0,-1.2384529E0,4.057785E-1,3.8102952E-1,9.216967E-1,7.7946013E-1,1.4007164E0,-1.3192038E-1,6.94802E-1,-8.8515943E-1,6.2387174E-1,8.124069E-1,6.163723E-2,-1.4990048E0,-2.7715406E-1,2.9452184E-2,9.803682E-2,-1.0761422E0,-1.6491592E0,-5.3385716E-2,9.258649E-2,-8.395796E-1,-1.5179615E-1,-3.981234E-2,-1.3522509E-1,-1.4872998E0,-2.5598347E-1,-5.457403E-1,5.885892E-1,9.0761286E-1,1.6497584E-1,9.7602516E-1,-1.0392756E0,-1.9352842E-2,1.4064187E0,1.4156182E0,-1.0292775E-3,9.961427E-2,1.2540969E0,-1.3753527E-1,-5.8429986E-1,-4.6728063E-2,1.1431999E0,5.362329E-1,1.1642119E0,-7.742702E-1,6.575872E-1,-1.7755777E0,2.9452184E-2,6.8820916E-2,-8.070862E-1,-1.5626921E-1,-8.350185E-1,-1.83885E0,-1.2731467E0,-1.4461063E0,-1.59312E-1,1.8183385E-1,-5.539292E-1,-1.6476732E0,3.816113E-2,2.4754417E-1,-1.0907687E-1,-1.1817141E-1,3.0045858E-1,8.524267E-1,-3.0318478E-1,5.928752E-1,1.3424212E0,2.3175006E-1,-1.1652735E0,-8.217676E-1,1.0191516E0,2.9452184E-2,-1.3192038E-1,-1.1303461E-1,4.3930122E-1,1.0999038E-1,2.9452184E-2,2.9452184E-2,1.4201417E0,-3.9108992E-1,8.0632515E-2,1.0100991E-1,2.9452184E-2,-9.854044E-2,-1.3342178E0,5.5203795E-1,-1.1023242E0,1.683024E-2,1.2898623E0,-1.6855538E-1,8.5711026E-1,1.2878249E0,2.0123816E-1,-1.5460294E0,6.176304E-1,-2.0832777E-1,1.0697285E0,-1.5901184E-1,-7.9117286E-1,4.646541E-1,-8.309404E-1,-3.4472857E-2,-1.2777587E0,-1.065767E0,-1.1010027E-1,-1.8621423E0,6.8946225E-3,3.2215733E-2,-1.3361927E0,1.2259265E-1,-1.9061664E0,-8.9579654E-1,7.123804E-1,-2.5385326E-1,6.589331E-1,-1.1670315E0,1.0404572E-1,-5.1800795E-3,-1.7388822E0,7.750538E-2,-4.1053092E-1,3.816113E-2,-5.1800795E-3,1.7900579E-1,1.268835E0,-8.956534E-1,5.132716E-2,7.895027E-1,-4.500339E-1,5.1157165E-1,1.1135913E-1,-1.0750498E-1,4.5495707E-1,-1.19306415E-1,-3.8999134E-1,-5.1800795E-3,-8.69049E-2,-1.6625144E-2,1.050897E0,-5.4307014E-1,9.3783474E-1,8.389847E-1,1.4326185E0,6.408445E-2,-8.3493066E-1,-6.651029E-2,5.0686326E-2,6.8946225E-3,-1.316001E-1,-2.7207498E-2,7.590808E-2,-2.4371887E-2,-1.0907687E-1,1.032464E-1,2.9452184E-2,1.3099972E-2,-1.1817141E-1,8.706653E-2,-7.915637E-5,1.0553131E-1,8.007341E-3,-5.5638395E-2,7.3824264E-2,-1.4037618E-1,-2.7207498E-2,-1.1666771E-2,8.0632515E-2,-9.679215E-2,6.461788E-2,9.041676E-2,6.8946225E-3,-1.0574215E-1,2.9452184E-2,5.229578E-2,-3.2959666E-2,-1.0840158E-1,2.8460221E-2,5.0686326E-2,-1.2565482E-1,-1.3039179E-1,-3.5148452E-3,-1.23970695E-1,-5.9415452E-2,-8.24465E-2,2.1992356E-2,-1.4329119E-1,-8.596125E-2,-7.053889E-2,-1.1759427E-1,-7.444461E-2,6.0807705E-2,-1.6302569E-1,6.8946225E-3,-1.10074274E-1,3.1872483E-3,9.507383E-2,-1.954909E-2,6.408445E-2,-3.4285624E-2,-2.9249351E-2,7.6021686E-2,-1.1805563E-1,8.007341E-3,4.6705816E-2,-7.427788E-2,-1.3643901E-1,-4.0163785E-2,-9.7157806E-2,6.408445E-2,-2.7190978E-2,6.796025E-2,2.9452184E-2,9.983382E-2,-1.0574215E-1,6.8946225E-3,6.804295E-2,-4.0163785E-2,5.6424122E-2,-1.1303461E-1,8.0632515E-2,-3.981234E-2,-1.0433192E-1,1.5592151E-2,7.032438E-2,1.5426477E-2,-7.444461E-2,2.9452184E-2,-6.4617835E-2,7.3824264E-2,9.419077E-2,6.192031E-2,3.816113E-2,-9.7157806E-2,8.614683E-2,-5.1800795E-3,9.113882E-2,-1.0292775E-3,8.586446E-2,1.1056998E-1,-1.954909E-2,-9.7157806E-2],"categories":[],"categories_nodes":[],"categories_segments":[],"categories_sizes":[],"default_left":[0,0,0,0,0,0,0,0,0,0,0,0,0,0,0,0,0,0,0,0,0,0,0,0,0,0,0,0,0,0,0,0,0,0,0,0,0,0,0,0,0,0,0,0,0,0,0,0,0,0,0,0,0,0,0,0,0,0,0,0,0,0,0,0,0,0,0,0,0,0,0,0,0,0,0,0,0,0,0,0,0,0,0,0,0,0,0,0,0,0,0,0,0,0,0,0,0,0,0,0,0,0,0,0,0,0,0,0,0,0,0,0,0,0,0,0,0,0,0,0,0,0,0,0,0,0,0,0,0,0,0,0,0,0,0,0,0,0,0,0,0,0,0,0,0,0,0,0,0,0,0,0,0,0,0,0,0,0,0,0,0,0,0,0,0,0,0,0,0,0,0,0,0,0,0,0,0,0,0,0,0,0,0,0,0,0,0,0,0,0,0,0,0,0,0,0,0,0,0,0,0,0,0,0,0,0,0,0,0,0,0,0,0,0,0,0,0,0,0,0,0,0,0,0,0,0,0,0,0,0,0,0,0,0,0,0,0,0,0,0,0,0,0,0,0,0,0,0,0,0,0,0,0,0,0,0,0,0,0,0,0,0,0,0,0],"id":0,"left_children":[1,3,5,7,9,11,13,15,17,19,21,23,25,27,29,31,33,35,37,39,41,43,45,47,49,51,53,55,57,-1,59,61,63,65,67,69,71,-1,-1,73,75,-1,-1,77,79,-1,-1,81,83,85,87,89,91,93,95,97,99,101,-1,103,105,-1,107,109,111,113,115,117,119,121,-1,123,125,-1,127,129,131,133,135,137,139,141,-1,143,-1,-1,145,147,149,151,153,155,157,159,161,-1,-1,-1,163,-1,-1,-1,165,167,-1,-1,-1,169,171,173,175,-1,177,179,181,183,185,187,189,191,193,-1,195,197,199,201,203,205,207,209,-1,-1,211,213,215,217,219,221,223,225,227,-1,229,-1,231,-1,-1,233,235,237,-1,239,241,243,-1,245,247,-1,249,-1,-1,251,253,255,257,259,261,-1,263,-1,-1,-1,-1,-1,-1,-1,-1,-1,-1,-1,-1,-1,-1,-1,-1,-1,-1,-1,-1,-1,-1,-1,-1,-1,-1,-1,-1,-1,-1,-1,-1,-1,-1,-1,-1,-1,-1,-1,-1,-1,-1,-1,-1,-1,-1,-1,-1,-1,-1,-1,-1,-1,-1,-1,-1,-1,-1,-1,-1,-1,-1,-1,-1,-1,-1,-1,-1,-1,-1,-1,-1,-1,-1,-1,-1,-1,-1,-1,-1,-1,-1,-1,-1,-1,-1,-1,-1,-1,-1,-1,-1,-1,-1,-1,-1],"loss_changes":[6.745857E2,2.3165683E2,8.455673E1,1.9309074E1,3.3757507E1,5.0716476E1,1.4383331E1,1.4368522E1,1.8006054E1,2.349524E1,1.5577835E1,3.7253143E1,2.073912E1,6.8524475E0,1.4417828E1,2.1521507E1,9.803856E0,1.2492545E1,3.5935402E-2,1.693518E1,6.365849E0,7.622739E0,1.7824936E-1,6.4181557E0,5.1179905E0,1.8105335E1,1.5029076E1,1.2787092E1,3.8092651E0,0E0,4.941741E0,4.536723E0,6.4095516E0,5.090069E0,1.3433422E1,6.221136E0,8.274265E0,0E0,0E0,1.8833214E1,1.0916016E1,0E0,0E0,1.2109318E1,5.0827475E0,0E0,0E0,7.874996E0,4.4801664E0,4.7986403E0,5.8141546E0,5.562027E0,1.0484793E1,1.0801811E1,4.844395E0,8.980131E0,2.9487228E-1,2.6568604E-1,0E0,4.4700074E0,9.082508E-2,0E0,5.8376355E0,6.250346E0,1.1018591E0,8.015125E0,2.7181244E0,1.3047682E1,5.821112E0,1.5085506E0,0E0,1.0373471E1,6.423354E0,0E0,1.15925255E1,5.6259155E0,7.613266E0,1.1554707E1,1.0409493E1,4.542541E0,7.0137877E0,2.8433914E0,0E0,3.3526077E0,0E0,0E0,3.09573E-1,4.9561625E0,4.198789E0,6.249175E0,1.4544106E0,8.403875E0,1.2474685E0,8.240042E-1,4.158966E0,0E0,0E0,0E0,5.451701E0,0E0,0E0,0E0,7.98645E-2,4.230385E0,0E0,0E0,0E0,7.328501E0,3.9759932E0,3.0446782E0,5.0280905E-1,0E0,1.3602829E-1,5.936949E0,6.2784195E0,2.9458427E0,3.7068644E0,2.2215824E0,1.8402704E0,7.9382787E0,1.3223753E0,0E0,3.50601E0,4.537192E0,7.1867833E0,1.0177433E1,6.1714153E0,7.201626E0,7.510958E0,1.9655151E0,0E0,0E0,4.3455276E0,4.2558413E0,6.715412E0,4.7268143E0,4.3974676E0,3.032023E0,4.2365985E0,4.79618E0,5.8162184E0,0E0,9.0213776E-1,0E0,5.357774E0,0E0,0E0,3.5680544E0,9.157181E-2,2.2949598E0,0E0,4.3149967E0,7.738229E0,3.075301E0,0E0,1.8342743E1,7.8375664E0,0E0,1.960958E0,0E0,0E0,4.8484116E0,4.607498E0,3.8489614E0,1.5780296E0,1.9826899E0,3.6920166E-1,0E0,1.0365145E0,0E0,0E0,0E0,0E0,0E0,0E0,0E0,0E0,0E0,0E0,0E0,0E0,0E0,0E0,0E0,0E0,0E0,0E0,0E0,0E0,0E0,0E0,0E0,0E0,0E0,0E0,0E0,0E0,0E0,0E0,0E0,0E0,0E0,0E0,0E0,0E0,0E0,0E0,0E0,0E0,0E0,0E0,0E0,0E0,0E0,0E0,0E0,0E0,0E0,0E0,0E0,0E0,0E0,0E0,0E0,0E0,0E0,0E0,0E0,0E0,0E0,0E0,0E0,0E0,0E0,0E0,0E0,0E0,0E0,0E0,0E0,0E0,0E0,0E0,0E0,0E0,0E0,0E0,0E0,0E0,0E0,0E0,0E0,0E0,0E0,0E0,0E0,0E0,0E0,0E0,0E0,0E0,0E0,0E0,0E0,0E0],"parents":[2147483647,0,0,1,1,2,2,3,3,4,4,5,5,6,6,7,7,8,8,9,9,10,10,11,11,12,12,13,13,14,14,15,15,16,16,17,17,18,18,19,19,20,20,21,21,22,22,23,23,24,24,25,25,26,26,27,27,28,28,30,30,31,31,32,32,33,33,34,34,35,35,36,36,39,39,40,40,43,43,44,44,47,47,48,48,49,49,50,50,51,51,52,52,53,53,54,54,55,55,56,56,57,57,59,59,60,60,62,62,63,63,64,64,65,65,66,66,67,67,68,68,69,69,71,71,72,72,74,74,75,75,76,76,77,77,78,78,79,79,80,80,81,81,83,83,86,86,87,87,88,88,89,89,90,90,91,91,92,92,93,93,94,94,98,98,102,102,103,103,107,107,108,108,109,109,110,110,112,112,113,113,114,114,115,115,116,116,117,117,118,118,119,119,120,120,122,122,123,123,124,124,125,125,126,126,127,127,128,128,129,129,132,132,133,133,134,134,135,135,136,136,137,137,138,138,139,139,140,140,142,142,144,144,147,147,148,148,149,149,151,151,152,152,153,153,155,155,156,156,158,158,161,161,162,162,163,163,164,164,165,165,166,166,168,168],"right_children":[2,4,6,8,10,12,14,16,18,20,22,24,26,28,30,32,34,36,38,40,42,44,46,48,50,52,54,56,58,-1,60,62,64,66,68,70,72,-1,-1,74,76,-1,-1,78,80,-1,-1,82,84,86,88,90,92,94,96,98,100,102,-1,104,106,-1,108,110,112,114,116,118,120,122,-1,124,126,-1,128,130,132,134,136,138,140,142,-1,144,-1,-1,146,148,150,152,154,156,158,160,162,-1,-1,-1,164,-1,-1,-1,166,168,-1,-1,-1,170,172,174,176,-1,178,180,182,184,186,188,190,192,194,-1,196,198,200,202,204,206,208,210,-1,-1,212,214,216,218,220,222,224,226,228,-1,230,-1,232,-1,-1,234,236,238,-1,240,242,244,-1,246,248,-1,250,-1,-1,252,254,256,258,260,262,-1,264,-1,-1,-1,-1,-1,-1,-1,-1,-1,-1,-1,-1,-1,-1,-1,-1,-1,-1,-1,-1,-1,-1,-1,-1,-1,-1,-1,-1,-1,-1,-1,-1,-1,-1,-1,-1,-1,-1,-1,-1,-1,-1,-1,-1,-1,-1,-1,-1,-1,-1,-1,-1,-1,-1,-1,-1,-1,-1,-1,-1,-1,-1,-1,-1,-1,-1,-1,-1,-1,-1,-1,-1,-1,-1,-1,-1,-1,-1,-1,-1,-1,-1,-1,-1,-1,-1,-1,-1,-1,-1,-1,-1,-1,-1,-1,-1],"split_conditions":[1.03E1,2.55E-1,1.155E1,2.3E-1,9.9E0,1.2E1,5.4E-1,3.2E0,1.0033334E1,1.09E1,6.75E-1,5.9E-1,1.0933333E1,1.1E1,3.8E-1,2.8E1,2.05E-1,4.2E-1,1.8E0,4.9E-2,6.2E-1,5.3E-1,6.45E0,3.2E0,3.14E0,2.1E-1,7.25E-1,5.7E-2,9.6E-2,-1.3192038E-1,6.1E-1,4.1E-1,4.6E-1,1.2E1,2.2E-1,6.3E-2,5.1E-2,2.9452184E-2,9.803682E-2,2.1E-1,5.8E-1,-5.3385716E-2,9.258649E-2,3E1,2.35E1,-3.981234E-2,-1.3522509E-1,1.1433333E1,3.36E0,1.7E0,9E-2,5.3E-1,5.7E1,1E0,1.55E1,1.1733334E1,6.6E-1,1.6E-2,-1.0292775E-3,2.9E1,3.57E0,-1.3753527E-1,1.7E0,1.7E0,6.4E0,9.5E0,7.5E0,9.533334E0,4.3E-1,2.45E-1,2.9452184E-2,5.4E1,3.1E0,-1.5626921E-1,3.22E0,1.95E1,2.65E-1,4.1E-2,2.8E-1,8.3E0,6.35E0,5.4E0,3.816113E-2,4.2E-1,-1.0907687E-1,-1.1817141E-1,1.2E1,1.075E1,7.2E-1,5E-1,2.3E1,5E-1,3.23E0,3.9E-1,1E-1,2.9452184E-2,-1.3192038E-1,-1.1303461E-1,6.8E0,1.0999038E-1,2.9452184E-2,2.9452184E-2,1.4E-1,4.7E-1,8.0632515E-2,1.0100991E-1,2.9452184E-2,9.95E0,9.533334E0,3.09E0,4.2E-2,1.683024E-2,4.1E-1,6.05E1,5.2E-2,3.35E0,3.1E0,1.6E1,6.5E0,4.45E1,8E0,-1.5901184E-1,1.33E1,4.2E-1,6.8E0,9.5E0,3.24E0,3.7E1,6.3E0,9.733334E0,6.8946225E-3,3.2215733E-2,1.5E1,3.5E-1,3.37E0,6.35E0,3.2E0,3.9E-2,3.06E0,1.0133333E1,1.0133333E1,-5.1800795E-3,1.03E-1,7.750538E-2,8.1E-2,3.816113E-2,-5.1800795E-3,9E0,4.9E-2,1.06E-1,5.132716E-2,3.6E0,6.9E0,6.7E0,1.1135913E-1,2E1,4.5E-2,-1.19306415E-1,2.3E-1,-5.1800795E-3,-8.69049E-2,6.8E-1,6.9E0,3.23E0,8.5E0,9E-2,1.5E0,6.408445E-2,2.4E0,-6.651029E-2,5.0686326E-2,6.8946225E-3,-1.316001E-1,-2.7207498E-2,7.590808E-2,-2.4371887E-2,-1.0907687E-1,1.032464E-1,2.9452184E-2,1.3099972E-2,-1.1817141E-1,8.706653E-2,-7.915637E-5,1.0553131E-1,8.007341E-3,-5.5638395E-2,7.3824264E-2,-1.4037618E-1,-2.7207498E-2,-1.1666771E-2,8.0632515E-2,-9.679215E-2,6.461788E-2,9.041676E-2,6.8946225E-3,-1.0574215E-1,2.9452184E-2,5.229578E-2,-3.2959666E-2,-1.0840158E-1,2.8460221E-2,5.0686326E-2,-1.2565482E-1,-1.3039179E-1,-3.5148452E-3,-1.23970695E-1,-5.9415452E-2,-8.24465E-2,2.1992356E-2,-1.4329119E-1,-8.596125E-2,-7.053889E-2,-1.1759427E-1,-7.444461E-2,6.0807705E-2,-1.6302569E-1,6.8946225E-3,-1.10074274E-1,3.1872483E-3,9.507383E-2,-1.954909E-2,6.408445E-2,-3.4285624E-2,-2.9249351E-2,7.6021686E-2,-1.1805563E-1,8.007341E-3,4.6705816E-2,-7.427788E-2,-1.3643901E-1,-4.0163785E-2,-9.7157806E-2,6.408445E-2,-2.7190978E-2,6.796025E-2,2.9452184E-2,9.983382E-2,-1.0574215E-1,6.8946225E-3,6.804295E-2,-4.0163785E-2,5.6424122E-2,-1.1303461E-1,8.0632515E-2,-3.981234E-2,-1.0433192E-1,1.5592151E-2,7.032438E-2,1.5426477E-2,-7.444461E-2,2.9452184E-2,-6.4617835E-2,7.3824264E-2,9.419077E-2,6.192031E-2,3.816113E-2,-9.7157806E-2,8.614683E-2,-5.1800795E-3,9.113882E-2,-1.0292775E-3,8.586446E-2,1.1056998E-1,-1.954909E-2,-9.7157806E-2],"split_indices":[8,1,8,1,8,5,1,3,8,0,1,7,8,5,7,5,1,7,3,4,7,7,0,3,6,1,1,4,4,0,7,7,7,3,1,4,4,0,0,2,7,0,0,5,5,0,0,8,6,3,4,7,5,3,5,8,2,4,0,5,6,0,3,3,0,8,0,8,7,1,0,5,6,0,6,3,1,4,2,0,3,0,0,7,0,0,0,8,7,7,5,7,6,7,2,0,0,0,0,0,0,0,2,7,0,0,0,8,8,6,4,0,2,5,4,6,6,3,3,5,0,0,3,2,0,8,6,5,0,8,0,0,5,7,6,3,6,4,6,8,8,0,4,0,4,0,0,0,4,4,0,6,0,0,0,5,4,0,2,0,0,7,0,6,0,2,3,0,3,0,0,0,0,0,0,0,0,0,0,0,0,0,0,0,0,0,0,0,0,0,0,0,0,0,0,0,0,0,0,0,0,0,0,0,0,0,0,0,0,0,0,0,0,0,0,0,0,0,0,0,0,0,0,0,0,0,0,0,0,0,0,0,0,0,0,0,0,0,0,0,0,0,0,0,0,0,0,0,0,0,0,0,0,0,0,0,0,0,0,0,0,0,0,0,0],"split_type":[0,0,0,0,0,0,0,0,0,0,0,0,0,0,0,0,0,0,0,0,0,0,0,0,0,0,0,0,0,0,0,0,0,0,0,0,0,0,0,0,0,0,0,0,0,0,0,0,0,0,0,0,0,0,0,0,0,0,0,0,0,0,0,0,0,0,0,0,0,0,0,0,0,0,0,0,0,0,0,0,0,0,0,0,0,0,0,0,0,0,0,0,0,0,0,0,0,0,0,0,0,0,0,0,0,0,0,0,0,0,0,0,0,0,0,0,0,0,0,0,0,0,0,0,0,0,0,0,0,0,0,0,0,0,0,0,0,0,0,0,0,0,0,0,0,0,0,0,0,0,0,0,0,0,0,0,0,0,0,0,0,0,0,0,0,0,0,0,0,0,0,0,0,0,0,0,0,0,0,0,0,0,0,0,0,0,0,0,0,0,0,0,0,0,0,0,0,0,0,0,0,0,0,0,0,0,0,0,0,0,0,0,0,0,0,0,0,0,0,0,0,0,0,0,0,0,0,0,0,0,0,0,0,0,0,0,0,0,0,0,0,0,0,0,0,0,0,0,0,0,0,0,0,0,0,0,0,0,0,0,0,0,0,0,0],"sum_hessian":[1.0905454E3,5.277886E2,5.627569E2,1.7787221E2,3.4991635E2,3.4338895E2,2.1936795E2,1.1865918E2,5.9213028E1,2.7391852E2,7.5997826E1,5.338497E1,2.9000397E2,2.0328252E2,1.6085428E1,3.590081E1,8.275836E1,5.338497E1,5.828054E0,2.6855673E2,5.3618097E0,6.5041084E1,1.0956741E1,2.6809048E1,2.6575926E1,1.5945555E2,1.305484E2,2.4477827E1,1.7880469E2,1.8649772E0,1.4220451E1,1.8649773E1,1.725104E1,5.7814293E1,2.494407E1,9.558008E0,4.3826965E1,1.1656108E0,4.662443E0,8.369086E1,1.8486588E2,1.8649772E0,3.4968324E0,2.8907146E1,3.6133934E1,1.1656108E0,9.79113E0,2.0980993E1,5.828054E0,3.9630766E0,2.2612848E1,4.545882E1,1.13996735E2,1.2751782E2,3.030588E0,1.1189863E1,1.3287963E1,1.7693971E2,1.8649772E0,7.459909E0,6.7605424E0,3.2637103E0,1.5386063E1,7.926153E0,9.324886E0,3.380271E1,2.4011581E1,1.0257375E1,1.4686696E1,8.392398E0,1.1656108E0,2.704217E1,1.6784796E1,1.4686696E1,6.900416E1,1.2029103E2,6.457484E1,1.4686696E1,1.4220451E1,2.0048506E1,1.6085428E1,1.958226E1,1.3987329E0,4.662443E0,1.1656108E0,1.3987329E0,2.5643437E0,1.7484161E1,5.1286874E0,2.7741537E1,1.7717283E1,1.0933429E2,4.662443E0,2.5643437E0,1.24953476E2,1.1656108E0,1.8649772E0,2.0980995E0,9.091764E0,1.2122352E1,1.1656108E0,1.1656108E0,1.7577411E2,5.3618097E0,2.0980995E0,5.5949316E0,1.1656108E0,1.0024253E1,5.3618097E0,5.3618097E0,2.5643437E0,1.6318551E0,7.6930313E0,1.0723619E1,2.3079094E1,2.0980993E1,3.030588E0,6.5274205E0,3.7299545E0,4.895565E0,9.79113E0,5.3618097E0,3.030588E0,1.9116016E1,7.926153E0,6.7605424E0,1.0024253E1,5.198624E1,1.7017918E1,1.18892296E2,1.3987329E0,2.0980995E0,6.2476738E1,3.4968324E0,1.1189863E1,7.6930313E0,6.5274205E0,1.0723619E1,9.324886E0,7.926153E0,8.159275E0,1.1656108E0,1.841665E1,1.8649772E0,2.7974658E0,1.3987329E0,1.1656108E0,7.2267866E0,1.0257375E1,3.2637103E0,1.8649772E0,2.3545338E1,4.196199E0,3.2637103E0,1.4453573E1,4.359384E1,6.574045E1,2.3312216E0,2.3312216E0,1.1656108E0,1.3987329E0,3.7299545E0,1.2122352E2,3.030588E0,6.061176E0,5.1286874E0,1.7064542E2,1.1656108E0,4.196199E0,4.895565E0,5.1286874E0,1.3987329E0,3.9630766E0,1.8649772E0,3.4968324E0,1.3987329E0,1.1656108E0,6.5274205E0,1.1656108E0,9.324886E0,1.3987329E0,1.6784796E1,6.294298E0,1.8882895E1,2.0980995E0,1.3987329E0,1.6318551E0,4.662443E0,1.8649772E0,1.6318551E0,2.0980995E0,2.3312216E0,2.5643437E0,8.392398E0,1.3987329E0,1.8649772E0,1.1656108E0,1.5386063E1,3.7299545E0,5.1286874E0,2.7974658E0,5.1286874E0,1.6318551E0,6.9936647E0,3.030588E0,1.4919818E1,3.706642E1,4.429321E0,1.2588596E1,1.0980054E2,9.091764E0,2.494407E1,3.7532665E1,1.1656108E0,2.3312216E0,9.79113E0,1.3987329E0,4.429321E0,3.2637103E0,3.9630766E0,2.5643437E0,1.1656108E0,9.558008E0,2.3312216E0,6.9936647E0,5.828054E0,2.0980995E0,5.828054E0,2.3312216E0,1.6784796E1,1.6318551E0,1.6318551E0,1.1656108E0,4.429321E0,2.7974658E0,1.1656108E0,9.091764E0,1.8649772E0,1.3987329E0,2.1913483E1,1.6318551E0,2.0980995E0,2.0980995E0,2.0980995E0,1.1656108E0,7.926153E0,3.566769E1,2.1447239E1,4.429321E1,1.1656108E0,1.1656108E0,2.0980995E0,1.6318551E0,6.1078003E1,6.0145515E1,1.3987329E0,1.6318551E0,4.895565E0,1.1656108E0,3.2637103E0,1.8649772E0,2.5177193E1,1.4546823E2,2.5643437E0,1.6318551E0],"tree_param":{"num_deleted":"0","num_feature":"9","num_nodes":"265","size_leaf_vector":"1"}},{"base_weights":[1.1905038E-2,-7.063008E-1,7.5663817E-1,2.9310784E-1,-1.0661991E0,4.594064E-1,1.1982536E0,-2.1545836E-1,4.4755965E-1,-1.2415982E0,-4.958908E-1,-3.6069623E-1,6.157697E-1,1.2685255E0,3.0446458E-1,-6.737765E-1,3.894788E-1,5.441595E-1,-6.7400366E-1,-7.85344E-1,-1.4059453E0,1.3230655E-1,-7.706666E-1,-1.0930622E0,4.4820258E-1,7.238868E-1,4.1160523E-3,7.3619974E-1,1.3376616E0,-1.2292568E-1,6.61877E-1,-8.486132E-1,5.1572144E-2,1.0383171E0,-8.651171E-1,3.148311E-1,8.68714E-1,-1.0417552E0,3.1576797E-2,-8.442017E-1,7.903957E-2,-1.4451218E0,4.0066668E-1,7.391021E-1,-4.1943714E-1,-1.055121E0,-2.3359035E-1,-1.7349055E0,-7.252923E-1,6.9750994E-1,-4.4845694E-1,4.3630034E-1,9.5627403E-1,-1.0849045E-1,1.4636244E-1,-1.5711707E-1,1.2529484E0,1.3523245E0,-9.788517E-4,1.6473109E-1,9.734883E-2,-1.0415423E0,3.3131454E-2,1.0271249E-1,-1.8148396E-2,2.6854557E-1,-1.3439186E-1,-3.664743E-1,4.914766E-1,3.6132538E-1,1.1138349E0,3.7421726E-2,-1.4838352E0,-2.777534E-1,-9.8365194E-1,-1.584083E0,-1.1270096E0,-6.562065E-2,8.653047E-2,-3.447966E-2,1.2754635E0,-1.2726505E0,1.06820844E-1,-1.2024544E0,1.1394278E-1,1.16795816E-1,-1.414932E0,-1.6123143E-1,-3.5359803E-1,-1.1552659E0,8.888437E-2,-2.5942573E-1,9.620681E-1,-1.0727395E0,4.928277E-2,1.7440973E-1,7.837463E-1,-6.395706E-1,9.97985E-1,-6.5613866E-2,9.840677E-1,-1.241664E-1,3.9757594E-1,1.3633882E0,-6.8258625E-3,1.1705555E0,1.06337056E-1,-4.3741065E-1,8.2988405E-1,-1.7263117E0,-5.1156974E-1,-4.1897375E-2,6.7769535E-2,-1.1640741E0,3.0066114E-2,9.8299694E-1,-7.381789E-2,1.061853E0,-2.2054113E-1,1.2575134E0,-1.5768893E-1,-1.4681704E-1,-1.0676083E-2,3.1431094E-1,-9.878546E-1,-1.1718682E0,-3.1441242E-1,-1.4349252E0,-2.010876E0,-5.6813234E-1,-1.355936E0,-6.8717115E-2,3.005315E-1,2.9345924E-2,1.0188728E-1,-1.7191182E0,2.9828694E-2,-6.754301E-1,3.8871726E-1,-1.3984814E0,-7.083346E-1,6.564774E-2,-6.31419E-2,-6.8650764E-1,4.5737624E-1,-1.3542211E-1,-6.0735834E-1,6.486565E-2,-1.0509433E-1,-1.9526833E-1,-1.2132681E-1,-6.937244E-1,7.1388304E-2,-8.575838E-2,5.433667E-2,3.8428617E-1,1.2123826E0,-1.0748575E-1,-4.331515E-3,-5.286141E-1,4.9704635E-1,1.5166324E-1,1.0761315E0,-7.2461955E-2,-9.71944E-3,1.2308351E0,7.367699E-1,5.712466E-1,-6.226598E-1,9.924997E-2,-3.9223056E-2,9.6033937E-1,-6.116456E-2,1.0642387E-1,2.8387422E-2,4.4815138E-1,1.2709486E0,3.694843E-1,-1.0045218E-1,2.3346534E-2,7.80663E-2,-3.7389856E-2,-1.4234585E-1,4.862169E-3,-9.255295E-2,-1.15156904E-1,-3.776404E-2,-3.6186192E-2,8.360789E-2,8.7154076E-2,-3.9113224E-2,3.7940525E-2,-3.247281E-2,-5.9500244E-3,9.704395E-2,-6.0134158E-2,6.443757E-2,1.0647001E-1,4.446054E-2,7.112235E-2,-1.0491934E-1,-1.1027969E-1,7.7346355E-2,2.4458643E-2,-1.22967415E-1,-9.146532E-2,3.3476062E-2,1.4863968E-2,-8.166884E-2,-1.1123418E-1,-4.6115477E-2,-4.988378E-2,-1.586522E-1,-6.818002E-2,3.9181743E-2,-7.979594E-2,-1.355501E-1,-3.9525345E-2,5.5691663E-2,-3.8809992E-2,-1.4525859E-1,-3.787588E-3,-7.428255E-2,-1.3589234E-3,8.130318E-2,-6.0082402E-2,-1.4594582E-1,-1.1722829E-1,1.870979E-2,-9.870549E-2,6.875091E-2,5.5423744E-2,-6.197735E-2,-4.5727982E-4,-6.999694E-2,-5.6369517E-2,3.2680254E-2,-1.1216965E-1,1.1316583E-2,-1.3887276E-2,4.6314772E-2,9.545521E-2,2.8580846E-2,-5.918741E-2,5.1267624E-2,8.043091E-2,7.3944503E-3,-5.053989E-2,3.555793E-2,9.5292665E-2,-3.043557E-2,1.008242E-1,5.9394967E-2,-2.3142776E-2,5.9056886E-2,-6.2537948E-3,7.959377E-2,5.5116877E-2,-6.399942E-2,9.000092E-2,1.3666517E-2,8.138058E-5,8.018091E-2,1.778243E-2,9.948821E-2,-3.9681427E-2,7.2874926E-2],"categories":[],"categories_nodes":[],"categories_segments":[],"categories_sizes":[],"default_left":[0,0,0,0,0,0,0,0,0,0,0,0,0,0,0,0,0,0,0,0,0,0,0,0,0,0,0,0,0,0,0,0,0,0,0,0,0,0,0,0,0,0,0,0,0,0,0,0,0,0,0,0,0,0,0,0,0,0,0,0,0,0,0,0,0,0,0,0,0,0,0,0,0,0,0,0,0,0,0,0,0,0,0,0,0,0,0,0,0,0,0,0,0,0,0,0,0,0,0,0,0,0,0,0,0,0,0,0,0,0,0,0,0,0,0,0,0,0,0,0,0,0,0,0,0,0,0,0,0,0,0,0,0,0,0,0,0,0,0,0,0,0,0,0,0,0,0,0,0,0,0,0,0,0,0,0,0,0,0,0,0,0,0,0,0,0,0,0,0,0,0,0,0,0,0,0,0,0,0,0,0,0,0,0,0,0,0,0,0,0,0,0,0,0,0,0,0,0,0,0,0,0,0,0,0,0,0,0,0,0,0,0,0,0,0,0,0,0,0,0,0,0,0,0,0,0,0,0,0,0,0,0,0,0,0,0,0,0,0,0,0,0,0,0,0,0,0,0,0,0,0,0,0,0,0,0,0,0,0,0,0,0,0,0,0,0,0],"id":1,"left_children":[1,3,5,7,9,11,13,15,17,19,21,23,25,27,29,31,33,35,37,39,41,43,45,47,49,51,53,55,57,-1,59,61,-1,63,65,67,69,71,-1,73,-1,75,77,79,81,83,85,87,89,91,93,95,97,-1,99,101,103,105,-1,107,-1,109,-1,-1,-1,111,-1,113,115,117,119,-1,121,123,125,127,129,-1,-1,131,133,135,137,139,141,143,145,-1,147,149,151,153,155,157,-1,159,161,163,165,167,169,-1,171,173,-1,175,-1,177,179,181,183,-1,-1,185,187,189,191,193,195,197,199,-1,-1,201,203,205,207,209,211,213,215,-1,217,-1,-1,219,-1,221,223,225,227,-1,-1,229,231,-1,233,-1,-1,235,-1,237,-1,-1,-1,239,241,-1,-1,243,245,247,249,-1,-1,251,253,255,257,-1,-1,259,-1,-1,-1,261,263,265,-1,-1,-1,-1,-1,-1,-1,-1,-1,-1,-1,-1,-1,-1,-1,-1,-1,-1,-1,-1,-1,-1,-1,-1,-1,-1,-1,-1,-1,-1,-1,-1,-1,-1,-1,-1,-1,-1,-1,-1,-1,-1,-1,-1,-1,-1,-1,-1,-1,-1,-1,-1,-1,-1,-1,-1,-1,-1,-1,-1,-1,-1,-1,-1,-1,-1,-1,-1,-1,-1,-1,-1,-1,-1,-1,-1,-1,-1,-1,-1,-1,-1,-1,-1,-1,-1,-1,-1,-1],"loss_changes":[5.8292645E2,1.9987006E2,6.967905E1,1.1696505E1,4.021042E1,4.1438507E1,1.3093536E1,9.987753E0,1.2674742E1,2.2251068E1,1.6959816E1,3.1354172E1,1.7873093E1,6.3264465E0,1.2865323E1,5.421006E0,1.3722376E1,7.552532E0,4.246238E0,1.0063797E1,1.669635E1,1.054547E1,1.0155918E1,5.2647285E0,6.005441E0,1.4934364E1,8.797973E0,1.1764647E1,3.4756165E0,0E0,4.541609E0,5.0552416E0,0E0,4.926923E0,6.6964636E0,7.7838573E0,4.94133E0,5.7574887E0,0E0,6.2574463E0,0E0,8.077118E0,6.404588E0,6.235324E0,7.612179E0,7.75523E0,1.0455664E1,4.596443E0,6.854309E0,5.3930664E0,4.948637E0,9.372023E0,9.039139E0,0E0,6.9548492E0,9.029779E0,2.496996E0,3.9700317E-1,0E0,4.2023754E0,0E0,5.0522995E0,0E0,0E0,0E0,2.3593326E0,0E0,4.330477E0,1.413176E1,6.542381E0,5.4032364E0,0E0,3.5186539E0,7.762981E0,7.9386826E0,6.842346E0,8.351219E0,0E0,0E0,2.367781E0,1.1733341E-1,5.478589E0,2.736937E0,2.8224258E0,5.004133E0,5.812418E0,7.217016E-1,0E0,5.4958386E0,5.31863E0,5.788873E0,5.340867E0,1.8667593E0,1.4936934E0,0E0,1.4069874E1,8.084446E0,5.117096E-1,6.5977707E0,1.1673967E1,4.7304134E0,0E0,6.3520365E0,2.7526855E-1,0E0,3.164795E0,0E0,4.633173E0,2.1214914E-1,4.6871376E-1,4.511152E0,0E0,0E0,3.393364E-1,6.123135E0,7.9161644E0,5.3123126E0,2.0078268E0,6.514044E0,1.9283752E0,6.5172086E0,0E0,0E0,1.4856169E1,7.6430664E0,4.486664E0,6.505639E0,3.7015991E0,3.8074036E0,8.817764E0,4.6483536E0,0E0,2.544441E0,0E0,0E0,3.7389755E-1,0E0,6.070386E-1,2.5325618E0,7.323063E0,1.1202286E1,0E0,0E0,7.6494946E0,5.9298306E0,0E0,6.578572E-1,0E0,0E0,2.1752346E0,0E0,3.3145137E0,0E0,0E0,0E0,9.563513E-1,5.631447E-2,0E0,0E0,6.740218E0,9.577932E0,4.3864007E0,9.260448E0,0E0,0E0,2.1103592E0,3.4540138E0,5.0306497E0,6.1060853E0,0E0,0E0,9.061661E-1,0E0,0E0,0E0,2.171678E0,2.2510452E0,2.5621815E0,0E0,0E0,0E0,0E0,0E0,0E0,0E0,0E0,0E0,0E0,0E0,0E0,0E0,0E0,0E0,0E0,0E0,0E0,0E0,0E0,0E0,0E0,0E0,0E0,0E0,0E0,0E0,0E0,0E0,0E0,0E0,0E0,0E0,0E0,0E0,0E0,0E0,0E0,0E0,0E0,0E0,0E0,0E0,0E0,0E0,0E0,0E0,0E0,0E0,0E0,0E0,0E0,0E0,0E0,0E0,0E0,0E0,0E0,0E0,0E0,0E0,0E0,0E0,0E0,0E0,0E0,0E0,0E0,0E0,0E0,0E0,0E0,0E0,0E0,0E0,0E0,0E0,0E0,0E0,0E0,0E0,0E0,0E0,0E0,0E0,0E0,0E0,0E0,0E0],"parents":[2147483647,0,0,1,1,2,2,3,3,4,4,5,5,6,6,7,7,8,8,9,9,10,10,11,11,12,12,13,13,14,14,15,15,16,16,17,17,18,18,19,19,20,20,21,21,22,22,23,23,24,24,25,25,26,26,27,27,28,28,30,30,31,31,33,33,34,34,35,35,36,36,37,37,39,39,41,41,42,42,43,43,44,44,45,45,46,46,47,47,48,48,49,49,50,50,51,51,52,52,54,54,55,55,56,56,57,57,59,59,61,61,65,65,67,67,68,68,69,69,70,70,72,72,73,73,74,74,75,75,76,76,79,79,80,80,81,81,82,82,83,83,84,84,85,85,86,86,88,88,89,89,90,90,91,91,92,92,93,93,95,95,96,96,97,97,98,98,99,99,100,100,102,102,103,103,105,105,107,107,108,108,109,109,110,110,113,113,114,114,115,115,116,116,117,117,118,118,119,119,120,120,123,123,124,124,125,125,126,126,127,127,128,128,129,129,130,130,132,132,135,135,137,137,138,138,139,139,140,140,143,143,144,144,146,146,149,149,151,151,155,155,156,156,159,159,160,160,161,161,162,162,165,165,166,166,167,167,168,168,171,171,175,175,176,176,177,177],"right_children":[2,4,6,8,10,12,14,16,18,20,22,24,26,28,30,32,34,36,38,40,42,44,46,48,50,52,54,56,58,-1,60,62,-1,64,66,68,70,72,-1,74,-1,76,78,80,82,84,86,88,90,92,94,96,98,-1,100,102,104,106,-1,108,-1,110,-1,-1,-1,112,-1,114,116,118,120,-1,122,124,126,128,130,-1,-1,132,134,136,138,140,142,144,146,-1,148,150,152,154,156,158,-1,160,162,164,166,168,170,-1,172,174,-1,176,-1,178,180,182,184,-1,-1,186,188,190,192,194,196,198,200,-1,-1,202,204,206,208,210,212,214,216,-1,218,-1,-1,220,-1,222,224,226,228,-1,-1,230,232,-1,234,-1,-1,236,-1,238,-1,-1,-1,240,242,-1,-1,244,246,248,250,-1,-1,252,254,256,258,-1,-1,260,-1,-1,-1,262,264,266,-1,-1,-1,-1,-1,-1,-1,-1,-1,-1,-1,-1,-1,-1,-1,-1,-1,-1,-1,-1,-1,-1,-1,-1,-1,-1,-1,-1,-1,-1,-1,-1,-1,-1,-1,-1,-1,-1,-1,-1,-1,-1,-1,-1,-1,-1,-1,-1,-1,-1,-1,-1,-1,-1,-1,-1,-1,-1,-1,-1,-1,-1,-1,-1,-1,-1,-1,-1,-1,-1,-1,-1,-1,-1,-1,-1,-1,-1,-1,-1,-1,-1,-1,-1,-1,-1,-1,-1,-1],"split_conditions":[1.04E1,2.4E-1,1.155E1,2.35E1,9.9E0,1.2E1,5.4E-1,3.2E0,5.5E-1,2.9E-1,2.95E-1,5.9E-1,4.15E-1,1.1E1,3.8E-1,6.2E-2,2.05E-1,4.9E-1,5.4E-1,7.6E-1,1.08E1,4.6E-2,6.2E-1,1.4E-1,9E-2,1.09E1,1.7E0,5.1E-2,9.6E-2,-1.2292568E-1,6.4E-1,3.47E0,5.1572144E-2,3.32E0,5E-2,4.3E0,3.1E-1,1.4E0,3.1576797E-2,3.08E0,7.903957E-2,5.8E-1,6.2E-1,4.8E-1,2.35E1,1.06E1,6.35E-1,8.9E-2,3.26E0,1.9E0,7.5E-1,5.3E-1,1E0,-1.0849045E-1,1.1266666E1,1.1733334E1,3.4E0,2.35E1,-9.788517E-4,1.55E1,9.734883E-2,1.55E1,3.3131454E-2,1.0271249E-1,-1.8148396E-2,4.2E-2,-1.3439186E-1,3.09E0,3.21E0,4E1,1.55E1,3.7421726E-2,9.3E0,4.45E1,9.6E0,8E-2,6.1E-1,-6.562065E-2,8.653047E-2,1.45E0,1.4E0,6.3E-1,4.4E-1,5.5E-1,5.3E-1,5.2E-2,7.4E0,-1.6123143E-1,7.3E-1,3.5E-1,7E0,6.6E-1,1.065E1,3.45E0,4.928277E-2,1.7E0,2.7E1,2.6E1,6.9E0,1.4E-1,3.5E0,-1.241664E-1,3.23E0,6.6E-1,-6.8258625E-3,1.5E0,1.06337056E-1,2.5E0,2.3E0,9.533334E0,2.1E1,-4.1897375E-2,6.7769535E-2,3E0,3.7E-1,4.2E-1,4.5E-2,2.7E1,7.3E0,5.1E-2,7.15E0,-1.4681704E-1,-1.0676083E-2,2.5E1,3.7E-1,1.42E-1,5.1E-2,3.4E0,9.05E0,9E0,5.55E-1,-6.8717115E-2,4E-2,2.9345924E-2,1.0188728E-1,1.4E0,2.9828694E-2,8.5E0,4.25E1,4.45E-1,7.3E-2,6.564774E-2,-6.31419E-2,6E0,9.7E-2,-1.3542211E-1,8.4E0,6.486565E-2,-1.0509433E-1,1.8E0,-1.2132681E-1,6E-2,7.1388304E-2,-8.575838E-2,5.433667E-2,8E0,1.12E1,-1.0748575E-1,-4.331515E-3,4.5E-1,6.5E0,3.17E0,5.8E1,-7.2461955E-2,-9.71944E-3,1.1366667E1,1.4E1,7.1E0,1.4E1,9.924997E-2,-3.9223056E-2,3.8E-2,-6.116456E-2,1.0642387E-1,2.8387422E-2,1.25E1,2.2E-2,5.9E-2,-1.0045218E-1,2.3346534E-2,7.80663E-2,-3.7389856E-2,-1.4234585E-1,4.862169E-3,-9.255295E-2,-1.15156904E-1,-3.776404E-2,-3.6186192E-2,8.360789E-2,8.7154076E-2,-3.9113224E-2,3.7940525E-2,-3.247281E-2,-5.9500244E-3,9.704395E-2,-6.0134158E-2,6.443757E-2,1.0647001E-1,4.446054E-2,7.112235E-2,-1.0491934E-1,-1.1027969E-1,7.7346355E-2,2.4458643E-2,-1.22967415E-1,-9.146532E-2,3.3476062E-2,1.4863968E-2,-8.166884E-2,-1.1123418E-1,-4.6115477E-2,-4.988378E-2,-1.586522E-1,-6.818002E-2,3.9181743E-2,-7.979594E-2,-1.355501E-1,-3.9525345E-2,5.5691663E-2,-3.8809992E-2,-1.4525859E-1,-3.787588E-3,-7.428255E-2,-1.3589234E-3,8.130318E-2,-6.0082402E-2,-1.4594582E-1,-1.1722829E-1,1.870979E-2,-9.870549E-2,6.875091E-2,5.5423744E-2,-6.197735E-2,-4.5727982E-4,-6.999694E-2,-5.6369517E-2,3.2680254E-2,-1.1216965E-1,1.1316583E-2,-1.3887276E-2,4.6314772E-2,9.545521E-2,2.8580846E-2,-5.918741E-2,5.1267624E-2,8.043091E-2,7.3944503E-3,-5.053989E-2,3.555793E-2,9.5292665E-2,-3.043557E-2,1.008242E-1,5.9394967E-2,-2.3142776E-2,5.9056886E-2,-6.2537948E-3,7.959377E-2,5.5116877E-2,-6.399942E-2,9.000092E-2,1.3666517E-2,8.138058E-5,8.018091E-2,1.778243E-2,9.948821E-2,-3.9681427E-2,7.2874926E-2],"split_indices":[8,1,8,5,8,5,1,3,2,1,1,7,1,5,7,4,1,7,7,7,0,4,7,2,4,8,3,4,4,0,7,6,0,6,4,3,2,3,0,6,0,7,7,7,5,3,1,4,6,3,7,7,3,0,8,8,6,5,0,5,0,5,0,0,0,4,0,6,6,5,3,0,8,5,8,4,7,0,0,3,3,7,7,7,7,4,0,0,1,2,5,7,8,3,0,3,5,5,0,2,6,0,6,2,0,3,0,3,3,8,5,0,0,6,2,2,4,5,0,4,0,0,0,5,2,4,4,6,8,3,1,0,4,0,0,3,0,3,5,1,4,0,0,3,4,0,0,0,0,3,0,4,0,0,0,5,0,0,0,2,3,6,5,0,0,8,5,0,5,0,0,4,0,0,0,8,4,4,0,0,0,0,0,0,0,0,0,0,0,0,0,0,0,0,0,0,0,0,0,0,0,0,0,0,0,0,0,0,0,0,0,0,0,0,0,0,0,0,0,0,0,0,0,0,0,0,0,0,0,0,0,0,0,0,0,0,0,0,0,0,0,0,0,0,0,0,0,0,0,0,0,0,0,0,0,0,0,0,0,0,0,0,0,0,0,0,0],"split_type":[0,0,0,0,0,0,0,0,0,0,0,0,0,0,0,0,0,0,0,0,0,0,0,0,0,0,0,0,0,0,0,0,0,0,0,0,0,0,0,0,0,0,0,0,0,0,0,0,0,0,0,0,0,0,0,0,0,0,0,0,0,0,0,0,0,0,0,0,0,0,0,0,0,0,0,0,0,0,0,0,0,0,0,0,0,0,0,0,0,0,0,0,0,0,0,0,0,0,0,0,0,0,0,0,0,0,0,0,0,0,0,0,0,0,0,0,0,0,0,0,0,0,0,0,0,0,0,0,0,0,0,0,0,0,0,0,0,0,0,0,0,0,0,0,0,0,0,0,0,0,0,0,0,0,0,0,0,0,0,0,0,0,0,0,0,0,0,0,0,0,0,0,0,0,0,0,0,0,0,0,0,0,0,0,0,0,0,0,0,0,0,0,0,0,0,0,0,0,0,0,0,0,0,0,0,0,0,0,0,0,0,0,0,0,0,0,0,0,0,0,0,0,0,0,0,0,0,0,0,0,0,0,0,0,0,0,0,0,0,0,0,0,0,0,0,0,0,0,0,0,0,0,0,0,0,0,0,0,0,0,0,0,0,0,0,0,0],"sum_hessian":[1.0878444E3,5.5381134E2,5.34033E2,1.4667952E2,4.0713177E2,3.204157E2,2.1361732E2,3.4077374E1,1.1260215E2,3.1046933E2,9.666245E1,5.10995E1,2.6931622E2,1.9765773E2,1.5959596E1,1.9323515E1,1.4753857E1,1.0414684E2,8.455307E0,8.374844E1,2.2672089E2,2.9572275E1,6.709017E1,2.6634075E1,2.4465424E1,2.2870618E2,4.0610046E1,2.40591E1,1.7359862E2,1.9221122E0,1.4037484E1,1.745814E1,1.8653755E0,9.838222E0,4.9156356E0,6.2180504E1,4.196634E1,6.36601E0,2.089297E0,8.167568E1,2.0727634E0,2.2210463E2,4.6162663E0,1.3921804E1,1.5650471E1,4.3229668E1,2.3860508E1,8.347823E0,1.8286253E1,1.9316706E1,5.1487184E0,1.03499626E2,1.2520655E2,2.8076682E0,3.780238E1,9.072017E0,1.49870825E1,1.7173315E2,1.8654755E0,8.586064E0,5.4514194E0,1.5355147E1,2.1029928E0,7.760966E0,2.0772555E0,2.5304892E0,2.3851464E0,1.2581229E1,4.9599277E1,1.4475928E1,2.7490414E1,1.3906703E0,4.97534E0,1.6726053E1,6.494963E1,1.5180981E2,7.0294815E1,1.6535447E0,2.9627213E0,6.08347E0,7.8383346E0,5.429466E0,1.02210045E1,3.836596E1,4.8637056E0,1.909736E1,4.763148E0,5.991949E0,2.3558743E0,1.169244E1,6.593813E0,4.1879244E0,1.512878E1,3.3095725E0,1.8391458E0,5.98723E1,4.3627327E1,2.824106E0,1.2238244E2,3.0903984E1,6.8983946E0,1.9147981E0,7.1572185E0,1.383568E1,1.1514028E0,5.049122E1,1.2124193E2,4.686194E0,3.8998706E0,5.714355E0,9.640792E0,1.1512582E0,1.3792309E0,3.5351226E0,9.046106E0,2.6135607E1,2.346367E1,6.1939387E0,8.281989E0,2.4709347E1,2.7810667E0,3.3375058E0,1.637834E0,9.425055E0,7.3009996E0,5.0106644E1,1.4842987E1,1.1572705E2,3.608276E1,2.1438581E1,4.885624E1,1.1972895E0,4.8861804E0,1.163292E0,6.6750426E0,4.2612906E0,1.1681752E0,2.3377695E0,7.8832355E0,2.6158232E1,1.2207729E1,2.75416E0,2.1095457E0,5.383641E0,1.3713719E1,2.3772097E0,2.385938E0,1.1698073E0,1.1860671E0,4.26355E0,7.42889E0,3.5607328E0,3.03308E0,2.1205406E0,2.0673838E0,5.33942E0,9.789361E0,2.1383116E0,1.1712607E0,1.863289E1,4.123941E1,1.4278513E1,2.9348812E1,1.1762966E0,1.6478094E0,6.274177E1,5.9640667E1,1.4407107E1,1.6496876E1,5.730292E0,1.1681026E0,5.031464E0,2.1257544E0,1.2679188E1,1.1564916E0,6.8273478E0,4.366387E1,2.7850292E0,1.9011647E0,1.8437022E0,2.0561686E0,1.1797336E0,4.5346212E0,5.868817E0,3.771975E0,1.415117E0,2.1200056E0,6.5203056E0,2.5258007E0,2.3559334E1,2.576273E0,8.819698E0,1.4643971E1,1.1579335E0,5.036005E0,5.5510526E0,2.7309368E0,1.895222E1,5.757126E0,1.5954587E0,1.185608E0,2.4000244E0,7.02503E0,2.5862472E0,4.7147527E0,4.891216E1,1.1944835E0,9.379422E0,5.4635644E0,1.08539276E2,7.1877747E0,3.1303518E0,3.2952408E1,1.6459389E1,4.9791923E0,3.1704786E1,1.7151451E1,1.6342893E0,3.2518914E0,1.1714487E0,3.0898418E0,1.1723299E0,1.1654395E0,5.587764E0,2.2954717E0,1.3686752E1,1.2471479E1,6.1171045E0,6.0906243E0,3.9942155E0,1.3894252E0,1.15946245E1,2.119095E0,1.1968241E0,1.1891139E0,2.1642947E0,2.0992548E0,1.4312052E0,2.1295276E0,1.6114098E0,3.7280104E0,8.631682E0,1.1576784E0,1.56236515E1,3.0092392E0,1.618168E1,2.5057728E1,3.704429E0,1.0574084E1,2.6070827E1,3.2779841E0,4.821249E1,1.4529283E1,2.521175E0,5.7119495E1,6.5227427E0,7.8843646E0,2.0784557E0,1.4418421E1,3.432121E0,1.5993432E0,4.5518055E0,2.2755423E0,2.4955325E0,4.116834E1,1.166208E0,1.6188211E0],"tree_param":{"num_deleted":"0","num_feature":"9","num_nodes":"267","size_leaf_vector":"1"}},{"base_weights":[1.0986793E-2,-6.5031767E-1,7.151131E-1,2.7353612E-1,-9.7565913E-1,4.307748E-1,1.1450177E0,-2.0455357E-1,4.2023432E-1,-1.1316295E0,-4.6231598E-1,-3.3864528E-1,5.796395E-1,1.2268054E0,4.0853554E-1,-6.269447E-1,3.643849E-1,5.1228714E-1,-6.280438E-1,-7.2003645E-1,-1.2788231E0,1.2140807E-1,-7.1396214E-1,-1.0128297E0,4.2253104E-1,6.827931E-1,4.871046E-3,6.916193E-1,1.2948099E0,-1.152172E-1,6.713733E-1,-7.89453E-1,4.9515024E-2,9.912211E-1,-8.1162095E-1,2.9341963E-1,8.255799E-1,-9.6870446E-1,3.0157423E-2,-7.7424866E-1,7.628593E-2,-1.3137517E0,3.788619E-1,7.006106E-1,-3.9527938E-1,-9.690026E-1,-2.2526544E-1,-1.5964159E0,-6.7469853E-1,6.620924E-1,-4.230841E-1,4.095036E-1,9.0633416E-1,-4.7013482E-1,3.9380664E-1,-2.3511635E-1,1.2506988E0,1.3041267E0,1.6918194E-2,8.6967474E-1,-4.313285E-1,-9.6756315E-1,3.163654E-2,9.880108E-2,-1.7169906E-2,2.5712913E-1,-1.250333E-1,3.707649E-1,-1.0904356E0,3.4372574E-1,1.0622963E0,3.6013793E-2,-1.3764912E0,-1.4339372E0,-6.611528E-1,-1.2137408E0,-1.7105609E0,-6.197165E-2,8.342473E-2,-3.9097577E-2,1.2252929E0,-1.1844457E0,9.953105E-2,-1.1019428E0,1.0670241E-1,1.0724749E-1,-1.3257934E0,-1.473502E-1,-3.379258E-1,-1.0656046E0,7.91943E-2,-2.4519826E-1,9.1820973E-1,-1.006723E0,4.734802E-2,1.6366859E-1,7.402557E-1,-6.092336E-1,9.471727E-1,-8.097373E-1,7.0339315E-2,6.487583E-1,-1.10365696E-1,-7.825713E-1,7.98937E-2,1.0257139E-1,2.5769439E-2,1.1403896E0,1.3730948E0,4.4011956E-1,1.2176447E0,3.553309E-2,-8.5860536E-2,-1.5925759E0,-4.7803527E-1,6.630582E-2,-4.1130103E-2,9.266315E-2,1.0014492E0,-7.0913103E-3,-1.1433017E-1,1.0168284E0,-2.0237637E-1,1.2033024E0,-1.5453976E-1,-1.3547796E-1,-1.0161618E-2,-1.8660738E-3,-1.5952785E0,-2.4516732E-1,-8.4135234E-1,-1.2882518E0,-5.319349E-1,-5.224398E-1,-1.3796563E-1,-6.542463E-2,2.8263864E-1,9.7989656E-2,2.803925E-2,-1.5953234E0,2.8748488E-2,-6.436761E-1,3.7107277E-1,-5.6601997E-2,-1.1659089E0,6.2972635E-2,-5.930812E-2,-6.328453E-1,4.2734826E-1,-1.2590663E-1,-5.795515E-1,6.283854E-2,-9.962245E-2,-1.8479368E-1,-1.4819019E0,-6.598844E-1,6.838623E-2,-8.032288E-2,5.2172724E-2,3.630565E-1,1.1633992E0,-1.0047657E-1,-4.15376E-3,-4.8445305E-1,4.6689996E-1,1.400657E-1,1.0237556E0,-6.8892054E-2,-9.2519075E-3,1.1758537E0,6.938976E-1,-1.4930452E0,-3.6636877E-1,-6.52199E-2,8.208728E-1,-1.162854E-1,-2.1328777E-1,1.1045452E-1,1.1823734E0,1.03594236E-1,2.191968E-2,1.0098419E0,-1.6826795E-1,9.768063E-2,2.3845231E-2,-3.57022E-2,-1.3075766E-1,4.555412E-3,-8.565824E-2,1.5027421E-2,-7.3711395E-2,9.14002E-2,-1.7103037E-2,-5.705527E-3,9.338256E-2,-5.5551104E-2,6.1840255E-2,1.0223219E-1,4.2095862E-2,6.880933E-2,-9.947688E-2,-1.316805E-1,-3.5996877E-2,-1.04686506E-1,5.1294384E-3,-8.871785E-2,-3.0052785E-2,9.172861E-3,-9.838542E-2,3.795848E-2,-6.0874145E-2,3.8170762E-2,-6.924942E-2,-3.8031254E-2,5.3410377E-2,-3.704523E-2,-1.3417709E-1,-3.6324228E-3,-7.0573695E-2,-1.2720791E-3,7.8439936E-2,-3.705089E-2,3.0619537E-2,-7.3580995E-2,-1.314185E-1,5.1776353E-2,-9.913497E-2,5.2368637E-2,-5.8242682E-2,-4.3856874E-4,-6.6615164E-2,-5.3089105E-2,3.1207385E-2,-1.241351E-1,-5.04984E-2,-1.0585872E-1,1.0758857E-2,4.4040933E-2,-1.3247629E-2,4.2582165E-2,9.720587E-2,-5.42465E-2,4.8929267E-2,7.64848E-2,6.874792E-3,-4.7046427E-2,3.344863E-2,9.108381E-2,-2.851992E-2,9.656414E-2,5.6245852E-2,-3.37674E-2,5.529766E-2,-2.4182286E-2,-1.3347311E-1,-6.452681E-2,4.1286066E-2,7.486688E-2,-1.9528626E-2,-9.1929086E-2,4.292747E-2,5.8907036E-2,-4.5865E-2,5.044935E-2,9.707289E-2,2.4491409E-2,8.414386E-2,-5.4060508E-2,6.493572E-2],"categories":[],"categories_nodes":[],"categories_segments":[],"categories_sizes":[],"default_left":[0,0,0,0,0,0,0,0,0,0,0,0,0,0,0,0,0,0,0,0,0,0,0,0,0,0,0,0,0,0,0,0,0,0,0,0,0,0,0,0,0,0,0,0,0,0,0,0,0,0,0,0,0,0,0,0,0,0,0,0,0,0,0,0,0,0,0,0,0,0,0,0,0,0,0,0,0,0,0,0,0,0,0,0,0,0,0,0,0,0,0,0,0,0,0,0,0,0,0,0,0,0,0,0,0,0,0,0,0,0,0,0,0,0,0,0,0,0,0,0,0,0,0,0,0,0,0,0,0,0,0,0,0,0,0,0,0,0,0,0,0,0,0,0,0,0,0,0,0,0,0,0,0,0,0,0,0,0,0,0,0,0,0,0,0,0,0,0,0,0,0,0,0,0,0,0,0,0,0,0,0,0,0,0,0,0,0,0,0,0,0,0,0,0,0,0,0,0,0,0,0,0,0,0,0,0,0,0,0,0,0,0,0,0,0,0,0,0,0,0,0,0,0,0,0,0,0,0,0,0,0,0,0,0,0,0,0,0,0,0,0,0,0,0,0,0,0,0,0,0,0,0,0,0,0,0,0,0,0,0,0,0,0,0,0,0,0,0,0],"id":2,"left_children":[1,3,5,7,9,11,13,15,17,19,21,23,25,27,29,31,33,35,37,39,41,43,45,47,49,51,53,55,57,-1,59,61,-1,63,65,67,69,71,-1,73,-1,75,77,79,81,83,85,87,89,91,93,95,97,99,101,103,105,107,-1,109,111,113,-1,-1,-1,115,-1,117,119,121,123,-1,125,127,129,131,133,-1,-1,135,137,139,141,143,145,147,149,-1,151,153,155,157,159,161,-1,163,165,167,169,171,-1,173,-1,175,-1,-1,-1,177,179,181,183,-1,-1,185,187,-1,-1,189,191,-1,-1,193,195,197,199,-1,-1,-1,201,203,205,207,209,211,-1,-1,213,-1,-1,215,-1,217,219,221,223,-1,-1,225,227,-1,229,-1,-1,231,233,235,-1,-1,-1,237,239,-1,-1,241,243,245,247,-1,-1,249,251,253,255,-1,257,-1,259,261,263,-1,-1,265,267,-1,-1,-1,-1,-1,-1,-1,-1,-1,-1,-1,-1,-1,-1,-1,-1,-1,-1,-1,-1,-1,-1,-1,-1,-1,-1,-1,-1,-1,-1,-1,-1,-1,-1,-1,-1,-1,-1,-1,-1,-1,-1,-1,-1,-1,-1,-1,-1,-1,-1,-1,-1,-1,-1,-1,-1,-1,-1,-1,-1,-1,-1,-1,-1,-1,-1,-1,-1,-1,-1,-1,-1,-1,-1,-1,-1,-1,-1,-1,-1,-1,-1,-1,-1,-1,-1],"loss_changes":[5.0465808E2,1.6825381E2,6.3668762E1,1.0349571E1,3.2588837E1,3.6566887E1,1.2049164E1,8.647391E0,1.1159121E1,1.8253693E1,1.4491209E1,2.716826E1,1.5793137E1,5.9114685E0,1.2442892E1,4.8036814E0,1.227437E1,6.8747826E0,3.7287E0,8.854557E0,1.3921265E1,9.373091E0,8.340237E0,4.433754E0,5.3811E0,1.3428329E1,7.860909E0,1.2331343E1,1.3475037E0,0E0,4.827777E0,4.4282007E0,0E0,4.519479E0,5.8776813E0,7.110672E0,4.4410877E0,5.0591307E0,0E0,5.2917366E0,0E0,6.9432983E0,5.8340974E0,5.749719E0,6.640459E0,6.526642E0,9.235828E0,3.7448673E0,5.8057775E0,4.875289E0,4.4318013E0,8.29093E0,8.216309E0,9.920917E0,1.207717E1,7.656192E0,1.0837479E0,2.7670288E-1,0E0,2.0933857E0,2.9783528E0,4.3019524E0,0E0,0E0,0E0,2.2604957E0,0E0,1.044592E1,1.3988805E0,5.8515906E0,4.9520283E0,0E0,2.9922447E0,2.54838E0,5.28458E0,8.711456E0,5.6757126E0,0E0,0E0,2.1406624E0,1.0816002E-1,4.807973E0,2.4969203E0,2.6070595E0,4.506255E0,5.0107136E0,5.655327E-1,0E0,5.0269403E0,4.4395027E0,5.253941E0,4.780828E0,1.7305803E0,1.3057165E0,0E0,1.2141924E1,7.313776E0,4.6488953E-1,6.1679077E0,4.292244E0,0E0,6.2721767E0,0E0,2.8696237E0,0E0,0E0,0E0,2.2155762E0,5.658417E-1,3.441398E0,2.8388023E-1,0E0,0E0,3.2214546E-1,3.900937E0,0E0,0E0,5.1546087E0,5.1613216E0,0E0,0E0,1.8524675E0,5.759215E0,1.8003807E0,5.9536386E0,0E0,0E0,0E0,9.8254395E-1,8.592757E0,7.156376E0,5.6770325E0,6.196575E0,2.8009348E0,0E0,0E0,2.3462055E0,0E0,0E0,2.5890827E-1,0E0,5.490085E-1,2.329597E0,8.841129E-1,2.3578491E0,0E0,0E0,6.7873645E0,5.292428E0,0E0,5.9735286E-1,0E0,0E0,1.9502583E0,8.8285446E-2,2.970798E0,0E0,0E0,0E0,8.65771E-1,9.5329285E-2,0E0,0E0,5.852209E0,8.581639E0,3.8522253E0,8.388947E0,0E0,0E0,1.9796677E0,3.2943287E0,1.425951E0,5.4614196E0,0E0,4.0219707E0,0E0,4.9678974E0,2.0534866E0,2.0979004E0,0E0,0E0,1.7834187E-2,3.7217557E0,0E0,0E0,0E0,0E0,0E0,0E0,0E0,0E0,0E0,0E0,0E0,0E0,0E0,0E0,0E0,0E0,0E0,0E0,0E0,0E0,0E0,0E0,0E0,0E0,0E0,0E0,0E0,0E0,0E0,0E0,0E0,0E0,0E0,0E0,0E0,0E0,0E0,0E0,0E0,0E0,0E0,0E0,0E0,0E0,0E0,0E0,0E0,0E0,0E0,0E0,0E0,0E0,0E0,0E0,0E0,0E0,0E0,0E0,0E0,0E0,0E0,0E0,0E0,0E0,0E0,0E0,0E0,0E0,0E0,0E0,0E0,0E0,0E0,0E0,0E0,0E0,0E0,0E0,0E0,0E0,0E0,0E0,0E0,0E0,0E0,0E0],"parents":[2147483647,0,0,1,1,2,2,3,3,4,4,5,5,6,6,7,7,8,8,9,9,10,10,11,11,12,12,13,13,14,14,15,15,16,16,17,17,18,18,19,19,20,20,21,21,22,22,23,23,24,24,25,25,26,26,27,27,28,28,30,30,31,31,33,33,34,34,35,35,36,36,37,37,39,39,41,41,42,42,43,43,44,44,45,45,46,46,47,47,48,48,49,49,50,50,51,51,52,52,53,53,54,54,55,55,56,56,57,57,59,59,60,60,61,61,65,65,67,67,68,68,69,69,70,70,72,72,73,73,74,74,75,75,76,76,79,79,80,80,81,81,82,82,83,83,84,84,85,85,86,86,88,88,89,89,90,90,91,91,92,92,93,93,95,95,96,96,97,97,98,98,99,99,101,101,103,103,107,107,108,108,109,109,110,110,113,113,114,114,117,117,118,118,121,121,122,122,123,123,124,124,128,128,129,129,130,130,131,131,132,132,133,133,136,136,139,139,141,141,142,142,143,143,144,144,147,147,148,148,150,150,153,153,154,154,155,155,159,159,160,160,163,163,164,164,165,165,166,166,169,169,170,170,171,171,172,172,174,174,176,176,177,177,178,178,181,181,182,182],"right_children":[2,4,6,8,10,12,14,16,18,20,22,24,26,28,30,32,34,36,38,40,42,44,46,48,50,52,54,56,58,-1,60,62,-1,64,66,68,70,72,-1,74,-1,76,78,80,82,84,86,88,90,92,94,96,98,100,102,104,106,108,-1,110,112,114,-1,-1,-1,116,-1,118,120,122,124,-1,126,128,130,132,134,-1,-1,136,138,140,142,144,146,148,150,-1,152,154,156,158,160,162,-1,164,166,168,170,172,-1,174,-1,176,-1,-1,-1,178,180,182,184,-1,-1,186,188,-1,-1,190,192,-1,-1,194,196,198,200,-1,-1,-1,202,204,206,208,210,212,-1,-1,214,-1,-1,216,-1,218,220,222,224,-1,-1,226,228,-1,230,-1,-1,232,234,236,-1,-1,-1,238,240,-1,-1,242,244,246,248,-1,-1,250,252,254,256,-1,258,-1,260,262,264,-1,-1,266,268,-1,-1,-1,-1,-1,-1,-1,-1,-1,-1,-1,-1,-1,-1,-1,-1,-1,-1,-1,-1,-1,-1,-1,-1,-1,-1,-1,-1,-1,-1,-1,-1,-1,-1,-1,-1,-1,-1,-1,-1,-1,-1,-1,-1,-1,-1,-1,-1,-1,-1,-1,-1,-1,-1,-1,-1,-1,-1,-1,-1,-1,-1,-1,-1,-1,-1,-1,-1,-1,-1,-1,-1,-1,-1,-1,-1,-1,-1,-1,-1,-1,-1,-1,-1,-1,-1],"split_conditions":[1.04E1,2.4E-1,1.155E1,2.35E1,9.9E0,1.2E1,4.95E-1,3.2E0,5.5E-1,2.9E-1,2.95E-1,5.9E-1,4.15E-1,1.1E1,3.8E-1,6.2E-2,2.05E-1,4.9E-1,5.4E-1,7.6E-1,1.08E1,4.6E-2,6.2E-1,1.4E-1,9E-2,1.09E1,5.8E-1,5.1E-2,9.6E-2,-1.152172E-1,3.57E0,3.47E0,4.9515024E-2,3.32E0,5E-2,1.78E1,3.1E-1,1.4E0,3.0157423E-2,2.4E-1,7.628593E-2,6.1E-1,6.2E-1,4.8E-1,2.35E1,1.06E1,6.35E-1,8.9E-2,3.26E0,1.9E0,7.5E-1,5.3E-1,1E0,9.4E0,5.1E0,1.26E1,1E1,1.2066667E1,1.6918194E-2,6.1E-1,8E-2,1.55E1,3.163654E-2,9.880108E-2,-1.7169906E-2,3.1E-1,-1.250333E-1,1.37E1,4.3E-2,4E1,1.55E1,3.6013793E-2,9.3E0,1.5E-1,3.11E0,3.4E0,9.2E0,-6.197165E-2,8.342473E-2,1.45E0,4.2E-1,6.3E-1,4.4E-1,3.8E-2,5.3E-1,5.2E-2,7.4E0,-1.473502E-1,7.3E-1,3.5E-1,7E0,6.6E-1,1.065E1,3.45E0,4.734802E-2,1.7E0,2.7E1,2.6E1,6.9E0,4.6E-1,7.0339315E-2,5.4E-2,-1.10365696E-1,1.1733334E1,7.98937E-2,1.0257139E-1,2.5769439E-2,2.2E-2,7.9E-2,3.34E0,1.14E1,3.553309E-2,-8.5860536E-2,9.533334E0,2.1E1,6.630582E-2,-4.1130103E-2,8.3E0,3.25E0,-7.0913103E-3,-1.1433017E-1,2.7E1,7.3E0,5.1E-2,7.15E0,-1.3547796E-1,-1.0161618E-2,-1.8660738E-3,9.633333E0,8.9E0,9.5E0,3.3E-2,6.3E-2,3.14E0,-1.3796563E-1,-6.542463E-2,3E1,9.7989656E-2,2.803925E-2,1.4E0,2.8748488E-2,8.5E0,4.25E1,4.5E-1,3.2E-1,6.2972635E-2,-5.930812E-2,4E-2,9.7E-2,-1.2590663E-1,8.4E0,6.283854E-2,-9.962245E-2,1.8E0,9.7E0,6E-2,6.838623E-2,-8.032288E-2,5.2172724E-2,6.05E-1,3.18E0,-1.0047657E-1,-4.15376E-3,4.5E-1,6.5E0,3.17E0,5.8E1,-6.8892054E-2,-9.2519075E-3,1.1366667E1,2.93E0,3.6E-2,7.5E0,-6.52199E-2,9.6E-2,-1.162854E-1,6.8E0,4.5E-1,1.5E0,1.03594236E-1,2.191968E-2,3.17E0,2.9E1,9.768063E-2,2.3845231E-2,-3.57022E-2,-1.3075766E-1,4.555412E-3,-8.565824E-2,1.5027421E-2,-7.3711395E-2,9.14002E-2,-1.7103037E-2,-5.705527E-3,9.338256E-2,-5.5551104E-2,6.1840255E-2,1.0223219E-1,4.2095862E-2,6.880933E-2,-9.947688E-2,-1.316805E-1,-3.5996877E-2,-1.04686506E-1,5.1294384E-3,-8.871785E-2,-3.0052785E-2,9.172861E-3,-9.838542E-2,3.795848E-2,-6.0874145E-2,3.8170762E-2,-6.924942E-2,-3.8031254E-2,5.3410377E-2,-3.704523E-2,-1.3417709E-1,-3.6324228E-3,-7.0573695E-2,-1.2720791E-3,7.8439936E-2,-3.705089E-2,3.0619537E-2,-7.3580995E-2,-1.314185E-1,5.1776353E-2,-9.913497E-2,5.2368637E-2,-5.8242682E-2,-4.3856874E-4,-6.6615164E-2,-5.3089105E-2,3.1207385E-2,-1.241351E-1,-5.04984E-2,-1.0585872E-1,1.0758857E-2,4.4040933E-2,-1.3247629E-2,4.2582165E-2,9.720587E-2,-5.42465E-2,4.8929267E-2,7.64848E-2,6.874792E-3,-4.7046427E-2,3.344863E-2,9.108381E-2,-2.851992E-2,9.656414E-2,5.6245852E-2,-3.37674E-2,5.529766E-2,-2.4182286E-2,-1.3347311E-1,-6.452681E-2,4.1286066E-2,7.486688E-2,-1.9528626E-2,-9.1929086E-2,4.292747E-2,5.8907036E-2,-4.5865E-2,5.044935E-2,9.707289E-2,2.4491409E-2,8.414386E-2,-5.4060508E-2,6.493572E-2],"split_indices":[8,1,8,5,8,5,1,3,2,1,1,7,1,5,7,4,1,7,7,7,0,4,7,2,4,8,7,4,4,0,6,6,0,6,4,3,2,3,0,2,0,1,7,7,5,3,1,4,6,3,7,7,3,3,3,8,5,8,0,7,2,5,0,0,0,2,0,3,4,5,3,0,8,2,6,6,8,0,0,3,2,7,7,4,7,4,0,0,1,2,5,7,8,3,0,3,5,5,0,7,0,4,0,8,0,0,0,4,4,6,0,0,0,8,5,0,0,0,6,0,0,5,0,4,0,0,0,0,8,8,8,4,4,6,0,0,5,0,0,3,0,3,5,7,2,0,0,4,4,0,0,0,0,3,0,4,0,0,0,1,6,0,0,2,3,6,5,0,0,8,6,4,0,0,4,0,0,7,3,0,0,6,5,0,0,0,0,0,0,0,0,0,0,0,0,0,0,0,0,0,0,0,0,0,0,0,0,0,0,0,0,0,0,0,0,0,0,0,0,0,0,0,0,0,0,0,0,0,0,0,0,0,0,0,0,0,0,0,0,0,0,0,0,0,0,0,0,0,0,0,0,0,0,0,0,0,0,0,0,0,0,0,0,0,0,0,0,0,0],"split_type":[0,0,0,0,0,0,0,0,0,0,0,0,0,0,0,0,0,0,0,0,0,0,0,0,0,0,0,0,0,0,0,0,0,0,0,0,0,0,0,0,0,0,0,0,0,0,0,0,0,0,0,0,0,0,0,0,0,0,0,0,0,0,0,0,0,0,0,0,0,0,0,0,0,0,0,0,0,0,0,0,0,0,0,0,0,0,0,0,0,0,0,0,0,0,0,0,0,0,0,0,0,0,0,0,0,0,0,0,0,0,0,0,0,0,0,0,0,0,0,0,0,0,0,0,0,0,0,0,0,0,0,0,0,0,0,0,0,0,0,0,0,0,0,0,0,0,0,0,0,0,0,0,0,0,0,0,0,0,0,0,0,0,0,0,0,0,0,0,0,0,0,0,0,0,0,0,0,0,0,0,0,0,0,0,0,0,0,0,0,0,0,0,0,0,0,0,0,0,0,0,0,0,0,0,0,0,0,0,0,0,0,0,0,0,0,0,0,0,0,0,0,0,0,0,0,0,0,0,0,0,0,0,0,0,0,0,0,0,0,0,0,0,0,0,0,0,0,0,0,0,0,0,0,0,0,0,0,0,0,0,0,0,0,0,0,0,0,0,0],"sum_hessian":[1.0817914E3,5.578984E2,5.23893E2,1.4534102E2,4.1255737E2,3.1653757E2,2.0735548E2,3.403301E1,1.11308014E2,3.1549524E2,9.706212E1,5.110777E1,2.6542978E2,1.8603064E2,2.1324833E1,1.9473526E1,1.4559484E1,1.0279274E2,8.515269E0,8.4658646E1,2.3083661E2,2.939481E1,6.766731E1,2.6927288E1,2.4180481E1,2.2488226E2,4.054752E1,2.223267E1,1.6379797E2,1.9621195E0,1.9362715E1,1.7633831E1,1.8396937E0,9.599745E0,4.959739E0,6.1656113E1,4.113663E1,6.4439445E0,2.0713248E0,8.2634186E1,2.0244567E0,2.2627628E2,4.5603285E0,1.369116E1,1.5703649E1,4.3817207E1,2.3850101E1,8.513097E0,1.8414192E1,1.9011564E1,5.168916E0,1.02456406E2,1.22425865E2,1.8159996E1,2.2387522E1,8.583702E0,1.3648969E1,1.6216527E2,1.6327053E0,1.6590525E1,2.772189E0,1.55486965E1,2.0851355E0,7.5122013E0,2.0875435E0,2.5159893E0,2.44375E0,5.9085815E1,2.570297E0,1.4359284E1,2.6777346E1,1.3763087E0,5.067636E0,1.0384198E1,7.2249985E1,1.8396814E2,4.2308132E1,1.6775005E0,2.882828E0,6.065448E0,7.625713E0,5.514659E0,1.018899E1,3.8975998E1,4.8412113E0,1.9009216E1,4.8408856E0,6.1518416E0,2.3612554E0,1.1854147E1,6.5600443E0,4.194668E0,1.4816896E1,3.356304E0,1.8126122E0,5.963035E1,4.2826057E1,2.8471332E0,1.1957873E2,1.4973373E1,3.1866224E0,2.0269358E1,2.118164E0,6.3208222E0,2.2628798E0,1.1640869E1,2.008099E0,5.3258762E1,1.0890651E2,8.438434E0,8.152092E0,1.3700894E0,1.4020994E0,5.8396E0,9.709096E0,1.3599913E0,1.155998E0,4.1800644E1,1.728517E1,1.1497281E0,1.420569E0,6.0456696E0,8.313615E0,2.40066E1,2.7707458E0,3.4254804E0,1.6421555E0,1.1854467E0,9.198751E0,2.255136E1,4.9698627E1,1.6504211E2,1.8926035E1,4.637729E0,3.7670403E1,1.2129197E0,4.852528E0,6.4735684E0,1.1521444E0,4.3555703E0,1.1590886E0,2.3597972E0,7.8291926E0,2.3561654E0,3.661983E1,2.7003758E0,2.1408358E0,5.444402E0,1.3564814E1,2.4380915E0,2.4027944E0,1.1499921E0,1.2112633E0,4.2679095E0,7.586238E0,3.5851448E0,2.9748993E0,2.1602707E0,2.0343971E0,5.2992215E0,9.517675E0,2.1837795E0,1.1725243E0,1.8815908E1,4.081444E1,1.4218501E1,2.8607557E1,1.1955009E0,1.6516323E0,6.0926155E1,5.8652576E1,4.9606485E0,1.0012725E1,1.6511165E0,1.8618242E1,1.9572113E0,4.363611E0,2.2281978E0,5.1030563E1,1.07814415E2,1.0920902E0,4.0169287E0,4.421505E0,7.04114E0,1.1109517E0,1.1897117E0,4.6498885E0,5.861834E0,3.847262E0,3.873526E1,3.0653858E0,1.4697321E1,2.587848E0,1.1597694E0,4.8859E0,5.637292E0,2.676323E0,1.8323053E1,5.6835456E0,1.5603652E0,1.2103807E0,7.5397964E0,1.6589553E0,4.0902123E0,1.8461147E1,2.704852E1,2.265011E1,2.6417902E0,1.6240031E2,3.8455954E0,1.5080439E1,1.2226348E0,3.4150941E0,1.6457844E0,3.206744E0,1.1824129E0,3.1731572E0,1.1734035E0,1.1863937E0,5.589731E0,2.2394614E0,1.1816205E0,1.1745449E0,2.9875517E1,6.744314E0,1.8634521E0,3.5809503E0,1.1416045E1,2.148769E0,1.1969364E0,1.205858E0,2.1865597E0,2.0813498E0,5.385506E0,2.200732E0,1.4611616E0,2.1239834E0,3.6819186E0,1.6173028E0,2.6955829E0,6.8220925E0,1.5849867E1,2.9660413E0,1.5806445E1,2.5007996E1,3.7533023E0,1.04651985E1,2.5305555E1,3.3020005E0,4.6667522E1,1.4258633E1,1.8011781E0,5.68514E1,1.3935729E0,3.5670755E0,6.5469275E0,3.465798E0,1.6060684E1,2.5575573E0,1.6618888E0,2.7017221E0,1.106182E0,1.122016E0,1.0450512E1,4.058005E1,1.1175112E0,2.8994174E0,3.0791628E0,1.3423423E0],"tree_param":{"num_deleted":"0","num_feature":"9","num_nodes":"269","size_leaf_vector":"1"}},{"base_weights":[1.00376895E-2,-6.009872E-1,6.7687964E-1,2.553394E-1,-8.9678055E-1,4.0375632E-1,1.0973964E0,-1.9461371E-1,3.9455652E-1,-1.0368159E0,-4.3160427E-1,-3.1992704E-1,5.454856E-1,1.1778066E0,3.8748243E-1,-5.8529973E-1,3.4209445E-1,4.8219955E-1,-5.8746076E-1,-6.641106E-1,-1.169555E0,-2.0773639E-1,-1.0095919E0,-9.4669324E-1,3.9991337E-1,6.447836E-1,-3.3281613E-4,6.5659016E-1,1.244953E0,-1.0854326E-1,6.41699E-1,-7.3713094E-1,4.7568634E-2,9.485503E-1,-7.6429945E-1,2.7243322E-1,7.8654987E-1,-9.0534395E-1,2.8806465E-2,-7.1431255E-1,7.3742844E-2,-1.2009921E0,3.5917777E-1,-6.142911E-1,2.7719313E-2,-1.5920975E0,-5.377358E-1,-4.6772754E-1,-1.285027E0,6.3041097E-1,-3.9984772E-1,3.8484454E-1,8.6004156E-1,-1.2674704E0,1.2876856E-1,-2.266377E-1,1.2041478E0,1.2542123E0,1.6177528E-2,8.3542156E-1,-4.1048566E-1,-9.0894306E-1,3.2360148E-2,9.5327966E-2,-1.6247341E-2,2.4645862E-1,-1.17097266E-1,-3.4351522E-1,4.3643683E-1,3.277916E-1,1.015846E0,3.4669247E-2,-1.2850443E0,-7.5015604E-1,4.9715113E-2,-1.3233839E0,-9.218028E-1,-5.8610376E-2,8.0585085E-2,-7.5698495E-1,7.308778E-2,6.847553E-1,-2.6156834E-1,-6.544283E-1,-1.3778631E-1,-1.2402736E0,-9.445061E-2,-9.0577054E-1,4.8936623E-1,-1.4688392E0,-3.2355338E-1,-2.3193844E-1,8.785975E-1,-9.4759446E-1,4.5513015E-2,1.5377542E-1,7.0027214E-1,-5.807892E-1,9.0006864E-1,-1.104323E-1,-3.2989714E-2,-7.1082704E-2,9.352618E-1,-7.439075E-1,7.7147216E-2,9.900721E-2,2.462416E-2,2.3307346E-2,1.2588925E0,4.242309E-1,1.1737934E0,3.421015E-2,-8.1125595E-2,-5.651135E-1,-1.3802973E0,-4.0041715E-2,6.473199E-2,-1.0725571E0,2.5716348E-2,9.018819E-1,-7.949022E-2,9.7581774E-1,-1.857945E-1,1.154451E0,-1.5124859E-1,-1.261053E-1,-9.672562E-3,-8.655781E-1,-2.5841153E-1,-1.00058E0,-1.4705415E0,-4.2503288E-1,-1.1255091E0,-1.3772644E0,-2.11858E-1,-1.6612838E-1,1.1366003E0,-8.010384E-1,3.1122714E-1,-8.903372E-2,1.8904827E-3,-2.7170606E-2,-1.1446223E-1,2.7949074E-1,-9.409163E-1,6.209087E-2,-1.2443285E0,7.7305414E-2,-1.4952243E-2,-2.9103251E-2,-1.1971099E-1,3.0318253E-2,-5.9332963E-2,-7.543734E-2,5.0127372E-2,3.431223E-1,1.1200167E0,-9.431576E-2,-3.983333E-3,-4.448631E-1,4.388213E-1,8.472801E-1,-3.3666772E-1,-2.7713082E-3,-6.048472E-2,1.1259513E0,6.535607E-1,5.156129E-1,-5.676125E-1,9.462074E-2,-3.429827E-2,-1.09472066E-1,-2.0628823E-1,9.975639E-1,9.738714E-2,9.7430354E-1,-1.5313767E-1,9.427865E-2,2.3004355E-2,-6.1478026E-2,4.453443E-2,-1.31393E-1,-3.363035E-2,-1.0526666E-1,-3.5355054E-2,-3.5433747E-2,8.197378E-2,-5.5062704E-2,7.924162E-2,-1.8438637E-2,8.019119E-2,-5.4711434E-3,9.009453E-2,-5.1429518E-2,5.9402857E-2,9.8495916E-2,3.9866343E-2,6.665054E-2,-9.4592296E-2,-3.41466E-2,-8.654455E-2,1.5189539E-2,-7.107156E-2,-1.182888E-1,-5.6002486E-2,-1.1349935E-1,-1.1738437E-2,-5.4683026E-2,4.1390523E-2,-5.362579E-2,-1.0138331E-1,-1.6522312E-3,-1.2076486E-1,-4.5484588E-2,5.0048392E-2,5.7849083E-2,-7.232404E-2,9.672695E-2,3.269029E-2,-7.431876E-2,6.3882284E-2,3.6658384E-2,-6.0150295E-2,-4.378994E-2,5.3137418E-2,1.1342041E-3,-1.0610482E-1,-1.3566978E-1,-8.102151E-3,-1.5358691E-2,4.3114576E-2,4.0677365E-2,9.3825474E-2,-4.9843606E-2,4.6722315E-2,7.2848424E-2,6.39095E-3,1.9199215E-2,8.2922764E-2,-9.322974E-2,2.1456197E-2,9.275284E-2,5.3290885E-2,-1.7301627E-2,5.3324625E-2,6.657763E-2,-1.6849529E-2,-6.533518E-2,2.4650851E-2,4.120027E-2,-8.7018326E-2,1.302147E-2,8.585198E-2,8.183258E-2,2.2038206E-2,-5.0552774E-2,6.295875E-2],"categories":[],"categories_nodes":[],"categories_segments":[],"categories_sizes":[],"default_left":[0,0,0,0,0,0,0,0,0,0,0,0,0,0,0,0,0,0,0,0,0,0,0,0,0,0,0,0,0,0,0,0,0,0,0,0,0,0,0,0,0,0,0,0,0,0,0,0,0,0,0,0,0,0,0,0,0,0,0,0,0,0,0,0,0,0,0,0,0,0,0,0,0,0,0,0,0,0,0,0,0,0,0,0,0,0,0,0,0,0,0,0,0,0,0,0,0,0,0,0,0,0,0,0,0,0,0,0,0,0,0,0,0,0,0,0,0,0,0,0,0,0,0,0,0,0,0,0,0,0,0,0,0,0,0,0,0,0,0,0,0,0,0,0,0,0,0,0,0,0,0,0,0,0,0,0,0,0,0,0,0,0,0,0,0,0,0,0,0,0,0,0,0,0,0,0,0,0,0,0,0,0,0,0,0,0,0,0,0,0,0,0,0,0,0,0,0,0,0,0,0,0,0,0,0,0,0,0,0,0,0,0,0,0,0,0,0,0,0,0,0,0,0,0,0,0,0,0,0,0,0,0,0,0,0,0,0,0,0,0,0,0,0,0,0,0,0,0,0,0,0,0,0,0,0,0,0],"id":3,"left_children":[1,3,5,7,9,11,13,15,17,19,21,23,25,27,29,31,33,35,37,39,41,43,45,47,49,51,53,55,57,-1,59,61,-1,63,65,67,69,71,-1,73,-1,75,77,79,81,83,85,87,89,91,93,95,97,99,101,103,105,107,-1,109,111,113,-1,-1,-1,115,-1,117,119,121,123,-1,125,127,-1,129,131,-1,-1,133,-1,135,137,139,-1,141,143,145,147,149,151,153,155,157,-1,159,161,163,165,-1,-1,167,169,171,-1,-1,-1,-1,173,175,177,-1,-1,179,181,-1,-1,183,185,187,189,191,193,195,197,-1,-1,199,201,203,205,207,209,211,213,215,217,219,221,-1,-1,-1,-1,223,225,-1,227,-1,-1,-1,-1,-1,-1,-1,-1,229,231,-1,-1,233,235,237,239,-1,-1,241,243,245,247,-1,-1,-1,249,251,-1,253,255,-1,-1,-1,-1,-1,-1,-1,-1,-1,-1,-1,-1,-1,-1,-1,-1,-1,-1,-1,-1,-1,-1,-1,-1,-1,-1,-1,-1,-1,-1,-1,-1,-1,-1,-1,-1,-1,-1,-1,-1,-1,-1,-1,-1,-1,-1,-1,-1,-1,-1,-1,-1,-1,-1,-1,-1,-1,-1,-1,-1,-1,-1,-1,-1,-1,-1,-1,-1,-1,-1,-1,-1,-1,-1,-1,-1,-1,-1,-1,-1],"loss_changes":[4.379479E2,1.4230228E2,5.8583817E1,9.14614E0,2.6723938E1,3.2293724E1,1.106218E1,7.514201E0,9.828249E0,1.5049011E1,1.2500084E1,2.3801456E1,1.4213142E1,5.50885E0,1.1199322E1,4.2736726E0,1.1008058E1,6.320898E0,3.2932997E0,7.841255E0,1.1704437E1,6.915206E0,6.610281E0,3.944296E0,4.8360705E0,1.2083725E1,6.9298754E0,1.1272903E1,1.244873E0,0E0,4.426345E0,4.1552114E0,0E0,4.1627645E0,5.2020845E0,6.425972E0,4.004692E0,4.4803777E0,0E0,4.660984E0,0E0,6.6417236E0,5.3240356E0,6.739128E0,9.034634E0,1.4739208E0,5.026861E0,5.9704447E0,2.3286457E0,4.418209E0,3.980144E0,7.3496532E0,7.475601E0,1.6737938E-2,6.2633E0,6.96362E0,1.0085068E0,3.037567E-1,0E0,1.9018211E0,2.6952567E0,1.9202557E0,0E0,0E0,0E0,2.1450052E0,0E0,3.694829E0,1.1959525E1,5.246255E0,4.5451145E0,0E0,2.5885477E0,4.469021E0,0E0,6.0177307E0,6.950878E0,0E0,0E0,8.111778E0,0E0,5.7708583E0,1.0468563E1,1.4659234E0,0E0,1.0304251E0,3.8112278E0,6.544451E0,1.9909632E0,1.1743622E0,1.6226807E0,4.2896276E0,1.6193886E0,1.150213E0,0E0,1.0490928E1,6.836994E0,4.447292E-1,5.8174057E0,0E0,0E0,9.539209E0,4.078975E0,2.5234666E0,0E0,0E0,0E0,0E0,3.2214355E-1,3.1193726E0,2.5659752E-1,0E0,0E0,3.8288572E0,1.4080219E0,0E0,0E0,2.543831E-1,5.843761E0,7.382042E0,4.9252553E0,1.7163234E0,5.1040564E0,1.702591E0,5.451952E0,0E0,0E0,7.3462906E0,5.6378965E0,6.5070076E0,5.7313232E0,7.2217174E0,3.8130798E0,3.5769691E0,5.403729E0,5.1647563E0,4.6885014E-1,6.276746E0,3.7047973E0,0E0,0E0,0E0,0E0,3.5790281E0,1.6810443E0,0E0,5.10355E0,0E0,0E0,0E0,0E0,0E0,0E0,0E0,0E0,9.123216E-1,9.6429825E-2,0E0,0E0,5.0967913E0,7.7082796E0,5.510893E0,3.7718966E0,0E0,0E0,1.8831711E0,3.1431332E0,4.351383E0,5.0926905E0,0E0,0E0,0E0,4.498488E0,2.8176346E0,0E0,7.081413E-2,3.3717875E0,0E0,0E0,0E0,0E0,0E0,0E0,0E0,0E0,0E0,0E0,0E0,0E0,0E0,0E0,0E0,0E0,0E0,0E0,0E0,0E0,0E0,0E0,0E0,0E0,0E0,0E0,0E0,0E0,0E0,0E0,0E0,0E0,0E0,0E0,0E0,0E0,0E0,0E0,0E0,0E0,0E0,0E0,0E0,0E0,0E0,0E0,0E0,0E0,0E0,0E0,0E0,0E0,0E0,0E0,0E0,0E0,0E0,0E0,0E0,0E0,0E0,0E0,0E0,0E0,0E0,0E0,0E0,0E0,0E0,0E0,0E0,0E0,0E0,0E0,0E0,0E0,0E0,0E0,0E0,0E0],"parents":[2147483647,0,0,1,1,2,2,3,3,4,4,5,5,6,6,7,7,8,8,9,9,10,10,11,11,12,12,13,13,14,14,15,15,16,16,17,17,18,18,19,19,20,20,21,21,22,22,23,23,24,24,25,25,26,26,27,27,28,28,30,30,31,31,33,33,34,34,35,35,36,36,37,37,39,39,41,41,42,42,43,43,44,44,45,45,46,46,47,47,48,48,49,49,50,50,51,51,52,52,53,53,54,54,55,55,56,56,57,57,59,59,60,60,61,61,65,65,67,67,68,68,69,69,70,70,72,72,73,73,75,75,76,76,79,79,81,81,82,82,83,83,85,85,86,86,87,87,88,88,89,89,90,90,91,91,92,92,93,93,95,95,96,96,97,97,98,98,101,101,102,102,103,103,108,108,109,109,110,110,113,113,114,114,117,117,118,118,119,119,120,120,121,121,122,122,123,123,124,124,127,127,128,128,129,129,130,130,131,131,132,132,133,133,134,134,135,135,136,136,137,137,138,138,143,143,144,144,146,146,155,155,156,156,159,159,160,160,161,161,162,162,165,165,166,166,167,167,168,168,172,172,173,173,175,175,176,176],"right_children":[2,4,6,8,10,12,14,16,18,20,22,24,26,28,30,32,34,36,38,40,42,44,46,48,50,52,54,56,58,-1,60,62,-1,64,66,68,70,72,-1,74,-1,76,78,80,82,84,86,88,90,92,94,96,98,100,102,104,106,108,-1,110,112,114,-1,-1,-1,116,-1,118,120,122,124,-1,126,128,-1,130,132,-1,-1,134,-1,136,138,140,-1,142,144,146,148,150,152,154,156,158,-1,160,162,164,166,-1,-1,168,170,172,-1,-1,-1,-1,174,176,178,-1,-1,180,182,-1,-1,184,186,188,190,192,194,196,198,-1,-1,200,202,204,206,208,210,212,214,216,218,220,222,-1,-1,-1,-1,224,226,-1,228,-1,-1,-1,-1,-1,-1,-1,-1,230,232,-1,-1,234,236,238,240,-1,-1,242,244,246,248,-1,-1,-1,250,252,-1,254,256,-1,-1,-1,-1,-1,-1,-1,-1,-1,-1,-1,-1,-1,-1,-1,-1,-1,-1,-1,-1,-1,-1,-1,-1,-1,-1,-1,-1,-1,-1,-1,-1,-1,-1,-1,-1,-1,-1,-1,-1,-1,-1,-1,-1,-1,-1,-1,-1,-1,-1,-1,-1,-1,-1,-1,-1,-1,-1,-1,-1,-1,-1,-1,-1,-1,-1,-1,-1,-1,-1,-1,-1,-1,-1,-1,-1,-1,-1,-1,-1],"split_conditions":[1.04E1,2.4E-1,1.155E1,2.35E1,9.9E0,1.2E1,4.95E-1,3.2E0,5.5E-1,2.9E-1,5.4E-1,5.9E-1,4.15E-1,1.1E1,3.8E-1,6.2E-2,2.05E-1,4.9E-1,5.4E-1,7.6E-1,1.08E1,4.9E-1,5.5E-1,3.85E-1,9E-2,1.09E1,1.7E0,5.1E-2,9.6E-2,-1.0854326E-1,3.57E0,1.03E1,4.7568634E-2,3.32E0,5E-2,4.3E0,3.1E-1,1.4E0,2.8806465E-2,1.42E-1,7.3742844E-2,5.8E-1,6.2E-1,3.4E0,4.5E-2,7E-2,7.1E0,5.1E-2,3.1E0,1.9E0,7.5E-1,5.3E-1,1E0,1.4E0,1.1266666E1,1.26E1,1E1,1.6E-2,1.6177528E-2,6.1E-1,8E-2,1.7E0,3.2360148E-2,9.5327966E-2,-1.6247341E-2,4.2E-2,-1.17097266E-1,3.09E0,3.21E0,4E1,1.55E1,3.4669247E-2,9.3E0,9.6E0,4.9715113E-2,5E-2,6.1E-1,-5.8610376E-2,8.0585085E-2,3E1,7.308778E-2,6.4E0,6E-2,3.24E0,-1.3778631E-1,6.4E-1,9.7E-2,5.9E0,4E-1,1.0466666E1,3.7E0,6.6E-1,1.065E1,3.45E0,4.5513015E-2,1.7E0,5E-1,3.8E-2,6.9E0,-1.104323E-1,-3.2989714E-2,1.4E-1,3.5E0,1.1733334E1,7.7147216E-2,9.900721E-2,2.462416E-2,2.3307346E-2,1.5E0,3.34E0,1.14E1,3.421015E-2,-8.1125595E-2,1.0133333E1,4.8E-2,-4.0041715E-2,6.473199E-2,3E0,5.1E-2,6.15E0,9.9E0,2.7E1,7.3E0,5.1E-2,7.15E0,-1.261053E-1,-9.672562E-3,3.13E0,5.1E-2,2.1E-1,1.63E1,9E0,1.5E1,9.95E0,7.3E0,4E-2,6.5E-1,5.6E1,1.11E-1,-8.903372E-2,1.8904827E-3,-2.7170606E-2,-1.1446223E-1,7.7E-2,2.4E-1,6.209087E-2,1.8E0,7.7305414E-2,-1.4952243E-2,-2.9103251E-2,-1.1971099E-1,3.0318253E-2,-5.9332963E-2,-7.543734E-2,5.0127372E-2,8E0,3.18E0,-9.431576E-2,-3.983333E-3,4.5E-1,6.5E0,2.7E1,6.3E0,-2.7713082E-3,-6.048472E-2,1.1366667E1,2.6E-1,1.0933333E1,3.8E-1,9.462074E-2,-3.429827E-2,-1.09472066E-1,3.21E0,1.95E1,9.738714E-2,5.7E-1,2.9E1,9.427865E-2,2.3004355E-2,-6.1478026E-2,4.453443E-2,-1.31393E-1,-3.363035E-2,-1.0526666E-1,-3.5355054E-2,-3.5433747E-2,8.197378E-2,-5.5062704E-2,7.924162E-2,-1.8438637E-2,8.019119E-2,-5.4711434E-3,9.009453E-2,-5.1429518E-2,5.9402857E-2,9.8495916E-2,3.9866343E-2,6.665054E-2,-9.4592296E-2,-3.41466E-2,-8.654455E-2,1.5189539E-2,-7.107156E-2,-1.182888E-1,-5.6002486E-2,-1.1349935E-1,-1.1738437E-2,-5.4683026E-2,4.1390523E-2,-5.362579E-2,-1.0138331E-1,-1.6522312E-3,-1.2076486E-1,-4.5484588E-2,5.0048392E-2,5.7849083E-2,-7.232404E-2,9.672695E-2,3.269029E-2,-7.431876E-2,6.3882284E-2,3.6658384E-2,-6.0150295E-2,-4.378994E-2,5.3137418E-2,1.1342041E-3,-1.0610482E-1,-1.3566978E-1,-8.102151E-3,-1.5358691E-2,4.3114576E-2,4.0677365E-2,9.3825474E-2,-4.9843606E-2,4.6722315E-2,7.2848424E-2,6.39095E-3,1.9199215E-2,8.2922764E-2,-9.322974E-2,2.1456197E-2,9.275284E-2,5.3290885E-2,-1.7301627E-2,5.3324625E-2,6.657763E-2,-1.6849529E-2,-6.533518E-2,2.4650851E-2,4.120027E-2,-8.7018326E-2,1.302147E-2,8.585198E-2,8.183258E-2,2.2038206E-2,-5.0552774E-2,6.295875E-2],"split_indices":[8,1,8,5,8,5,1,3,2,1,1,7,1,5,7,4,1,7,7,7,0,7,7,1,4,8,3,4,4,0,6,8,0,6,4,3,2,3,0,4,0,7,7,6,4,4,0,4,3,3,7,7,3,3,8,8,5,4,0,7,2,3,0,0,0,4,0,6,6,5,3,0,8,8,0,4,7,0,0,5,0,0,4,6,0,1,4,0,2,8,3,7,8,3,0,3,2,4,0,0,0,2,6,8,0,0,0,0,3,6,0,0,0,8,4,0,0,6,4,0,8,5,0,4,0,0,0,6,4,2,3,3,5,8,0,4,7,5,4,0,0,0,0,4,2,0,3,0,0,0,0,0,0,0,0,5,6,0,0,2,3,5,0,0,0,8,2,8,2,0,0,0,6,5,0,7,5,0,0,0,0,0,0,0,0,0,0,0,0,0,0,0,0,0,0,0,0,0,0,0,0,0,0,0,0,0,0,0,0,0,0,0,0,0,0,0,0,0,0,0,0,0,0,0,0,0,0,0,0,0,0,0,0,0,0,0,0,0,0,0,0,0,0,0,0,0,0,0,0,0,0,0,0,0,0,0,0],"split_type":[0,0,0,0,0,0,0,0,0,0,0,0,0,0,0,0,0,0,0,0,0,0,0,0,0,0,0,0,0,0,0,0,0,0,0,0,0,0,0,0,0,0,0,0,0,0,0,0,0,0,0,0,0,0,0,0,0,0,0,0,0,0,0,0,0,0,0,0,0,0,0,0,0,0,0,0,0,0,0,0,0,0,0,0,0,0,0,0,0,0,0,0,0,0,0,0,0,0,0,0,0,0,0,0,0,0,0,0,0,0,0,0,0,0,0,0,0,0,0,0,0,0,0,0,0,0,0,0,0,0,0,0,0,0,0,0,0,0,0,0,0,0,0,0,0,0,0,0,0,0,0,0,0,0,0,0,0,0,0,0,0,0,0,0,0,0,0,0,0,0,0,0,0,0,0,0,0,0,0,0,0,0,0,0,0,0,0,0,0,0,0,0,0,0,0,0,0,0,0,0,0,0,0,0,0,0,0,0,0,0,0,0,0,0,0,0,0,0,0,0,0,0,0,0,0,0,0,0,0,0,0,0,0,0,0,0,0,0,0,0,0,0,0,0,0,0,0,0,0,0,0,0,0,0,0,0,0],"sum_hessian":[1.0728336E3,5.598989E2,5.1293463E2,1.4378262E2,4.1611633E2,3.1215305E2,2.0078159E2,3.3880875E1,1.0990175E2,3.188898E2,9.7226524E1,5.0915634E1,2.6123743E2,1.7976137E2,2.102023E1,1.9555386E1,1.4325488E1,1.01364174E2,8.537573E0,8.532293E1,2.3356688E2,7.1062E1,2.6164528E1,2.7048939E1,2.3866697E1,2.2087366E2,4.036376E1,2.1745213E1,1.5801614E2,1.9869692E0,1.9033258E1,1.7742102E1,1.8132844E0,9.345523E0,4.979965E0,6.1128162E1,4.023601E1,6.484148E0,2.053425E0,8.33493E1,1.973634E0,2.2907062E2,4.496258E0,2.5471733E1,4.5590267E1,1.0646871E1,1.5517658E1,1.21835785E1,1.486536E1,1.8691427E1,5.175269E0,1.0131568E2,1.19557976E2,2.9168706E0,3.744689E1,8.546128E0,1.3199083E1,1.5639069E2,1.6254612E0,1.6247812E1,2.785447E0,1.5661656E1,2.0804443E0,7.248494E0,2.0970287E0,2.5000937E0,2.4798715E0,1.2623503E1,4.8504658E1,1.4218422E1,2.6017591E1,1.3618017E0,5.1223464E0,8.1678764E1,1.6705323E0,1.5665544E2,7.241518E1,1.6972247E0,2.799033E0,2.385298E1,1.6187522E0,1.3518877E1,3.207139E1,2.9664886E0,7.680382E0,5.307766E0,1.0209892E1,8.394983E0,3.7885945E0,1.2036549E1,2.828812E0,4.191858E0,1.449957E1,3.3896403E0,1.7856288E0,5.9336067E1,4.1979618E1,2.8664432E0,1.16691536E2,1.7133998E0,1.2034708E0,3.0741037E1,6.705853E0,6.3406487E0,2.2054796E0,1.1208023E1,1.9910603E0,1.1046987E0,1.55286E2,8.352078E0,7.8957343E0,1.3555738E0,1.4298732E0,1.0327309E1,5.3343477E0,1.1627841E0,1.3373096E0,3.603538E0,9.019964E0,2.5106594E1,2.3398066E1,5.888499E0,8.329923E0,2.3265406E1,2.752185E0,3.4761486E0,1.6461979E0,6.5535965E1,1.6142796E1,5.149523E1,1.0516021E2,2.1956734E1,5.0458447E1,1.0443366E1,1.3409615E1,4.908277E0,8.6105995E0,1.6310946E1,1.5760443E1,1.2444272E0,1.7220615E0,1.8606578E0,3.4471083E0,7.5460877E0,2.6638045E0,1.1354411E0,7.2595425E0,1.8431864E0,1.9454081E0,1.6949639E0,1.0341585E1,1.1594336E0,1.6693784E0,2.191151E0,2.0007071E0,5.258136E0,9.241434E0,2.2159126E0,1.1737278E0,1.8958899E1,4.0377167E1,3.6927303E1,5.0523148E0,1.1819246E0,1.6845186E0,5.903155E1,5.7659985E1,1.4073486E1,1.6667551E1,5.508892E0,1.1969609E0,1.984177E0,4.356472E0,2.3882206E1,1.3140378E2,3.925076E0,4.427002E0,6.7936454E0,1.1020887E0,8.707169E0,1.6201402E0,3.1845176E0,2.1498299E0,1.4631597E0,2.1403782E0,6.5295205E0,2.4904442E0,1.8449613E0,2.3261633E1,2.1124714E1,2.273352E0,1.1615149E0,4.726984E0,5.709552E0,2.620371E0,1.7655304E1,5.610101E0,1.5238743E0,1.2283108E0,2.8113052E1,3.7422916E1,1.0096479E1,6.0463157E0,1.4148754E1,3.7346478E1,1.01697395E2,3.4628131E0,1.6938177E1,5.0185566E0,1.9408081E1,3.1050364E1,1.6922477E0,8.751118E0,9.469534E0,3.9400802E0,2.272715E0,2.6355617E0,6.376904E0,2.233696E0,1.49893875E1,1.3215591E0,1.4076322E1,1.6841211E0,2.3851435E0,5.160944E0,1.2035089E0,1.4602958E0,4.4543357E0,2.8052068E0,1.5974861E0,3.6606498E0,2.6584473E0,6.582987E0,1.6036774E1,2.922126E0,1.5415887E1,2.496128E1,1.1834046E1,2.5093256E1,1.6519144E0,3.4004004E0,4.5044853E1,1.3986695E1,3.332758E0,5.432723E1,9.233322E0,4.840164E0,1.2472039E1,4.195512E0,2.6676137E0,1.6888582E0,3.94874E0,1.9933466E1,2.8349907E0,1.0900853E0,3.113828E0,1.3131741E0],"tree_param":{"num_deleted":"0","num_feature":"9","num_nodes":"257","size_leaf_vector":"1"}},{"base_weights":[9.654637E-3,-5.568743E-1,6.4208215E-1,1.14560075E-1,-8.7845194E-1,3.7974387E-1,1.0540999E0,3.099063E-1,-2.7572054E-1,-9.958474E-1,-4.8593792E-1,-2.9902348E-1,5.1419115E-1,1.1333307E0,3.6853454E-1,2.6374253E-2,5.824444E-1,-1.0919945E0,-8.464489E-2,-1.0238948E0,4.8112914E-1,-3.492603E-1,-1.2541364E0,-8.7959456E-1,3.791658E-1,7.553626E-1,3.0574483E-1,6.2496597E-1,1.1997238E0,-1.0271011E-1,6.146061E-1,-3.549894E-1,5.184168E-1,8.4410936E-1,1.0644086E-1,4.1385572E-2,-1.4179622E0,2.8303158E-1,-5.343311E-1,-7.2860205E-1,-1.1517433E0,-6.282652E-2,9.831675E-1,-5.150246E-1,2.7865361E-2,-7.760365E-1,-1.4910991E0,-4.3416503E-1,-1.1919423E0,6.010671E-1,-3.7848192E-1,5.0838584E-1,1.13341E0,-6.6966224E-1,3.815932E-1,-2.1869537E-1,1.1621382E0,1.2089779E0,1.546981E-2,8.040655E-1,-3.9100567E-1,-1.0691618E-1,-2.1181497E-1,-3.091149E-1,7.7503335E-1,1.0483842E0,2.0810117E-1,-6.902444E-1,6.519534E-1,-6.408632E-2,6.554786E-2,-1.3616766E-1,4.3072044E-3,6.8237555E-1,-7.6241595E-1,1.2219815E-1,-9.5315444E-1,-1.5222623E0,-5.3789663E-1,-1.2899737E0,-8.772136E-1,2.1839472E-2,8.265871E-2,-6.2005335E-1,6.564952E-1,3.204649E-1,-6.645613E-1,7.70135E-2,-1.1344042E-1,-2.5319891E-2,-1.24364756E-1,-8.441699E-1,4.6948785E-1,-1.359893E0,-3.0618936E-1,-2.1954536E-1,8.416082E-1,-8.942766E-1,4.3769155E-2,-4.34669E-1,5.661203E-1,1.1679708E0,-9.998031E-3,6.987598E-2,-1.12903E0,4.2271924E-1,-1.07376054E-1,-7.089761E-1,7.461069E-2,9.584204E-2,2.3531204E-2,1.041473E0,1.2805651E0,4.095642E-1,1.1340165E0,3.294501E-2,-7.681858E-2,-6.5696716E-1,5.3650256E-2,3.523593E-1,-8.5712284E-2,1.6504614E-1,1.075321E0,-2.0843433E-2,1.1293283E0,-7.7305126E-1,5.986062E-1,-1.2905873E0,7.538259E-2,-4.7557518E-2,8.979745E-1,-2.1602035E-1,8.247165E-1,-1.38436E0,3.7740776E-1,8.221147E-1,-1.2127251E-1,-1.2694441E0,3.47718E-1,-1.0141155E0,-1.3229743E-1,-7.254357E-1,5.490839E-2,-1.3089705E0,1.6528329E-2,-5.0663644E-1,-1.108916E0,9.295139E-3,-8.697931E-1,-1.632076E-2,8.129807E-2,5.5798036E-1,-5.14938E-1,4.4084582E-2,-1.0989208E0,6.023567E-2,-1.1619772E0,7.462661E-2,-1.419095E-2,-1.5109649E0,-4.9307662E-1,-5.6527246E-2,2.9664803E-2,-7.101756E-2,4.8189275E-2,-1.3125368E-2,9.333196E-1,-8.8851795E-2,-3.8199215E-3,6.0705077E-2,-8.317903E-2,6.0452074E-1,-5.8520358E-2,7.395192E-3,1.2031457E0,-1.5111306E0,1.7394463E-2,4.6976572E-1,-1.0979639E0,3.735837E-2,-1.1098174E0,4.7772307E-2,1.0845494E0,9.667717E-2,1.7763183E-2,-1.4074276E-1,9.4288343E-1,9.1223694E-2,2.2195691E-2,-6.465551E-3,-8.836993E-2,3.1530656E-2,-3.2978576E-2,5.9573524E-2,-4.1901633E-2,5.3533994E-2,-4.8484754E-2,9.120295E-3,8.869769E-2,9.1318026E-2,-4.6134763E-3,-7.6888494E-2,-9.0172505E-3,7.395688E-2,-7.260561E-2,-1.3588244E-1,-4.0622517E-2,-7.995878E-3,8.050962E-2,6.145127E-2,-8.314754E-2,7.532413E-2,-2.0858355E-2,-2.9090611E-2,-1.178291E-1,6.641764E-2,-2.07874E-2,8.22999E-2,-3.0818474E-3,1.0564808E-2,-1.1719539E-1,4.2541552E-2,-4.4937246E-3,-1.1739606E-1,-2.0080188E-2,-7.922957E-2,-2.8198568E-2,-8.7161265E-2,2.3037769E-2,-1.01287864E-1,-5.4476682E-2,4.7418955E-3,-8.039516E-2,-3.0452328E-2,-9.7399116E-2,-3.7604757E-2,6.0312547E-2,-7.8458786E-2,-2.2664424E-2,-2.5223637E-2,6.03351E-2,-8.421068E-2,3.7454758E-2,-3.2097813E-2,-1.1208563E-1,-1.264398E-1,-7.643316E-3,-4.181242E-2,-1.20156996E-1,3.5002895E-2,-9.100447E-2,-1.3115083E-2,7.801284E-2,2.7708275E-2,6.019211E-2,9.524945E-2,5.4618906E-2,-3.6631092E-2,-1.2272163E-1,9.098877E-3,5.2970424E-2,-3.0526202E-2,-1.05542086E-1,-6.216318E-2,6.359521E-2,-9.975488E-2,-2.444782E-2,-4.7758825E-2,5.469615E-2,4.393763E-2,8.989544E-2,-4.130213E-2,5.812264E-2,7.889072E-2,2.2203816E-2],"categories":[],"categories_nodes":[],"categories_segments":[],"categories_sizes":[],"default_left":[0,0,0,0,0,0,0,0,0,0,0,0,0,0,0,0,0,0,0,0,0,0,0,0,0,0,0,0,0,0,0,0,0,0,0,0,0,0,0,0,0,0,0,0,0,0,0,0,0,0,0,0,0,0,0,0,0,0,0,0,0,0,0,0,0,0,0,0,0,0,0,0,0,0,0,0,0,0,0,0,0,0,0,0,0,0,0,0,0,0,0,0,0,0,0,0,0,0,0,0,0,0,0,0,0,0,0,0,0,0,0,0,0,0,0,0,0,0,0,0,0,0,0,0,0,0,0,0,0,0,0,0,0,0,0,0,0,0,0,0,0,0,0,0,0,0,0,0,0,0,0,0,0,0,0,0,0,0,0,0,0,0,0,0,0,0,0,0,0,0,0,0,0,0,0,0,0,0,0,0,0,0,0,0,0,0,0,0,0,0,0,0,0,0,0,0,0,0,0,0,0,0,0,0,0,0,0,0,0,0,0,0,0,0,0,0,0,0,0,0,0,0,0,0,0,0,0,0,0,0,0,0,0,0,0,0,0,0,0,0,0,0,0,0,0,0,0,0,0,0,0,0,0,0,0,0,0,0,0,0,0,0,0,0,0,0,0,0,0,0,0,0,0,0,0],"id":4,"left_children":[1,3,5,7,9,11,13,15,17,19,21,23,25,27,29,31,33,35,37,39,41,43,45,47,49,51,53,55,57,-1,59,61,63,65,67,69,71,73,75,77,79,-1,81,83,85,87,89,91,93,95,97,99,101,103,105,107,109,111,-1,113,115,-1,117,119,121,123,125,127,129,-1,-1,-1,-1,131,133,135,137,139,141,143,145,-1,-1,147,149,151,153,-1,-1,-1,-1,155,157,159,161,163,165,167,-1,169,171,173,-1,-1,175,177,-1,179,-1,-1,-1,181,183,185,187,-1,-1,189,191,193,-1,195,197,-1,199,201,203,205,-1,-1,207,209,211,213,215,217,-1,219,221,223,-1,225,227,229,-1,231,233,235,237,-1,-1,239,241,-1,243,-1,245,-1,-1,247,249,-1,-1,-1,-1,-1,251,-1,-1,-1,-1,253,-1,-1,255,257,-1,259,261,263,265,267,269,-1,-1,271,273,-1,-1,-1,-1,-1,-1,-1,-1,-1,-1,-1,-1,-1,-1,-1,-1,-1,-1,-1,-1,-1,-1,-1,-1,-1,-1,-1,-1,-1,-1,-1,-1,-1,-1,-1,-1,-1,-1,-1,-1,-1,-1,-1,-1,-1,-1,-1,-1,-1,-1,-1,-1,-1,-1,-1,-1,-1,-1,-1,-1,-1,-1,-1,-1,-1,-1,-1,-1,-1,-1,-1,-1,-1,-1,-1,-1,-1,-1,-1,-1,-1,-1,-1,-1,-1,-1,-1,-1],"loss_changes":[3.8111902E2,1.21252914E2,5.392697E1,1.4006262E1,1.7003632E1,2.8321037E1,1.0172501E1,9.424059E0,9.489765E0,1.2555023E1,8.940901E0,2.0674557E1,1.2738663E1,5.1327515E0,1.0113588E1,1.1615123E1,7.662142E0,4.332896E0,8.561509E0,9.960999E0,4.866858E0,4.8417063E0,3.2770538E-1,3.3969173E0,4.3509336E0,1.0527908E1,1.0617985E1,1.03241E1,1.1578522E0,0E0,4.0641303E0,5.0493007E0,5.974451E0,4.9808445E0,1.0542061E1,3.399037E0,5.3917904E0,1.2476844E1,6.5034304E0,1.2675632E1,6.37912E0,0E0,8.099604E-2,7.013686E0,5.182211E0,1.0089197E1,9.20084E-1,5.2758265E0,1.958643E0,4.0056014E0,3.58347E0,4.2613544E0,2.1774178E0,8.752743E0,1.0344145E1,6.3488736E0,9.47855E-1,4.823761E-1,0E0,1.7338362E0,2.4441261E0,0E0,3.8130467E0,4.3221097E0,3.6505451E0,3.5389328E0,4.6680984E0,1.1397356E1,5.093154E0,0E0,0E0,0E0,0E0,2.8956776E0,6.468913E0,1.3420526E1,6.323042E0,2.6548386E-1,8.203457E0,4.0043945E0,5.3977127E0,0E0,0E0,7.833763E0,2.0680923E0,3.84222E0,4.786112E0,0E0,0E0,0E0,0E0,5.863237E0,1.8336403E0,9.743633E-1,1.5024863E0,3.8569582E0,1.5782518E0,1.020062E0,0E0,4.9416065E0,4.0870457E0,1.5761604E0,0E0,0E0,4.815996E0,9.707043E0,0E0,2.237296E0,0E0,0E0,0E0,2.1184654E0,5.9350586E-1,2.8495684E0,2.35363E-1,0E0,0E0,3.4742098E0,3.9757726E0,2.3471553E0,0E0,4.0575113E0,1.2709532E0,0E0,3.0709648E0,4.628966E-1,6.06287E0,2.0501928E0,0E0,0E0,2.3032246E0,4.326826E0,3.9539604E0,4.4010544E-1,1.4918077E0,1.8852077E0,0E0,5.06324E0,3.5438502E-1,2.7666078E0,0E0,6.062584E0,6.060505E0,2.1176147E0,0E0,9.262573E0,5.055908E0,6.5467343E0,3.252365E0,0E0,0E0,3.4513435E0,3.3268263E0,0E0,9.526601E-1,0E0,4.439105E0,0E0,0E0,3.6252975E-2,2.9397671E0,0E0,0E0,0E0,0E0,0E0,1.8488827E0,0E0,0E0,0E0,0E0,2.894888E0,0E0,0E0,4.5706558E-1,7.605839E-2,0E0,1.024172E1,3.1509924E-1,3.1827977E0,3.9646244E-1,1.9352033E0,2.0593529E0,0E0,0E0,2.4637241E0,2.9176712E-2,0E0,0E0,0E0,0E0,0E0,0E0,0E0,0E0,0E0,0E0,0E0,0E0,0E0,0E0,0E0,0E0,0E0,0E0,0E0,0E0,0E0,0E0,0E0,0E0,0E0,0E0,0E0,0E0,0E0,0E0,0E0,0E0,0E0,0E0,0E0,0E0,0E0,0E0,0E0,0E0,0E0,0E0,0E0,0E0,0E0,0E0,0E0,0E0,0E0,0E0,0E0,0E0,0E0,0E0,0E0,0E0,0E0,0E0,0E0,0E0,0E0,0E0,0E0,0E0,0E0,0E0,0E0,0E0,0E0,0E0,0E0,0E0,0E0,0E0,0E0,0E0,0E0,0E0,0E0,0E0,0E0,0E0,0E0,0E0,0E0,0E0,0E0,0E0],"parents":[2147483647,0,0,1,1,2,2,3,3,4,4,5,5,6,6,7,7,8,8,9,9,10,10,11,11,12,12,13,13,14,14,15,15,16,16,17,17,18,18,19,19,20,20,21,21,22,22,23,23,24,24,25,25,26,26,27,27,28,28,30,30,31,31,32,32,33,33,34,34,35,35,36,36,37,37,38,38,39,39,40,40,42,42,43,43,44,44,45,45,46,46,47,47,48,48,49,49,50,50,51,51,52,52,53,53,54,54,55,55,56,56,57,57,59,59,60,60,62,62,63,63,64,64,65,65,66,66,67,67,68,68,73,73,74,74,75,75,76,76,77,77,78,78,79,79,80,80,83,83,84,84,85,85,86,86,91,91,92,92,93,93,94,94,95,95,96,96,97,97,99,99,100,100,101,101,104,104,105,105,107,107,111,111,112,112,113,113,114,114,117,117,118,118,119,119,121,121,122,122,124,124,125,125,126,126,127,127,130,130,131,131,132,132,133,133,134,134,135,135,137,137,138,138,139,139,141,141,142,142,143,143,145,145,146,146,147,147,148,148,151,151,152,152,154,154,156,156,159,159,160,160,166,166,171,171,174,174,175,175,177,177,178,178,179,179,180,180,181,181,182,182,185,185,186,186],"right_children":[2,4,6,8,10,12,14,16,18,20,22,24,26,28,30,32,34,36,38,40,42,44,46,48,50,52,54,56,58,-1,60,62,64,66,68,70,72,74,76,78,80,-1,82,84,86,88,90,92,94,96,98,100,102,104,106,108,110,112,-1,114,116,-1,118,120,122,124,126,128,130,-1,-1,-1,-1,132,134,136,138,140,142,144,146,-1,-1,148,150,152,154,-1,-1,-1,-1,156,158,160,162,164,166,168,-1,170,172,174,-1,-1,176,178,-1,180,-1,-1,-1,182,184,186,188,-1,-1,190,192,194,-1,196,198,-1,200,202,204,206,-1,-1,208,210,212,214,216,218,-1,220,222,224,-1,226,228,230,-1,232,234,236,238,-1,-1,240,242,-1,244,-1,246,-1,-1,248,250,-1,-1,-1,-1,-1,252,-1,-1,-1,-1,254,-1,-1,256,258,-1,260,262,264,266,268,270,-1,-1,272,274,-1,-1,-1,-1,-1,-1,-1,-1,-1,-1,-1,-1,-1,-1,-1,-1,-1,-1,-1,-1,-1,-1,-1,-1,-1,-1,-1,-1,-1,-1,-1,-1,-1,-1,-1,-1,-1,-1,-1,-1,-1,-1,-1,-1,-1,-1,-1,-1,-1,-1,-1,-1,-1,-1,-1,-1,-1,-1,-1,-1,-1,-1,-1,-1,-1,-1,-1,-1,-1,-1,-1,-1,-1,-1,-1,-1,-1,-1,-1,-1,-1,-1,-1,-1,-1,-1,-1,-1],"split_conditions":[1.04E1,2.55E-1,1.155E1,2.3E-1,9.9E0,1.2E1,4.95E-1,6.5E0,4.2E-1,1.09E1,6.75E-1,5.9E-1,2.45E-1,1.1E1,3.8E-1,4.9E-1,2.05E-1,6E0,5E-2,4.9E-2,5.8E-1,6.2E-1,3.36E0,3.85E-1,9E-2,5.3E-1,1.3E0,5.1E-2,9.6E-2,-1.0271011E-1,3.57E0,3E-2,3.11E0,5.05E1,2.2E-1,1.9E0,5.5E-2,5.4E1,3.1E0,2.1E-1,5.8E-1,-6.282652E-2,3.03E0,5.95E1,2.8E1,1.3E-1,1.9E0,5.1E-2,3.1E0,1.9E0,7.5E-1,2.98E0,8.8E-1,5.9E0,6.7E1,1.26E1,1E1,1.2066667E1,1.546981E-2,6.1E-1,8E-2,-1.0691618E-1,6.6E0,7.15E0,3.1E-1,3.5E-1,3.1E0,9.533334E0,3.8E-1,-6.408632E-2,6.554786E-2,-1.3616766E-1,4.3072044E-3,3.6E-2,6.8E0,9.5E0,3.33E0,4.5E-1,3.22E0,1.95E1,1.5E1,2.1839472E-2,8.265871E-2,4.5E-2,6.7E0,3.6E0,6.4E-1,7.70135E-2,-1.1344042E-1,-2.5319891E-2,-1.24364756E-1,5.9E0,4E-1,8.8E-2,7E0,6.6E-1,4.9E-2,3.45E0,4.3769155E-2,7.1E0,1.48E1,1.4E1,-9.998031E-3,6.987598E-2,3.55E1,8.6E-1,-1.07376054E-1,2.9E0,7.461069E-2,9.584204E-2,2.3531204E-2,2.2E-2,7.9E-2,1.9E1,1.14E1,3.294501E-2,-7.681858E-2,1.6E0,7.5E0,3.7E1,-8.5712284E-2,2.8E-1,3.18E0,-2.0843433E-2,6.2E-2,5.8E1,3.35E0,3.7E-1,7.538259E-2,-4.7557518E-2,3.3E1,3.4E-2,4.3E-1,6.4E0,7.15E0,5.9E-2,-1.2127251E-1,1.9E0,1.31E1,2.8E1,-1.3229743E-1,5.05E1,2.6E0,9.733334E0,1.6528329E-2,5.55E-1,6E-1,4.9E-1,3.75E1,-1.632076E-2,8.129807E-2,5.2E-2,5.9E0,4.4084582E-2,7.4E0,6.023567E-2,1.8E0,7.462661E-2,-1.419095E-2,1.0466666E1,6.35E-1,-5.6527246E-2,2.9664803E-2,-7.101756E-2,4.8189275E-2,-1.3125368E-2,6.7E0,-8.8851795E-2,-3.8199215E-3,6.0705077E-2,-8.317903E-2,2.1E0,-5.8520358E-2,7.395192E-3,3.42E0,3.5E-2,1.7394463E-2,1.075E1,5.9E-2,6.9E0,5.6E0,2.2E1,1.5E0,9.667717E-2,1.7763183E-2,7E0,3.42E0,9.1223694E-2,2.2195691E-2,-6.465551E-3,-8.836993E-2,3.1530656E-2,-3.2978576E-2,5.9573524E-2,-4.1901633E-2,5.3533994E-2,-4.8484754E-2,9.120295E-3,8.869769E-2,9.1318026E-2,-4.6134763E-3,-7.6888494E-2,-9.0172505E-3,7.395688E-2,-7.260561E-2,-1.3588244E-1,-4.0622517E-2,-7.995878E-3,8.050962E-2,6.145127E-2,-8.314754E-2,7.532413E-2,-2.0858355E-2,-2.9090611E-2,-1.178291E-1,6.641764E-2,-2.07874E-2,8.22999E-2,-3.0818474E-3,1.0564808E-2,-1.1719539E-1,4.2541552E-2,-4.4937246E-3,-1.1739606E-1,-2.0080188E-2,-7.922957E-2,-2.8198568E-2,-8.7161265E-2,2.3037769E-2,-1.01287864E-1,-5.4476682E-2,4.7418955E-3,-8.039516E-2,-3.0452328E-2,-9.7399116E-2,-3.7604757E-2,6.0312547E-2,-7.8458786E-2,-2.2664424E-2,-2.5223637E-2,6.03351E-2,-8.421068E-2,3.7454758E-2,-3.2097813E-2,-1.1208563E-1,-1.264398E-1,-7.643316E-3,-4.181242E-2,-1.20156996E-1,3.5002895E-2,-9.100447E-2,-1.3115083E-2,7.801284E-2,2.7708275E-2,6.019211E-2,9.524945E-2,5.4618906E-2,-3.6631092E-2,-1.2272163E-1,9.098877E-3,5.2970424E-2,-3.0526202E-2,-1.05542086E-1,-6.216318E-2,6.359521E-2,-9.975488E-2,-2.444782E-2,-4.7758825E-2,5.469615E-2,4.393763E-2,8.989544E-2,-4.130213E-2,5.812264E-2,7.889072E-2,2.2203816E-2],"split_indices":[8,1,8,1,8,5,1,3,7,0,1,7,1,5,7,7,1,3,4,4,7,7,6,1,4,7,3,4,4,0,6,4,6,5,1,3,4,5,6,2,7,0,6,5,5,2,3,4,3,3,7,6,7,0,5,8,5,8,0,7,2,0,0,0,2,7,6,8,7,0,0,0,0,4,0,8,6,7,6,3,5,0,0,4,3,3,7,0,0,0,0,0,2,4,5,7,4,3,0,0,3,5,0,0,5,1,0,3,0,0,0,4,4,5,0,0,0,3,0,5,0,2,6,0,4,5,6,2,0,0,5,4,2,0,0,4,0,3,3,5,0,5,3,8,0,1,7,7,5,0,0,4,3,0,0,0,3,0,0,8,1,0,0,0,0,0,0,0,0,0,0,3,0,0,6,4,0,8,4,0,3,5,3,0,0,0,6,0,0,0,0,0,0,0,0,0,0,0,0,0,0,0,0,0,0,0,0,0,0,0,0,0,0,0,0,0,0,0,0,0,0,0,0,0,0,0,0,0,0,0,0,0,0,0,0,0,0,0,0,0,0,0,0,0,0,0,0,0,0,0,0,0,0,0,0,0,0,0,0,0,0,0,0,0,0,0,0,0,0,0,0,0,0,0,0],"split_type":[0,0,0,0,0,0,0,0,0,0,0,0,0,0,0,0,0,0,0,0,0,0,0,0,0,0,0,0,0,0,0,0,0,0,0,0,0,0,0,0,0,0,0,0,0,0,0,0,0,0,0,0,0,0,0,0,0,0,0,0,0,0,0,0,0,0,0,0,0,0,0,0,0,0,0,0,0,0,0,0,0,0,0,0,0,0,0,0,0,0,0,0,0,0,0,0,0,0,0,0,0,0,0,0,0,0,0,0,0,0,0,0,0,0,0,0,0,0,0,0,0,0,0,0,0,0,0,0,0,0,0,0,0,0,0,0,0,0,0,0,0,0,0,0,0,0,0,0,0,0,0,0,0,0,0,0,0,0,0,0,0,0,0,0,0,0,0,0,0,0,0,0,0,0,0,0,0,0,0,0,0,0,0,0,0,0,0,0,0,0,0,0,0,0,0,0,0,0,0,0,0,0,0,0,0,0,0,0,0,0,0,0,0,0,0,0,0,0,0,0,0,0,0,0,0,0,0,0,0,0,0,0,0,0,0,0,0,0,0,0,0,0,0,0,0,0,0,0,0,0,0,0,0,0,0,0,0,0,0,0,0,0,0,0,0,0,0,0,0,0,0,0,0,0,0],"sum_hessian":[1.0617231E3,5.601025E2,5.0162064E2,1.815924E2,3.7851007E2,3.0765402E2,1.9396661E2,1.2115628E2,6.0436127E1,2.9018323E2,8.832686E1,5.0661495E1,2.5699252E2,1.7328671E2,2.0679897E1,5.991801E1,6.1238266E1,1.0569272E1,4.986685E1,2.8507645E2,5.1067734E0,7.62204E1,1.2106457E1,2.7135172E1,2.3526325E1,1.1792735E2,1.3906519E2,2.1220064E1,1.5206665E2,1.9985832E0,1.8681314E1,3.3912357E1,2.6005651E1,3.9016888E1,2.222138E1,2.5558157E0,8.013457E0,2.7639004E1,2.2227848E1,8.815741E1,1.9691904E2,1.2236825E0,3.883091E0,5.2693497E1,2.3526903E1,5.428584E0,6.677873E0,1.2169966E1,1.4965205E1,1.8356657E1,5.1696672E0,7.2746895E1,4.5180454E1,9.468728E0,1.2959645E2,8.485676E0,1.2734387E1,1.5044829E2,1.6183633E0,1.5888337E1,2.7929766E0,2.9438143E0,3.0968542E1,6.1070824E0,1.989857E1,2.9041029E1,9.975859E0,8.923655E0,1.3297726E1,1.2184505E0,1.337365E0,6.1307106E0,1.882746E0,2.025081E1,7.388192E0,8.93304E0,1.3294809E1,1.5726408E1,7.2431E1,1.2851212E2,6.840692E1,1.0753542E0,2.8077366E0,4.8790108E1,3.9033897E0,1.691591E1,6.610991E0,1.4601252E0,3.9684587E0,1.2271348E0,5.450738E0,8.416886E0,3.7530797E0,1.2129915E1,2.8352904E0,4.1808515E0,1.4175805E1,3.4112575E0,1.75841E0,3.8200545E0,6.892684E1,4.405639E1,1.1240687E0,1.8815445E0,7.587184E0,1.2747219E2,2.1242654E0,6.3399625E0,2.1457136E0,1.0760015E1,1.9743729E0,4.9701496E1,1.0074679E2,8.257116E0,7.6312213E0,1.3410221E0,1.4519545E0,1.1017982E1,1.9950562E1,3.727236E0,2.379846E0,7.0754766E0,1.2823093E1,1.5304618E0,2.7510567E1,2.5611913E0,7.414667E0,6.766352E0,2.1573024E0,1.8820509E0,1.1415675E1,2.6988955E0,1.7551916E1,4.641191E0,2.7470014E0,6.7456045E0,2.187435E0,1.0714004E1,2.5808063E0,6.7439384E0,8.9824705E0,5.485379E1,1.7577208E1,1.27047485E2,1.4646264E0,2.7542673E1,4.086425E1,1.41342745E1,3.4655834E1,1.4432304E0,2.4601593E0,1.3429749E1,3.4861622E0,1.6114829E0,4.9995084E0,1.1142392E0,7.3026466E0,1.8035578E0,1.9495218E0,9.696802E0,2.433113E0,1.6860057E0,1.1492848E0,2.2142298E0,1.9666219E0,1.0978637E0,1.3077942E1,2.2363834E0,1.174874E0,1.2724668E0,2.5475879E0,6.755122E1,1.3756195E0,1.5241205E0,4.2532265E1,5.837819E0,1.7493646E0,1.24317184E2,3.1550076E0,2.5321329E0,3.8078299E0,2.1526415E0,4.7548855E1,9.970325E1,1.0435466E0,4.426116E0,3.831E0,6.537875E0,1.0933462E0,5.815773E0,5.2022085E0,1.1528416E1,8.422146E0,2.5960226E0,1.1312134E0,4.29299E0,2.7824867E0,1.5127027E0,1.131039E1,2.5591688E1,1.9188797E0,1.4361476E0,1.1250436E0,6.24154E0,1.1731274E0,3.1531155E0,3.6132367E0,1.7559738E0,9.659701E0,1.2875282E0,1.4113673E0,1.5170576E1,2.38134E0,1.2179507E0,3.4232402E0,1.3477871E0,1.3992141E0,4.909176E0,1.8364286E0,1.9332466E0,8.780757E0,1.4230365E0,1.1577698E0,3.2481627E0,3.4957755E0,2.713348E1,2.7720312E1,2.3985038E0,1.5178703E1,1.1736275E2,9.684734E0,1.4158275E1,1.33843975E1,9.353666E0,3.1510586E1,8.830219E0,5.304055E0,2.5798529E1,8.857306E0,2.8230073E0,1.0606742E1,2.1129632E0,1.373199E0,2.6264324E0,2.373076E0,4.492237E0,2.8104095E0,1.4668665E0,8.229936E0,1.1941099E0,1.2390032E0,1.0941067E0,1.1983835E1,3.2197655E1,3.535357E1,3.5816414E1,6.715854E0,1.171052E0,4.666767E0,5.0875217E1,7.344196E1,1.6916512E0,1.4633564E0,1.213175E0,1.3189578E0,2.4285924E0,1.3792374E0,1.1066602E0,1.0459812E0,9.992555E0,3.75563E1,3.3327162E0,1.0933999E0,2.7426598E0,1.0883402E0],"tree_param":{"num_deleted":"0","num_feature":"9","num_nodes":"275","size_leaf_vector":"1"}},{"base_weights":[8.20655E-3,-5.188082E-1,6.0866284E-1,2.2370753E-1,-7.676566E-1,3.6558786E-1,1.0320929E0,-1.7718267E-1,3.499321E-1,-4.5738626E-1,-9.285503E-1,5.2297276E-1,-1.6979459E-1,1.1135424E0,3.268683E-1,-5.2923614E-1,3.210659E-1,4.3178818E-1,-5.445069E-1,-1.169508E0,-3.2405654E-1,-1.1783597E0,-6.944243E-1,2.5591093E-1,7.3372936E-1,-7.1314204E-1,3.7251845E-1,8.612378E-1,1.2268773E0,-9.7567E-2,5.811219E-1,-6.704474E-1,4.5998015E-2,8.981694E-1,-7.011401E-1,2.3682885E-1,7.216427E-1,-7.7709496E-1,3.6238752E-2,-1.3652384E0,-2.695989E-1,-4.661492E-1,2.7673563E-1,-9.7425467E-1,-1.4936646E0,-5.020332E-1,-9.65426E-1,-3.9639533E-1,3.9485487E-1,9.409056E-1,4.4163725E-1,-8.8433665E-1,6.5474026E-2,5.728884E-1,-8.6121994E-1,6.751599E-2,9.373605E-1,1.2345909E0,1.5224337E-2,7.821643E-1,-3.7276945E-1,-8.280321E-1,3.1009993E-2,9.09795E-2,-1.3728605E-2,2.104129E-1,-1.0488594E-1,3.0840576E-1,-9.7693485E-1,2.9288003E-1,9.429079E-1,-1.1960156E0,2.5156813E-2,-1.5650948E0,-3.8756222E-1,-8.5174516E-2,5.791674E-1,-5.030123E-1,5.5833656E-2,5.6950137E-4,9.2848055E-2,-1.1164206E0,-1.9149743E-1,-1.550116E0,-2.997418E-1,-2.2914404E-1,-7.8459674E-1,-1.1600213E0,-6.25144E-1,-8.300418E-1,3.0088356E-1,7.4806523E-1,1.9232121E-1,-3.0365435E-2,9.8468256E-1,1.2234094E-1,7.943768E-1,-5.148915E-1,-1.3788928E0,6.5489197E-1,-6.2319487E-2,1.778491E-2,-1.06310084E-1,-5.282487E-2,6.030049E-1,1.9757573E-3,9.6494603E-1,1.2422771E0,3.2514486E-2,9.751377E-1,3.5492617E-1,3.1734064E-2,-7.288295E-2,-5.129816E-1,-1.2577097E0,6.1276466E-2,-3.955672E-2,6.637826E-2,8.890695E-1,-4.403713E-3,-1.0395457E-1,9.169269E-1,-1.8480498E-1,9.036308E-2,2.8930876E-1,-1.1789515E-1,-7.6792906E-3,-3.686669E-2,-1.6468369E0,1.9941898E-2,-5.9816796E-2,6.313957E-2,4.8554465E-3,-1.1559165E0,-4.3288493E-1,7.233315E-1,-4.8195338E-1,-1.2586652E-1,-9.4409174E-1,2.3293564E-1,-9.565652E-1,-1.2911949E0,-1.3708001E-1,1.6736608E-2,-5.1763784E-2,-4.583551E-1,3.0451712E-1,-9.897452E-1,2.2701913E-2,-2.6946327E-1,-1.2768066E0,-1.180355E0,-1.4627303E-1,-1.0699594E0,1.6480327E-1,7.753419E-1,-6.3709456E-1,-4.0102395E-1,8.491214E-1,4.932446E-1,-2.2395734E-1,9.3188636E-2,1.04219E0,-8.873348E-2,2.3405606E-1,3.4761316E-1,9.9288934E-1,-8.499655E-1,5.53116E-1,-1.1226048E-1,-1.6251966E-2,7.9193133E-1,-1.11430146E-1,-8.060457E-3,6.835931E-2,1.1889421E-1,1.0067832E0,1.2502686E0,3.2064643E-2,7.766706E-2,1.7576382E-2,7.3761326E-1,-3.415221E-2,-5.596982E-2,4.2306177E-2,-1.2021359E-1,-3.0059278E-2,1.2248793E-2,-6.5162405E-2,-3.2104746E-2,8.0359004E-2,-5.6896787E-3,8.553974E-2,-5.145131E-2,5.0267335E-2,5.906455E-2,-3.3167448E-2,-2.5132637E-2,-1.3132563E-1,-2.789698E-2,-1.1866762E-1,3.0270496E-3,-4.0764533E-2,-1.1701307E-2,7.8461245E-2,-6.569795E-2,3.0172542E-2,-4.3607153E-2,-9.778349E-2,-3.9558634E-2,9.868872E-2,-1.1243676E-1,2.0121973E-2,-1.08979024E-1,3.1610595E-3,-4.6204045E-2,2.6464751E-2,7.958704E-2,-1.9259846E-2,-9.340129E-2,-2.273874E-2,-5.6179218E-2,4.7399756E-2,-9.427659E-2,3.1232817E-2,-4.5266364E-2,-1.01879805E-1,-2.4725119E-2,-1.19788855E-1,1.6365176E-2,-8.323844E-2,-2.5904791E-2,-1.1478819E-1,-4.129676E-2,6.0736664E-2,8.396068E-2,1.1027822E-3,-9.52053E-2,2.4231674E-2,-7.0184104E-2,2.5171103E-2,1.0376706E-1,3.7243508E-2,4.3070257E-2,-7.250522E-2,-4.4809036E-2,3.9851267E-2,5.871219E-2,-4.3081418E-2,8.62532E-2,5.895582E-2,6.4222835E-2,-2.2622545E-3,5.5955593E-2,-1.8115008E-2,8.4910005E-2,3.4288518E-2,-9.71692E-2,2.75381E-6,-4.1914366E-2,7.2829604E-2,1.6890295E-2,7.335663E-2,-5.3326096E-2,6.716953E-2,5.3537976E-2,-3.4126673E-2,2.452975E-2,7.970321E-2,9.496745E-2,4.642289E-2,7.761861E-2,-8.061235E-3],"categories":[],"categories_nodes":[],"categories_segments":[],"categories_sizes":[],"default_left":[0,0,0,0,0,0,0,0,0,0,0,0,0,0,0,0,0,0,0,0,0,0,0,0,0,0,0,0,0,0,0,0,0,0,0,0,0,0,0,0,0,0,0,0,0,0,0,0,0,0,0,0,0,0,0,0,0,0,0,0,0,0,0,0,0,0,0,0,0,0,0,0,0,0,0,0,0,0,0,0,0,0,0,0,0,0,0,0,0,0,0,0,0,0,0,0,0,0,0,0,0,0,0,0,0,0,0,0,0,0,0,0,0,0,0,0,0,0,0,0,0,0,0,0,0,0,0,0,0,0,0,0,0,0,0,0,0,0,0,0,0,0,0,0,0,0,0,0,0,0,0,0,0,0,0,0,0,0,0,0,0,0,0,0,0,0,0,0,0,0,0,0,0,0,0,0,0,0,0,0,0,0,0,0,0,0,0,0,0,0,0,0,0,0,0,0,0,0,0,0,0,0,0,0,0,0,0,0,0,0,0,0,0,0,0,0,0,0,0,0,0,0,0,0,0,0,0,0,0,0,0,0,0,0,0,0,0,0,0,0,0,0,0,0,0,0,0,0,0,0,0,0,0,0,0,0,0,0,0,0,0,0,0,0,0,0,0,0,0,0,0,0,0],"id":5,"left_children":[1,3,5,7,9,11,13,15,17,19,21,23,25,27,29,31,33,35,37,39,41,43,45,47,49,51,53,55,57,-1,59,61,-1,63,65,67,69,71,-1,73,75,77,79,81,83,85,87,89,91,93,95,97,-1,99,101,103,105,107,-1,109,111,113,-1,-1,-1,115,-1,117,119,121,123,125,-1,127,129,-1,131,133,-1,135,-1,137,139,141,143,145,147,149,151,153,155,157,159,-1,161,163,165,167,169,171,-1,-1,-1,-1,173,-1,175,177,-1,179,181,-1,-1,183,185,-1,-1,187,189,-1,-1,191,193,-1,195,-1,-1,-1,197,-1,-1,-1,-1,199,201,203,205,-1,207,209,211,213,-1,-1,-1,215,217,219,221,223,225,227,229,231,233,235,237,239,241,243,245,247,249,-1,251,253,255,257,259,-1,-1,261,263,-1,-1,265,267,269,-1,-1,-1,271,-1,-1,-1,-1,-1,-1,-1,-1,-1,-1,-1,-1,-1,-1,-1,-1,-1,-1,-1,-1,-1,-1,-1,-1,-1,-1,-1,-1,-1,-1,-1,-1,-1,-1,-1,-1,-1,-1,-1,-1,-1,-1,-1,-1,-1,-1,-1,-1,-1,-1,-1,-1,-1,-1,-1,-1,-1,-1,-1,-1,-1,-1,-1,-1,-1,-1,-1,-1,-1,-1,-1,-1,-1,-1,-1,-1,-1,-1,-1,-1,-1,-1,-1,-1,-1,-1,-1,-1,-1,-1,-1],"loss_changes":[3.3264102E2,1.03613205E2,5.0194138E1,7.212096E0,2.0518326E1,2.6521278E1,9.897369E0,6.221574E0,8.127721E0,1.3410301E1,1.5282913E1,1.3471245E1,2.1487852E1,3.51091E0,8.99672E0,3.7337365E0,9.4234085E0,5.44162E0,2.6416156E0,3.59861E0,1.0690019E1,7.0237274E0,7.051605E0,9.997128E0,7.76001E0,1.0634119E1,9.566261E0,3.1309319E0,6.0128784E-1,0E0,3.7267747E0,3.554574E0,0E0,3.6151266E0,4.070448E0,5.5893817E0,3.4665737E0,4.1829166E0,0E0,2.9595604E0,4.5310125E0,4.855915E0,6.447341E0,9.006439E0,2.8983536E0,6.49901E0,3.1768875E0,6.165633E0,6.2952013E0,5.0030746E0,6.429164E0,5.370323E0,0E0,4.2480373E0,3.7131119E0,2.7823267E0,1.184948E0,1.1941528E-1,0E0,9.002714E-1,2.2205935E0,1.622529E0,0E0,0E0,0E0,1.9723793E0,0E0,8.125673E0,1.2821088E0,4.6049857E0,4.02927E0,2.3524847E0,0E0,4.913559E-1,1.3980498E0,0E0,3.946141E-1,3.9890175E0,0E0,7.2780275E0,0E0,5.1841507E0,4.750172E0,1.0475311E0,8.670398E-1,5.702081E0,7.0016937E0,3.433445E0,6.104005E0,3.1190052E0,4.1592417E0,4.1095123E0,7.445318E0,0E0,3.7983856E0,4.8849545E0,2.0803967E0,7.8579845E0,1.5440083E0,3.3393488E0,0E0,0E0,0E0,0E0,9.5405245E-1,0E0,1.5339851E0,1.5115356E-1,0E0,1.9782925E-1,2.281975E0,0E0,0E0,3.2737625E0,1.249816E0,0E0,0E0,3.9664295E0,4.55509E0,0E0,0E0,1.5559058E0,4.42835E0,0E0,3.4943602E0,0E0,0E0,0E0,1.2374153E0,0E0,0E0,0E0,0E0,2.3897676E0,4.741722E0,2.5347652E0,4.7127914E0,0E0,6.5191727E0,8.740322E0,3.8386316E0,6.0899315E0,0E0,0E0,0E0,4.338024E0,6.3306637E0,5.523155E0,4.9483004E0,4.2342825E0,9.292755E-1,3.299837E0,5.094561E0,2.8306398E0,1.9512333E0,1.533287E0,2.4230988E0,1.6151686E0,4.9943504E0,4.612445E0,7.442156E0,3.0752256E0,1.0649338E0,0E0,4.948407E0,2.51654E0,8.547001E-1,6.1016455E0,3.115486E0,0E0,0E0,2.5633678E0,4.001717E0,0E0,0E0,1.4636474E0,1.3396301E0,2.6200867E-1,0E0,0E0,0E0,1.2781427E0,0E0,0E0,0E0,0E0,0E0,0E0,0E0,0E0,0E0,0E0,0E0,0E0,0E0,0E0,0E0,0E0,0E0,0E0,0E0,0E0,0E0,0E0,0E0,0E0,0E0,0E0,0E0,0E0,0E0,0E0,0E0,0E0,0E0,0E0,0E0,0E0,0E0,0E0,0E0,0E0,0E0,0E0,0E0,0E0,0E0,0E0,0E0,0E0,0E0,0E0,0E0,0E0,0E0,0E0,0E0,0E0,0E0,0E0,0E0,0E0,0E0,0E0,0E0,0E0,0E0,0E0,0E0,0E0,0E0,0E0,0E0,0E0,0E0,0E0,0E0,0E0,0E0,0E0,0E0,0E0,0E0,0E0,0E0,0E0,0E0,0E0,0E0,0E0,0E0,0E0,0E0],"parents":[2147483647,0,0,1,1,2,2,3,3,4,4,5,5,6,6,7,7,8,8,9,9,10,10,11,11,12,12,13,13,14,14,15,15,16,16,17,17,18,18,19,19,20,20,21,21,22,22,23,23,24,24,25,25,26,26,27,27,28,28,30,30,31,31,33,33,34,34,35,35,36,36,37,37,39,39,40,40,41,41,42,42,43,43,44,44,45,45,46,46,47,47,48,48,49,49,50,50,51,51,53,53,54,54,55,55,56,56,57,57,59,59,60,60,61,61,65,65,67,67,68,68,69,69,70,70,71,71,73,73,74,74,76,76,77,77,79,79,81,81,82,82,83,83,84,84,85,85,86,86,87,87,88,88,89,89,90,90,91,91,92,92,94,94,95,95,96,96,97,97,98,98,99,99,104,104,106,106,107,107,109,109,110,110,113,113,114,114,117,117,118,118,121,121,122,122,124,124,128,128,133,133,134,134,135,135,136,136,138,138,139,139,140,140,141,141,145,145,146,146,147,147,148,148,149,149,150,150,151,151,152,152,153,153,154,154,155,155,156,156,157,157,158,158,159,159,160,160,161,161,162,162,164,164,165,165,166,166,167,167,168,168,171,171,172,172,175,175,176,176,177,177,181,181],"right_children":[2,4,6,8,10,12,14,16,18,20,22,24,26,28,30,32,34,36,38,40,42,44,46,48,50,52,54,56,58,-1,60,62,-1,64,66,68,70,72,-1,74,76,78,80,82,84,86,88,90,92,94,96,98,-1,100,102,104,106,108,-1,110,112,114,-1,-1,-1,116,-1,118,120,122,124,126,-1,128,130,-1,132,134,-1,136,-1,138,140,142,144,146,148,150,152,154,156,158,160,-1,162,164,166,168,170,172,-1,-1,-1,-1,174,-1,176,178,-1,180,182,-1,-1,184,186,-1,-1,188,190,-1,-1,192,194,-1,196,-1,-1,-1,198,-1,-1,-1,-1,200,202,204,206,-1,208,210,212,214,-1,-1,-1,216,218,220,222,224,226,228,230,232,234,236,238,240,242,244,246,248,250,-1,252,254,256,258,260,-1,-1,262,264,-1,-1,266,268,270,-1,-1,-1,272,-1,-1,-1,-1,-1,-1,-1,-1,-1,-1,-1,-1,-1,-1,-1,-1,-1,-1,-1,-1,-1,-1,-1,-1,-1,-1,-1,-1,-1,-1,-1,-1,-1,-1,-1,-1,-1,-1,-1,-1,-1,-1,-1,-1,-1,-1,-1,-1,-1,-1,-1,-1,-1,-1,-1,-1,-1,-1,-1,-1,-1,-1,-1,-1,-1,-1,-1,-1,-1,-1,-1,-1,-1,-1,-1,-1,-1,-1,-1,-1,-1,-1,-1,-1,-1,-1,-1,-1,-1,-1,-1],"split_conditions":[1.04E1,2.4E-1,1.1633333E1,2.35E1,3.05E-1,4.05E-1,4.95E-1,3.2E0,5.5E-1,2.4E-1,5.4E-1,1.09E1,5.9E-1,2.2E1,3.8E-1,6.2E-2,2.05E-1,4.9E-1,8E0,5.4E-1,9.95E0,4.5E-1,5.55E-1,1.55E1,7.1E0,9.4E0,4.2E0,1.1733334E1,1.56E1,-9.7567E-2,3.57E0,1.03E1,4.5998015E-2,3.32E0,5E-2,1.78E1,3.1E-1,3.09E0,3.6238752E-2,5.7E1,4.7E0,7.6E-1,4.35E1,3.25E0,1.05E1,2.35E1,9.733334E0,5.4E-1,3.9E-2,1E0,5.3E-1,5.95E-1,6.5474026E-2,3.6E0,3.2E-1,3.7E-2,2.96E0,8.6E0,1.5224337E-2,6.3E-1,8E-2,1.7E0,3.1009993E-2,9.09795E-2,-1.3728605E-2,3.1E-1,-1.0488594E-1,1.37E1,4.3E-2,4E1,1.3E1,5.6E-2,2.5156813E-2,3.6E-1,4.1E-1,-8.5174516E-2,9.6E0,8.9E0,5.5833656E-2,4.5E-2,9.2848055E-2,3.08E0,3.3E1,2.1E-1,4.25E1,6.8E-1,5.1E1,9.2E0,7.4E0,3.32E0,5.2E-1,2E1,2.45E-1,-3.0365435E-2,1.3E1,1.1E0,1.9E0,7.9E-2,1.03E-1,9.6E-2,-6.2319487E-2,1.778491E-2,-1.06310084E-1,-5.282487E-2,1E1,1.9757573E-3,2.2E-2,8.4E-1,3.2514486E-2,1.01E-1,3.45E0,3.1734064E-2,-7.288295E-2,1.0133333E1,4.8E-2,6.1276466E-2,-3.955672E-2,8.3E0,3.8E-1,-4.403713E-3,-1.0395457E-1,2.7E1,1.07E1,9.036308E-2,9.3E0,-1.1789515E-1,-7.6792906E-3,-3.686669E-2,1.4E0,1.9941898E-2,-5.9816796E-2,6.313957E-2,4.8554465E-3,3.4E-1,3.08E0,4.7E-1,3.31E0,-1.2586652E-1,3.16E0,5.8E0,1.17E1,1.8E-1,-1.3708001E-1,1.6736608E-2,-5.1763784E-2,1E1,7.8E-1,3.33E0,3.35E-1,6.3E-1,5.5E-1,6.4E-1,2.3E1,1.0533334E1,3.05E-1,3.3E0,1E1,3.5E-2,3.05E1,1.48E1,3.3E0,3.6E-2,1.1366667E1,-8.873348E-2,2.05E-1,4E-1,3.32E0,2.1E1,7.15E0,-1.1226048E-1,-1.6251966E-2,1.0533334E1,7.2E-1,-8.060457E-3,6.835931E-2,4.7E-1,1.5E0,3.5E0,3.2064643E-2,7.766706E-2,1.7576382E-2,1.2893333E1,-3.415221E-2,-5.596982E-2,4.2306177E-2,-1.2021359E-1,-3.0059278E-2,1.2248793E-2,-6.5162405E-2,-3.2104746E-2,8.0359004E-2,-5.6896787E-3,8.553974E-2,-5.145131E-2,5.0267335E-2,5.906455E-2,-3.3167448E-2,-2.5132637E-2,-1.3132563E-1,-2.789698E-2,-1.1866762E-1,3.0270496E-3,-4.0764533E-2,-1.1701307E-2,7.8461245E-2,-6.569795E-2,3.0172542E-2,-4.3607153E-2,-9.778349E-2,-3.9558634E-2,9.868872E-2,-1.1243676E-1,2.0121973E-2,-1.08979024E-1,3.1610595E-3,-4.6204045E-2,2.6464751E-2,7.958704E-2,-1.9259846E-2,-9.340129E-2,-2.273874E-2,-5.6179218E-2,4.7399756E-2,-9.427659E-2,3.1232817E-2,-4.5266364E-2,-1.01879805E-1,-2.4725119E-2,-1.19788855E-1,1.6365176E-2,-8.323844E-2,-2.5904791E-2,-1.1478819E-1,-4.129676E-2,6.0736664E-2,8.396068E-2,1.1027822E-3,-9.52053E-2,2.4231674E-2,-7.0184104E-2,2.5171103E-2,1.0376706E-1,3.7243508E-2,4.3070257E-2,-7.250522E-2,-4.4809036E-2,3.9851267E-2,5.871219E-2,-4.3081418E-2,8.62532E-2,5.895582E-2,6.4222835E-2,-2.2622545E-3,5.5955593E-2,-1.8115008E-2,8.4910005E-2,3.4288518E-2,-9.71692E-2,2.75381E-6,-4.1914366E-2,7.2829604E-2,1.6890295E-2,7.335663E-2,-5.3326096E-2,6.716953E-2,5.3537976E-2,-3.4126673E-2,2.452975E-2,7.970321E-2,9.496745E-2,4.642289E-2,7.761861E-2,-8.061235E-3],"split_indices":[8,1,8,5,1,1,1,3,2,2,7,8,7,5,7,4,1,7,0,7,8,1,1,5,0,3,3,8,3,0,6,8,0,6,4,3,2,6,0,5,3,7,5,6,3,5,8,7,4,3,7,1,0,6,2,4,6,0,0,1,2,3,0,0,0,2,0,3,4,5,3,4,0,7,7,0,3,8,0,4,0,6,5,2,5,7,5,8,0,6,2,5,1,0,5,3,3,4,4,4,0,0,0,0,5,0,4,7,0,4,3,0,0,8,4,0,0,0,7,0,0,5,3,0,8,0,0,0,3,0,0,0,0,2,6,7,6,0,6,3,3,2,0,0,0,0,7,6,1,1,7,1,5,8,1,6,0,4,5,3,6,4,8,0,1,2,6,5,0,0,0,8,7,0,0,7,3,6,0,0,0,8,0,0,0,0,0,0,0,0,0,0,0,0,0,0,0,0,0,0,0,0,0,0,0,0,0,0,0,0,0,0,0,0,0,0,0,0,0,0,0,0,0,0,0,0,0,0,0,0,0,0,0,0,0,0,0,0,0,0,0,0,0,0,0,0,0,0,0,0,0,0,0,0,0,0,0,0,0,0,0,0,0,0,0,0,0,0,0,0,0,0,0],"split_type":[0,0,0,0,0,0,0,0,0,0,0,0,0,0,0,0,0,0,0,0,0,0,0,0,0,0,0,0,0,0,0,0,0,0,0,0,0,0,0,0,0,0,0,0,0,0,0,0,0,0,0,0,0,0,0,0,0,0,0,0,0,0,0,0,0,0,0,0,0,0,0,0,0,0,0,0,0,0,0,0,0,0,0,0,0,0,0,0,0,0,0,0,0,0,0,0,0,0,0,0,0,0,0,0,0,0,0,0,0,0,0,0,0,0,0,0,0,0,0,0,0,0,0,0,0,0,0,0,0,0,0,0,0,0,0,0,0,0,0,0,0,0,0,0,0,0,0,0,0,0,0,0,0,0,0,0,0,0,0,0,0,0,0,0,0,0,0,0,0,0,0,0,0,0,0,0,0,0,0,0,0,0,0,0,0,0,0,0,0,0,0,0,0,0,0,0,0,0,0,0,0,0,0,0,0,0,0,0,0,0,0,0,0,0,0,0,0,0,0,0,0,0,0,0,0,0,0,0,0,0,0,0,0,0,0,0,0,0,0,0,0,0,0,0,0,0,0,0,0,0,0,0,0,0,0,0,0,0,0,0,0,0,0,0,0,0,0,0,0,0,0,0,0],"sum_hessian":[1.049169E3,5.588274E2,4.903415E2,1.4030008E2,4.1852734E2,3.1269733E2,1.7764418E2,3.3500027E1,1.0680005E2,1.4423148E2,2.7429587E2,2.4167575E2,7.102157E1,1.5873248E2,1.8911701E1,1.9593454E1,1.3906573E1,9.8319435E1,8.480613E0,2.1520061E1,1.22711426E2,1.3075208E2,1.435438E2,1.0757524E2,1.3410051E2,3.53196E1,3.570197E1,5.1866676E1,1.0686581E2,1.9987772E0,1.6912924E1,1.7805946E1,1.787508E0,8.966007E0,4.9405665E0,5.9868366E1,3.8451065E1,7.114332E0,1.3662807E0,1.7250898E1,4.2691617E0,9.942147E1,2.3289951E1,8.1855034E1,4.889704E1,8.561558E1,5.792821E1,1.8564896E1,8.9010345E1,7.715468E1,5.6945827E1,3.2278194E1,3.0414047E0,3.1174591E1,4.5273786E0,4.70414E0,4.7162537E1,1.05862495E2,1.0033158E0,1.4117537E1,2.7953873E0,1.5751926E1,2.054019E0,6.8492985E0,2.1167085E0,2.4440274E0,2.4965394E0,5.7238842E1,2.6295247E0,1.3879454E1,2.4571613E1,5.1137066E0,2.0006254E0,1.3824141E1,3.4267583E0,1.9457506E0,2.3234112E0,9.7050735E1,2.3707337E0,1.8869337E1,4.4206142E0,6.8912704E1,1.2942329E1,4.6404587E1,2.4924536E0,4.4474632E1,4.114095E1,3.5320602E1,2.2607609E1,1.1328905E1,7.2359905E0,3.1457039E1,5.7553303E1,2.1708393E0,7.498384E1,3.0596771E1,2.6349058E1,1.9644447E1,1.2633747E1,2.9958086E1,1.2165054E0,1.7148919E0,2.8124866E0,1.7976795E0,2.9064605E0,1.4435627E0,4.571897E1,1.0431084E2,1.5516531E0,8.84158E0,5.275956E0,1.3265016E0,1.4688857E0,1.0353994E1,5.397932E0,1.2823958E0,1.1616317E0,4.118624E1,1.6052599E1,1.1629603E0,1.4665644E0,5.619121E0,8.260332E0,1.6939592E1,7.63202E0,3.4801033E0,1.6336035E0,1.4743708E0,1.234977E1,1.4566345E0,1.9701239E0,1.116679E0,1.2067322E0,7.911311E0,8.913943E1,7.3543425E0,1.1514994E1,1.4125263E1,5.478744E1,8.771655E0,4.1706743E0,2.6934761E1,1.9469826E1,1.2486559E0,1.2437975E0,3.1210587E1,1.3264045E1,3.2624504E1,8.516442E0,4.478291E0,3.084231E1,9.79095E0,1.2816659E1,9.066837E0,2.2620683E0,4.9204597E0,2.3155308E0,2.3029E0,2.9154139E1,3.329779E1,2.4255514E1,4.7026525E0,7.028119E1,1.6559237E0,2.8940847E1,8.95236E0,1.7396698E1,1.5108502E1,4.535946E0,1.1208642E1,1.4251052E0,2.5385115E1,4.572971E0,1.0770954E0,1.8293651E0,2.335299E0,4.3383675E1,1.02768295E2,1.542547E0,7.806882E0,1.0346985E0,3.6444356E0,1.6315203E0,8.763112E0,1.5908823E0,3.2275202E0,2.170412E0,3.80659E1,3.1203425E0,1.7886136E0,1.4263986E1,1.1543913E0,4.46473E0,5.3322825E0,2.9280496E0,4.494498E0,3.1375225E0,1.2188419E0,1.1130928E1,3.4463375E0,4.464974E0,1.7011595E1,7.212783E1,2.113614E0,5.2407284E0,7.9720516E0,3.5429425E0,2.8583755E1,2.6203686E1,5.4545784E0,3.317077E0,2.7351193E0,1.435555E0,2.3938953E1,2.9958076E0,2.6332247E1,4.87834E0,5.269864E0,7.9941807E0,2.3180552E1,9.443954E0,3.6560962E0,4.860346E0,1.4942364E0,2.9840546E0,4.2413797E0,2.6600931E1,3.8087528E0,5.9821973E0,9.860452E0,2.9562078E0,4.2035494E0,4.863288E0,1.1418848E0,1.1201835E0,3.0629413E0,1.8575182E0,1.2019608E0,1.11357E0,1.1776409E0,1.125259E0,1.0425275E1,1.8728863E1,3.212177E1,1.1760223E0,1.6369738E1,7.885775E0,2.2282622E0,2.47439E0,4.699888E1,2.3282309E1,7.9581566E0,2.098269E1,5.181534E0,3.7708259E0,1.2924076E1,4.472622E0,9.568096E0,5.5404058E0,1.1470306E0,3.3889153E0,6.823064E0,1.8562052E1,3.0505881E0,1.5223826E0,1.0269334E0,1.3083656E0,3.818783E0,3.956489E1,9.9252655E1,3.515636E0,2.5298376E0,1.1145979E0],"tree_param":{"num_deleted":"0","num_feature":"9","num_nodes":"273","size_leaf_vector":"1"}},{"base_weights":[7.2972295E-3,-4.8391554E-1,5.7791793E-1,1.9115912E-3,-8.133773E-1,3.4409308E-1,9.942499E-1,2.7473107E-1,-2.973476E-1,-1.027835E0,-6.13583E-1,4.9382165E-1,-1.6010824E-1,1.0752434E0,3.0785286E-1,1.7332459E-2,5.278354E-1,1.6657531E-1,-5.34031E-1,-1.4006047E0,-8.999824E-1,3.0646616E-1,-6.8084496E-1,2.3903106E-1,6.97701E-1,-6.630643E-1,3.4871116E-1,8.235294E-1,1.1901038E0,-9.299545E-2,5.534669E-1,-3.2453904E-1,4.7406924E-1,7.7693826E-1,8.493418E-2,8.45343E-1,-1.6555412E-1,-1.2684004E0,-2.6163486E-1,-5.081672E-1,-1.4608319E0,-4.1512284E-1,-1.0337337E0,8.6526805E-1,-6.16615E-1,-7.529975E-1,-2.0173876E-2,-3.7258005E-1,3.7045562E-1,9.008542E-1,4.1651478E-1,-8.220595E-1,6.293121E-2,5.411211E-1,-8.0447525E-1,6.4532936E-2,8.980911E-1,1.1969862E0,2.0655882E-2,7.492072E-1,-3.556683E-1,-9.76729E-2,-1.929348E-1,-3.0141938E-1,7.213602E-1,9.76313E-1,1.7514618E-1,-6.3955814E-1,5.958421E-1,1.0043195E0,-1.7090483E-2,-1.2984408E0,4.806615E-2,-6.246114E-1,-1.5967722E0,3.1879757E-2,-8.571642E-1,-8.6764544E-2,2.607601E-2,-3.8487613E-2,-1.1207666E-1,-5.974867E-1,7.3281184E-2,-8.9122176E-1,-1.3538399E0,5.4900534E-3,1.0883925E0,3.9265394E-2,-1.1422955E-1,-6.477036E-1,-1.1813725E0,4.175498E-1,-7.9637206E-1,-1.076547E0,2.536619E-2,7.090228E-1,1.7876227E-1,-2.8703352E-2,9.4411665E-1,2.1815602E-1,9.5679116E-1,-4.7994938E-1,-1.2760142E0,7.1742606E-1,-1.6498166E-1,1.3810418E-2,-1.14885814E-1,-5.6636566E-1,5.018939E-2,6.7439723E-1,1.0857182E0,1.2123781E0,5.550155E-1,4.3894693E-1,1.0291901E0,3.057404E-2,-6.927108E-2,1.8767306E-1,-4.4985387E-1,3.1425798E-1,-7.8814715E-2,1.7372116E-1,1.0025413E0,-2.2006728E-2,1.0583884E0,-7.134412E-2,4.7596678E-1,-1.1810563E0,7.1635835E-2,-4.320278E-2,8.3058894E-1,1.1386864E0,5.6290196E-4,-1.1217072E-1,-3.2918435E-2,-8.5592484E-1,3.4311363E-1,-9.6771336E-1,6.057367E-2,-1.3749069E-1,-7.0675343E-1,-5.160303E-1,3.6368582E-1,-1.100016E0,5.379794E-1,5.6806866E-2,-7.138009E-1,-9.61413E-1,2.118288E-1,-4.7997996E-1,-1.4422153E0,9.921225E-2,3.987754E-3,-8.7686884E-1,-3.7981933E-1,1.3169329E-2,-1.2516313E0,-1.4876099E-1,1.0299139E0,-1.0519495E0,1.1921091E-2,-1.05848856E-1,7.011627E-5,-8.8567376E-1,3.760927E-1,-3.8355872E-1,8.0745584E-1,4.6200207E-1,-2.0634657E-1,8.941603E-2,1.0010257E0,-5.013956E-1,3.6252627E-1,1.0762796E0,3.8962924E-1,-7.905281E-1,5.2371436E-1,-1.0375894E-1,-1.5510364E-2,1.208246E0,3.447075E-1,-8.4474176E-2,4.6526605E-1,-5.6371972E-2,6.064559E-2,2.610253E-2,-8.802851E-2,8.3415985E-1,